%YAML:1.0
---
opencv_ml_svm:
   format: 3
   svmType: C_SVC
   kernel:
      type: RBF
      gamma: 5.0625000000000009e-01
   C: 1.2500000000000000e+01
   term_criteria: { epsilon:1.1920928955078125e-07, iterations:1000 }
   var_count: 324
   class_count: 2
   class_labels: !!opencv-matrix
      rows: 2
      cols: 1
      dt: i
      data: [ -1, 1 ]
   sv_total: 304
   support_vectors:
      - [ 1.44996732e-01, 2.00773999e-01, 2.18129233e-01, 2.18129233e-01,
          2.18129233e-01, 1.73016027e-01, 2.18129233e-01, 1.52316615e-01,
          1.19662158e-01, 8.61960575e-02, 7.30395615e-02, 1.07087173e-01,
          1.32278800e-01, 1.76426470e-01, 2.18129233e-01, 2.18129233e-01,
          2.08599791e-01, 1.17950283e-01, 5.88232540e-02, 1.10174663e-01,
          2.18129233e-01, 2.18129233e-01, 2.18129233e-01, 1.43853560e-01,
          9.90361869e-02, 7.12442696e-02, 5.45842536e-02, 1.21854991e-01,
          1.11264400e-01, 1.79563552e-01, 1.58083409e-01, 1.51483595e-01,
          2.13062897e-01, 2.18129233e-01, 1.86148018e-01, 1.46061167e-01,
          8.22914019e-02, 7.65864924e-02, 8.46559182e-02, 1.24026090e-01,
          1.57541201e-01, 1.91024706e-01, 2.12399274e-01, 2.05566585e-01,
          1.31877065e-01, 1.45662025e-01, 2.04370737e-01, 1.50133044e-01,
          2.08276615e-01, 1.83878183e-01, 1.82907477e-01, 2.11188540e-01,
          2.12399274e-01, 1.51767775e-01, 1.68970510e-01, 1.22574508e-01,
          1.14425555e-01, 8.48136768e-02, 9.77625325e-02, 1.75529495e-01,
          2.12399274e-01, 2.12399274e-01, 2.11517841e-01, 1.43987536e-01,
          1.34938061e-01, 8.89216959e-02, 7.89688304e-02, 1.34410530e-01,
          2.12399274e-01, 2.12399274e-01, 2.12399274e-01, 2.04971656e-01,
          1.48257867e-01, 1.75132990e-01, 1.22203864e-01, 1.62725031e-01,
          1.46931857e-01, 1.56595781e-01, 2.10499659e-01, 2.11633682e-01,
          1.47346616e-01, 1.74198672e-01, 1.24275893e-01, 1.21209756e-01,
          1.45460695e-01, 1.42501980e-01, 1.57825455e-01, 2.11633682e-01,
          2.11633682e-01, 2.07578778e-01, 1.01570413e-01, 9.50075835e-02,
          6.53257295e-02, 8.86696875e-02, 1.46674469e-01, 2.11633682e-01,
          2.11633682e-01, 2.11633682e-01, 1.40032053e-01, 1.67613283e-01,
          1.52950749e-01, 1.17080249e-01, 1.41439423e-01, 1.82481170e-01,
          2.11633682e-01, 2.11633682e-01, 2.09389046e-01, 1.68797553e-01,
          4.74912077e-02, 7.80510530e-02, 1.61661968e-01, 2.18476459e-01,
          2.26464659e-01, 1.75820947e-01, 1.19976863e-01, 7.13592544e-02,
          5.17834611e-02, 8.89564455e-02, 8.79197419e-02, 1.53012842e-01,
          1.67627677e-01, 2.07405955e-01, 2.26464659e-01, 2.08267793e-01,
          1.46193728e-01, 1.17711104e-01, 1.43095374e-01, 1.35192379e-01,
          1.58396378e-01, 1.97261766e-01, 2.10194662e-01, 1.97122961e-01,
          2.26464659e-01, 1.63112506e-01, 1.55441493e-01, 1.05911613e-01,
          9.94434953e-02, 1.11792848e-01, 1.62620857e-01, 2.26464659e-01,
          2.26464659e-01, 2.26464659e-01, 2.26464659e-01, 1.34350970e-01,
          1.93299592e-01, 1.44007936e-01, 1.36563644e-01, 1.10347785e-01,
          1.29088596e-01, 1.96349815e-01, 2.25552350e-01, 2.25552350e-01,
          2.25552350e-01, 1.61813632e-01, 1.43804103e-01, 1.17459990e-01,
          9.96652618e-02, 1.44326866e-01, 1.83935180e-01, 2.24240050e-01,
          2.25552350e-01, 2.06626281e-01, 1.27573714e-01, 1.09369323e-01,
          1.04185529e-01, 1.24282919e-01, 1.56194463e-01, 2.25552350e-01,
          2.25552350e-01, 2.25552350e-01, 1.39960095e-01, 1.69799700e-01,
          1.74088523e-01, 1.64081499e-01, 1.75697699e-01, 1.30890146e-01,
          1.10175923e-01, 1.24815941e-01, 9.87836272e-02, 9.58443135e-02,
          8.84286314e-02, 9.30245891e-02, 1.08958796e-01, 1.39127821e-01,
          1.67981014e-01, 2.09323525e-01, 2.09323525e-01, 1.81429133e-01,
          1.10432319e-01, 1.71994939e-01, 1.92246392e-01, 1.86185166e-01,
          1.93975180e-01, 2.09323525e-01, 2.09323525e-01, 2.09323525e-01,
          1.86135486e-01, 1.51801288e-01, 1.29526466e-01, 1.45866588e-01,
          1.76002473e-01, 1.89246953e-01, 1.29698023e-01, 1.14077404e-01,
          1.03687659e-01, 6.72185346e-02, 9.46942940e-02, 1.91983715e-01,
          1.75251558e-01, 1.99920535e-01, 1.60570189e-01, 1.40458286e-01,
          1.91692621e-01, 2.09323525e-01, 1.65363953e-01, 2.03463838e-01,
          1.81633294e-01, 1.58690125e-01, 1.32279471e-01, 1.24210082e-01,
          1.37640372e-01, 1.42410472e-01, 1.71972424e-01, 1.77932709e-01,
          2.07845479e-01, 1.14000991e-01, 1.03647031e-01, 1.28198981e-01,
          1.54913962e-01, 1.85455590e-01, 2.11037263e-01, 2.11037263e-01,
          2.11037263e-01, 1.41112179e-01, 1.79943413e-01, 1.83359772e-01,
          1.27679244e-01, 1.20833203e-01, 1.51569247e-01, 1.43554285e-01,
          1.49708882e-01, 1.76240757e-01, 2.04362422e-01, 1.58248916e-01,
          1.20914578e-01, 1.39212742e-01, 1.46584123e-01, 1.90707579e-01,
          1.89458668e-01, 2.11037263e-01, 2.11037263e-01, 1.82902783e-01,
          1.46334618e-01, 1.10474020e-01, 1.10815771e-01, 1.09964989e-01,
          1.25735223e-01, 1.90274671e-01, 2.11917832e-01, 2.11917832e-01,
          1.54618204e-01, 2.02813104e-01, 1.72136307e-01, 1.54544696e-01,
          1.63458765e-01, 9.76810157e-02, 8.80690664e-02, 9.72654447e-02,
          1.06916025e-01, 1.22758612e-01, 2.03745618e-01, 1.40430331e-01,
          1.76843941e-01, 1.81181327e-01, 2.01850593e-01, 1.90500140e-01,
          2.11917832e-01, 2.11917832e-01, 2.11917832e-01, 1.83440134e-01,
          1.22566096e-01, 1.50424674e-01, 2.11917832e-01, 2.11917832e-01,
          1.65557668e-01, 1.30211174e-01, 1.53242379e-01, 1.82935521e-01,
          2.15724930e-01, 2.15724930e-01, 2.15724930e-01, 2.15724930e-01,
          1.65028453e-01, 1.17614917e-01, 1.05715863e-01, 9.92263258e-02,
          1.57702699e-01, 2.15724930e-01, 1.74169898e-01, 1.86034724e-01,
          1.31434366e-01, 1.25916258e-01, 1.38450861e-01, 1.84487164e-01,
          2.15724930e-01, 2.15724930e-01, 1.97964519e-01, 1.49113104e-01,
          1.49531901e-01, 2.06626996e-01, 2.15724930e-01, 1.76092461e-01,
          1.31942093e-01, 1.23492755e-01, 1.57184869e-01, 1.99519292e-01,
          1.32918715e-01, 1.23584576e-01, 1.06820770e-01, 1.09247074e-01,
          1.22276448e-01, 1.16458163e-01, 1.24418527e-01, 1.79905862e-01 ]
      - [ 1.79741234e-01, 1.59034371e-01, 1.65302455e-01, 1.45140156e-01,
          1.82994276e-01, 2.01611876e-01, 1.99689507e-01, 1.82106704e-01,
          1.79036990e-01, 1.86202943e-01, 1.75961345e-01, 1.76522747e-01,
          1.29092470e-01, 1.36425704e-01, 1.49721637e-01, 1.84747383e-01,
          2.01056942e-01, 1.91129297e-01, 1.45629823e-01, 1.55358151e-01,
          1.87508151e-01, 1.89053535e-01, 1.96854115e-01, 1.75281227e-01,
          1.43907368e-01, 1.33499295e-01, 1.31403372e-01, 1.79518744e-01,
          1.19653590e-01, 1.14312753e-01, 1.33394703e-01, 1.30167842e-01,
          1.16854884e-01, 1.49167538e-01, 2.01611876e-01, 1.86478317e-01,
          1.25383392e-01, 1.35933265e-01, 1.71445966e-01, 1.79636240e-01,
          2.09421560e-01, 1.87173203e-01, 1.88288599e-01, 1.82113647e-01,
          1.53777137e-01, 1.53775528e-01, 1.20884620e-01, 1.22688040e-01,
          1.58987552e-01, 2.09421560e-01, 2.09421560e-01, 2.09421560e-01,
          1.91251561e-01, 1.66002125e-01, 1.53635249e-01, 1.03121303e-01,
          7.63504207e-02, 9.54808593e-02, 1.38486952e-01, 1.59547567e-01,
          1.95199594e-01, 2.09421560e-01, 2.09421560e-01, 1.64849654e-01,
          1.19798407e-01, 1.00651443e-01, 1.04660183e-01, 1.62294179e-01,
          1.83591381e-01, 1.63052306e-01, 2.09421560e-01, 2.09421560e-01,
          1.68293208e-01, 1.38818115e-01, 1.44991562e-01, 1.59505457e-01,
          1.64735168e-01, 1.87562093e-01, 2.01760277e-01, 1.91578165e-01,
          1.90581635e-01, 2.03573138e-01, 1.70335799e-01, 1.75245076e-01,
          1.68320745e-01, 1.82398826e-01, 1.56773567e-01, 1.50973424e-01,
          1.65592238e-01, 1.80859268e-01, 1.68166995e-01, 1.47585258e-01,
          1.44618362e-01, 1.30081668e-01, 1.33196220e-01, 1.33626431e-01,
          1.34155467e-01, 1.50576219e-01, 1.88875318e-01, 2.03573138e-01,
          1.83381900e-01, 1.49214551e-01, 1.31373823e-01, 1.37157261e-01,
          1.37632310e-01, 1.58937976e-01, 1.96715951e-01, 2.03573138e-01,
          1.55664548e-01, 1.69249818e-01, 1.97133601e-01, 2.10742101e-01,
          2.10742101e-01, 2.10742101e-01, 1.50594011e-01, 1.41308397e-01,
          1.40729159e-01, 1.43732145e-01, 1.00393496e-01, 1.04856424e-01,
          1.87637344e-01, 2.05697119e-01, 1.39904022e-01, 1.08187214e-01,
          1.36438847e-01, 1.35834888e-01, 1.97914243e-01, 1.97546944e-01,
          1.52139544e-01, 1.74830347e-01, 2.10742101e-01, 2.06974611e-01,
          1.85690507e-01, 1.97196901e-01, 1.72353640e-01, 1.95681706e-01,
          1.21893719e-01, 8.55666324e-02, 1.05032787e-01, 1.34284154e-01,
          1.35685220e-01, 1.36725113e-01, 1.72012568e-01, 2.10742101e-01,
          1.80134103e-01, 1.30349576e-01, 1.20390579e-01, 1.39956713e-01,
          1.16911538e-01, 1.16886608e-01, 1.40994683e-01, 2.27680832e-01,
          2.27680832e-01, 2.01470837e-01, 1.48696631e-01, 1.49059892e-01,
          1.48174718e-01, 1.30243778e-01, 1.12739772e-01, 1.52324259e-01,
          2.27680832e-01, 2.27680832e-01, 2.22786620e-01, 1.38345942e-01,
          1.37006089e-01, 1.25251308e-01, 1.24654189e-01, 1.41422376e-01,
          1.36944368e-01, 2.27680832e-01, 2.27680832e-01, 1.73389673e-01,
          1.15375124e-01, 1.34632945e-01, 1.45547524e-01, 1.29854769e-01,
          1.24831907e-01, 1.40985608e-01, 2.27680832e-01, 2.27680832e-01,
          1.48270696e-01, 1.38418555e-01, 1.24872796e-01, 1.03502810e-01,
          9.92095247e-02, 8.61583874e-02, 1.13524966e-01, 1.93412662e-01,
          1.99838310e-01, 2.12895557e-01, 2.12895557e-01, 1.73552707e-01,
          1.27010018e-01, 1.46977559e-01, 1.81562841e-01, 2.12895557e-01,
          2.12895557e-01, 2.12895557e-01, 1.04119897e-01, 1.05754316e-01,
          1.44436881e-01, 1.53188169e-01, 1.38479784e-01, 1.17506191e-01,
          9.58171785e-02, 1.45380542e-01, 1.72224477e-01, 1.34339541e-01,
          1.55626163e-01, 2.12895557e-01, 2.12895557e-01, 2.12895557e-01,
          2.12895557e-01, 2.12895557e-01, 2.12895557e-01, 1.48165867e-01,
          1.95010141e-01, 1.70477688e-01, 1.30457982e-01, 9.39453468e-02,
          1.09866910e-01, 1.39271811e-01, 1.43200830e-01, 1.68037772e-01,
          1.87754959e-01, 2.12120697e-01, 1.58937648e-01, 1.26151904e-01,
          7.66723454e-02, 6.94846064e-02, 1.17243148e-01, 1.35208055e-01,
          1.93166077e-01, 2.12120697e-01, 2.12120697e-01, 2.12120697e-01,
          2.12120697e-01, 1.30213603e-01, 1.10216625e-01, 1.40026361e-01,
          1.49033085e-01, 1.80024430e-01, 2.12120697e-01, 2.12120697e-01,
          2.12120697e-01, 2.12120697e-01, 1.62081271e-01, 1.28818721e-01,
          1.55320495e-01, 1.63187936e-01, 1.60153717e-01, 2.01749131e-01,
          2.23009810e-01, 1.16001055e-01, 9.31564942e-02, 6.01728670e-02,
          6.27003759e-02, 1.05866015e-01, 1.30199209e-01, 2.23009810e-01,
          2.23009810e-01, 2.21191362e-01, 1.03023231e-01, 7.77056292e-02,
          7.04905093e-02, 6.92256540e-02, 8.58501419e-02, 1.33983999e-01,
          2.23009810e-01, 2.23009810e-01, 2.23009810e-01, 1.70708895e-01,
          1.78707376e-01, 1.43793225e-01, 1.38187140e-01, 1.63364723e-01,
          1.81261972e-01, 1.93465874e-01, 2.23009810e-01, 1.97868511e-01,
          1.52772203e-01, 1.53980076e-01, 1.78538844e-01, 1.72605440e-01,
          1.24047078e-01, 1.74881518e-01, 2.23009810e-01, 2.23009810e-01,
          1.33279726e-01, 1.07546732e-01, 1.57139882e-01, 1.26507193e-01,
          1.00660712e-01, 9.06125531e-02, 1.13631457e-01, 1.83655381e-01,
          2.03745589e-01, 1.21557467e-01, 1.38590470e-01, 2.03745589e-01,
          1.90885201e-01, 1.61204010e-01, 1.93741903e-01, 2.03745589e-01,
          2.02746615e-01, 1.59634650e-01, 1.44958407e-01, 1.72776833e-01,
          1.84144795e-01, 1.58606678e-01, 1.33672744e-01, 9.62767825e-02,
          1.54846027e-01, 2.02013835e-01, 1.98222235e-01, 1.94115564e-01,
          2.03745589e-01, 2.00500205e-01, 1.41205326e-01, 1.37050048e-01,
          1.41333297e-01, 2.03745589e-01, 2.00311497e-01, 1.92376867e-01 ]
      - [ 8.05483088e-02, 8.10534582e-02, 9.66955200e-02, 1.45457909e-01,
          2.22598702e-01, 2.22598702e-01, 1.70699894e-01, 1.10938862e-01,
          1.02598757e-01, 8.08391944e-02, 1.32884890e-01, 1.63902953e-01,
          2.22598702e-01, 2.22598702e-01, 2.22598702e-01, 1.39141247e-01,
          1.03952371e-01, 1.18168116e-01, 1.40580118e-01, 1.48595586e-01,
          1.37403503e-01, 1.47223771e-01, 1.77089006e-01, 2.22598702e-01,
          2.08631068e-01, 1.70683339e-01, 1.55250639e-01, 1.44817933e-01,
          2.22598702e-01, 2.22598702e-01, 2.22598702e-01, 1.96141809e-01,
          1.71260417e-01, 1.31898716e-01, 1.33541331e-01, 1.63010433e-01,
          8.61886889e-02, 1.22338086e-01, 1.62687004e-01, 2.17427298e-01,
          2.17427298e-01, 2.17427298e-01, 1.31011203e-01, 1.15509972e-01,
          1.14068910e-01, 1.35492429e-01, 1.24287277e-01, 1.41526297e-01,
          1.62871167e-01, 2.04169363e-01, 2.04237476e-01, 1.45017743e-01,
          1.51748583e-01, 1.73160240e-01, 1.92114055e-01, 2.17427298e-01,
          2.17427298e-01, 2.17427298e-01, 1.66443244e-01, 1.23026162e-01,
          8.39161575e-02, 9.79210436e-02, 1.55163616e-01, 2.17427298e-01,
          1.90711066e-01, 2.06219494e-01, 1.48607850e-01, 1.33629650e-01,
          1.47495568e-01, 1.03482269e-01, 1.33012325e-01, 2.17427298e-01,
          1.38469115e-01, 1.12981357e-01, 1.29096970e-01, 1.37279883e-01,
          1.41420782e-01, 1.89668208e-01, 2.07101673e-01, 1.98825002e-01,
          2.09801152e-01, 1.85079768e-01, 1.30813196e-01, 1.18030123e-01,
          1.30951837e-01, 1.58915639e-01, 1.90485477e-01, 2.09801152e-01,
          2.09801152e-01, 2.09801152e-01, 1.45040438e-01, 1.19118109e-01,
          1.33641377e-01, 1.77194774e-01, 1.39283255e-01, 1.57120705e-01,
          1.30662307e-01, 1.88720301e-01, 2.09801152e-01, 1.25955701e-01,
          1.25853598e-01, 1.30735502e-01, 1.79597929e-01, 1.83539733e-01,
          2.03072697e-01, 1.43029422e-01, 1.78426594e-01, 1.96113139e-01,
          1.26829609e-01, 1.57808796e-01, 1.61708415e-01, 1.75756648e-01,
          1.69749722e-01, 1.40871584e-01, 1.41203344e-01, 1.37794435e-01,
          1.18384972e-01, 1.65439218e-01, 2.14087263e-01, 2.21196249e-01,
          2.21196249e-01, 1.54235587e-01, 1.03803746e-01, 9.32592005e-02,
          1.08243890e-01, 1.35896251e-01, 1.58528402e-01, 1.57578528e-01,
          1.73612133e-01, 1.93479568e-01, 1.77436545e-01, 1.92373395e-01,
          2.01243788e-01, 1.58171117e-01, 1.48415655e-01, 1.90767616e-01,
          1.50662377e-01, 2.12834835e-01, 2.21196249e-01, 1.85763270e-01,
          1.96048886e-01, 1.56924963e-01, 9.61672366e-02, 1.41232833e-01,
          2.33807519e-01, 2.33807519e-01, 2.33807519e-01, 2.33807519e-01,
          8.44460949e-02, 7.12672025e-02, 6.68754131e-02, 1.03102766e-01,
          2.16306329e-01, 2.33807519e-01, 1.97653159e-01, 2.33807519e-01,
          1.99270651e-01, 1.12692922e-01, 9.50350240e-02, 4.59635146e-02,
          6.95982575e-02, 1.59432679e-01, 2.33807519e-01, 2.31624320e-01,
          1.73407197e-01, 1.93859085e-01, 8.16911310e-02, 1.01851247e-01,
          8.41005445e-02, 6.82859272e-02, 2.27425084e-01, 2.33807519e-01,
          2.26694137e-01, 1.59769922e-01, 1.16232820e-01, 1.12214714e-01,
          5.65314703e-02, 3.34535465e-02, 4.01456580e-02, 2.06398740e-01,
          9.02133435e-02, 1.12853698e-01, 2.11471438e-01, 2.11471438e-01,
          1.84204757e-01, 1.32737786e-01, 8.22208002e-02, 9.81049687e-02,
          1.16753466e-01, 1.15345381e-01, 1.38388455e-01, 1.94731176e-01,
          2.11471438e-01, 1.99115127e-01, 1.92353189e-01, 1.75955579e-01,
          1.84786141e-01, 1.44699186e-01, 1.96077213e-01, 1.55734852e-01,
          2.04119176e-01, 2.11471438e-01, 2.11471438e-01, 1.05719544e-01,
          5.93551025e-02, 4.58714552e-02, 9.42515060e-02, 1.77576423e-01,
          2.11471438e-01, 2.11471438e-01, 2.11471438e-01, 1.96454629e-01,
          1.45273253e-01, 2.01783910e-01, 1.65528148e-01, 1.23356856e-01,
          1.56968489e-01, 1.89261183e-01, 1.94483206e-01, 1.70316264e-01,
          1.30688548e-01, 1.90777391e-01, 2.04359546e-01, 1.47195250e-01,
          1.35693789e-01, 2.04423234e-01, 1.38517871e-01, 1.22546315e-01,
          1.87818483e-01, 1.51220426e-01, 2.04423234e-01, 2.04423234e-01,
          1.24352627e-01, 1.67259991e-01, 1.21024683e-01, 1.77931622e-01,
          1.73990265e-01, 1.60411984e-01, 1.37166321e-01, 1.92472652e-01,
          2.04423234e-01, 1.40999541e-01, 9.76587981e-02, 1.64937362e-01,
          1.63266927e-01, 1.47454038e-01, 1.68403700e-01, 1.52828217e-01,
          1.81815073e-01, 2.04423234e-01, 1.62389711e-01, 1.27596751e-01,
          2.28203446e-01, 2.28203446e-01, 1.03597522e-01, 1.05307683e-01,
          8.91791359e-02, 1.49840996e-01, 1.38827771e-01, 9.28237885e-02,
          2.28203446e-01, 2.28203446e-01, 2.28203446e-01, 1.14173822e-01,
          8.00075978e-02, 8.98817629e-02, 9.34428051e-02, 8.62529352e-02,
          6.31133243e-02, 2.28203446e-01, 2.23879308e-01, 1.78458616e-01,
          1.46503836e-01, 1.72544628e-01, 1.60080656e-01, 2.09670141e-01,
          1.98152125e-01, 1.53508455e-01, 1.63437709e-01, 1.99394986e-01,
          1.76286057e-01, 1.31793335e-01, 1.59053519e-01, 1.51102513e-01,
          2.28203446e-01, 1.93629444e-01, 1.20922081e-01, 1.56885237e-01,
          2.13871405e-01, 2.13871405e-01, 1.88524589e-01, 1.56192362e-01,
          1.46497503e-01, 9.96076316e-02, 9.62687209e-02, 6.65025041e-02,
          1.42119795e-01, 2.13871405e-01, 2.13871405e-01, 2.13871405e-01,
          2.13871405e-01, 1.67565510e-01, 1.13714635e-01, 1.63084432e-01,
          1.33268863e-01, 1.36500850e-01, 1.63677201e-01, 1.78407729e-01,
          1.51256591e-01, 1.69986635e-01, 1.47248477e-01, 1.65287375e-01,
          1.70362651e-01, 1.18938096e-01, 1.22905627e-01, 2.09730208e-01,
          2.13871405e-01, 1.98717728e-01, 2.13871405e-01, 1.63634643e-01,
          1.34367123e-01, 1.55253410e-01, 1.27652600e-01, 1.27868474e-01 ]
      - [ 2.02556729e-01, 2.08839536e-01, 2.08839536e-01, 1.21399038e-01,
          1.17273852e-01, 2.08839536e-01, 1.75432503e-01, 1.72180012e-01,
          1.86085448e-01, 1.92125216e-01, 2.07013294e-01, 2.08839536e-01,
          2.02524647e-01, 1.34933308e-01, 1.59316838e-01, 1.25292256e-01,
          1.15517952e-01, 1.85499698e-01, 1.68422997e-01, 1.71976686e-01,
          2.02156603e-01, 1.69435382e-01, 1.58329293e-01, 2.08839536e-01,
          1.88516960e-01, 1.09893747e-01, 1.86891362e-01, 1.20881751e-01,
          9.89193618e-02, 1.15575075e-01, 1.46249205e-01, 1.19850375e-01,
          1.41047373e-01, 1.32768899e-01, 1.20978124e-01, 1.63256526e-01,
          1.93147436e-01, 1.71419635e-01, 1.81710273e-01, 2.19070151e-01,
          1.73293129e-01, 1.38784900e-01, 1.45313933e-01, 1.54529572e-01,
          2.16473013e-01, 1.87727839e-01, 1.99624762e-01, 2.19070151e-01,
          2.19070151e-01, 2.19070151e-01, 2.19070151e-01, 1.72709748e-01,
          1.75080806e-01, 1.61896124e-01, 1.12928718e-01, 7.38648400e-02,
          6.57798573e-02, 1.10755831e-01, 9.69773307e-02, 9.99478176e-02,
          1.40747115e-01, 1.59339070e-01, 1.74422115e-01, 8.30503032e-02,
          8.09223950e-02, 1.18189663e-01, 1.52414888e-01, 1.63532600e-01,
          1.72170028e-01, 2.19070151e-01, 2.19070151e-01, 1.49593189e-01,
          1.84253648e-01, 1.91163048e-01, 2.09786922e-01, 2.09786922e-01,
          2.09786922e-01, 1.45526692e-01, 1.18662938e-01, 1.34704486e-01,
          1.26596615e-01, 2.09786922e-01, 2.09786922e-01, 1.87833846e-01,
          1.13205150e-01, 9.31008682e-02, 1.06027789e-01, 1.24710254e-01,
          1.61356941e-01, 2.00173780e-01, 1.00226492e-01, 8.08963701e-02,
          9.52116624e-02, 1.12807147e-01, 1.42686456e-01, 1.57181516e-01,
          2.09371746e-01, 2.09786922e-01, 1.74156010e-01, 1.56380147e-01,
          2.09786922e-01, 2.02418685e-01, 1.50650471e-01, 1.58555478e-01,
          1.78766966e-01, 1.86141565e-01, 1.77785009e-01, 1.76496103e-01,
          9.06305015e-02, 7.34614730e-02, 1.23041891e-01, 1.76293582e-01,
          2.60315835e-01, 2.60315835e-01, 2.60315835e-01, 1.33159190e-01,
          1.40710875e-01, 7.54176751e-02, 5.86794354e-02, 8.64300951e-02,
          1.68650061e-01, 2.59580314e-01, 1.72804907e-01, 1.89328760e-01,
          1.50336564e-01, 1.13259323e-01, 3.85465026e-02, 2.95675490e-02,
          2.74973009e-02, 1.60185128e-01, 2.60315835e-01, 2.60315835e-01,
          2.60315835e-01, 1.32363141e-01, 8.79222006e-02, 1.10658653e-01,
          9.77943614e-02, 7.15568215e-02, 7.94566274e-02, 1.76542252e-01,
          2.08636671e-01, 2.45214745e-01, 1.68778315e-01, 1.71199694e-01,
          9.43308324e-02, 5.34883775e-02, 9.25107822e-02, 1.66521892e-01,
          1.70695513e-01, 1.22172683e-01, 1.98817357e-01, 1.88971132e-01,
          1.48959741e-01, 1.84332535e-01, 1.06774181e-01, 1.43599242e-01,
          1.48518220e-01, 1.66795388e-01, 1.76407441e-01, 2.31644630e-01,
          2.34994873e-01, 2.28052944e-01, 2.33022064e-01, 1.99220061e-01,
          1.59309253e-01, 1.04272410e-01, 8.14620033e-02, 6.59113973e-02,
          1.29603967e-01, 1.69229135e-01, 2.28194728e-01, 2.34994873e-01,
          2.34994873e-01, 1.94707394e-01, 1.22521609e-01, 8.65682438e-02,
          5.89698814e-02, 8.78970027e-02, 1.55593306e-01, 2.34994873e-01,
          1.41812608e-01, 8.70195553e-02, 7.74449110e-02, 7.49865100e-02,
          1.03550009e-01, 1.19351916e-01, 1.59336939e-01, 2.09720775e-01,
          2.06870824e-01, 1.59974098e-01, 2.09162265e-01, 1.91212073e-01,
          1.81358859e-01, 2.09720775e-01, 2.02909768e-01, 2.09720775e-01,
          1.76794663e-01, 1.89821362e-01, 2.09720775e-01, 2.09720775e-01,
          1.23658992e-01, 8.46614093e-02, 5.82325123e-02, 4.59538773e-02,
          7.04576075e-02, 1.61337063e-01, 2.09720775e-01, 2.09720775e-01,
          2.04309523e-01, 2.07613170e-01, 2.04634562e-01, 1.57184988e-01,
          1.01945497e-01, 1.08194925e-01, 1.83980405e-01, 2.09720775e-01,
          4.37788554e-02, 5.04816137e-02, 7.39005208e-02, 1.76692024e-01,
          2.31996641e-01, 2.31996641e-01, 2.31996641e-01, 1.38569742e-01,
          6.86828345e-02, 9.26974118e-02, 1.61689937e-01, 2.11614639e-01,
          8.23248178e-02, 8.95882100e-02, 1.41254693e-01, 2.31996641e-01,
          1.92088634e-01, 1.14497349e-01, 1.34960249e-01, 1.20363586e-01,
          1.97238877e-01, 2.01843500e-01, 2.26017952e-01, 1.98059246e-01,
          2.15065107e-01, 1.29657209e-01, 1.40187964e-01, 1.16305523e-01,
          2.31996641e-01, 2.31996641e-01, 2.06283808e-01, 1.47999793e-01,
          1.18065193e-01, 1.85369015e-01, 1.57378584e-01, 9.47279036e-02,
          2.18745366e-01, 2.61678398e-01, 2.61678398e-01, 1.01859570e-01,
          5.05135432e-02, 3.84883359e-02, 6.27981499e-02, 1.06882796e-01,
          1.27273411e-01, 2.61678398e-01, 2.61678398e-01, 2.18503147e-01,
          1.18228883e-01, 7.31659830e-02, 4.96551730e-02, 3.77701223e-02,
          8.99111107e-02, 1.67548940e-01, 1.46237135e-01, 2.61678398e-01,
          2.61678398e-01, 2.10507423e-01, 1.17202900e-01, 5.84807619e-02,
          4.57449518e-02, 6.02442995e-02, 5.60156628e-02, 2.04786345e-01,
          2.61678398e-01, 2.61678398e-01, 2.37123623e-01, 1.87938541e-01,
          1.19311631e-01, 4.84702587e-02, 4.52072173e-02, 6.93065673e-02,
          2.21161038e-01, 2.21161038e-01, 1.58752039e-01, 1.30203009e-01,
          1.06129974e-01, 7.75818005e-02, 7.73215070e-02, 1.76876739e-01,
          2.21161038e-01, 2.21161038e-01, 2.19559118e-01, 1.93400890e-01,
          1.89527571e-01, 1.46557540e-01, 9.95157138e-02, 1.02312058e-01,
          2.11817950e-01, 2.21161038e-01, 1.83251530e-01, 1.42070964e-01,
          1.54140085e-01, 1.89610511e-01, 2.07097128e-01, 1.67044416e-01,
          1.10036030e-01, 1.12973101e-01, 1.13003619e-01, 1.62288487e-01,
          1.02286555e-01, 1.23171516e-01, 1.92302048e-01, 2.08702385e-01,
          1.33381352e-01, 1.33857161e-01, 1.65150344e-01, 1.75720856e-01 ]
      - [ 1.81214020e-01, 1.39724687e-01, 1.64708853e-01, 1.40678495e-01,
          1.91053525e-01, 2.06855580e-01, 2.06477106e-01, 1.73927188e-01,
          1.85594931e-01, 1.91379130e-01, 1.71404943e-01, 1.78502142e-01,
          1.32608235e-01, 1.29151285e-01, 1.37688637e-01, 1.90262243e-01,
          2.06855580e-01, 2.06855580e-01, 1.79758772e-01, 1.55721262e-01,
          1.72348201e-01, 1.65918931e-01, 1.86120018e-01, 1.95384011e-01,
          1.30271912e-01, 1.16796382e-01, 1.74266621e-01, 1.72785074e-01,
          9.64162350e-02, 1.13785505e-01, 1.13853492e-01, 1.16615675e-01,
          9.87992734e-02, 1.32554442e-01, 2.06855580e-01, 2.06855580e-01,
          1.45746231e-01, 1.38917625e-01, 1.78127155e-01, 1.87470362e-01,
          2.12005988e-01, 1.63319901e-01, 1.69004932e-01, 2.16744617e-01,
          1.56729415e-01, 1.57371044e-01, 1.15977108e-01, 1.20588012e-01,
          1.64795846e-01, 2.16744617e-01, 2.16744617e-01, 1.62489429e-01,
          1.87840089e-01, 1.38756350e-01, 1.61631405e-01, 7.32170790e-02,
          8.22878554e-02, 9.31620970e-02, 1.39813021e-01, 1.26240313e-01,
          1.73090979e-01, 2.16744617e-01, 2.16744617e-01, 2.08181918e-01,
          1.07597977e-01, 8.06996524e-02, 9.97239053e-02, 1.93079978e-01,
          1.77921429e-01, 1.52573004e-01, 2.16744617e-01, 2.16744617e-01,
          1.46684751e-01, 1.42224506e-01, 1.27975523e-01, 1.31638125e-01,
          1.87774196e-01, 2.04050779e-01, 1.50871724e-01, 2.04050779e-01,
          1.66403934e-01, 2.04050779e-01, 1.81750685e-01, 1.62782848e-01,
          1.45268232e-01, 1.60784796e-01, 1.70175999e-01, 1.34836540e-01,
          1.73613608e-01, 1.87900975e-01, 1.65444151e-01, 1.59240544e-01,
          1.16133824e-01, 1.18549846e-01, 1.84184417e-01, 1.53025314e-01,
          1.27601549e-01, 1.93048969e-01, 2.04050779e-01, 1.86989754e-01,
          1.89702615e-01, 1.46534219e-01, 1.22449972e-01, 1.50562286e-01,
          1.47201404e-01, 1.58067852e-01, 2.04050779e-01, 2.04050779e-01,
          1.74627036e-01, 1.96836457e-01, 1.82832345e-01, 2.14285478e-01,
          2.14285478e-01, 2.14285478e-01, 1.27783969e-01, 1.29883170e-01,
          1.70757920e-01, 1.30083933e-01, 9.56852138e-02, 1.07899494e-01,
          1.31724641e-01, 1.77125275e-01, 1.12431422e-01, 8.07310790e-02,
          1.57963634e-01, 1.66708633e-01, 2.14285478e-01, 2.14285478e-01,
          1.73821166e-01, 1.60491198e-01, 2.14285478e-01, 1.49096087e-01,
          1.51806995e-01, 2.00843379e-01, 2.14285478e-01, 2.14285478e-01,
          1.42088115e-01, 8.49372372e-02, 8.06998014e-02, 1.07103780e-01,
          9.14236531e-02, 1.41333669e-01, 2.14285478e-01, 2.14285478e-01,
          1.48636639e-01, 9.58935469e-02, 1.31937087e-01, 1.51204899e-01,
          1.31802693e-01, 8.81024972e-02, 1.05942428e-01, 2.36222789e-01,
          2.36222789e-01, 2.21062884e-01, 1.35387391e-01, 1.32006481e-01,
          1.41869202e-01, 1.26967072e-01, 1.01285346e-01, 1.37420043e-01,
          2.36222789e-01, 2.36222789e-01, 2.18087226e-01, 1.25709772e-01,
          1.13252744e-01, 1.19187243e-01, 1.15731888e-01, 1.06295571e-01,
          1.72151908e-01, 2.36222789e-01, 2.36222789e-01, 2.14892879e-01,
          1.20402075e-01, 1.26095384e-01, 1.43095091e-01, 1.15677632e-01,
          1.20952554e-01, 1.53329030e-01, 2.36222789e-01, 2.36222789e-01,
          1.47483394e-01, 1.30580902e-01, 1.01941712e-01, 1.03076920e-01,
          1.17397912e-01, 8.65118280e-02, 1.06109723e-01, 2.06781298e-01,
          2.09907398e-01, 2.07432464e-01, 2.09907398e-01, 1.54195413e-01,
          1.23718508e-01, 1.62406012e-01, 1.46213531e-01, 2.04461172e-01,
          2.09907398e-01, 2.09907398e-01, 1.15750626e-01, 1.17216580e-01,
          1.74182013e-01, 1.71556652e-01, 1.47400886e-01, 1.38328388e-01,
          9.60027799e-02, 1.43251285e-01, 1.57679841e-01, 1.39012724e-01,
          1.80623144e-01, 2.09907398e-01, 1.98837087e-01, 2.09907398e-01,
          2.09907398e-01, 2.09907398e-01, 2.09907398e-01, 1.43952295e-01,
          2.17563793e-01, 1.74431518e-01, 1.28313437e-01, 9.19115767e-02,
          1.05609186e-01, 9.16986242e-02, 1.24956012e-01, 1.69468760e-01,
          2.17563793e-01, 2.17563793e-01, 1.56331748e-01, 9.57393050e-02,
          5.88527545e-02, 5.82660474e-02, 6.73788786e-02, 1.53966337e-01,
          2.17563793e-01, 2.17563793e-01, 2.17563793e-01, 2.17563793e-01,
          1.93538874e-01, 1.32705003e-01, 1.17479086e-01, 8.61766934e-02,
          1.11031227e-01, 2.06806704e-01, 2.17563793e-01, 2.17563793e-01,
          2.17563793e-01, 2.12546289e-01, 1.26461446e-01, 1.05154447e-01,
          1.16544694e-01, 1.63896754e-01, 2.12471887e-01, 2.17563793e-01,
          2.35680059e-01, 1.21679291e-01, 6.35538027e-02, 4.55159210e-02,
          4.14847918e-02, 5.26280142e-02, 1.53536916e-01, 2.35680059e-01,
          2.35680059e-01, 2.35680059e-01, 1.25253767e-01, 7.28707835e-02,
          7.27305636e-02, 4.91384789e-02, 5.39736561e-02, 1.40948609e-01,
          2.35680059e-01, 2.35680059e-01, 2.35680059e-01, 1.69316232e-01,
          1.48574635e-01, 1.20048530e-01, 9.49980617e-02, 1.11034356e-01,
          1.82111248e-01, 2.25319982e-01, 2.35680059e-01, 2.02620193e-01,
          1.60007387e-01, 1.45707011e-01, 1.86734200e-01, 1.17282733e-01,
          8.35193172e-02, 1.66736290e-01, 2.35680059e-01, 2.35680059e-01,
          1.44317687e-01, 1.38127118e-01, 1.82204381e-01, 1.33374095e-01,
          9.32334587e-02, 1.01923160e-01, 1.19565785e-01, 1.86662734e-01,
          2.05012873e-01, 1.18249148e-01, 1.66962743e-01, 2.05012873e-01,
          1.66123137e-01, 1.49365574e-01, 2.05012873e-01, 2.05012873e-01,
          1.91216961e-01, 1.41764015e-01, 1.47005945e-01, 1.82577103e-01,
          1.86414316e-01, 1.60191253e-01, 1.05002210e-01, 1.06177293e-01,
          1.59520596e-01, 1.96777418e-01, 1.97467849e-01, 1.62242308e-01,
          2.05012873e-01, 1.99094459e-01, 1.38631478e-01, 1.30325913e-01,
          1.50127843e-01, 2.00996041e-01, 2.05012873e-01, 1.79745480e-01 ]
      - [ 1.67705923e-01, 2.22446203e-01, 2.22446203e-01, 2.22446203e-01,
          1.85322896e-01, 1.19858615e-01, 1.35776460e-01, 8.98648128e-02,
          8.96817967e-02, 1.13821201e-01, 1.53130502e-01, 1.93152443e-01,
          1.90012604e-01, 1.70222640e-01, 1.95484161e-01, 2.22446203e-01,
          1.36084586e-01, 1.12414263e-01, 6.69873729e-02, 1.26686051e-01,
          2.22446203e-01, 2.22446203e-01, 2.07636327e-01, 1.11840054e-01,
          6.80857077e-02, 4.21616249e-02, 4.37445156e-02, 1.42786562e-01,
          1.64001420e-01, 2.21751958e-01, 2.17602134e-01, 1.93387359e-01,
          1.92873359e-01, 2.01638222e-01, 1.16692498e-01, 1.55444697e-01,
          1.16254628e-01, 1.42036676e-01, 1.28649339e-01, 1.28753707e-01,
          1.41298309e-01, 1.72772154e-01, 2.06773311e-01, 1.59163475e-01,
          1.44175068e-01, 1.71138898e-01, 2.06773311e-01, 1.95343196e-01,
          2.06773311e-01, 1.78344607e-01, 1.59615040e-01, 1.80277824e-01,
          1.50274411e-01, 1.39564231e-01, 1.87939763e-01, 1.78838581e-01,
          1.47402078e-01, 1.10585049e-01, 1.08954012e-01, 1.58702090e-01,
          1.81003481e-01, 1.75355509e-01, 2.06773311e-01, 1.73877925e-01,
          1.88181162e-01, 1.17133662e-01, 1.14952482e-01, 1.13001063e-01,
          1.71531618e-01, 2.06773311e-01, 2.06773311e-01, 2.06773311e-01,
          1.57242775e-01, 2.04028606e-01, 1.52460247e-01, 2.04028606e-01,
          1.43759608e-01, 1.36873856e-01, 1.65571854e-01, 1.44128785e-01,
          1.32496551e-01, 1.83548689e-01, 1.98715553e-01, 1.57019779e-01,
          1.63836330e-01, 1.26134321e-01, 1.36692837e-01, 1.69185996e-01,
          2.04028606e-01, 2.04028606e-01, 1.07712597e-01, 1.20374799e-01,
          8.89938623e-02, 9.85206068e-02, 1.36320740e-01, 1.76784322e-01,
          2.04028606e-01, 2.04028606e-01, 1.36781007e-01, 1.90522403e-01,
          2.04028606e-01, 1.65155560e-01, 1.53643087e-01, 1.52952418e-01,
          1.80743232e-01, 2.04028606e-01, 1.76674768e-01, 1.92900658e-01,
          6.27178922e-02, 1.00199074e-01, 1.91466138e-01, 2.14549258e-01,
          2.02261090e-01, 1.45715982e-01, 9.17286947e-02, 6.49033487e-02,
          5.33781424e-02, 9.19110402e-02, 9.93156061e-02, 1.58454344e-01,
          1.94054827e-01, 2.14549258e-01, 2.13808447e-01, 1.40494779e-01,
          9.17554870e-02, 1.01906009e-01, 2.14549258e-01, 2.14549258e-01,
          2.10143492e-01, 2.14549258e-01, 1.78757131e-01, 1.71778038e-01,
          1.53990671e-01, 1.42597303e-01, 1.99225128e-01, 1.38469025e-01,
          1.52079239e-01, 1.49817914e-01, 1.59396112e-01, 2.14549258e-01,
          2.14549258e-01, 2.14549258e-01, 1.73325434e-01, 1.62679017e-01,
          1.69680133e-01, 1.45267338e-01, 1.57474965e-01, 1.52247503e-01,
          1.73610106e-01, 2.07121417e-01, 1.65804997e-01, 1.77374110e-01,
          2.13045672e-01, 1.45456463e-01, 1.37956411e-01, 1.30338088e-01,
          1.28693789e-01, 1.07326433e-01, 1.35297298e-01, 1.79898918e-01,
          2.13045672e-01, 2.13045672e-01, 1.33631155e-01, 1.10852301e-01,
          1.34390563e-01, 1.46998301e-01, 2.03917339e-01, 2.13045672e-01,
          2.13045672e-01, 1.85556576e-01, 1.93863183e-01, 1.91838264e-01,
          2.13045672e-01, 2.13045672e-01, 1.93231434e-01, 8.98704305e-02,
          7.55100325e-02, 8.23150501e-02, 1.05361439e-01, 1.58595800e-01,
          9.36406404e-02, 1.02458149e-01, 1.44589514e-01, 1.27276510e-01,
          1.35235414e-01, 1.39196038e-01, 1.94941014e-01, 2.07533836e-01,
          1.29732028e-01, 2.07533836e-01, 2.07533836e-01, 2.07533836e-01,
          2.06987903e-01, 1.87335461e-01, 2.06229433e-01, 2.07533836e-01,
          1.82517469e-01, 1.64287925e-01, 1.57308310e-01, 2.07533836e-01,
          2.07533836e-01, 1.93290666e-01, 9.99274477e-02, 6.85733110e-02,
          6.71996102e-02, 6.65425882e-02, 9.43330750e-02, 2.01592967e-01,
          2.07533836e-01, 2.07533836e-01, 1.88547701e-01, 1.38631672e-01,
          1.35065898e-01, 1.33347332e-01, 1.49135694e-01, 1.79835573e-01,
          2.09946543e-01, 2.09946543e-01, 1.64918110e-01, 1.22199520e-01,
          1.12334110e-01, 1.05032444e-01, 1.13058388e-01, 1.39148921e-01,
          2.09946543e-01, 1.57519817e-01, 1.63869023e-01, 1.61161602e-01,
          1.32764146e-01, 1.83731183e-01, 1.93753183e-01, 1.95550218e-01,
          1.56543776e-01, 1.68396920e-01, 2.09946543e-01, 2.09946543e-01,
          1.65495306e-01, 1.07606515e-01, 1.13748558e-01, 1.02096871e-01,
          1.26301333e-01, 1.36368662e-01, 2.04100117e-01, 1.79426655e-01,
          1.56817913e-01, 1.60121024e-01, 1.33373335e-01, 1.68834284e-01,
          1.81797579e-01, 2.09946543e-01, 2.09946543e-01, 1.82928890e-01,
          1.31459028e-01, 1.20087035e-01, 1.33336008e-01, 1.25071883e-01,
          1.50784582e-01, 1.76191553e-01, 1.95218951e-01, 1.86859295e-01,
          2.00109676e-01, 1.63598388e-01, 2.01740324e-01, 1.93147197e-01,
          2.06952736e-01, 8.86640996e-02, 8.49524438e-02, 8.92731920e-02,
          1.05379663e-01, 1.48323923e-01, 1.79184362e-01, 1.67094663e-01,
          2.06952736e-01, 1.87632635e-01, 1.84143528e-01, 1.82782009e-01,
          2.06952736e-01, 2.06952736e-01, 2.06952736e-01, 1.27494216e-01,
          1.35649323e-01, 1.93410531e-01, 2.06952736e-01, 1.75369531e-01,
          1.19881593e-01, 1.31191209e-01, 1.40630215e-01, 1.77002013e-01,
          2.29562432e-01, 2.29562432e-01, 2.29562432e-01, 2.29562432e-01,
          1.22400925e-01, 8.54939520e-02, 7.97206163e-02, 8.26032013e-02,
          1.50235936e-01, 2.29562432e-01, 2.29562432e-01, 1.89448565e-01,
          1.52723476e-01, 1.04895025e-01, 1.04246683e-01, 1.19743481e-01,
          1.66469127e-01, 2.29562432e-01, 1.63705602e-01, 1.73397020e-01,
          1.89091787e-01, 2.29562432e-01, 1.58207998e-01, 1.16662420e-01,
          1.37314409e-01, 1.30833194e-01, 1.68274745e-01, 2.08765879e-01,
          1.89005822e-01, 1.59835160e-01, 1.29629105e-01, 1.12523139e-01,
          1.02753140e-01, 1.10747747e-01, 1.08541690e-01, 1.74538866e-01 ]
      - [ 2.30704263e-01, 2.26232439e-01, 1.23411089e-01, 1.03596427e-01,
          1.11393206e-01, 1.48942947e-01, 1.88935220e-01, 2.27090076e-01,
          2.30704263e-01, 2.30704263e-01, 2.23441467e-01, 1.11272439e-01,
          1.07691072e-01, 1.40231982e-01, 1.73354566e-01, 1.21742561e-01,
          1.56814694e-01, 2.30704263e-01, 2.30704263e-01, 2.30704263e-01,
          1.80534765e-01, 1.12146251e-01, 8.92686695e-02, 9.04765055e-02,
          1.26686484e-01, 1.22253440e-01, 2.16788143e-01, 2.30704263e-01,
          2.30704263e-01, 1.36894271e-01, 8.57414901e-02, 6.82326630e-02,
          7.46448264e-02, 7.04048872e-02, 8.25585946e-02, 1.49844319e-01,
          2.56372780e-01, 1.96121782e-01, 1.13539383e-01, 1.09970093e-01,
          1.36134610e-01, 1.69365555e-01, 1.56281918e-01, 2.56372780e-01,
          2.56372780e-01, 2.56372780e-01, 1.11553542e-01, 6.03263266e-02,
          6.32153302e-02, 6.62801489e-02, 8.13544244e-02, 1.61222056e-01,
          2.56372780e-01, 2.56372780e-01, 2.56372780e-01, 2.56372780e-01,
          9.76029932e-02, 7.00268447e-02, 6.10155202e-02, 6.73668236e-02,
          6.87811598e-02, 1.11498550e-01, 1.99938625e-01, 2.56372780e-01,
          1.24793358e-01, 5.22072129e-02, 4.90871221e-02, 5.09919859e-02,
          7.15706721e-02, 1.00541458e-01, 1.72119960e-01, 2.56372780e-01,
          2.26645038e-01, 1.57458350e-01, 1.08048849e-01, 8.38408321e-02,
          6.89087361e-02, 7.13077262e-02, 1.35727018e-01, 2.05216378e-01,
          2.26645038e-01, 2.26645038e-01, 2.25321040e-01, 2.09848404e-01,
          1.42348781e-01, 1.10376641e-01, 1.10744424e-01, 2.26645038e-01,
          2.26645038e-01, 2.26645038e-01, 2.24100485e-01, 1.56115279e-01,
          6.88133761e-02, 5.27050421e-02, 3.64836603e-02, 5.83782829e-02,
          9.66211334e-02, 1.57068595e-01, 2.26645038e-01, 2.26645038e-01,
          2.26645038e-01, 1.65434301e-01, 1.26551494e-01, 8.71026590e-02,
          7.03300461e-02, 1.47409871e-01, 1.84496969e-01, 2.22494185e-01,
          2.23021075e-01, 2.23021075e-01, 2.23021075e-01, 1.68802828e-01,
          1.50469527e-01, 9.82624739e-02, 1.06580108e-01, 1.40216738e-01,
          1.73077121e-01, 2.23021075e-01, 2.23021075e-01, 2.22803369e-01,
          1.43784910e-01, 9.36232954e-02, 6.23676851e-02, 7.64939710e-02,
          1.54758692e-01, 1.99765354e-01, 1.56958848e-01, 1.58107609e-01,
          1.28819615e-01, 1.27417937e-01, 2.19622940e-01, 1.98020115e-01,
          1.84784696e-01, 1.98747382e-01, 1.37288958e-01, 2.23021075e-01,
          2.23021075e-01, 1.66907832e-01, 8.49706233e-02, 5.63351661e-02,
          4.64340635e-02, 8.22606310e-02, 1.71898156e-01, 1.89813584e-01,
          2.56773353e-01, 2.56773353e-01, 1.49464175e-01, 9.10832211e-02,
          6.53038546e-02, 6.48207888e-02, 6.56752139e-02, 1.12561055e-01,
          1.82826608e-01, 2.56773353e-01, 2.56773353e-01, 1.31894961e-01,
          6.89708143e-02, 6.44047409e-02, 1.06675580e-01, 1.15737297e-01,
          1.69973448e-01, 2.52363473e-01, 2.56773353e-01, 2.56773353e-01,
          1.65215269e-01, 6.31865263e-02, 3.71673852e-02, 3.34783792e-02,
          5.28917201e-02, 1.08839147e-01, 2.24425063e-01, 2.56773353e-01,
          2.56773353e-01, 2.56773353e-01, 7.81400800e-02, 4.70451601e-02,
          4.75337654e-02, 4.88968454e-02, 9.09668878e-02, 2.25456029e-01,
          2.53323287e-01, 2.53323287e-01, 1.11840211e-01, 5.15585765e-02,
          3.23326737e-02, 6.62000626e-02, 9.37824547e-02, 1.44436538e-01,
          2.32575044e-01, 2.53323287e-01, 2.53323287e-01, 2.02794746e-01,
          1.37072295e-01, 6.96449429e-02, 5.34624420e-02, 8.13065842e-02,
          1.41853303e-01, 1.91958740e-01, 2.53323287e-01, 2.53323287e-01,
          2.53323287e-01, 1.15589872e-01, 3.43779139e-02, 2.71823779e-02,
          2.56159883e-02, 6.27202168e-02, 1.81404933e-01, 2.53323287e-01,
          2.53323287e-01, 2.53323287e-01, 2.09542632e-01, 4.42301892e-02,
          2.70734485e-02, 4.31766063e-02, 5.81747890e-02, 1.24776207e-01,
          9.39043686e-02, 9.52326730e-02, 7.66146109e-02, 8.83362219e-02,
          1.79032281e-01, 1.86169133e-01, 2.31672198e-01, 2.31672198e-01,
          1.20316215e-01, 1.75034389e-01, 2.31672198e-01, 1.02686353e-01,
          3.81497815e-02, 3.11550926e-02, 3.34343500e-02, 6.82824478e-02,
          1.30399495e-01, 9.74385738e-02, 2.31672198e-01, 1.69685140e-01,
          1.79661363e-01, 1.79413512e-01, 1.80810243e-01, 1.91912636e-01,
          2.31672198e-01, 2.31672198e-01, 2.31672198e-01, 2.16142252e-01,
          1.68185100e-01, 1.47567824e-01, 1.60093859e-01, 1.26730219e-01,
          1.23383336e-01, 1.28117129e-01, 2.31672198e-01, 2.16294348e-01,
          2.56138057e-01, 2.56138057e-01, 1.86020464e-01, 4.30479348e-02,
          2.04637684e-02, 1.61847193e-02, 2.60565355e-02, 5.35940230e-02,
          1.18661664e-01, 2.56138057e-01, 2.56138057e-01, 2.56138057e-01,
          1.01951547e-01, 3.21812928e-02, 1.80960111e-02, 2.02917811e-02,
          3.73643711e-02, 1.12332448e-01, 2.56138057e-01, 2.56138057e-01,
          1.96817651e-01, 1.04719721e-01, 8.59280154e-02, 7.25662410e-02,
          6.54215440e-02, 1.28615528e-01, 2.27635041e-01, 2.56138057e-01,
          2.56138057e-01, 2.56138057e-01, 1.85436293e-01, 1.21725135e-01,
          6.42254055e-02, 7.05883726e-02, 1.27771750e-01, 2.25368366e-01,
          2.09698498e-01, 2.71013707e-01, 2.71013707e-01, 2.39243597e-01,
          5.33449501e-02, 2.56173424e-02, 1.28124524e-02, 1.94882173e-02,
          6.45499974e-02, 1.03035435e-01, 2.44392157e-01, 2.71013707e-01,
          2.71013707e-01, 5.71982078e-02, 3.88108157e-02, 4.51461077e-02,
          4.35153283e-02, 5.39644584e-02, 1.98045880e-01, 2.71013707e-01,
          2.71013707e-01, 2.71013707e-01, 1.76467106e-01, 8.89305174e-02,
          6.26581758e-02, 5.95882945e-02, 1.06071144e-01, 1.03016280e-01,
          1.25287756e-01, 2.71013707e-01, 2.54499674e-01, 1.07331790e-01,
          7.10987523e-02, 4.57840860e-02, 5.45771979e-02, 9.26621631e-02 ]
      - [ 1.81093574e-01, 1.92714393e-01, 2.14410469e-01, 1.39649287e-01,
          1.12679921e-01, 1.28187791e-01, 1.36008680e-01, 1.50105447e-01,
          1.63711786e-01, 1.72884762e-01, 1.56326279e-01, 1.38921410e-01,
          9.86482054e-02, 7.44490772e-02, 8.37644115e-02, 1.21156164e-01,
          2.14410469e-01, 2.14410469e-01, 2.14410469e-01, 2.14410469e-01,
          2.14410469e-01, 1.29697323e-01, 1.30112305e-01, 1.53534070e-01,
          2.06072077e-01, 2.14410469e-01, 2.14410469e-01, 2.03800976e-01,
          1.30316392e-01, 1.06925517e-01, 9.54169482e-02, 1.27517208e-01,
          1.21737644e-01, 1.76698267e-01, 2.14410469e-01, 2.14410469e-01,
          2.09008679e-01, 2.09008679e-01, 2.09008679e-01, 1.69601217e-01,
          1.19900264e-01, 1.20932959e-01, 1.05788641e-01, 1.72043324e-01,
          1.73950374e-01, 2.09008679e-01, 2.09008679e-01, 2.09008679e-01,
          1.41176611e-01, 1.29448175e-01, 1.88431501e-01, 1.81936920e-01,
          2.07339510e-01, 2.09008679e-01, 1.32118136e-01, 1.16155624e-01,
          1.15120515e-01, 1.02908373e-01, 1.41150370e-01, 1.37640595e-01,
          1.17236361e-01, 1.70442581e-01, 1.60637632e-01, 1.46282896e-01,
          1.31496221e-01, 1.27344713e-01, 1.08906083e-01, 1.39529362e-01,
          2.09008679e-01, 2.09008679e-01, 2.09008679e-01, 1.88340425e-01,
          1.65360674e-01, 2.13649139e-01, 2.05988869e-01, 1.28959581e-01,
          1.32670879e-01, 1.70789793e-01, 1.66713059e-01, 2.13649139e-01,
          2.00047210e-01, 2.13649139e-01, 2.13649139e-01, 2.11387783e-01,
          1.08237371e-01, 9.35859531e-02, 7.83652887e-02, 1.03212543e-01,
          1.92796409e-01, 2.13649139e-01, 1.27946272e-01, 1.41709194e-01,
          1.46884337e-01, 1.26905963e-01, 1.79814070e-01, 2.13649139e-01,
          2.13649139e-01, 2.13649139e-01, 1.66429743e-01, 1.23902611e-01,
          1.47524819e-01, 1.75025597e-01, 1.41250238e-01, 1.70055941e-01,
          1.38535291e-01, 1.19160466e-01, 1.28653765e-01, 1.08895868e-01,
          1.92770228e-01, 2.00484365e-01, 1.55057818e-01, 1.26225531e-01,
          1.46822795e-01, 1.44997641e-01, 2.00986058e-01, 2.09206656e-01,
          2.09206656e-01, 1.43049479e-01, 1.50024921e-01, 1.12642802e-01,
          1.43221930e-01, 2.09206656e-01, 1.31741419e-01, 1.50535837e-01,
          1.61314860e-01, 1.55610189e-01, 1.69537425e-01, 2.09206656e-01,
          2.07299635e-01, 1.56532004e-01, 1.35482654e-01, 1.09933160e-01,
          1.64873928e-01, 2.09206656e-01, 1.87042698e-01, 1.15859881e-01,
          1.82234958e-01, 1.91494748e-01, 2.09206656e-01, 2.09206656e-01,
          1.24394432e-01, 1.18811756e-01, 1.19944021e-01, 9.32585746e-02,
          1.02272607e-01, 1.14553131e-01, 1.42703056e-01, 2.23213807e-01,
          2.30575010e-01, 2.11534530e-01, 1.48184985e-01, 1.28573790e-01,
          1.14474617e-01, 8.55961069e-02, 9.12867859e-02, 1.31919742e-01,
          1.49143279e-01, 2.30575010e-01, 2.30575010e-01, 2.30575010e-01,
          2.30575010e-01, 1.42543241e-01, 9.92963910e-02, 1.40605360e-01,
          2.30575010e-01, 2.30575010e-01, 2.30575010e-01, 1.68966204e-01,
          1.14944920e-01, 7.55909160e-02, 6.95933700e-02, 4.94001247e-02,
          7.61748850e-02, 1.50051638e-01, 2.30575010e-01, 2.30575010e-01,
          2.30575010e-01, 1.48557246e-01, 9.52606499e-02, 5.73959276e-02,
          9.66884047e-02, 8.66638348e-02, 7.77150393e-02, 9.51477215e-02,
          2.13040143e-01, 2.17997476e-01, 2.17997476e-01, 2.17997476e-01,
          1.28771886e-01, 1.42705545e-01, 1.35714561e-01, 1.20916896e-01,
          1.39153063e-01, 2.17997476e-01, 2.17997476e-01, 1.51020184e-01,
          1.78518459e-01, 1.66613653e-01, 6.51196763e-02, 7.74396658e-02,
          1.22098222e-01, 1.77379280e-01, 2.17997476e-01, 2.17997476e-01,
          1.50855824e-01, 1.24688312e-01, 8.84686932e-02, 1.66899279e-01,
          1.28343225e-01, 1.37349308e-01, 1.53872699e-01, 2.14143172e-01,
          2.17997476e-01, 1.94940239e-01, 2.17997476e-01, 2.17997476e-01,
          1.98791310e-01, 2.06840873e-01, 2.06840873e-01, 1.75035015e-01,
          1.32478386e-01, 1.04883179e-01, 1.50762126e-01, 2.06840873e-01,
          1.98258400e-01, 1.25948578e-01, 1.64544880e-01, 1.79775253e-01,
          2.06840873e-01, 1.79241896e-01, 1.15011819e-01, 1.23857267e-01,
          1.60994723e-01, 1.34225339e-01, 1.31869942e-01, 2.00195715e-01,
          2.06840873e-01, 2.06840873e-01, 1.88842610e-01, 1.38087153e-01,
          1.50652021e-01, 1.56914160e-01, 1.28212109e-01, 1.17749959e-01,
          1.17990173e-01, 1.43130317e-01, 2.00324476e-01, 1.74452513e-01,
          1.42220601e-01, 1.35658696e-01, 1.88047394e-01, 1.78383321e-01,
          1.70499995e-01, 1.39550105e-01, 1.70084462e-01, 2.27145359e-01,
          1.67945012e-01, 1.15431130e-01, 1.12400450e-01, 1.22479342e-01,
          1.44843847e-01, 1.17331199e-01, 1.67394027e-01, 1.85349211e-01,
          1.98567942e-01, 1.40328154e-01, 1.01215340e-01, 8.40099752e-02,
          7.31416196e-02, 8.13497379e-02, 2.27145359e-01, 2.27145359e-01,
          1.78427428e-01, 1.92135110e-01, 1.68736234e-01, 1.59748554e-01,
          1.41673774e-01, 2.05059558e-01, 2.27145359e-01, 2.27145359e-01,
          2.27145359e-01, 2.27145359e-01, 1.85006216e-01, 1.29286557e-01,
          1.07153051e-01, 1.04551487e-01, 1.06411718e-01, 1.86737701e-01,
          8.23452547e-02, 1.42095834e-01, 2.15976745e-01, 2.15976745e-01,
          2.15859085e-01, 1.36900276e-01, 1.04422510e-01, 1.05656736e-01,
          9.50084329e-02, 1.77827388e-01, 1.29518256e-01, 1.59531966e-01,
          1.68313637e-01, 1.79893002e-01, 1.39872491e-01, 1.93635106e-01,
          2.15976745e-01, 2.15976745e-01, 1.52014732e-01, 2.15976745e-01,
          2.15976745e-01, 1.93483979e-01, 1.15151003e-01, 9.09986049e-02,
          1.26188278e-01, 1.50359601e-01, 1.52214080e-01, 1.53554127e-01,
          1.43812031e-01, 1.87644258e-01, 1.86941743e-01, 1.16838664e-01,
          1.02645472e-01, 1.65172368e-01, 2.15976745e-01, 2.15976745e-01 ]
      - [ 1.82486594e-01, 2.04465151e-01, 1.90311328e-01, 1.80426478e-01,
          1.42525107e-01, 1.28684282e-01, 1.23826802e-01, 1.45872906e-01,
          1.97700232e-01, 1.90600589e-01, 2.04465151e-01, 2.04465151e-01,
          2.04465151e-01, 1.86245710e-01, 1.44479215e-01, 1.39530629e-01,
          1.46711394e-01, 1.73346579e-01, 1.39806986e-01, 1.57848686e-01,
          1.73119098e-01, 1.82180628e-01, 1.67467102e-01, 1.32031560e-01,
          1.30923763e-01, 1.63720533e-01, 1.51943460e-01, 1.59477174e-01,
          1.68273270e-01, 1.92123547e-01, 1.91105872e-01, 1.66236460e-01,
          1.42149538e-01, 1.10744581e-01, 1.47876203e-01, 1.54497772e-01,
          2.08212778e-01, 1.76304042e-01, 1.40453890e-01, 1.58463880e-01,
          1.62644744e-01, 1.82582036e-01, 2.08945617e-01, 2.08945617e-01,
          2.08485067e-01, 1.63414657e-01, 1.42145813e-01, 1.41072646e-01,
          1.60875916e-01, 1.69463754e-01, 2.06407964e-01, 2.08945617e-01,
          2.08945617e-01, 2.08945617e-01, 2.02562734e-01, 1.49181560e-01,
          1.11877821e-01, 1.09163344e-01, 1.16751783e-01, 1.43060610e-01,
          1.29260287e-01, 1.66101605e-01, 1.80860624e-01, 1.48447171e-01,
          1.19214401e-01, 9.74402577e-02, 1.19816467e-01, 1.56482205e-01,
          1.59527764e-01, 1.73484087e-01, 1.70605883e-01, 1.58153057e-01,
          1.52937382e-01, 1.41450152e-01, 1.40343800e-01, 1.40955865e-01,
          1.44326746e-01, 1.58574864e-01, 2.05303386e-01, 2.05303386e-01,
          2.05018595e-01, 2.05303386e-01, 1.96169049e-01, 1.51291534e-01,
          1.33091927e-01, 1.28003657e-01, 1.22628085e-01, 1.85256407e-01,
          2.05303386e-01, 2.05303386e-01, 1.56497166e-01, 1.19966753e-01,
          1.02993794e-01, 1.28828526e-01, 1.68517902e-01, 1.63583800e-01,
          1.86145663e-01, 1.62759513e-01, 1.46003038e-01, 2.05303386e-01,
          1.67677820e-01, 1.31831735e-01, 1.39688954e-01, 1.40507564e-01,
          1.51169196e-01, 1.83429897e-01, 2.05303386e-01, 2.05303386e-01,
          1.79165632e-01, 1.96936980e-01, 1.81449145e-01, 1.62830368e-01,
          1.66703209e-01, 1.37768477e-01, 1.43070012e-01, 1.92964494e-01,
          1.85442537e-01, 1.23094894e-01, 1.22478105e-01, 1.30063251e-01,
          1.50920197e-01, 1.83650464e-01, 1.88035309e-01, 1.54846087e-01,
          1.95487753e-01, 1.61534950e-01, 1.76782519e-01, 2.05542356e-01,
          2.05542356e-01, 2.05542356e-01, 1.62001401e-01, 1.47053853e-01,
          1.45706996e-01, 1.68472797e-01, 1.57415539e-01, 9.98515859e-02,
          1.24778256e-01, 1.34072617e-01, 1.65713325e-01, 2.05542356e-01,
          2.05542356e-01, 1.91708490e-01, 1.40894726e-01, 9.59686413e-02,
          1.65107787e-01, 1.14043266e-01, 8.74419510e-02, 1.09554410e-01,
          1.53263554e-01, 2.22130328e-01, 2.20943272e-01, 1.88025326e-01,
          1.58452719e-01, 1.28072143e-01, 1.12590075e-01, 1.14970796e-01,
          1.50599778e-01, 2.20159501e-01, 2.22130328e-01, 2.22130328e-01,
          1.94517449e-01, 1.48525447e-01, 7.27123618e-02, 7.63377547e-02,
          1.06036730e-01, 1.35599762e-01, 2.09311217e-01, 2.22130328e-01,
          2.22130328e-01, 1.45066306e-01, 7.58149996e-02, 7.92224631e-02,
          1.44826576e-01, 2.22130328e-01, 1.80282474e-01, 1.44420341e-01,
          2.22130328e-01, 2.22130328e-01, 1.86806038e-01, 1.00815564e-01,
          1.05519749e-01, 1.00806013e-01, 1.12244479e-01, 1.67728528e-01,
          2.05607563e-01, 2.05607563e-01, 2.05607563e-01, 1.52781487e-01,
          1.07221328e-01, 1.61680445e-01, 1.44278169e-01, 1.39366731e-01,
          1.81037143e-01, 1.93200335e-01, 2.04144076e-01, 2.05607563e-01,
          2.05607563e-01, 2.05607563e-01, 7.89100602e-02, 1.45283297e-01,
          2.05607563e-01, 1.59441799e-01, 1.62708983e-01, 2.05607563e-01,
          1.94284022e-01, 1.30592942e-01, 8.21136460e-02, 1.27177685e-01,
          1.49307311e-01, 1.30626783e-01, 1.51609451e-01, 1.81089267e-01,
          2.05607563e-01, 1.87947869e-01, 1.70486361e-01, 1.61184847e-01,
          1.13111861e-01, 1.58226505e-01, 2.15700537e-01, 2.15700537e-01,
          2.15700537e-01, 1.21280178e-01, 9.43488926e-02, 8.61139074e-02,
          9.15193036e-02, 7.97229856e-02, 1.04686931e-01, 1.28977180e-01,
          2.07840398e-01, 2.15700537e-01, 2.15700537e-01, 1.65642545e-01,
          1.11180283e-01, 7.25699514e-02, 1.81162372e-01, 1.71249181e-01,
          1.82317570e-01, 2.15700537e-01, 1.91588193e-01, 1.22391485e-01,
          1.27737567e-01, 1.31532416e-01, 1.31131500e-01, 1.86834231e-01,
          1.89538360e-01, 1.69630140e-01, 2.10743740e-01, 2.03392789e-01,
          1.81872159e-01, 1.93747759e-01, 1.81436762e-01, 1.80088386e-01,
          1.10498346e-01, 1.26705214e-01, 1.36812091e-01, 1.25474736e-01,
          1.69392526e-01, 1.84864879e-01, 1.75482750e-01, 1.47469625e-01,
          1.17890403e-01, 1.27833158e-01, 1.68551326e-01, 2.15336964e-01,
          1.42859891e-01, 8.56822431e-02, 9.59989876e-02, 9.35460031e-02,
          9.23533887e-02, 1.07596517e-01, 2.15336964e-01, 2.15336964e-01,
          2.15336964e-01, 1.95088208e-01, 1.61609307e-01, 1.62672460e-01,
          1.84343562e-01, 2.15336964e-01, 2.15336964e-01, 2.15336964e-01,
          2.02322915e-01, 1.69631273e-01, 1.42328545e-01, 1.57821417e-01,
          1.72700033e-01, 1.61201999e-01, 1.70211866e-01, 2.15336964e-01,
          1.29782125e-01, 1.96860164e-01, 2.13651404e-01, 1.57918945e-01,
          1.35882422e-01, 1.39267445e-01, 1.13698900e-01, 9.69780684e-02,
          8.74272212e-02, 1.52079642e-01, 1.61282748e-01, 1.35956585e-01,
          1.23875827e-01, 1.60735443e-01, 1.73920557e-01, 1.98215663e-01,
          1.95923015e-01, 1.63958251e-01, 1.79123580e-01, 1.72587618e-01,
          1.81909844e-01, 1.46768063e-01, 1.75034627e-01, 1.79440603e-01,
          1.97383240e-01, 1.58614054e-01, 1.60399020e-01, 1.71360046e-01,
          1.57243967e-01, 1.51971236e-01, 1.38359219e-01, 1.73694104e-01,
          1.82367831e-01, 2.13651404e-01, 2.13651404e-01, 1.99997738e-01 ]
      - [ 2.03014180e-01, 2.55214006e-01, 2.55214006e-01, 2.31983587e-01,
          1.42626777e-01, 7.30353817e-02, 6.57229498e-02, 7.66644180e-02,
          1.30201668e-01, 2.55214006e-01, 2.55214006e-01, 2.17704028e-01,
          1.41227901e-01, 8.11067075e-02, 5.61367646e-02, 6.46487549e-02,
          7.01820254e-02, 1.41820610e-01, 2.06129983e-01, 2.55214006e-01,
          2.55214006e-01, 1.88780844e-01, 9.88084897e-02, 7.60948658e-02,
          6.58355653e-02, 6.03440627e-02, 9.99738276e-02, 2.40055203e-01,
          2.55214006e-01, 2.55214006e-01, 1.84077606e-01, 6.47401065e-02,
          4.27951552e-02, 3.51303220e-02, 4.96400595e-02, 9.66789052e-02,
          2.46357784e-01, 2.56367713e-01, 2.56367713e-01, 1.37155652e-01,
          6.96985126e-02, 6.41316772e-02, 6.21861517e-02, 8.94145072e-02,
          1.54557526e-01, 1.99516207e-01, 2.56367713e-01, 2.56367713e-01,
          1.87473476e-01, 9.37496424e-02, 9.67465043e-02, 8.09654072e-02,
          1.38557732e-01, 1.90300569e-01, 1.93872511e-01, 2.56367713e-01,
          2.56367713e-01, 1.89489409e-01, 7.16472119e-02, 4.87029850e-02,
          4.26254496e-02, 5.29608168e-02, 9.31980312e-02, 1.72226131e-01,
          2.56367713e-01, 2.56367713e-01, 1.93436861e-01, 7.87606835e-02,
          5.52488007e-02, 4.42316383e-02, 7.14199096e-02, 1.21036373e-01,
          1.67703211e-01, 2.12780312e-01, 2.08991513e-01, 1.65778488e-01,
          1.38995916e-01, 1.36379078e-01, 8.87822509e-02, 1.21568702e-01,
          1.74584121e-01, 1.93611056e-01, 2.12780312e-01, 2.00466111e-01,
          1.96901202e-01, 1.86145276e-01, 1.39097378e-01, 1.10753208e-01,
          1.35155305e-01, 1.91106185e-01, 1.45012155e-01, 2.12780312e-01,
          2.12780312e-01, 2.12780312e-01, 1.42998293e-01, 9.29593593e-02,
          6.20441362e-02, 7.38420635e-02, 1.23894162e-01, 1.71198756e-01,
          2.12780312e-01, 2.12780312e-01, 2.12780312e-01, 2.06598386e-01,
          1.34223118e-01, 1.14183389e-01, 1.07399471e-01, 1.35940924e-01,
          1.42244905e-01, 2.63111204e-01, 2.63111204e-01, 2.11351976e-01,
          1.06456742e-01, 6.83368444e-02, 5.83180487e-02, 5.70002273e-02,
          7.26555735e-02, 1.25808567e-01, 2.63111204e-01, 2.63111204e-01,
          2.63111204e-01, 7.33468309e-02, 5.02273478e-02, 3.58006470e-02,
          4.08098213e-02, 5.63002825e-02, 1.28371820e-01, 2.56499648e-01,
          2.63111204e-01, 2.63111204e-01, 1.53482497e-01, 1.04545869e-01,
          8.56967717e-02, 1.11609481e-01, 1.09424278e-01, 1.06549963e-01,
          2.43606150e-01, 2.63111204e-01, 2.63111204e-01, 1.18253708e-01,
          6.87189996e-02, 5.86623065e-02, 6.93554506e-02, 7.38492608e-02,
          1.42396092e-01, 2.55929083e-01, 2.55929083e-01, 2.55929083e-01,
          1.14524625e-01, 1.04652688e-01, 7.55291283e-02, 5.74582443e-02,
          6.73187822e-02, 1.55916452e-01, 2.55929083e-01, 2.55929083e-01,
          2.55929083e-01, 1.40005037e-01, 9.34802517e-02, 6.65444508e-02,
          5.74094653e-02, 7.07747489e-02, 1.29921094e-01, 2.55929083e-01,
          2.55929083e-01, 2.38086611e-01, 1.07991278e-01, 8.96092057e-02,
          6.76922128e-02, 6.13012984e-02, 7.36720413e-02, 1.20647006e-01,
          2.55929083e-01, 2.55929083e-01, 2.55929083e-01, 1.22471370e-01,
          8.59000310e-02, 5.92935421e-02, 4.73185368e-02, 6.29864335e-02,
          1.03813827e-01, 2.04068020e-01, 2.33794838e-01, 2.33794838e-01,
          1.71760857e-01, 1.00566506e-01, 7.29210004e-02, 5.05748913e-02,
          5.95647395e-02, 1.54801160e-01, 2.33794838e-01, 2.33794838e-01,
          2.33794838e-01, 1.88532531e-01, 1.37261644e-01, 1.35007754e-01,
          9.86440033e-02, 1.00370675e-01, 1.19498774e-01, 2.33794838e-01,
          2.33794838e-01, 2.33794838e-01, 1.34049967e-01, 9.97682065e-02,
          7.17824176e-02, 5.62740788e-02, 8.30979198e-02, 2.33794838e-01,
          2.33794838e-01, 2.33794838e-01, 1.84101731e-01, 1.20491162e-01,
          1.24593981e-01, 1.17551252e-01, 1.03468724e-01, 1.75144508e-01,
          1.56638086e-01, 2.11564884e-01, 2.11564884e-01, 2.06522211e-01,
          1.67681217e-01, 1.39546528e-01, 1.27016544e-01, 1.60262316e-01,
          1.45317897e-01, 1.44797444e-01, 1.88415557e-01, 2.11564884e-01,
          1.94352061e-01, 1.51413992e-01, 1.16360620e-01, 1.15617536e-01,
          1.02326557e-01, 1.15028888e-01, 2.11564884e-01, 2.11564884e-01,
          2.11564884e-01, 1.51330441e-01, 1.31397158e-01, 1.21786095e-01,
          1.35039702e-01, 1.58041671e-01, 1.74040556e-01, 2.11564884e-01,
          2.11564884e-01, 2.00770169e-01, 1.25750154e-01, 1.29651099e-01,
          1.28705472e-01, 1.57992274e-01, 1.47428095e-01, 1.72125325e-01,
          1.16673596e-01, 2.49675721e-01, 2.49965549e-01, 1.91880584e-01,
          1.13793433e-01, 7.29884803e-02, 7.04217553e-02, 5.54396957e-02,
          7.09563196e-02, 1.14009731e-01, 2.49965549e-01, 2.49965549e-01,
          2.17757151e-01, 1.09097876e-01, 7.43143335e-02, 6.37209341e-02,
          4.93169464e-02, 8.86143371e-02, 2.01267302e-01, 2.49965549e-01,
          2.49965549e-01, 1.93277687e-01, 1.45820096e-01, 1.02867633e-01,
          1.25012517e-01, 1.18428335e-01, 1.29109561e-01, 1.66172355e-01,
          2.49965549e-01, 2.49965549e-01, 2.29952872e-01, 1.79828405e-01,
          1.24847658e-01, 1.18955195e-01, 9.39759240e-02, 1.28031746e-01,
          1.44297004e-01, 2.23862037e-01, 2.23862037e-01, 1.83508515e-01,
          1.14864841e-01, 9.26763043e-02, 7.14387000e-02, 7.80972391e-02,
          1.26204044e-01, 2.23862037e-01, 2.23862037e-01, 2.23862037e-01,
          1.58227146e-01, 1.17884815e-01, 9.70900506e-02, 8.37777257e-02,
          9.11457837e-02, 1.57520741e-01, 1.75302401e-01, 2.23862037e-01,
          2.23862037e-01, 2.05008671e-01, 1.82818130e-01, 1.28466845e-01,
          1.14184000e-01, 1.14575364e-01, 1.51112199e-01, 2.18823493e-01,
          2.23862037e-01, 2.23862037e-01, 1.97510093e-01, 1.85948059e-01,
          1.17953598e-01, 1.15276478e-01, 1.11423172e-01, 1.48502782e-01 ]
      - [ 1.37815073e-01, 1.91127986e-01, 1.40382349e-01, 1.20575182e-01,
          1.93247229e-01, 2.33872697e-01, 1.21060692e-01, 1.08448662e-01,
          1.22795485e-01, 2.21254498e-01, 2.49336794e-01, 2.20169306e-01,
          1.32443026e-01, 1.32718801e-01, 1.35663122e-01, 9.77899432e-02,
          9.61625725e-02, 1.27919078e-01, 2.10258305e-01, 2.49336794e-01,
          2.49336794e-01, 1.90188780e-01, 1.31111279e-01, 1.41073570e-01,
          9.88211706e-02, 1.25940993e-01, 1.48832381e-01, 2.37418264e-01,
          2.49336794e-01, 2.49336794e-01, 1.61364079e-01, 1.09843232e-01,
          8.79560933e-02, 4.54307459e-02, 4.70870063e-02, 7.38840476e-02,
          2.38903552e-01, 2.38903552e-01, 2.38903552e-01, 2.38903552e-01,
          1.66074350e-01, 1.06281467e-01, 1.12546451e-01, 1.01801336e-01,
          1.36248484e-01, 2.38903552e-01, 2.38903552e-01, 2.25029543e-01,
          1.75249010e-01, 1.15398452e-01, 8.83578062e-02, 9.20227170e-02,
          1.17125481e-01, 1.71129823e-01, 1.84988678e-01, 2.38903552e-01,
          2.38903552e-01, 2.38903552e-01, 1.12417623e-01, 6.77860230e-02,
          4.33711894e-02, 3.91885415e-02, 6.05481341e-02, 1.51352376e-01,
          2.38903552e-01, 2.38903552e-01, 1.75398186e-01, 7.70444348e-02,
          7.47764111e-02, 5.19119464e-02, 5.23694307e-02, 7.87305012e-02,
          2.11070344e-01, 2.11070344e-01, 1.33231431e-01, 9.26200151e-02,
          8.81092399e-02, 1.28085643e-01, 1.83977634e-01, 2.01191038e-01,
          2.11070344e-01, 2.11070344e-01, 1.56727269e-01, 1.33063719e-01,
          1.67098448e-01, 1.85446069e-01, 1.97787777e-01, 2.11070344e-01,
          2.11070344e-01, 2.11070344e-01, 1.61408156e-01, 2.10306421e-01,
          1.67669877e-01, 1.08754590e-01, 8.07269737e-02, 9.36221406e-02,
          9.45598111e-02, 1.05516829e-01, 1.21314369e-01, 1.58324212e-01,
          1.98679194e-01, 1.98779255e-01, 1.65529683e-01, 1.63811773e-01,
          1.50102481e-01, 1.65397391e-01, 1.64265141e-01, 1.48512125e-01,
          2.08076671e-01, 2.44021654e-01, 2.44021654e-01, 2.44021654e-01,
          1.99920952e-01, 1.15887828e-01, 1.13322303e-01, 1.35228008e-01,
          1.43959194e-01, 1.46518081e-01, 2.44021654e-01, 2.44021654e-01,
          2.44021654e-01, 1.78521916e-01, 9.36627612e-02, 5.78017347e-02,
          6.11095913e-02, 5.64013682e-02, 8.07971135e-02, 9.85500067e-02,
          1.78489283e-01, 2.44021654e-01, 2.44021654e-01, 1.81877553e-01,
          1.27767652e-01, 1.12045035e-01, 9.88904834e-02, 1.04914144e-01,
          1.16184384e-01, 1.86503202e-01, 2.09108114e-01, 1.60826743e-01,
          1.13871112e-01, 9.92992297e-02, 9.67751592e-02, 1.39160126e-01,
          1.26635194e-01, 2.35573679e-01, 2.35573679e-01, 2.35573679e-01,
          1.75669357e-01, 1.29184261e-01, 7.52974823e-02, 6.19737133e-02,
          6.73894808e-02, 1.52877584e-01, 2.35573679e-01, 2.35573679e-01,
          2.08797589e-01, 1.17063604e-01, 1.23500310e-01, 8.00709873e-02,
          7.41375238e-02, 9.36701447e-02, 1.82741106e-01, 1.82848901e-01,
          2.00483844e-01, 1.77760631e-01, 1.34843782e-01, 1.30720675e-01,
          1.23593278e-01, 1.18974499e-01, 2.32220411e-01, 2.31706902e-01,
          2.35573679e-01, 2.35573679e-01, 1.77985042e-01, 1.00450546e-01,
          1.04620583e-01, 1.07880875e-01, 1.04223073e-01, 1.69667512e-01,
          1.73649207e-01, 2.45292589e-01, 2.45292589e-01, 1.62845895e-01,
          8.42874199e-02, 7.61584640e-02, 7.22703636e-02, 7.90296793e-02,
          8.31361264e-02, 2.09729388e-01, 2.45292589e-01, 2.45292589e-01,
          2.45292589e-01, 1.31118387e-01, 1.05538420e-01, 9.32542384e-02,
          1.01855509e-01, 9.42304730e-02, 1.66352093e-01, 2.45292589e-01,
          2.45292589e-01, 2.27578238e-01, 9.73956808e-02, 5.94227985e-02,
          5.59193678e-02, 5.17629646e-02, 6.51175007e-02, 1.44167215e-01,
          2.45292589e-01, 2.45292589e-01, 2.45292589e-01, 2.12923661e-01,
          1.40127853e-01, 9.54287127e-02, 7.90822655e-02, 6.31946921e-02,
          9.70409662e-02, 8.88627470e-02, 1.01631187e-01, 1.25203386e-01,
          2.12736368e-01, 2.26563722e-01, 2.11274043e-01, 1.79435655e-01,
          1.29963726e-01, 1.44431651e-01, 1.33844361e-01, 1.15219928e-01,
          1.12456270e-01, 1.01234682e-01, 8.79529342e-02, 1.05065495e-01,
          1.19445324e-01, 1.85703203e-01, 1.55231372e-01, 1.83085591e-01,
          1.60491124e-01, 1.70799106e-01, 2.26563722e-01, 2.26563722e-01,
          2.26563722e-01, 2.26563722e-01, 1.80043176e-01, 2.21998930e-01,
          1.92437083e-01, 1.02938972e-01, 9.47245061e-02, 1.34652793e-01,
          1.34930834e-01, 2.26563722e-01, 2.06963614e-01, 1.86970562e-01,
          2.28535116e-01, 2.51131266e-01, 1.79469019e-01, 1.23138733e-01,
          7.84940422e-02, 8.26824382e-02, 8.77721161e-02, 1.02308184e-01,
          2.51131266e-01, 2.51131266e-01, 2.51131266e-01, 2.51131266e-01,
          1.90380022e-01, 9.26923975e-02, 7.49385804e-02, 7.98480362e-02,
          7.32986033e-02, 1.48186356e-01, 2.51131266e-01, 2.51131266e-01,
          2.12198988e-01, 1.01051502e-01, 6.80288970e-02, 4.69777174e-02,
          5.19092232e-02, 7.47953430e-02, 1.79451033e-01, 2.16416404e-01,
          2.51131266e-01, 2.51131266e-01, 1.92832395e-01, 1.22785337e-01,
          6.42870069e-02, 3.68610546e-02, 3.01442016e-02, 8.30424204e-02,
          1.44632354e-01, 2.28470922e-01, 2.28470922e-01, 2.06364170e-01,
          9.58914384e-02, 5.38504422e-02, 4.57074642e-02, 5.29092513e-02,
          6.38094246e-02, 1.10981531e-01, 1.99485585e-01, 2.28470922e-01,
          2.28470922e-01, 2.16442004e-01, 1.64051488e-01, 1.26023084e-01,
          1.40982717e-01, 1.18650272e-01, 1.29847988e-01, 2.28470922e-01,
          2.28470922e-01, 1.87882975e-01, 1.14204481e-01, 7.78262243e-02,
          7.50870854e-02, 9.78073925e-02, 8.77842680e-02, 1.49568349e-01,
          1.91735834e-01, 2.28470922e-01, 2.28470922e-01, 2.05222055e-01,
          1.62340000e-01, 1.67957783e-01, 1.99297681e-01, 1.73649400e-01 ]
      - [ 1.66737154e-01, 2.14113936e-01, 2.14113936e-01, 2.14113936e-01,
          2.04623669e-01, 1.21838845e-01, 1.31688878e-01, 1.08506791e-01,
          1.32282525e-01, 1.73401177e-01, 2.14113936e-01, 2.14113936e-01,
          1.60155252e-01, 1.35327294e-01, 1.08975038e-01, 1.13524593e-01,
          9.49200392e-02, 1.11679628e-01, 1.48965716e-01, 1.61030024e-01,
          2.14113936e-01, 2.14113936e-01, 2.09966153e-01, 1.55701831e-01,
          2.14113936e-01, 1.41722947e-01, 8.31844658e-02, 1.13187172e-01,
          1.66761309e-01, 2.14113936e-01, 1.88815787e-01, 1.50759384e-01,
          1.61446586e-01, 2.14113936e-01, 1.24642208e-01, 6.28313646e-02,
          1.63503513e-01, 2.52500713e-01, 2.52500713e-01, 1.80649638e-01,
          1.66349947e-01, 1.20099790e-01, 7.56203532e-02, 6.60548434e-02,
          8.58416185e-02, 2.30785087e-01, 2.52500713e-01, 2.52500713e-01,
          2.06652805e-01, 1.44535556e-01, 8.07477236e-02, 9.92762670e-02,
          1.05144121e-01, 1.26370654e-01, 1.35887235e-01, 2.52500713e-01,
          2.52500713e-01, 2.14614511e-01, 1.39414668e-01, 1.14370093e-01,
          8.97483155e-02, 5.30570298e-02, 5.71580529e-02, 1.27543002e-01,
          2.52500713e-01, 2.52500713e-01, 2.52500713e-01, 8.74432325e-02,
          5.68530038e-02, 3.87027301e-02, 4.07860577e-02, 5.48504665e-02,
          2.51847208e-01, 2.51847208e-01, 2.51847208e-01, 1.62820831e-01,
          9.67998654e-02, 7.34204203e-02, 1.25045776e-01, 1.44065127e-01,
          1.95206851e-01, 2.42847964e-01, 2.51847208e-01, 2.51847208e-01,
          1.62357524e-01, 1.16199419e-01, 1.06720977e-01, 1.23100147e-01,
          1.37688532e-01, 2.08057702e-01, 1.41266271e-01, 2.51847208e-01,
          2.51847208e-01, 1.91872910e-01, 6.85233399e-02, 6.37476519e-02,
          5.28588556e-02, 5.39545827e-02, 7.08798394e-02, 1.13317899e-01,
          1.29117966e-01, 1.99000314e-01, 2.51847208e-01, 1.26026675e-01,
          7.98140764e-02, 6.79159686e-02, 7.08726570e-02, 9.70080495e-02,
          1.42261580e-01, 1.60500661e-01, 1.96001083e-01, 2.11421058e-01,
          1.68880716e-01, 1.46933183e-01, 1.93436548e-01, 1.33084908e-01,
          7.45423138e-02, 8.00745562e-02, 1.46635801e-01, 1.78992495e-01,
          2.08421171e-01, 1.69675261e-01, 1.95900500e-01, 2.11421058e-01,
          1.23599641e-01, 5.07019572e-02, 2.11421058e-01, 2.11421058e-01,
          2.03078508e-01, 2.11421058e-01, 1.35982007e-01, 9.23790857e-02,
          9.84110385e-02, 1.61051393e-01, 1.66804969e-01, 1.26436234e-01,
          1.72417372e-01, 1.58073694e-01, 1.95080668e-01, 2.11421058e-01,
          2.11421058e-01, 1.85742646e-01, 1.33870810e-01, 9.21219736e-02,
          1.25098825e-01, 2.44696721e-01, 2.44696721e-01, 2.44696721e-01,
          2.06951365e-01, 1.71393365e-01, 1.74202338e-01, 9.28743035e-02,
          7.83475712e-02, 1.16796389e-01, 2.44696721e-01, 2.44696721e-01,
          2.44696721e-01, 1.28390580e-01, 1.35165557e-01, 1.15892783e-01,
          8.46629739e-02, 9.07823220e-02, 8.42260569e-02, 1.35451138e-01,
          1.27531260e-01, 1.90460384e-01, 2.44696721e-01, 2.44696721e-01,
          2.41257936e-01, 1.51815593e-01, 9.03189182e-02, 1.00343905e-01,
          1.24899343e-01, 9.74200815e-02, 8.33426267e-02, 1.05424598e-01,
          1.51305646e-01, 1.85384601e-01, 1.37043312e-01, 1.08118288e-01,
          1.09677754e-01, 2.26452574e-01, 2.79305905e-01, 2.76870936e-01,
          1.65544257e-01, 1.56947777e-01, 1.17488317e-01, 5.91771416e-02,
          6.55595437e-02, 7.96370730e-02, 1.16255477e-01, 2.79305905e-01,
          2.79305905e-01, 1.96852639e-01, 6.92046806e-02, 4.58223186e-02,
          3.24810855e-02, 4.35944870e-02, 1.34891465e-01, 2.05324680e-01,
          2.21904993e-01, 1.68676928e-01, 1.33225188e-01, 1.46171197e-01,
          1.56314582e-01, 9.83995274e-02, 1.02185264e-01, 9.49385017e-02,
          2.40174413e-01, 2.79305905e-01, 2.79305905e-01, 1.73154801e-01,
          5.37345186e-02, 3.00457161e-02, 2.21500043e-02, 4.90621403e-02,
          2.09555179e-01, 2.09555179e-01, 1.83322325e-01, 1.99924707e-01,
          1.37105420e-01, 8.81083906e-02, 8.44243467e-02, 1.49465293e-01,
          2.09555179e-01, 1.31572127e-01, 1.31239101e-01, 1.50221303e-01,
          1.66235715e-01, 2.03568831e-01, 2.09555179e-01, 1.92839980e-01,
          1.58570766e-01, 1.22886330e-01, 2.09555179e-01, 2.09555179e-01,
          1.52599186e-01, 1.65836796e-01, 1.59068063e-01, 1.26542196e-01,
          1.08412772e-01, 1.19700514e-01, 1.83336303e-01, 1.51126564e-01,
          1.63159534e-01, 1.57357752e-01, 1.70007944e-01, 1.78514063e-01,
          2.09555179e-01, 1.70324177e-01, 1.47699520e-01, 1.40296057e-01,
          9.83366519e-02, 9.91633534e-02, 8.12344030e-02, 1.02797396e-01,
          1.93788886e-01, 2.18659803e-01, 2.18659803e-01, 1.85002774e-01,
          1.33647606e-01, 1.49858624e-01, 1.31198063e-01, 7.71681219e-02,
          4.99368049e-02, 6.01738580e-02, 6.63102269e-02, 8.59216750e-02,
          1.09086767e-01, 1.88026890e-01, 1.71176702e-01, 2.15706155e-01,
          1.74032748e-01, 2.18659803e-01, 2.18659803e-01, 2.18659803e-01,
          2.18659803e-01, 2.16142610e-01, 1.81576505e-01, 2.18659803e-01,
          2.18659803e-01, 1.99725658e-01, 2.03524038e-01, 1.71239212e-01,
          1.04733385e-01, 8.47499892e-02, 1.25808388e-01, 2.18659803e-01,
          2.44084507e-01, 2.20992580e-01, 1.55472547e-01, 6.91866726e-02,
          3.92766073e-02, 3.94176245e-02, 5.05337715e-02, 7.33981505e-02,
          1.84471667e-01, 2.30406463e-01, 2.44084507e-01, 2.44084507e-01,
          1.71580985e-01, 9.42380801e-02, 4.03917618e-02, 2.75463108e-02,
          3.74685749e-02, 1.25447989e-01, 2.44084507e-01, 2.44084507e-01,
          2.44084507e-01, 1.35977879e-01, 8.42307284e-02, 5.94963767e-02,
          5.75847849e-02, 1.12448514e-01, 2.44084507e-01, 2.44084507e-01,
          2.44084507e-01, 2.44084507e-01, 1.96332365e-01, 1.30013838e-01,
          9.14201587e-02, 6.95674121e-02, 8.43743682e-02, 2.17103079e-01 ]
      - [ 1.87610924e-01, 2.28647858e-01, 1.80487275e-01, 2.00987622e-01,
          1.92710891e-01, 1.32831067e-01, 9.35402289e-02, 1.62206382e-01,
          1.64811894e-01, 1.95025116e-01, 2.28647858e-01, 2.00704679e-01,
          1.36452764e-01, 1.03403620e-01, 1.08218826e-01, 1.23677991e-01,
          1.47162735e-01, 1.80268034e-01, 2.26736248e-01, 2.28647858e-01,
          2.28647858e-01, 1.86933726e-01, 1.40229240e-01, 8.51957649e-02,
          7.89988488e-02, 1.12130672e-01, 1.29502967e-01, 2.28647858e-01,
          2.28647858e-01, 2.28647858e-01, 1.55966580e-01, 9.33666825e-02,
          4.56718244e-02, 5.45538515e-02, 9.57329348e-02, 1.47174895e-01,
          1.73482940e-01, 2.30807409e-01, 2.30807409e-01, 1.60296738e-01,
          1.03155501e-01, 8.31973106e-02, 1.00560226e-01, 1.24217361e-01,
          1.64468572e-01, 2.05849200e-01, 2.30807409e-01, 2.30807409e-01,
          1.83980107e-01, 1.33815125e-01, 9.90423411e-02, 1.26921967e-01,
          1.63115159e-01, 2.20458418e-01, 1.80205539e-01, 2.30807409e-01,
          2.30807409e-01, 1.86566561e-01, 9.30499583e-02, 4.29338664e-02,
          5.57508282e-02, 8.39841887e-02, 1.29745841e-01, 1.88698709e-01,
          2.30807409e-01, 2.30807409e-01, 2.30807409e-01, 1.32611215e-01,
          7.68583044e-02, 6.86091036e-02, 8.57054293e-02, 1.45296872e-01,
          1.81363568e-01, 1.57406345e-01, 1.48133963e-01, 1.38395995e-01,
          1.29739344e-01, 1.46095663e-01, 1.52503446e-01, 1.44694522e-01,
          2.02544674e-01, 2.02544674e-01, 2.02544674e-01, 1.46732211e-01,
          1.39887393e-01, 1.33524477e-01, 1.67885125e-01, 1.54261053e-01,
          1.82090104e-01, 2.02544674e-01, 1.53336719e-01, 1.74739480e-01,
          2.00484529e-01, 2.02544674e-01, 1.65338710e-01, 1.38733447e-01,
          1.06844366e-01, 9.10513699e-02, 1.38472766e-01, 1.99695766e-01,
          2.00821027e-01, 1.73254445e-01, 1.68504059e-01, 1.76156476e-01,
          1.97158515e-01, 1.60066485e-01, 1.58159643e-01, 1.69674739e-01,
          1.97064981e-01, 2.44051650e-01, 2.44051650e-01, 1.88026920e-01,
          9.94648114e-02, 6.66732416e-02, 8.86606649e-02, 9.76510867e-02,
          1.04041867e-01, 2.02110648e-01, 2.44051650e-01, 2.44051650e-01,
          2.17898622e-01, 9.86355022e-02, 4.26309928e-02, 4.81379330e-02,
          6.55239373e-02, 9.56577212e-02, 1.77945957e-01, 2.44051650e-01,
          2.44051650e-01, 2.44051650e-01, 1.41187966e-01, 1.01213217e-01,
          1.00859493e-01, 1.06151551e-01, 1.24905072e-01, 1.57713667e-01,
          2.44051650e-01, 2.44051650e-01, 2.44051650e-01, 1.58139393e-01,
          7.44557902e-02, 6.23684339e-02, 6.02256581e-02, 8.79611373e-02,
          1.78989112e-01, 2.38684162e-01, 2.38684162e-01, 2.38684162e-01,
          1.33914247e-01, 7.69151524e-02, 9.25713629e-02, 9.74040776e-02,
          1.07550845e-01, 1.54998600e-01, 2.38684162e-01, 2.38684162e-01,
          2.38684162e-01, 1.84839264e-01, 9.77694839e-02, 8.93162489e-02,
          8.94409567e-02, 9.96152759e-02, 1.51616767e-01, 2.38684162e-01,
          2.38684162e-01, 2.38684162e-01, 1.31037429e-01, 8.48508701e-02,
          8.80963653e-02, 8.59682783e-02, 9.60400924e-02, 1.16302602e-01,
          2.38684162e-01, 2.38684162e-01, 2.38684162e-01, 1.42451793e-01,
          8.72560516e-02, 8.14982802e-02, 8.61357972e-02, 8.70996714e-02,
          9.91315693e-02, 1.74047455e-01, 2.20726863e-01, 2.25266501e-01,
          1.83038577e-01, 1.32293418e-01, 1.04125634e-01, 7.96446949e-02,
          7.05641061e-02, 1.64903119e-01, 2.25266501e-01, 2.25266501e-01,
          1.94077834e-01, 1.54433832e-01, 1.74284428e-01, 1.97836623e-01,
          1.56734169e-01, 1.18625477e-01, 1.02553330e-01, 2.22490788e-01,
          2.25266501e-01, 2.23991379e-01, 1.42762035e-01, 1.01332493e-01,
          9.03482735e-02, 7.65785053e-02, 8.55428502e-02, 2.25266501e-01,
          2.25266501e-01, 2.25266501e-01, 1.70260593e-01, 1.11179866e-01,
          1.04218319e-01, 1.55700654e-01, 1.40126064e-01, 1.59338906e-01,
          1.56262159e-01, 1.78108498e-01, 1.86839268e-01, 2.04704359e-01,
          1.54998139e-01, 1.45268053e-01, 1.19613774e-01, 1.40089273e-01,
          1.48086190e-01, 1.30293906e-01, 1.66215271e-01, 2.04704359e-01,
          2.04704359e-01, 1.58866540e-01, 1.30444065e-01, 1.02155887e-01,
          1.04117595e-01, 1.12832613e-01, 2.04704359e-01, 1.95351824e-01,
          1.76897988e-01, 1.54549852e-01, 1.56264424e-01, 1.45766899e-01,
          1.49115682e-01, 1.74044937e-01, 1.98693812e-01, 2.04704359e-01,
          2.02780023e-01, 1.53146744e-01, 1.17184505e-01, 1.23374790e-01,
          1.69893131e-01, 1.95749849e-01, 2.04704359e-01, 2.04704359e-01,
          1.12251088e-01, 1.94333866e-01, 2.24409685e-01, 2.17064142e-01,
          1.14831164e-01, 9.41734537e-02, 7.85110146e-02, 8.03563371e-02,
          8.68645012e-02, 1.10634401e-01, 2.24409685e-01, 2.24409685e-01,
          2.24409685e-01, 1.11906350e-01, 8.18266645e-02, 5.83694465e-02,
          6.94595203e-02, 8.43470469e-02, 2.18130752e-01, 2.24409685e-01,
          2.24409685e-01, 1.81113228e-01, 1.35261446e-01, 1.47465855e-01,
          1.66373521e-01, 1.67365029e-01, 1.86886489e-01, 1.94639221e-01,
          2.24409685e-01, 2.24409685e-01, 2.24409685e-01, 1.77697048e-01,
          1.49620950e-01, 1.25561953e-01, 1.27557442e-01, 1.51935309e-01,
          1.35172099e-01, 2.14683369e-01, 2.14683369e-01, 1.95130974e-01,
          1.26343861e-01, 1.02077767e-01, 9.09298584e-02, 9.78079140e-02,
          1.33273602e-01, 2.14683369e-01, 2.14683369e-01, 2.14683369e-01,
          1.39318973e-01, 1.19960301e-01, 9.78365690e-02, 1.23097770e-01,
          1.12323351e-01, 1.60148770e-01, 1.82040855e-01, 2.07350641e-01,
          1.86756417e-01, 1.47705629e-01, 1.59801260e-01, 1.51751697e-01,
          1.42906144e-01, 1.56564832e-01, 1.83560818e-01, 2.03374073e-01,
          2.14683369e-01, 1.99607834e-01, 1.39712736e-01, 1.63082108e-01,
          1.50688350e-01, 1.65906802e-01, 1.72999680e-01, 1.96726754e-01 ]
      - [ 1.91488117e-01, 2.24681050e-01, 2.24681050e-01, 1.79149926e-01,
          1.15378320e-01, 7.95644000e-02, 7.53171816e-02, 1.15644678e-01,
          1.16120569e-01, 2.00751379e-01, 2.24681050e-01, 2.24681050e-01,
          2.24681050e-01, 1.45649865e-01, 8.33635107e-02, 5.65286875e-02,
          8.14517960e-02, 1.08632386e-01, 1.65277138e-01, 1.69837534e-01,
          1.60970807e-01, 2.03751802e-01, 1.92598432e-01, 1.28261134e-01,
          1.12817958e-01, 1.34962127e-01, 1.28596976e-01, 2.23137498e-01,
          2.24681050e-01, 2.24681050e-01, 2.24681050e-01, 2.12371811e-01,
          1.32507190e-01, 9.90892872e-02, 1.01937406e-01, 1.59994349e-01,
          1.56708986e-01, 2.11477086e-01, 2.11477086e-01, 2.06864342e-01,
          1.41779080e-01, 1.21540450e-01, 1.01692840e-01, 1.31236047e-01,
          1.16421662e-01, 1.48818389e-01, 2.11477086e-01, 2.11477086e-01,
          2.11477086e-01, 2.08368078e-01, 1.35864213e-01, 1.13916621e-01,
          1.18740663e-01, 1.17430583e-01, 1.76623806e-01, 2.02528179e-01,
          2.11477086e-01, 2.11477086e-01, 1.85448691e-01, 1.30951315e-01,
          1.06051363e-01, 1.37908340e-01, 1.69680789e-01, 1.19412489e-01,
          1.43675774e-01, 1.79739237e-01, 2.02251777e-01, 2.03978345e-01,
          1.48693442e-01, 1.14691839e-01, 1.56882703e-01, 1.55528203e-01,
          1.85608253e-01, 1.97542265e-01, 2.09258959e-01, 2.09258959e-01,
          2.09258959e-01, 1.00641698e-01, 7.23706260e-02, 1.00194767e-01,
          1.67746007e-01, 2.09258959e-01, 1.61216199e-01, 1.87117219e-01,
          2.09258959e-01, 1.53880060e-01, 1.00162901e-01, 8.60567987e-02,
          1.59774795e-01, 2.09258959e-01, 1.51690692e-01, 1.59573093e-01,
          1.84150204e-01, 1.85771361e-01, 1.74472034e-01, 1.16567224e-01,
          8.28668997e-02, 1.32836714e-01, 1.73811406e-01, 2.09258959e-01,
          1.78888291e-01, 1.98760584e-01, 1.88138708e-01, 1.47638872e-01,
          1.12332053e-01, 9.32894200e-02, 1.65102273e-01, 2.09258959e-01,
          1.78459555e-01, 2.11543038e-01, 1.68947741e-01, 1.87711924e-01,
          1.73266053e-01, 1.28794640e-01, 1.21544957e-01, 1.01067051e-01,
          1.05921753e-01, 2.11543038e-01, 2.11543038e-01, 1.62191227e-01,
          1.52339682e-01, 1.66888058e-01, 1.36112928e-01, 9.66352448e-02,
          1.06892437e-01, 1.28553048e-01, 2.01762706e-01, 2.11543038e-01,
          2.08449140e-01, 1.62181079e-01, 1.39678910e-01, 1.59085602e-01,
          1.48466170e-01, 1.03002287e-01, 1.29362851e-01, 2.11543038e-01,
          2.11543038e-01, 1.85970634e-01, 1.69151723e-01, 2.11543038e-01,
          1.80705696e-01, 1.14806280e-01, 1.68587252e-01, 1.75744891e-01,
          2.00709611e-01, 2.10091740e-01, 1.72528759e-01, 1.69050872e-01,
          1.69257566e-01, 1.32116154e-01, 9.36989859e-02, 1.54180884e-01,
          1.99232772e-01, 1.13126434e-01, 1.33060351e-01, 1.50565222e-01,
          1.54957220e-01, 1.35157347e-01, 1.16337858e-01, 1.17671080e-01,
          2.10091740e-01, 1.88821808e-01, 2.10091740e-01, 2.10091740e-01,
          1.35604605e-01, 1.61156133e-01, 2.10033923e-01, 1.74383283e-01,
          1.05949797e-01, 2.10091740e-01, 2.03132629e-01, 2.10091740e-01,
          2.10091740e-01, 2.10091740e-01, 1.90237105e-01, 7.74737895e-02,
          8.79105926e-02, 9.01151821e-02, 1.38113260e-01, 1.44362614e-01,
          1.21947065e-01, 1.79035991e-01, 2.10229740e-01, 1.97605759e-01,
          1.55946404e-01, 1.28493786e-01, 1.00382656e-01, 1.46244049e-01,
          1.28632993e-01, 2.17210367e-01, 2.17210367e-01, 2.17210367e-01,
          2.17210367e-01, 1.45657003e-01, 1.16308898e-01, 9.01380703e-02,
          1.22945696e-01, 1.73551887e-01, 2.17210367e-01, 2.17210367e-01,
          2.17210367e-01, 2.17210367e-01, 1.18943088e-01, 9.15144905e-02,
          8.45890418e-02, 8.73605311e-02, 1.14886530e-01, 2.17210367e-01,
          2.17210367e-01, 2.17210367e-01, 2.17210367e-01, 1.42424420e-01,
          9.86211821e-02, 9.30588841e-02, 1.10641256e-01, 1.52084872e-01,
          1.61738783e-01, 2.03915954e-01, 1.72229111e-01, 1.45814240e-01,
          1.53744385e-01, 1.75414130e-01, 1.49873048e-01, 1.42838761e-01,
          1.61426395e-01, 1.83182389e-01, 2.03915954e-01, 1.60652414e-01,
          1.58779532e-01, 1.92245632e-01, 1.68941706e-01, 1.21963814e-01,
          1.55439496e-01, 1.84174389e-01, 1.60626262e-01, 2.03915954e-01,
          2.03915954e-01, 1.51901484e-01, 1.71525568e-01, 1.80481344e-01,
          1.74928471e-01, 2.03915954e-01, 2.03915954e-01, 8.17185417e-02,
          9.34139714e-02, 1.30840451e-01, 1.41372070e-01, 1.84527248e-01,
          2.02066958e-01, 1.77071795e-01, 1.19654961e-01, 1.02432422e-01,
          2.09155604e-01, 2.09155604e-01, 1.33425429e-01, 1.63199216e-01,
          1.68941006e-01, 1.40357241e-01, 1.02372423e-01, 1.76051557e-01,
          1.87675342e-01, 2.09155604e-01, 2.09155604e-01, 2.00299472e-01,
          1.77333042e-01, 1.03352353e-01, 1.09946750e-01, 1.26872972e-01,
          1.74489737e-01, 1.87599570e-01, 1.10578224e-01, 1.33271962e-01,
          1.45647109e-01, 1.94188893e-01, 1.92505613e-01, 1.27850920e-01,
          1.05854310e-01, 9.40809250e-02, 9.11092982e-02, 2.09155604e-01,
          2.09155604e-01, 1.45847380e-01, 1.76003233e-01, 1.71015874e-01,
          1.44229650e-01, 1.79600835e-01, 2.09155604e-01, 2.02515766e-01,
          2.08634019e-01, 2.08634019e-01, 1.96171775e-01, 1.66151360e-01,
          1.14885598e-01, 8.79666060e-02, 1.08497053e-01, 1.22758880e-01,
          1.58715919e-01, 2.08634019e-01, 2.08634019e-01, 2.08634019e-01,
          2.08634019e-01, 1.47436902e-01, 8.08150694e-02, 8.66552740e-02,
          1.15207717e-01, 1.64198980e-01, 1.90899715e-01, 1.95285469e-01,
          1.30018130e-01, 1.15061112e-01, 1.13729492e-01, 1.26600415e-01,
          1.70659468e-01, 2.08634019e-01, 1.94322273e-01, 2.00156659e-01,
          1.92109868e-01, 2.07798824e-01, 1.68772921e-01, 1.34390011e-01,
          1.16868436e-01, 1.45764902e-01, 2.01291293e-01, 1.88303784e-01 ]
      - [ 1.76942229e-01, 1.43558875e-01, 1.27324879e-01, 9.61715877e-02,
          1.50681764e-01, 1.85884103e-01, 2.07370147e-01, 2.07370147e-01,
          2.07370147e-01, 2.06551433e-01, 1.58714145e-01, 1.02249704e-01,
          7.78745264e-02, 8.93277153e-02, 8.48885849e-02, 1.39099881e-01,
          2.07370147e-01, 2.07370147e-01, 1.20737597e-01, 1.81651548e-01,
          2.07370147e-01, 1.81901067e-01, 1.96942523e-01, 1.95110485e-01,
          1.92623958e-01, 1.77794114e-01, 1.50135294e-01, 1.53144315e-01,
          2.07370147e-01, 1.98225155e-01, 1.08350359e-01, 8.82308334e-02,
          9.50429812e-02, 1.48244902e-01, 2.03522518e-01, 1.99731275e-01,
          1.67565197e-01, 1.84049234e-01, 2.09823146e-01, 1.52490482e-01,
          1.08753480e-01, 7.47226700e-02, 1.28446266e-01, 1.72933310e-01,
          1.91950008e-01, 2.04899520e-01, 2.12469220e-01, 2.12469220e-01,
          1.96820557e-01, 9.56824943e-02, 8.92230049e-02, 1.27587169e-01,
          1.55367091e-01, 1.68332517e-01, 1.69106141e-01, 1.80849537e-01,
          1.91711307e-01, 9.22418237e-02, 5.92480116e-02, 8.15696418e-02,
          1.90087527e-01, 2.12469220e-01, 2.08424345e-01, 2.04625741e-01,
          1.94658354e-01, 2.12469220e-01, 1.38373062e-01, 8.46080855e-02,
          8.03396106e-02, 1.47336125e-01, 2.12469220e-01, 2.12469220e-01,
          2.13389084e-01, 2.13389084e-01, 2.12542504e-01, 1.45458415e-01,
          8.49511623e-02, 8.50736871e-02, 1.16964407e-01, 1.77284434e-01,
          2.00491995e-01, 2.13389084e-01, 2.13389084e-01, 1.75074637e-01,
          1.38702556e-01, 9.90278870e-02, 8.59563500e-02, 1.23920947e-01,
          1.87352255e-01, 2.13389084e-01, 2.13389084e-01, 2.13389084e-01,
          2.05774978e-01, 1.49366379e-01, 1.03795126e-01, 9.78294611e-02,
          1.09740518e-01, 1.39041424e-01, 1.80854976e-01, 2.13389084e-01,
          2.13389084e-01, 2.13389084e-01, 1.66291296e-01, 1.12256765e-01,
          1.37909263e-01, 1.13184363e-01, 1.21000685e-01, 1.51905715e-01,
          1.30673766e-01, 2.21095234e-01, 2.21095234e-01, 2.21095234e-01,
          2.21095234e-01, 1.86424360e-01, 2.01642051e-01, 1.80890530e-01,
          1.56404674e-01, 1.20982252e-01, 2.21095234e-01, 2.21095234e-01,
          1.79916129e-01, 1.00202419e-01, 8.37486535e-02, 1.08135872e-01,
          1.23478852e-01, 1.23288900e-01, 1.37494653e-01, 1.64257690e-01,
          1.78754702e-01, 2.20419437e-01, 1.87082827e-01, 1.97244912e-01,
          2.21095234e-01, 1.92763790e-01, 1.60649985e-01, 9.57478434e-02,
          1.59383282e-01, 1.71972752e-01, 1.58070236e-01, 1.07827887e-01,
          1.09329969e-01, 9.84965339e-02, 7.63273537e-02, 9.05545577e-02,
          1.42565385e-01, 2.05861241e-01, 2.20871881e-01, 1.38064489e-01,
          7.75343701e-02, 9.09366235e-02, 1.42261758e-01, 1.93805158e-01,
          1.53481662e-01, 2.20871881e-01, 2.17888191e-01, 2.20871881e-01,
          1.88291043e-01, 1.39986292e-01, 1.35229453e-01, 1.76027223e-01,
          2.20871881e-01, 2.20871881e-01, 1.32418498e-01, 2.07315654e-01,
          2.20871881e-01, 2.20871881e-01, 8.94980803e-02, 5.65323532e-02,
          4.95051406e-02, 6.14044219e-02, 9.24579948e-02, 1.68318138e-01,
          2.20871881e-01, 2.20871881e-01, 2.20871881e-01, 1.41870797e-01,
          1.01242848e-01, 1.10862345e-01, 1.01780929e-01, 1.13582127e-01,
          2.07172304e-01, 2.07172304e-01, 1.71018839e-01, 1.49041444e-01,
          1.31729454e-01, 1.34835422e-01, 1.46452427e-01, 1.43623605e-01,
          1.87354550e-01, 2.05508828e-01, 2.07172304e-01, 2.07172304e-01,
          1.93519771e-01, 1.70687899e-01, 2.07172304e-01, 1.57031506e-01,
          1.23266898e-01, 1.34703979e-01, 1.57080129e-01, 1.84020281e-01,
          2.06100374e-01, 1.65619910e-01, 1.33604988e-01, 1.11733198e-01,
          1.15183011e-01, 1.05798289e-01, 1.29365891e-01, 2.07172304e-01,
          2.07172304e-01, 1.52574956e-01, 1.47483602e-01, 1.64130136e-01,
          1.66351661e-01, 1.50166079e-01, 1.38135925e-01, 1.58899441e-01,
          2.13192210e-01, 1.81005999e-01, 1.24989115e-01, 1.37285978e-01,
          1.21182427e-01, 1.60836399e-01, 1.80039972e-01, 1.61685064e-01,
          1.67613611e-01, 1.56792879e-01, 1.82607800e-01, 1.39722168e-01,
          1.37151718e-01, 1.17458969e-01, 1.37209058e-01, 1.00938328e-01,
          8.48020539e-02, 1.16253391e-01, 2.13192210e-01, 2.13192210e-01,
          2.13192210e-01, 2.13192210e-01, 1.83734924e-01, 1.54689968e-01,
          1.54589683e-01, 1.31461114e-01, 1.59538776e-01, 2.13192210e-01,
          2.13192210e-01, 2.05754414e-01, 2.13192210e-01, 2.13192210e-01,
          1.86349452e-01, 1.14052147e-01, 8.27122182e-02, 1.15599975e-01,
          1.72176108e-01, 1.82787493e-01, 1.71924800e-01, 1.61737442e-01,
          7.87414834e-02, 7.86275938e-02, 6.66065365e-02, 8.19949284e-02,
          1.04837313e-01, 1.93121046e-01, 2.24927619e-01, 2.24927619e-01,
          2.24927619e-01, 1.03423826e-01, 1.04649477e-01, 1.23626344e-01,
          1.33658215e-01, 1.06960475e-01, 2.24927619e-01, 2.24927619e-01,
          1.73212767e-01, 1.62698507e-01, 1.66547105e-01, 1.51452422e-01,
          1.19013824e-01, 1.34725645e-01, 1.40686378e-01, 2.24927619e-01,
          2.24927619e-01, 1.99421555e-01, 1.54444799e-01, 1.47683263e-01,
          1.57525972e-01, 1.73985884e-01, 2.24927619e-01, 1.90785155e-01,
          1.68081164e-01, 2.09175825e-01, 2.09175825e-01, 1.78565294e-01,
          1.39365196e-01, 1.08006358e-01, 1.11857958e-01, 1.24525324e-01,
          1.10020012e-01, 1.90118402e-01, 2.01467514e-01, 1.59429640e-01,
          1.54476851e-01, 1.57766923e-01, 1.25730634e-01, 1.04706816e-01,
          1.18082300e-01, 1.35452360e-01, 2.09175825e-01, 2.09175825e-01,
          1.76362365e-01, 1.53958365e-01, 1.55844361e-01, 1.34992003e-01,
          1.79216936e-01, 2.09175825e-01, 1.69251040e-01, 2.09175825e-01,
          2.09175825e-01, 1.87890485e-01, 1.61135763e-01, 1.48396179e-01,
          1.31901324e-01, 1.64556310e-01, 1.64633274e-01, 1.93287537e-01 ]
      - [ 1.48622781e-01, 1.07908040e-01, 1.06515229e-01, 1.37051016e-01,
          1.91974685e-01, 2.03487307e-01, 2.05347613e-01, 2.06842378e-01,
          1.76161513e-01, 1.44817099e-01, 1.81086913e-01, 2.06842378e-01,
          1.94598913e-01, 1.85638249e-01, 1.44813031e-01, 1.06029585e-01,
          1.04679868e-01, 1.16704457e-01, 1.11679524e-01, 1.08337402e-01,
          1.19598523e-01, 2.06842378e-01, 2.06842378e-01, 1.93164557e-01,
          1.91575915e-01, 2.06842378e-01, 1.70517653e-01, 1.19252391e-01,
          1.40914097e-01, 1.43280074e-01, 1.98762938e-01, 2.06842378e-01,
          2.06842378e-01, 1.80534661e-01, 1.40548900e-01, 1.10334024e-01,
          1.54398754e-01, 2.13835865e-01, 2.13835865e-01, 1.61750212e-01,
          1.23884246e-01, 1.10482924e-01, 1.46285549e-01, 1.02057882e-01,
          1.46909967e-01, 1.34746298e-01, 1.91734090e-01, 2.13835865e-01,
          1.49900392e-01, 1.33283481e-01, 1.99993223e-01, 2.13835865e-01,
          2.10407689e-01, 1.85375005e-01, 1.21784635e-01, 1.09370336e-01,
          1.13231562e-01, 1.07384793e-01, 1.93127602e-01, 2.13835865e-01,
          1.95799515e-01, 1.18974626e-01, 1.30986482e-01, 1.41787499e-01,
          1.38109639e-01, 1.37222156e-01, 1.21913679e-01, 2.00998247e-01,
          2.13835865e-01, 2.13835865e-01, 1.70765519e-01, 1.80323213e-01,
          1.13106616e-01, 1.37928173e-01, 1.57133698e-01, 1.51571944e-01,
          1.27225444e-01, 1.92252755e-01, 2.06949234e-01, 1.73088223e-01,
          1.45410508e-01, 1.29256770e-01, 1.54066056e-01, 1.67701691e-01,
          1.61205798e-01, 2.06949234e-01, 2.06949234e-01, 1.87992916e-01,
          1.21438175e-01, 1.28781334e-01, 1.30247682e-01, 1.71344250e-01,
          1.57555953e-01, 1.41678289e-01, 1.53744325e-01, 1.57365844e-01,
          1.85748756e-01, 1.71330601e-01, 1.70050010e-01, 1.41747281e-01,
          1.70420110e-01, 1.49895027e-01, 1.74492955e-01, 2.06949234e-01,
          1.93053320e-01, 1.99003235e-01, 1.73207238e-01, 2.00844973e-01,
          1.17882431e-01, 1.01187095e-01, 9.82178301e-02, 1.84715137e-01,
          1.96289957e-01, 2.06473365e-01, 2.31756449e-01, 2.31756449e-01,
          1.86516955e-01, 7.47171193e-02, 8.41778815e-02, 1.08118989e-01,
          1.90918714e-01, 2.31756449e-01, 2.31756449e-01, 2.31756449e-01,
          1.49985343e-01, 8.72772411e-02, 7.97839761e-02, 5.13050593e-02,
          4.33605798e-02, 9.18562934e-02, 1.35998517e-01, 2.31756449e-01,
          2.31756449e-01, 2.31756449e-01, 1.55403391e-01, 6.79526478e-02,
          6.23636357e-02, 6.49034604e-02, 1.23458371e-01, 1.74368888e-01,
          2.31756449e-01, 2.31756449e-01, 2.31756449e-01, 1.08457290e-01,
          1.07188597e-01, 8.17044601e-02, 1.21034577e-01, 1.61876217e-01,
          2.26931930e-01, 2.26931930e-01, 2.26931930e-01, 1.40624046e-01,
          1.27363443e-01, 1.76951826e-01, 1.66836604e-01, 1.65436491e-01,
          1.46434397e-01, 2.26449415e-01, 2.10713342e-01, 1.88746944e-01,
          2.26931930e-01, 2.26931930e-01, 6.71791062e-02, 7.07996488e-02,
          9.04405564e-02, 1.49496704e-01, 2.13681728e-01, 2.26931930e-01,
          2.26931930e-01, 2.26931930e-01, 9.46911797e-02, 7.73897320e-02,
          8.68545771e-02, 1.43852979e-01, 1.67776376e-01, 1.74735844e-01,
          1.33284658e-01, 1.36560097e-01, 1.35528788e-01, 9.53856409e-02,
          9.65004414e-02, 1.45474851e-01, 1.33661628e-01, 1.00977682e-01,
          1.13977775e-01, 1.19167015e-01, 1.91411972e-01, 2.13756323e-01,
          1.47280514e-01, 1.38642356e-01, 2.13756323e-01, 2.13756323e-01,
          1.88364282e-01, 2.06587851e-01, 1.79027528e-01, 2.13756323e-01,
          2.11488351e-01, 1.64157376e-01, 6.15285859e-02, 9.24898759e-02,
          1.85683221e-01, 1.37240365e-01, 1.20816939e-01, 1.14804447e-01,
          1.63902074e-01, 1.50705546e-01, 7.63539150e-02, 1.06398687e-01,
          2.13221505e-01, 2.13756323e-01, 2.13756323e-01, 1.91814646e-01,
          2.13756323e-01, 2.13756323e-01, 1.86084703e-01, 1.00612149e-01,
          8.96560550e-02, 7.84529150e-02, 8.19036141e-02, 1.02678493e-01,
          1.83089986e-01, 2.25115925e-01, 2.00564489e-01, 1.38398170e-01,
          8.82898495e-02, 1.22015461e-01, 1.10912785e-01, 9.40923840e-02,
          1.33963853e-01, 1.96224630e-01, 2.25115925e-01, 2.25115925e-01,
          2.25115925e-01, 1.38511226e-01, 8.46395493e-02, 1.06804654e-01,
          1.92374691e-01, 2.25115925e-01, 2.19264135e-01, 1.51194245e-01,
          1.10306576e-01, 7.06800371e-02, 5.47166876e-02, 1.45957693e-01,
          1.47187531e-01, 1.63266689e-01, 2.25115925e-01, 2.25115925e-01,
          2.25115925e-01, 2.25115925e-01, 2.25115925e-01, 1.75675675e-01,
          7.68900365e-02, 7.06219450e-02, 6.38391748e-02, 8.77695158e-02,
          1.11618198e-01, 1.62368864e-01, 2.35342249e-01, 2.35342249e-01,
          1.55640185e-01, 8.19305927e-02, 8.44540522e-02, 1.57751933e-01,
          1.49464607e-01, 1.10772684e-01, 9.27727371e-02, 1.43958598e-01,
          2.12405875e-01, 1.67521924e-01, 1.26322970e-01, 1.10249124e-01,
          1.05089322e-01, 1.21542364e-01, 1.90534338e-01, 2.26543516e-01,
          2.35342249e-01, 2.35342249e-01, 2.35342249e-01, 1.42360717e-01,
          1.10900708e-01, 1.62902698e-01, 1.80185363e-01, 1.80318624e-01,
          1.75135881e-01, 2.28164002e-01, 2.35342249e-01, 2.35342249e-01,
          1.10069759e-01, 1.38390914e-01, 2.25609809e-01, 2.21623406e-01,
          1.04676448e-01, 9.70217139e-02, 1.46009326e-01, 1.11912325e-01,
          1.19132638e-01, 1.05269164e-01, 1.66521221e-01, 2.25609809e-01,
          2.08263665e-01, 1.22436449e-01, 1.75109506e-01, 2.25609809e-01,
          1.71315446e-01, 1.05679400e-01, 1.47947103e-01, 1.12812273e-01,
          2.07648709e-01, 1.82740659e-01, 1.11782849e-01, 1.28006712e-01,
          1.70310214e-01, 2.25609809e-01, 2.20802560e-01, 1.19349718e-01,
          1.14061303e-01, 1.82039633e-01, 1.47564977e-01, 1.29412338e-01,
          1.50976464e-01, 2.25609809e-01, 2.25609809e-01, 1.89005479e-01 ]
      - [ 1.76800013e-01, 2.06052020e-01, 1.35314301e-01, 9.65830088e-02,
          1.23112716e-01, 1.61597028e-01, 2.06052020e-01, 1.80944026e-01,
          1.62697002e-01, 1.53719157e-01, 1.58800825e-01, 1.29241034e-01,
          1.11707658e-01, 1.45673171e-01, 1.56755731e-01, 1.92218453e-01,
          1.67512953e-01, 1.87531993e-01, 1.90102547e-01, 2.06052020e-01,
          1.98476568e-01, 1.27544314e-01, 1.41196162e-01, 1.49427444e-01,
          2.06052020e-01, 1.71596602e-01, 1.35827288e-01, 1.16069108e-01,
          1.56262293e-01, 1.88819408e-01, 1.40533015e-01, 1.95985600e-01,
          1.70670092e-01, 2.06052020e-01, 1.96098268e-01, 1.45025477e-01,
          2.10828990e-01, 2.02386186e-01, 1.59963340e-01, 1.22752599e-01,
          1.24672554e-01, 9.93137956e-02, 1.12253673e-01, 1.65616587e-01,
          2.14596137e-01, 1.58030942e-01, 2.14596137e-01, 2.14596137e-01,
          2.14596137e-01, 1.48392096e-01, 9.55188945e-02, 9.41205472e-02,
          1.55930474e-01, 1.60203770e-01, 1.73932597e-01, 2.14596137e-01,
          2.14596137e-01, 1.37508526e-01, 1.27903104e-01, 1.05804622e-01,
          1.34774104e-01, 1.77903861e-01, 1.83308810e-01, 1.52252689e-01,
          1.87160730e-01, 2.14596137e-01, 1.55201018e-01, 9.38176438e-02,
          8.56563821e-02, 1.35523900e-01, 2.14596137e-01, 2.14596137e-01,
          1.42758548e-01, 2.14696631e-01, 2.14696631e-01, 2.14696631e-01,
          1.13948561e-01, 8.76663029e-02, 9.00967792e-02, 1.30759612e-01,
          1.24958709e-01, 1.84098914e-01, 2.14696631e-01, 2.14696631e-01,
          1.96209982e-01, 1.26557469e-01, 1.11714646e-01, 1.08730838e-01,
          1.64430127e-01, 1.59913242e-01, 1.53962433e-01, 1.71684355e-01,
          1.98895127e-01, 1.64438158e-01, 1.03723340e-01, 9.26944017e-02,
          1.05798192e-01, 1.79334700e-01, 1.85930490e-01, 2.14696631e-01,
          2.14696631e-01, 2.14696631e-01, 2.00947911e-01, 1.75608754e-01,
          1.72874272e-01, 1.38090849e-01, 1.45294055e-01, 1.53492108e-01,
          1.57723114e-01, 2.09382817e-01, 2.09382817e-01, 2.05054179e-01,
          1.56125277e-01, 1.45274222e-01, 2.09382817e-01, 1.64143220e-01,
          1.35989830e-01, 9.21372175e-02, 1.60428122e-01, 2.09382817e-01,
          1.97006866e-01, 1.58436328e-01, 1.35239527e-01, 1.72043413e-01,
          1.52983263e-01, 1.18768409e-01, 1.19774863e-01, 1.79738417e-01,
          2.09382817e-01, 2.01224819e-01, 2.03965798e-01, 1.67526022e-01,
          1.81884542e-01, 1.62133560e-01, 1.35185376e-01, 9.15137678e-02,
          1.06630236e-01, 1.62156373e-01, 1.68632209e-01, 1.62577376e-01,
          1.56427890e-01, 2.06784964e-01, 1.53078765e-01, 1.06290080e-01,
          1.39237136e-01, 2.19241768e-01, 2.19241768e-01, 2.19241768e-01,
          1.59551486e-01, 1.34799480e-01, 1.36649668e-01, 1.57534063e-01,
          1.43977106e-01, 1.32132694e-01, 1.65560722e-01, 2.12333694e-01,
          1.90074831e-01, 1.24552935e-01, 9.91775841e-02, 1.19353227e-01,
          2.04035670e-01, 2.01570719e-01, 1.25278100e-01, 1.72094107e-01,
          2.11495072e-01, 1.99553639e-01, 1.76243469e-01, 1.65725693e-01,
          1.97981924e-01, 1.39538452e-01, 1.09599076e-01, 1.32142991e-01,
          2.07736209e-01, 2.19241768e-01, 2.19241768e-01, 1.64656729e-01,
          9.46266651e-02, 9.12997350e-02, 8.56439993e-02, 1.04299419e-01,
          1.39430195e-01, 1.36571527e-01, 1.50634632e-01, 1.68307990e-01,
          1.42674103e-01, 1.07725739e-01, 1.02530025e-01, 1.53479978e-01,
          1.62228763e-01, 2.06257924e-01, 2.01129645e-01, 1.87944785e-01,
          2.06257924e-01, 2.06257924e-01, 2.06257924e-01, 1.91090167e-01,
