%YAML:1.0
---
opencv_ml_svm:
   format: 3
   svmType: C_SVC
   kernel:
      type: RBF
      gamma: 2.2500000000000003e-03
   C: 5.0000000000000000e-01
   term_criteria: { epsilon:1.1920928955078125e-07, iterations:1000 }
   var_count: 150
   class_count: 2
   class_labels: !!opencv-matrix
      rows: 2
      cols: 1
      dt: i
      data: [ -1, 1 ]
   sv_total: 513
   support_vectors:
      - [ 1., 1., 1., 0., 1., 1., 1., 2., 1., 0., 0., 1., 1., 1., 2., 0.,
          1., 3., 0., 0., 3., 2., 1., 1., 1., 0., 0., 0., 0., 0., 1., 0.,
          0., 0., 0., 0., 0., 1., 2., 1., 0., 0., 3., 0., 1., 0., 0., 1.,
          0., 2., 0., 1., 2., 0., 0., 0., 1., 1., 0., 0., 0., 0., 2., 2.,
          0., 0., 0., 2., 0., 1., 2., 0., 0., 0., 0., 1., 0., 0., 0., 0.,
          1., 0., 0., 0., 1., 1., 0., 0., 2., 0., 2., 0., 0., 1., 0., 0.,
          0., 3., 0., 0., 3., 1., 0., 0., 0., 2., 2., 0., 1., 1., 0., 0.,
          0., 1., 0., 0., 0., 0., 1., 2., 0., 1., 0., 0., 0., 1., 0., 0.,
          0., 0., 1., 0., 0., 1., 2., 0., 0., 0., 1., 2., 0., 0., 0., 0.,
          0., 4., 2., 2., 0., 0. ]
      - [ 3., 1., 2., 3., 0., 1., 0., 1., 4., 3., 2., 0., 1., 1., 2., 4.,
          1., 1., 2., 1., 2., 3., 4., 0., 2., 1., 1., 2., 1., 4., 2., 0.,
          0., 1., 2., 2., 1., 2., 2., 0., 2., 0., 0., 0., 2., 3., 2., 2.,
          4., 0., 4., 1., 1., 1., 0., 1., 2., 1., 1., 0., 2., 2., 1., 0.,
          0., 2., 0., 1., 1., 2., 0., 0., 2., 0., 3., 1., 2., 1., 2., 1.,
          1., 3., 0., 0., 2., 3., 3., 1., 2., 1., 4., 0., 1., 1., 0., 1.,
          0., 1., 0., 2., 1., 4., 1., 3., 0., 0., 1., 2., 2., 2., 1., 1.,
          2., 1., 1., 1., 0., 0., 1., 0., 1., 0., 2., 2., 1., 0., 1., 0.,
          2., 3., 1., 1., 2., 0., 1., 0., 2., 0., 1., 1., 1., 1., 2., 1.,
          0., 1., 1., 2., 0., 1. ]
      - [ 0., 0., 1., 3., 0., 0., 2., 1., 1., 1., 1., 2., 1., 2., 1., 0.,
          0., 1., 1., 0., 2., 0., 0., 1., 1., 0., 2., 0., 2., 1., 0., 1.,
          0., 0., 0., 0., 2., 1., 1., 2., 0., 1., 0., 0., 1., 0., 4., 3.,
          1., 3., 0., 1., 1., 2., 0., 0., 2., 0., 1., 0., 1., 1., 1., 0.,
          3., 1., 1., 0., 2., 2., 1., 1., 2., 0., 1., 1., 2., 3., 0., 3.,
          1., 0., 5., 1., 2., 2., 0., 0., 0., 2., 2., 0., 1., 1., 2., 1.,
          0., 0., 0., 0., 1., 0., 3., 3., 2., 1., 0., 1., 0., 0., 1., 3.,
          1., 1., 0., 1., 1., 0., 0., 0., 1., 0., 0., 0., 2., 1., 0., 2.,
          0., 1., 0., 2., 1., 0., 0., 1., 1., 0., 0., 1., 3., 3., 1., 0.,
          0., 2., 0., 1., 0., 0. ]
      - [ 2., 4., 0., 2., 0., 3., 0., 1., 1., 2., 0., 1., 0., 2., 1., 0.,
          0., 1., 0., 0., 1., 3., 0., 0., 1., 2., 3., 0., 2., 0., 0., 0.,
          0., 2., 0., 1., 3., 1., 0., 0., 0., 2., 2., 3., 1., 3., 2., 1.,
          1., 1., 1., 1., 1., 2., 0., 0., 0., 2., 0., 2., 1., 1., 0., 3.,
          1., 0., 2., 0., 2., 1., 2., 1., 0., 0., 1., 1., 1., 1., 2., 2.,
          0., 0., 0., 3., 1., 2., 1., 1., 0., 1., 1., 0., 2., 0., 0., 0.,
          1., 1., 1., 1., 1., 1., 1., 1., 0., 0., 1., 2., 1., 1., 2., 1.,
          2., 0., 1., 2., 0., 1., 0., 1., 3., 0., 0., 1., 3., 0., 0., 2.,
          0., 1., 0., 0., 1., 2., 2., 2., 0., 1., 2., 0., 2., 2., 2., 2.,
          2., 0., 1., 2., 0., 0. ]
      - [ 0., 0., 1., 2., 3., 1., 0., 1., 1., 0., 0., 0., 0., 0., 0., 0.,
          1., 1., 0., 1., 0., 1., 3., 0., 3., 1., 1., 0., 1., 2., 2., 2.,
          0., 0., 1., 2., 0., 1., 0., 1., 0., 2., 2., 0., 2., 0., 0., 0.,
          1., 0., 0., 3., 0., 0., 1., 2., 0., 0., 3., 2., 0., 2., 2., 1.,
          0., 0., 2., 0., 1., 0., 0., 0., 1., 1., 0., 0., 1., 0., 2., 0.,
          0., 1., 1., 2., 1., 0., 2., 0., 0., 2., 3., 0., 0., 2., 0., 3.,
          0., 0., 1., 3., 0., 1., 1., 1., 2., 2., 0., 1., 1., 0., 0., 0.,
          0., 4., 1., 0., 1., 0., 0., 1., 0., 0., 1., 1., 2., 1., 3., 1.,
          0., 0., 0., 1., 0., 0., 0., 1., 0., 0., 1., 0., 1., 0., 0., 1.,
          0., 0., 0., 1., 1., 2. ]
      - [ 1., 1., 1., 0., 1., 1., 3., 3., 0., 1., 0., 2., 0., 0., 3., 0.,
          1., 2., 1., 1., 3., 1., 0., 2., 0., 0., 2., 2., 1., 2., 2., 0.,
          0., 2., 0., 0., 1., 1., 1., 1., 0., 2., 1., 2., 3., 1., 0., 0.,
          2., 1., 0., 0., 0., 0., 1., 0., 1., 0., 2., 0., 0., 2., 0., 0.,
          1., 1., 3., 2., 1., 2., 1., 0., 1., 0., 2., 4., 0., 0., 0., 0.,
          2., 0., 1., 1., 2., 0., 0., 0., 1., 2., 3., 2., 1., 0., 0., 0.,
          0., 0., 2., 0., 1., 2., 2., 0., 0., 3., 1., 1., 2., 3., 3., 1.,
          1., 3., 1., 1., 0., 1., 2., 2., 0., 0., 2., 3., 1., 0., 1., 2.,
          1., 1., 2., 1., 2., 3., 1., 1., 1., 0., 0., 1., 2., 1., 0., 0.,
          1., 1., 1., 2., 1., 1. ]
      - [ 0., 2., 0., 1., 1., 0., 3., 2., 0., 0., 0., 0., 2., 0., 0., 0.,
          0., 2., 1., 3., 2., 2., 4., 1., 2., 1., 2., 2., 0., 2., 0., 0.,
          1., 0., 3., 2., 0., 3., 1., 0., 0., 1., 3., 2., 0., 0., 1., 2.,
          1., 0., 1., 1., 2., 2., 2., 1., 2., 0., 0., 0., 0., 1., 0., 0.,
          1., 0., 3., 0., 0., 1., 2., 5., 1., 1., 0., 0., 0., 0., 0., 0.,
          0., 0., 0., 1., 0., 0., 2., 2., 0., 0., 0., 2., 1., 0., 0., 2.,
          0., 0., 1., 0., 3., 3., 1., 1., 1., 0., 0., 3., 0., 0., 1., 0.,
          1., 0., 1., 2., 1., 1., 0., 1., 1., 1., 1., 2., 2., 0., 0., 3.,
          0., 1., 2., 1., 2., 3., 1., 2., 1., 2., 0., 0., 2., 0., 0., 2.,
          1., 0., 0., 0., 0., 0. ]
      - [ 4., 2., 0., 1., 3., 1., 2., 2., 1., 1., 4., 4., 1., 2., 1., 3.,
          2., 2., 1., 1., 3., 0., 6., 0., 4., 3., 1., 2., 3., 5., 2., 1.,
          0., 3., 1., 3., 4., 1., 0., 0., 1., 1., 4., 2., 0., 1., 2., 1.,
          0., 0., 1., 0., 1., 2., 1., 2., 4., 2., 1., 2., 3., 3., 2., 2.,
          2., 3., 2., 2., 0., 2., 2., 4., 2., 1., 1., 3., 2., 3., 3., 3.,
          0., 0., 3., 1., 1., 1., 0., 1., 2., 6., 2., 1., 3., 3., 2., 0.,
          1., 1., 3., 2., 1., 4., 2., 3., 1., 0., 3., 0., 0., 3., 4., 1.,
          0., 1., 3., 0., 2., 3., 1., 2., 1., 1., 3., 0., 0., 1., 0., 2.,
          1., 2., 0., 1., 1., 2., 1., 1., 3., 3., 2., 1., 3., 0., 0., 2.,
          0., 1., 1., 0., 4., 2. ]
      - [ 1., 2., 2., 0., 4., 2., 2., 2., 2., 0., 0., 2., 1., 1., 1., 0.,
          1., 3., 1., 1., 1., 2., 0., 1., 3., 0., 1., 1., 0., 3., 1., 1.,
          0., 3., 2., 2., 0., 6., 1., 2., 2., 1., 1., 0., 2., 1., 0., 2.,
          1., 0., 6., 1., 2., 1., 1., 0., 1., 1., 1., 3., 1., 2., 3., 0.,
          1., 1., 0., 1., 1., 3., 1., 1., 0., 0., 3., 2., 0., 2., 1., 2.,
          1., 0., 1., 2., 1., 3., 1., 2., 1., 4., 1., 3., 0., 1., 3., 2.,
          1., 1., 2., 3., 2., 1., 4., 1., 0., 0., 0., 2., 4., 0., 0., 0.,
          1., 0., 1., 2., 1., 0., 2., 0., 1., 1., 4., 0., 0., 1., 0., 2.,
          2., 3., 1., 0., 0., 1., 1., 0., 0., 0., 0., 2., 1., 2., 0., 2.,
          0., 3., 0., 0., 1., 2. ]
      - [ 0., 1., 0., 2., 2., 0., 0., 0., 1., 1., 0., 1., 1., 1., 1., 1.,
          0., 1., 1., 1., 2., 2., 0., 0., 1., 1., 1., 0., 1., 1., 0., 0.,
          0., 1., 1., 0., 0., 0., 0., 1., 1., 1., 0., 0., 0., 1., 1., 0.,
          1., 0., 1., 1., 2., 1., 2., 1., 1., 0., 0., 2., 1., 0., 0., 0.,
          1., 1., 0., 1., 2., 0., 1., 0., 0., 0., 0., 1., 0., 3., 1., 2.,
          1., 1., 0., 1., 1., 0., 0., 0., 0., 0., 1., 0., 1., 3., 3., 1.,
          0., 0., 1., 0., 0., 1., 0., 1., 0., 0., 1., 1., 1., 3., 0., 1.,
          1., 1., 0., 0., 0., 1., 0., 1., 0., 1., 2., 0., 2., 1., 0., 1.,
          1., 1., 0., 0., 2., 0., 2., 0., 0., 0., 0., 2., 1., 0., 1., 2.,
          3., 2., 2., 0., 1., 2. ]
      - [ 0., 0., 0., 2., 4., 3., 2., 4., 0., 1., 0., 5., 2., 3., 3., 2.,
          2., 3., 2., 2., 0., 1., 1., 2., 0., 0., 3., 2., 1., 2., 2., 2.,
          0., 1., 0., 5., 6., 1., 1., 0., 1., 2., 3., 1., 3., 2., 2., 0.,
          1., 2., 1., 3., 1., 1., 1., 3., 2., 1., 3., 0., 4., 2., 2., 2.,
          1., 2., 1., 6., 1., 3., 0., 0., 2., 2., 1., 3., 0., 0., 3., 3.,
          2., 2., 2., 2., 2., 1., 2., 0., 2., 2., 0., 1., 4., 4., 3., 5.,
          1., 3., 2., 4., 1., 2., 1., 2., 3., 2., 2., 2., 3., 2., 3., 1.,
          1., 1., 2., 2., 2., 0., 0., 2., 1., 3., 0., 0., 3., 0., 1., 1.,
          5., 2., 0., 2., 1., 0., 1., 3., 1., 3., 0., 2., 1., 0., 1., 0.,
          1., 3., 2., 2., 1., 4. ]
      - [ 3., 1., 1., 1., 2., 1., 1., 0., 0., 1., 1., 0., 1., 0., 0., 2.,
          2., 1., 0., 1., 1., 1., 0., 3., 2., 1., 1., 2., 0., 1., 3., 0.,
          0., 5., 4., 3., 1., 0., 0., 2., 1., 3., 2., 3., 1., 1., 4., 2.,
          0., 3., 3., 0., 4., 0., 2., 0., 0., 0., 3., 1., 0., 3., 0., 0.,
          1., 0., 0., 2., 1., 1., 1., 3., 1., 0., 0., 1., 0., 0., 0., 3.,
          0., 1., 1., 2., 1., 0., 1., 1., 2., 3., 1., 1., 1., 3., 1., 2.,
          1., 3., 1., 1., 2., 0., 1., 0., 0., 2., 0., 4., 1., 0., 0., 1.,
          1., 1., 1., 1., 1., 0., 1., 1., 1., 0., 1., 0., 0., 2., 1., 2.,
          0., 0., 0., 0., 2., 5., 0., 0., 4., 3., 3., 1., 1., 2., 2., 2.,
          1., 0., 1., 0., 3., 2. ]
      - [ 1., 2., 0., 0., 2., 1., 2., 4., 5., 0., 4., 1., 0., 3., 0., 1.,
          1., 0., 0., 4., 2., 3., 6., 2., 2., 6., 5., 2., 1., 1., 1., 1.,
          0., 2., 1., 3., 3., 0., 3., 3., 4., 0., 2., 2., 3., 2., 3., 0.,
          1., 1., 2., 1., 1., 2., 3., 0., 1., 2., 0., 0., 4., 2., 3., 1.,
          0., 1., 3., 1., 3., 2., 1., 3., 1., 1., 1., 1., 3., 3., 0., 3.,
          0., 1., 0., 6., 3., 1., 1., 2., 7., 0., 3., 3., 2., 2., 2., 2.,
          1., 3., 0., 3., 0., 2., 0., 0., 1., 2., 3., 5., 1., 2., 2., 2.,
          1., 4., 1., 4., 2., 3., 0., 4., 2., 0., 3., 2., 1., 1., 0., 2.,
          2., 3., 2., 1., 2., 2., 4., 2., 0., 1., 1., 2., 0., 1., 0., 1.,
          0., 1., 1., 1., 2., 0. ]
      - [ 1., 1., 0., 0., 1., 0., 0., 0., 1., 1., 1., 0., 1., 0., 0., 1.,
          2., 1., 1., 1., 3., 1., 3., 0., 0., 3., 2., 1., 0., 1., 1., 0.,
          0., 1., 2., 1., 1., 1., 1., 1., 0., 0., 2., 0., 0., 0., 1., 1.,
          2., 1., 1., 1., 0., 2., 1., 1., 2., 0., 0., 1., 0., 1., 2., 0.,
          1., 3., 4., 0., 2., 0., 2., 2., 3., 2., 1., 0., 0., 3., 1., 4.,
          0., 0., 1., 3., 2., 0., 1., 2., 3., 2., 2., 2., 1., 1., 2., 1.,
          2., 3., 0., 4., 4., 0., 2., 1., 1., 1., 4., 0., 2., 2., 1., 0.,
          1., 1., 1., 0., 0., 1., 0., 2., 1., 1., 0., 1., 3., 1., 3., 3.,
          1., 0., 3., 1., 4., 3., 2., 0., 1., 3., 4., 1., 1., 2., 2., 0.,
          0., 1., 1., 0., 0., 1. ]
      - [ 1., 2., 0., 0., 3., 1., 1., 0., 1., 0., 3., 2., 2., 1., 3., 0.,
          2., 0., 0., 0., 0., 1., 3., 0., 1., 2., 1., 0., 1., 0., 1., 1.,
          0., 0., 1., 2., 2., 1., 2., 0., 0., 3., 1., 1., 0., 1., 0., 1.,
          2., 1., 2., 4., 0., 1., 1., 2., 2., 2., 1., 1., 0., 0., 0., 1.,
          1., 0., 0., 0., 0., 0., 0., 2., 1., 0., 0., 3., 2., 1., 4., 1.,
          1., 7., 0., 1., 1., 0., 1., 2., 0., 3., 1., 1., 2., 0., 2., 0.,
          2., 1., 2., 2., 1., 0., 0., 0., 0., 3., 1., 1., 1., 2., 1., 1.,
          3., 2., 0., 3., 0., 1., 1., 1., 2., 0., 2., 1., 2., 0., 3., 1.,
          0., 1., 1., 0., 1., 2., 0., 0., 0., 2., 0., 1., 3., 0., 1., 2.,
          0., 1., 1., 0., 3., 1. ]
      - [ 2., 2., 1., 1., 1., 0., 1., 2., 3., 0., 2., 2., 2., 2., 1., 4.,
          3., 1., 1., 2., 1., 4., 1., 0., 1., 1., 0., 0., 2., 1., 0., 1.,
          0., 3., 1., 0., 1., 2., 1., 2., 2., 2., 3., 1., 0., 1., 1., 1.,
          1., 1., 2., 1., 2., 2., 1., 2., 2., 1., 1., 4., 4., 1., 1., 1.,
          3., 2., 1., 1., 1., 2., 2., 2., 1., 2., 2., 1., 2., 0., 0., 2.,
          0., 0., 0., 1., 2., 1., 1., 2., 0., 0., 0., 2., 0., 1., 2., 1.,
          2., 2., 0., 2., 2., 1., 2., 1., 0., 3., 2., 6., 1., 0., 3., 1.,
          0., 2., 3., 0., 1., 1., 1., 2., 2., 2., 0., 0., 4., 0., 0., 0.,
          0., 3., 0., 1., 1., 1., 2., 0., 0., 0., 0., 1., 0., 3., 4., 2.,
          3., 1., 0., 3., 1., 1. ]
      - [ 1., 2., 0., 1., 2., 2., 1., 4., 1., 1., 3., 0., 2., 1., 2., 2.,
          1., 4., 1., 3., 1., 1., 1., 1., 0., 1., 2., 1., 0., 1., 0., 2.,
          0., 1., 2., 0., 1., 0., 1., 1., 3., 1., 1., 1., 2., 1., 1., 1.,
          0., 2., 3., 3., 2., 0., 0., 0., 0., 1., 1., 1., 1., 1., 3., 2.,
          2., 0., 2., 4., 4., 0., 2., 2., 0., 1., 1., 0., 1., 3., 1., 0.,
          0., 1., 1., 3., 2., 0., 0., 0., 0., 1., 0., 0., 0., 0., 1., 1.,
          4., 2., 3., 0., 0., 3., 1., 2., 4., 1., 0., 1., 2., 0., 1., 0.,
          1., 0., 1., 0., 2., 0., 1., 2., 0., 0., 1., 2., 0., 1., 2., 1.,
          6., 0., 0., 2., 0., 1., 4., 2., 1., 2., 2., 3., 0., 2., 0., 2.,
          0., 1., 1., 0., 1., 1. ]
      - [ 2., 3., 0., 1., 3., 1., 0., 0., 2., 1., 1., 0., 1., 2., 3., 0.,
          0., 0., 1., 1., 1., 0., 1., 5., 0., 2., 1., 0., 1., 1., 2., 0.,
          1., 2., 1., 3., 0., 0., 1., 1., 1., 2., 2., 1., 5., 0., 1., 1.,
          1., 2., 1., 1., 2., 1., 1., 0., 1., 2., 1., 0., 2., 1., 3., 0.,
          2., 1., 0., 1., 1., 1., 0., 4., 1., 1., 4., 1., 0., 0., 0., 1.,
          3., 1., 1., 1., 1., 1., 1., 2., 2., 0., 1., 0., 2., 0., 2., 0.,
          1., 0., 1., 2., 0., 2., 1., 0., 7., 0., 2., 1., 1., 3., 0., 0.,
          1., 1., 0., 1., 0., 0., 0., 1., 3., 0., 1., 4., 0., 0., 1., 1.,
          3., 1., 0., 1., 1., 0., 1., 3., 1., 2., 0., 1., 2., 1., 2., 0.,
          2., 1., 0., 1., 2., 0. ]
      - [ 1., 2., 0., 1., 3., 2., 0., 1., 1., 2., 1., 1., 2., 1., 0., 1.,
          2., 2., 1., 2., 3., 1., 4., 2., 0., 0., 1., 1., 0., 1., 0., 0.,
          0., 3., 0., 2., 0., 1., 2., 1., 1., 0., 5., 2., 1., 3., 3., 1.,
          1., 0., 3., 0., 0., 0., 3., 2., 2., 0., 1., 0., 0., 2., 0., 1.,
          3., 4., 4., 5., 1., 1., 1., 2., 0., 0., 1., 2., 2., 1., 1., 1.,
          0., 0., 0., 1., 3., 2., 2., 0., 1., 1., 1., 0., 2., 0., 0., 3.,
          2., 0., 1., 0., 1., 2., 2., 1., 1., 2., 2., 2., 3., 0., 2., 1.,
          0., 1., 0., 3., 0., 2., 0., 2., 3., 1., 1., 0., 0., 1., 1., 1.,
          2., 3., 1., 1., 0., 1., 0., 1., 2., 1., 1., 1., 0., 3., 2., 2.,
          2., 1., 2., 2., 2., 0. ]
      - [ 0., 3., 3., 3., 2., 0., 2., 2., 0., 1., 1., 0., 0., 0., 1., 4.,
          2., 0., 3., 3., 0., 1., 0., 1., 0., 0., 1., 0., 0., 1., 1., 0.,
          0., 1., 3., 0., 1., 2., 1., 0., 0., 0., 3., 1., 2., 1., 2., 0.,
          3., 0., 2., 1., 0., 1., 1., 3., 0., 1., 4., 0., 2., 1., 2., 3.,
          1., 3., 1., 0., 3., 2., 3., 0., 1., 4., 0., 1., 0., 0., 0., 1.,
          2., 3., 0., 1., 1., 0., 1., 2., 2., 1., 0., 1., 1., 1., 1., 0.,
          2., 0., 2., 0., 0., 2., 2., 3., 1., 0., 2., 2., 2., 1., 0., 2.,
          0., 0., 2., 2., 0., 1., 1., 0., 0., 0., 2., 1., 1., 3., 1., 2.,
          0., 2., 1., 1., 1., 1., 0., 0., 1., 0., 1., 0., 2., 0., 4., 1.,
          3., 2., 0., 2., 1., 1. ]
      - [ 1., 0., 1., 1., 2., 1., 0., 0., 1., 2., 0., 1., 0., 2., 1., 0.,
          6., 1., 1., 1., 1., 6., 2., 1., 4., 0., 2., 0., 0., 1., 2., 0.,
          0., 2., 1., 1., 5., 2., 0., 1., 4., 1., 1., 1., 1., 0., 2., 2.,
          1., 2., 0., 1., 0., 3., 1., 2., 0., 0., 2., 1., 0., 1., 2., 5.,
          2., 2., 0., 0., 2., 2., 1., 4., 1., 1., 0., 3., 3., 5., 2., 0.,
          3., 3., 2., 2., 2., 3., 1., 3., 2., 2., 1., 3., 2., 1., 0., 2.,
          3., 2., 1., 3., 1., 0., 0., 1., 4., 2., 0., 3., 6., 1., 2., 0.,
          1., 2., 1., 1., 7., 1., 2., 1., 1., 4., 2., 4., 4., 2., 7., 3.,
          1., 0., 2., 2., 2., 1., 1., 1., 0., 1., 2., 0., 3., 3., 3., 1.,
          1., 2., 1., 2., 2., 1. ]
      - [ 0., 2., 4., 2., 3., 2., 0., 1., 3., 0., 1., 0., 1., 0., 3., 2.,
          2., 1., 0., 3., 1., 0., 0., 1., 2., 1., 1., 1., 2., 0., 2., 0.,
          1., 1., 1., 2., 0., 0., 1., 2., 0., 3., 4., 0., 0., 1., 1., 2.,
          0., 2., 0., 0., 2., 1., 1., 1., 1., 2., 0., 0., 2., 0., 0., 1.,
          0., 1., 3., 0., 1., 0., 2., 0., 1., 2., 1., 1., 1., 0., 2., 0.,
          1., 2., 4., 2., 2., 0., 3., 1., 1., 1., 1., 2., 0., 3., 2., 3.,
          1., 0., 1., 0., 4., 1., 0., 1., 1., 2., 1., 2., 2., 2., 0., 0.,
          1., 0., 2., 0., 1., 0., 2., 2., 0., 3., 2., 2., 0., 1., 0., 0.,
          1., 1., 2., 1., 0., 1., 1., 0., 0., 2., 1., 0., 0., 1., 0., 3.,
          1., 1., 1., 2., 2., 0. ]
      - [ 1., 0., 2., 0., 1., 2., 0., 2., 1., 1., 1., 0., 0., 0., 1., 0.,
          2., 0., 0., 1., 0., 0., 0., 0., 2., 4., 1., 0., 4., 3., 1., 0.,
          0., 0., 0., 1., 1., 2., 1., 1., 0., 1., 2., 1., 0., 0., 1., 1.,
          2., 1., 0., 1., 0., 0., 3., 0., 1., 2., 3., 1., 1., 2., 0., 0.,
          2., 0., 1., 1., 0., 0., 0., 1., 1., 1., 0., 1., 1., 1., 1., 0.,
          0., 2., 2., 0., 1., 0., 3., 1., 0., 0., 2., 1., 2., 1., 0., 0.,
          1., 0., 0., 0., 1., 2., 0., 1., 0., 1., 4., 0., 4., 1., 2., 4.,
          1., 1., 0., 1., 2., 1., 1., 0., 1., 0., 1., 3., 0., 0., 0., 0.,
          1., 1., 2., 0., 0., 0., 0., 0., 0., 1., 1., 1., 0., 1., 3., 1.,
          2., 2., 1., 3., 1., 1. ]
      - [ 3., 0., 0., 1., 0., 2., 0., 2., 1., 0., 1., 3., 0., 0., 3., 1.,
          2., 0., 0., 1., 1., 2., 2., 4., 2., 0., 0., 1., 2., 0., 1., 1.,
          0., 1., 0., 0., 2., 1., 1., 1., 0., 0., 1., 0., 1., 0., 1., 1.,
          0., 0., 1., 0., 0., 1., 1., 1., 2., 1., 2., 1., 0., 0., 1., 0.,
          0., 2., 1., 1., 0., 0., 0., 1., 1., 1., 0., 1., 2., 1., 0., 3.,
          0., 0., 0., 1., 1., 2., 0., 0., 0., 2., 0., 1., 0., 2., 0., 0.,
          2., 2., 2., 0., 0., 0., 1., 2., 1., 3., 3., 1., 1., 0., 0., 0.,
          0., 1., 0., 0., 3., 0., 0., 0., 2., 0., 0., 3., 0., 1., 2., 1.,
          2., 0., 0., 0., 3., 1., 1., 1., 1., 0., 0., 1., 1., 0., 0., 0.,
          1., 0., 0., 1., 1., 0. ]
      - [ 0., 0., 0., 2., 1., 0., 2., 0., 2., 1., 1., 0., 0., 0., 0., 1.,
          1., 0., 2., 0., 2., 1., 5., 1., 2., 0., 0., 0., 2., 0., 0., 1.,
          0., 2., 0., 3., 0., 0., 1., 0., 1., 1., 1., 3., 0., 1., 1., 0.,
          2., 0., 2., 1., 0., 0., 1., 1., 2., 1., 0., 0., 1., 0., 0., 0.,
          2., 1., 0., 1., 0., 2., 1., 0., 0., 0., 2., 3., 1., 1., 1., 1.,
          2., 0., 2., 1., 1., 1., 1., 0., 0., 2., 1., 1., 1., 1., 0., 2.,
          1., 0., 1., 0., 4., 2., 1., 0., 0., 3., 1., 3., 0., 3., 2., 1.,
          1., 1., 2., 2., 0., 0., 0., 0., 1., 0., 1., 0., 0., 2., 1., 0.,
          1., 0., 0., 0., 1., 0., 0., 0., 1., 2., 5., 2., 1., 1., 1., 1.,
          2., 1., 4., 2., 1., 4. ]
      - [ 2., 2., 3., 4., 0., 1., 1., 2., 0., 2., 2., 1., 0., 2., 2., 4.,
          3., 1., 0., 4., 0., 2., 1., 2., 1., 0., 4., 3., 1., 2., 1., 3.,
          0., 2., 1., 2., 3., 1., 1., 2., 0., 0., 0., 1., 0., 1., 2., 2.,
          1., 0., 4., 3., 1., 1., 4., 2., 1., 2., 1., 2., 4., 3., 0., 3.,
          1., 1., 1., 0., 0., 1., 2., 3., 2., 3., 2., 3., 3., 1., 2., 1.,
          0., 3., 0., 2., 1., 3., 4., 1., 2., 1., 1., 1., 3., 2., 3., 2.,
          1., 3., 0., 3., 1., 4., 2., 2., 0., 1., 1., 2., 1., 0., 1., 4.,
          2., 3., 2., 2., 4., 3., 0., 0., 0., 1., 2., 2., 2., 0., 2., 4.,
          2., 2., 2., 4., 1., 1., 2., 1., 2., 3., 3., 1., 3., 1., 0., 0.,
          4., 1., 3., 0., 2., 2. ]
      - [ 0., 2., 0., 0., 1., 1., 1., 3., 2., 1., 1., 1., 0., 0., 1., 0.,
          0., 1., 0., 1., 1., 0., 2., 0., 0., 0., 0., 1., 2., 1., 0., 3.,
          0., 1., 0., 1., 0., 0., 1., 0., 0., 1., 1., 0., 0., 3., 0., 1.,
          1., 0., 1., 0., 1., 1., 1., 0., 0., 0., 0., 1., 2., 1., 1., 0.,
          0., 0., 0., 0., 0., 1., 0., 3., 1., 3., 1., 0., 0., 0., 1., 0.,
          2., 0., 1., 3., 2., 0., 0., 1., 1., 0., 2., 1., 1., 0., 0., 1.,
          0., 0., 1., 1., 0., 1., 1., 1., 1., 0., 2., 3., 1., 0., 2., 0.,
          1., 0., 0., 0., 0., 0., 0., 0., 1., 0., 0., 2., 0., 0., 2., 1.,
          1., 0., 1., 1., 0., 0., 1., 0., 0., 0., 2., 0., 1., 1., 2., 0.,
          0., 1., 2., 0., 1., 1. ]
      - [ 1., 2., 2., 3., 0., 2., 0., 3., 3., 1., 1., 1., 0., 2., 2., 2.,
          0., 1., 4., 2., 1., 2., 2., 0., 1., 1., 1., 0., 1., 0., 1., 0.,
          2., 1., 2., 0., 1., 3., 3., 3., 1., 0., 1., 1., 4., 1., 0., 2.,
          0., 3., 0., 1., 2., 1., 2., 1., 2., 1., 0., 2., 2., 1., 1., 0.,
          1., 1., 1., 1., 1., 1., 1., 2., 1., 2., 2., 0., 2., 2., 3., 1.,
          2., 3., 2., 3., 0., 1., 1., 0., 1., 1., 2., 0., 1., 0., 1., 1.,
          3., 1., 2., 5., 0., 2., 0., 0., 3., 1., 0., 1., 2., 0., 0., 0.,
          3., 2., 1., 0., 2., 2., 0., 2., 0., 2., 0., 1., 0., 0., 0., 1.,
          1., 2., 1., 1., 0., 2., 1., 1., 2., 4., 1., 0., 0., 3., 2., 1.,
          3., 1., 3., 1., 0., 1. ]
      - [ 1., 1., 1., 2., 1., 0., 0., 0., 4., 1., 2., 2., 5., 0., 3., 1.,
          0., 1., 0., 1., 2., 4., 3., 0., 2., 2., 4., 0., 1., 3., 0., 2.,
          0., 3., 0., 1., 4., 3., 4., 3., 1., 0., 2., 0., 2., 3., 4., 0.,
          1., 1., 1., 0., 0., 0., 1., 2., 1., 1., 2., 0., 0., 2., 0., 0.,
          2., 3., 1., 1., 4., 1., 3., 1., 0., 0., 1., 0., 0., 0., 4., 0.,
          0., 0., 2., 3., 0., 0., 1., 0., 1., 2., 1., 1., 3., 0., 3., 0.,
          4., 3., 1., 2., 1., 1., 2., 1., 0., 2., 1., 1., 0., 2., 4., 1.,
          0., 2., 0., 1., 0., 3., 1., 1., 4., 0., 2., 1., 1., 0., 2., 4.,
          1., 3., 1., 0., 1., 0., 1., 2., 0., 4., 2., 0., 1., 0., 0., 1.,
          3., 3., 0., 1., 2., 2. ]
      - [ 0., 0., 1., 0., 1., 2., 1., 0., 0., 1., 0., 4., 3., 0., 0., 0.,
          0., 0., 1., 1., 0., 2., 1., 0., 0., 0., 2., 0., 1., 1., 1., 0.,
          1., 2., 0., 1., 0., 0., 2., 1., 2., 1., 0., 0., 1., 1., 0., 0.,
          0., 2., 1., 0., 0., 1., 0., 0., 4., 0., 0., 2., 4., 1., 2., 0.,
          2., 2., 2., 3., 1., 0., 0., 0., 2., 0., 1., 0., 1., 1., 2., 1.,
          1., 0., 0., 1., 1., 0., 2., 2., 0., 2., 0., 2., 2., 0., 3., 1.,
          0., 0., 4., 0., 3., 2., 1., 0., 2., 0., 2., 4., 1., 2., 1., 0.,
          0., 2., 0., 1., 0., 1., 0., 1., 1., 2., 2., 0., 0., 2., 0., 0.,
          0., 3., 0., 0., 1., 4., 3., 0., 1., 3., 0., 2., 2., 1., 0., 0.,
          0., 1., 1., 2., 2., 3. ]
      - [ 1., 1., 0., 2., 1., 1., 0., 1., 1., 0., 1., 0., 2., 0., 2., 0.,
          2., 2., 1., 3., 1., 1., 2., 0., 0., 2., 1., 2., 2., 3., 2., 3.,
          1., 0., 0., 7., 1., 0., 1., 3., 2., 1., 1., 2., 1., 2., 2., 2.,
          0., 4., 1., 2., 0., 2., 1., 1., 1., 3., 1., 0., 2., 0., 1., 2.,
          0., 2., 2., 2., 1., 1., 1., 1., 3., 1., 0., 2., 0., 2., 3., 3.,
          1., 1., 1., 1., 0., 2., 2., 0., 4., 2., 0., 1., 3., 1., 1., 0.,
          2., 1., 3., 3., 0., 0., 1., 0., 0., 1., 1., 2., 1., 2., 1., 8.,
          1., 1., 1., 2., 1., 0., 4., 0., 2., 0., 1., 2., 0., 0., 0., 1.,
          1., 2., 1., 1., 0., 0., 0., 0., 2., 2., 2., 0., 1., 0., 1., 0.,
          2., 1., 3., 3., 1., 0. ]
      - [ 1., 3., 0., 0., 1., 0., 1., 1., 1., 1., 0., 1., 2., 2., 0., 0.,
          1., 0., 1., 0., 0., 3., 0., 2., 0., 1., 1., 1., 2., 3., 6., 0.,
          4., 3., 0., 1., 3., 2., 1., 1., 1., 1., 1., 5., 3., 1., 0., 1.,
          2., 0., 1., 1., 3., 1., 1., 2., 0., 1., 0., 0., 3., 1., 2., 2.,
          3., 1., 2., 2., 0., 0., 0., 1., 1., 3., 1., 0., 0., 1., 0., 0.,
          3., 4., 0., 1., 3., 0., 3., 1., 1., 0., 0., 1., 1., 0., 1., 2.,
          4., 0., 3., 1., 1., 3., 2., 1., 1., 1., 0., 1., 1., 1., 3., 2.,
          1., 0., 0., 0., 2., 3., 1., 3., 3., 1., 1., 1., 0., 1., 2., 0.,
          1., 2., 2., 2., 0., 1., 1., 1., 2., 1., 1., 0., 2., 0., 1., 2.,
          0., 2., 2., 0., 2., 2. ]
      - [ 1., 3., 0., 2., 1., 0., 2., 3., 1., 0., 3., 2., 3., 2., 1., 0.,
          1., 0., 0., 0., 1., 6., 0., 1., 3., 0., 0., 5., 1., 2., 0., 0.,
          0., 0., 3., 0., 1., 1., 2., 2., 1., 1., 3., 0., 1., 1., 1., 2.,
          0., 1., 2., 1., 1., 1., 0., 0., 0., 2., 3., 0., 4., 1., 1., 2.,
          2., 1., 1., 2., 1., 1., 1., 4., 4., 1., 1., 3., 1., 0., 0., 1.,
          1., 0., 4., 3., 3., 2., 1., 0., 2., 2., 1., 0., 0., 1., 1., 4.,
          0., 0., 0., 1., 0., 0., 4., 0., 1., 2., 3., 0., 4., 1., 2., 0.,
          0., 0., 1., 2., 1., 2., 1., 1., 4., 0., 0., 2., 0., 1., 2., 1.,
          0., 0., 1., 0., 1., 1., 2., 1., 0., 1., 0., 3., 1., 0., 0., 1.,
          0., 1., 1., 3., 0., 2. ]
      - [ 0., 2., 0., 0., 1., 1., 0., 0., 0., 0., 2., 2., 0., 3., 1., 1.,
          0., 2., 2., 0., 1., 0., 2., 1., 3., 0., 0., 2., 0., 2., 1., 0.,
          0., 0., 0., 3., 1., 0., 1., 0., 1., 0., 2., 0., 0., 0., 2., 1.,
          1., 2., 0., 1., 1., 1., 4., 1., 0., 0., 2., 0., 1., 1., 3., 0.,
          3., 1., 1., 0., 1., 4., 1., 1., 1., 1., 2., 1., 0., 0., 1., 0.,
          0., 0., 0., 2., 0., 1., 2., 1., 2., 0., 2., 2., 0., 0., 1., 0.,
          2., 0., 1., 1., 3., 0., 1., 2., 0., 0., 0., 0., 2., 0., 2., 0.,
          1., 2., 0., 0., 0., 1., 2., 0., 1., 0., 0., 1., 0., 1., 0., 0.,
          0., 1., 1., 0., 1., 0., 1., 1., 1., 0., 0., 1., 0., 1., 4., 1.,
          1., 0., 0., 0., 2., 0. ]
      - [ 2., 3., 0., 3., 0., 0., 0., 0., 1., 0., 0., 1., 1., 0., 1., 2.,
          1., 0., 1., 0., 0., 0., 3., 1., 0., 0., 1., 0., 0., 0., 1., 0.,
          0., 2., 0., 2., 1., 1., 0., 1., 1., 0., 3., 1., 2., 0., 1., 0.,
          0., 0., 0., 1., 1., 0., 1., 1., 0., 0., 0., 0., 2., 1., 1., 0.,
          0., 4., 1., 0., 0., 1., 2., 0., 1., 1., 0., 0., 2., 0., 1., 1.,
          1., 0., 1., 1., 0., 0., 2., 3., 2., 0., 2., 1., 0., 0., 1., 1.,
          0., 0., 0., 0., 3., 0., 1., 0., 1., 1., 2., 0., 1., 2., 1., 0.,
          2., 1., 1., 0., 4., 0., 1., 0., 0., 1., 0., 1., 0., 0., 1., 0.,
          1., 1., 1., 1., 1., 1., 0., 0., 1., 0., 0., 2., 2., 2., 0., 0.,
          0., 0., 0., 1., 0., 2. ]
      - [ 1., 2., 2., 0., 3., 3., 2., 0., 4., 0., 2., 3., 1., 1., 4., 0.,
          2., 3., 3., 2., 0., 2., 1., 2., 2., 1., 1., 1., 1., 1., 0., 3.,
          1., 2., 0., 0., 0., 1., 0., 1., 1., 0., 2., 2., 2., 0., 0., 0.,
          1., 2., 3., 3., 0., 0., 3., 2., 3., 0., 1., 0., 1., 2., 0., 1.,
          1., 2., 1., 1., 0., 3., 0., 2., 0., 1., 0., 0., 2., 0., 1., 1.,
          0., 2., 2., 0., 0., 0., 2., 1., 0., 0., 4., 2., 1., 1., 1., 1.,
          1., 0., 1., 3., 0., 1., 1., 5., 2., 0., 3., 1., 1., 1., 1., 0.,
          0., 1., 1., 2., 1., 1., 1., 2., 1., 1., 0., 3., 1., 1., 3., 3.,
          1., 0., 1., 2., 1., 1., 2., 1., 1., 1., 0., 2., 0., 3., 2., 1.,
          2., 3., 1., 2., 2., 0. ]
      - [ 5., 1., 0., 2., 4., 2., 6., 3., 2., 3., 2., 4., 3., 4., 2., 1.,
          2., 3., 0., 1., 1., 3., 3., 0., 1., 5., 2., 3., 3., 2., 2., 1.,
          0., 2., 1., 2., 1., 1., 4., 1., 4., 4., 1., 2., 1., 3., 3., 3.,
          2., 1., 2., 2., 2., 1., 0., 0., 2., 0., 2., 1., 1., 2., 2., 1.,
          3., 2., 0., 2., 0., 2., 1., 1., 1., 0., 0., 4., 1., 1., 2., 4.,
          1., 0., 0., 0., 4., 1., 2., 2., 2., 5., 2., 1., 1., 1., 2., 2.,
          3., 1., 4., 1., 2., 2., 3., 1., 1., 4., 1., 0., 0., 0., 1., 0.,
          1., 2., 0., 1., 3., 0., 2., 2., 0., 2., 3., 2., 3., 1., 1., 1.,
          0., 1., 1., 2., 0., 1., 6., 6., 0., 0., 3., 2., 1., 2., 0., 1.,
          3., 4., 1., 4., 1., 3. ]
      - [ 2., 0., 1., 1., 3., 1., 1., 1., 0., 1., 0., 1., 1., 1., 3., 2.,
          0., 0., 0., 1., 1., 1., 2., 0., 1., 0., 1., 2., 0., 2., 0., 1.,
          0., 1., 1., 0., 0., 1., 3., 2., 2., 0., 1., 1., 0., 3., 2., 0.,
          1., 0., 0., 2., 0., 0., 2., 1., 0., 0., 2., 0., 2., 0., 0., 0.,
          0., 1., 2., 3., 1., 0., 1., 2., 1., 2., 0., 1., 0., 2., 0., 0.,
          0., 0., 0., 2., 3., 0., 0., 0., 0., 2., 4., 0., 2., 0., 3., 2.,
          0., 0., 0., 2., 0., 2., 1., 2., 1., 1., 0., 1., 2., 1., 0., 0.,
          1., 1., 1., 2., 2., 0., 2., 2., 2., 0., 0., 1., 2., 0., 1., 0.,
          2., 1., 0., 0., 0., 3., 0., 0., 0., 0., 0., 0., 0., 1., 0., 1.,
          1., 0., 1., 1., 0., 2. ]
      - [ 1., 2., 2., 1., 3., 0., 0., 2., 0., 4., 1., 0., 3., 1., 1., 2.,
          4., 1., 0., 3., 1., 1., 2., 4., 0., 0., 0., 4., 0., 2., 3., 0.,
          0., 2., 4., 1., 3., 1., 2., 3., 0., 0., 1., 0., 1., 2., 2., 0.,
          2., 0., 3., 3., 2., 3., 2., 1., 4., 3., 1., 0., 1., 2., 3., 3.,
          2., 1., 0., 2., 0., 3., 2., 2., 0., 2., 1., 2., 2., 1., 2., 2.,
          1., 0., 1., 2., 2., 0., 0., 0., 5., 0., 1., 0., 1., 1., 0., 1.,
          1., 1., 2., 1., 1., 4., 1., 2., 1., 2., 2., 2., 2., 5., 3., 0.,
          3., 2., 1., 1., 1., 0., 1., 0., 1., 3., 4., 1., 0., 2., 3., 1.,
          1., 1., 0., 1., 0., 2., 2., 3., 1., 3., 0., 2., 0., 2., 4., 0.,
          0., 1., 0., 1., 0., 3. ]
      - [ 0., 1., 1., 0., 1., 0., 2., 0., 1., 1., 1., 0., 4., 0., 2., 1.,
          0., 1., 1., 1., 0., 1., 1., 1., 0., 0., 2., 2., 2., 1., 1., 0.,
          0., 3., 2., 1., 1., 6., 0., 4., 0., 0., 2., 1., 0., 0., 0., 2.,
          3., 0., 4., 1., 5., 3., 1., 0., 0., 0., 4., 1., 0., 0., 1., 1.,
          1., 3., 4., 1., 1., 2., 0., 1., 2., 1., 0., 1., 1., 0., 1., 0.,
          4., 1., 1., 0., 1., 0., 0., 0., 1., 2., 1., 2., 0., 1., 0., 0.,
          1., 0., 0., 1., 2., 2., 0., 2., 1., 0., 0., 2., 7., 0., 1., 0.,
          1., 1., 1., 3., 2., 0., 1., 1., 3., 5., 0., 2., 1., 1., 4., 0.,
          1., 1., 1., 0., 4., 2., 1., 0., 1., 1., 5., 1., 1., 3., 2., 1.,
          1., 0., 0., 2., 1., 2. ]
      - [ 1., 1., 1., 3., 1., 0., 0., 0., 1., 1., 2., 3., 1., 0., 2., 1.,
          0., 0., 4., 0., 2., 1., 1., 1., 2., 1., 1., 1., 0., 2., 1., 0.,
          0., 4., 1., 2., 0., 1., 2., 1., 0., 2., 5., 2., 1., 1., 4., 2.,
          0., 1., 1., 1., 0., 0., 3., 0., 0., 1., 0., 0., 3., 1., 4., 1.,
          1., 4., 1., 2., 0., 3., 3., 1., 1., 1., 2., 0., 4., 1., 1., 2.,
          1., 0., 3., 1., 0., 1., 1., 1., 4., 1., 2., 0., 0., 3., 1., 0.,
          1., 1., 1., 4., 3., 2., 2., 0., 0., 0., 1., 1., 0., 1., 1., 0.,
          0., 1., 0., 0., 0., 0., 2., 4., 0., 1., 1., 1., 0., 0., 2., 0.,
          1., 3., 1., 2., 0., 2., 4., 2., 2., 0., 2., 1., 2., 0., 5., 3.,
          1., 3., 0., 2., 1., 2. ]
      - [ 3., 0., 2., 0., 0., 1., 5., 2., 4., 1., 1., 3., 1., 1., 1., 1.,
          2., 4., 4., 3., 5., 1., 1., 1., 0., 3., 3., 3., 4., 1., 1., 1.,
          0., 2., 1., 4., 1., 2., 2., 3., 0., 1., 6., 2., 2., 2., 1., 2.,
          1., 0., 2., 1., 1., 4., 1., 0., 2., 0., 1., 1., 1., 3., 1., 0.,
          2., 0., 3., 6., 1., 0., 1., 0., 0., 1., 2., 3., 1., 2., 3., 3.,
          1., 3., 3., 3., 4., 0., 4., 0., 1., 1., 0., 1., 1., 2., 2., 1.,
          2., 0., 3., 2., 2., 2., 6., 1., 1., 0., 1., 2., 0., 2., 2., 0.,
          0., 1., 1., 1., 2., 1., 3., 3., 1., 2., 3., 4., 0., 0., 1., 1.,
          4., 1., 2., 4., 1., 0., 0., 1., 0., 1., 0., 2., 3., 4., 1., 2.,
          5., 3., 1., 1., 0., 1. ]
      - [ 1., 4., 1., 1., 1., 1., 0., 8., 4., 1., 2., 0., 2., 1., 1., 1.,
          1., 1., 6., 2., 1., 0., 2., 1., 1., 2., 0., 2., 3., 3., 0., 1.,
          1., 0., 2., 1., 1., 2., 0., 0., 1., 2., 0., 1., 0., 0., 2., 1.,
          0., 0., 2., 1., 1., 1., 2., 0., 1., 1., 1., 1., 1., 2., 0., 3.,
          2., 0., 2., 2., 1., 0., 2., 0., 1., 3., 2., 4., 6., 0., 4., 1.,
          0., 0., 1., 1., 0., 0., 2., 0., 3., 4., 0., 3., 1., 2., 0., 5.,
          0., 2., 1., 2., 2., 1., 2., 2., 0., 0., 1., 1., 1., 1., 0., 2.,
          1., 3., 4., 1., 3., 2., 3., 2., 4., 3., 1., 0., 2., 1., 1., 2.,
          2., 1., 1., 1., 4., 2., 3., 0., 3., 1., 0., 1., 2., 1., 2., 1.,
          6., 0., 2., 0., 1., 0. ]
      - [ 3., 0., 1., 1., 1., 0., 0., 0., 0., 0., 2., 0., 2., 1., 0., 1.,
          0., 1., 3., 0., 0., 0., 1., 0., 2., 0., 1., 2., 3., 1., 1., 3.,
          0., 3., 0., 1., 0., 1., 3., 1., 0., 2., 1., 0., 1., 1., 4., 0.,
          1., 1., 4., 0., 1., 0., 0., 1., 0., 0., 2., 2., 1., 1., 0., 0.,
          1., 2., 0., 1., 1., 2., 1., 0., 0., 0., 1., 1., 2., 0., 0., 1.,
          1., 1., 0., 0., 1., 2., 0., 1., 1., 2., 2., 1., 0., 0., 4., 2.,
          1., 0., 2., 0., 0., 1., 0., 0., 0., 0., 4., 1., 2., 1., 0., 1.,
          0., 2., 0., 3., 1., 1., 0., 2., 0., 3., 2., 0., 0., 1., 2., 0.,
          1., 0., 2., 1., 4., 4., 0., 4., 0., 1., 0., 0., 2., 0., 3., 1.,
          2., 2., 0., 1., 1., 0. ]
      - [ 0., 2., 0., 1., 2., 2., 2., 0., 1., 1., 0., 1., 1., 0., 1., 3.,
          0., 1., 1., 0., 1., 2., 1., 1., 1., 1., 1., 1., 1., 3., 0., 1.,
          0., 2., 0., 1., 1., 1., 3., 2., 1., 1., 1., 1., 0., 0., 1., 0.,
          1., 0., 0., 0., 2., 1., 0., 0., 4., 0., 1., 1., 1., 0., 1., 0.,
          2., 1., 1., 0., 2., 1., 0., 0., 1., 0., 0., 2., 2., 0., 0., 1.,
          3., 0., 2., 1., 2., 0., 1., 0., 3., 3., 1., 0., 0., 2., 1., 1.,
          0., 0., 3., 0., 0., 1., 1., 0., 0., 3., 3., 0., 1., 3., 2., 0.,
          2., 1., 1., 1., 1., 1., 2., 3., 2., 1., 0., 0., 1., 2., 0., 0.,
          1., 2., 0., 2., 0., 1., 1., 2., 1., 0., 1., 0., 0., 3., 0., 0.,
          1., 1., 1., 0., 1., 0. ]
      - [ 0., 0., 0., 0., 1., 1., 1., 3., 1., 0., 0., 0., 0., 0., 0., 1.,
          1., 0., 1., 0., 1., 1., 1., 2., 0., 0., 1., 0., 2., 0., 0., 2.,
          0., 0., 0., 0., 0., 2., 0., 0., 0., 2., 0., 3., 0., 0., 0., 0.,
          0., 0., 1., 1., 0., 0., 0., 0., 1., 0., 1., 0., 1., 0., 0., 0.,
          1., 2., 1., 0., 0., 1., 1., 3., 0., 0., 0., 2., 0., 4., 2., 2.,
          1., 0., 0., 1., 1., 3., 0., 0., 0., 1., 0., 1., 2., 1., 1., 2.,
          1., 1., 0., 0., 1., 1., 0., 0., 0., 0., 0., 0., 3., 0., 1., 1.,
          4., 1., 0., 0., 0., 1., 1., 0., 2., 1., 1., 1., 2., 0., 1., 0.,
          2., 0., 1., 1., 0., 0., 0., 0., 1., 0., 0., 0., 0., 1., 3., 1.,
          1., 0., 1., 2., 0., 0. ]
      - [ 1., 2., 2., 1., 3., 0., 2., 2., 2., 2., 3., 1., 1., 1., 1., 0.,
          1., 2., 1., 1., 0., 3., 2., 2., 1., 0., 0., 2., 1., 0., 0., 1.,
          0., 3., 0., 1., 0., 3., 1., 1., 0., 0., 1., 0., 2., 2., 1., 0.,
          1., 2., 0., 2., 0., 0., 1., 3., 2., 3., 0., 1., 3., 3., 0., 1.,
          1., 0., 1., 2., 0., 0., 1., 0., 1., 0., 0., 2., 2., 1., 1., 1.,
          0., 1., 0., 1., 1., 0., 0., 1., 2., 1., 0., 0., 0., 3., 2., 0.,
          1., 5., 3., 2., 0., 0., 1., 1., 1., 2., 1., 2., 1., 0., 1., 1.,
          2., 1., 2., 1., 0., 3., 3., 1., 3., 1., 0., 1., 2., 0., 3., 0.,
          2., 2., 1., 3., 2., 2., 1., 2., 0., 1., 0., 1., 2., 0., 1., 0.,
          1., 0., 0., 0., 0., 3. ]
      - [ 1., 1., 0., 0., 1., 0., 0., 1., 1., 1., 0., 0., 1., 1., 2., 3.,
          0., 1., 0., 0., 2., 2., 1., 2., 2., 0., 1., 1., 0., 1., 0., 2.,
          0., 1., 3., 1., 0., 1., 0., 2., 0., 0., 0., 1., 0., 0., 1., 1.,
          0., 0., 0., 3., 1., 0., 0., 0., 2., 1., 1., 1., 2., 2., 0., 0.,
          1., 1., 0., 1., 2., 1., 0., 0., 0., 0., 0., 0., 2., 0., 0., 1.,
          0., 0., 3., 0., 0., 1., 0., 1., 2., 1., 0., 1., 1., 0., 0., 0.,
          1., 1., 0., 0., 1., 1., 1., 1., 0., 1., 1., 2., 0., 3., 1., 2.,
          1., 4., 0., 3., 1., 0., 4., 2., 0., 0., 0., 1., 0., 1., 0., 1.,
          3., 1., 1., 0., 0., 1., 1., 0., 0., 1., 0., 0., 1., 0., 0., 0.,
          0., 0., 0., 0., 0., 1. ]
      - [ 2., 3., 0., 0., 0., 0., 3., 3., 1., 3., 1., 0., 2., 2., 0., 1.,
          2., 1., 0., 2., 0., 0., 2., 0., 2., 0., 2., 1., 0., 2., 0., 1.,
          1., 0., 0., 3., 1., 0., 2., 0., 1., 0., 2., 3., 0., 1., 0., 0.,
          1., 3., 3., 1., 0., 1., 3., 3., 0., 1., 0., 1., 0., 2., 0., 0.,
          0., 2., 1., 0., 0., 1., 2., 2., 1., 0., 0., 3., 0., 0., 1., 2.,
          0., 2., 0., 2., 1., 0., 1., 1., 0., 2., 0., 1., 0., 0., 1., 0.,
          2., 0., 2., 1., 2., 0., 2., 0., 1., 1., 1., 0., 1., 2., 0., 0.,
          2., 0., 0., 2., 1., 1., 2., 4., 2., 1., 0., 1., 0., 0., 1., 0.,
          0., 2., 0., 0., 1., 2., 0., 2., 3., 4., 0., 3., 1., 1., 1., 0.,
          2., 4., 1., 2., 0., 1. ]
      - [ 2., 1., 0., 1., 0., 1., 1., 6., 2., 0., 2., 1., 1., 4., 0., 0.,
          1., 1., 1., 1., 1., 1., 1., 2., 2., 1., 3., 0., 3., 4., 1., 2.,
          0., 2., 0., 0., 2., 1., 1., 0., 0., 2., 1., 2., 2., 2., 2., 1.,
          1., 0., 0., 2., 0., 0., 0., 2., 2., 3., 2., 0., 1., 3., 1., 3.,
          1., 1., 0., 2., 1., 0., 2., 0., 0., 0., 3., 2., 0., 0., 1., 3.,
          1., 0., 0., 1., 1., 1., 2., 1., 0., 1., 1., 1., 2., 1., 2., 1.,
          2., 0., 3., 0., 2., 4., 0., 0., 1., 4., 0., 6., 0., 1., 3., 0.,
          2., 2., 1., 1., 2., 1., 0., 2., 1., 2., 1., 0., 1., 0., 0., 0.,
          1., 2., 2., 0., 2., 2., 0., 0., 0., 0., 1., 1., 1., 2., 0., 2.,
          1., 1., 0., 0., 0., 3. ]
      - [ 0., 3., 2., 2., 0., 2., 1., 2., 0., 0., 2., 2., 3., 0., 1., 0.,
          0., 2., 1., 2., 1., 2., 1., 0., 1., 1., 2., 2., 0., 3., 1., 2.,
          0., 1., 2., 3., 1., 1., 4., 0., 0., 1., 2., 0., 0., 2., 0., 0.,
          0., 1., 1., 0., 0., 1., 0., 1., 1., 0., 0., 0., 0., 2., 0., 2.,
          1., 1., 1., 1., 1., 0., 2., 1., 1., 2., 0., 2., 0., 0., 4., 1.,
          0., 0., 2., 3., 0., 0., 2., 0., 0., 3., 2., 1., 3., 2., 1., 0.,
          0., 2., 2., 0., 0., 1., 3., 1., 0., 1., 0., 5., 4., 0., 2., 2.,
          1., 1., 1., 0., 1., 2., 0., 3., 1., 3., 0., 1., 0., 0., 0., 1.,
          3., 5., 2., 2., 1., 4., 1., 1., 2., 3., 4., 0., 3., 0., 3., 0.,
          1., 0., 2., 1., 1., 0. ]
      - [ 1., 0., 1., 1., 1., 3., 5., 4., 3., 1., 2., 0., 0., 2., 0., 3.,
          3., 0., 2., 7., 1., 2., 1., 1., 3., 4., 3., 2., 2., 2., 1., 3.,
          0., 2., 4., 1., 3., 0., 3., 2., 0., 2., 2., 1., 0., 3., 0., 1.,
          2., 0., 2., 3., 1., 1., 4., 2., 5., 2., 2., 3., 1., 0., 2., 1.,
          7., 3., 4., 2., 0., 4., 2., 2., 2., 1., 1., 4., 1., 1., 1., 2.,
          0., 0., 2., 2., 1., 1., 1., 3., 2., 0., 1., 1., 2., 5., 3., 6.,
          0., 2., 1., 3., 5., 3., 1., 4., 2., 2., 1., 2., 0., 1., 3., 1.,
          0., 2., 0., 0., 3., 2., 4., 1., 0., 2., 1., 1., 1., 3., 2., 0.,
          2., 1., 1., 1., 2., 2., 4., 0., 0., 4., 1., 0., 0., 2., 0., 0.,
          3., 3., 1., 0., 1., 1. ]
      - [ 0., 0., 0., 1., 1., 2., 0., 1., 2., 0., 0., 0., 0., 2., 0., 1.,
          0., 0., 0., 1., 2., 2., 0., 1., 4., 0., 2., 1., 0., 1., 1., 0.,
          1., 0., 0., 2., 0., 2., 2., 1., 2., 0., 0., 1., 1., 0., 1., 2.,
          0., 1., 1., 1., 0., 1., 1., 1., 0., 0., 0., 0., 0., 0., 0., 1.,
          2., 0., 0., 1., 0., 0., 1., 1., 0., 1., 0., 1., 1., 0., 0., 2.,
          0., 0., 0., 2., 2., 2., 0., 1., 0., 0., 0., 0., 2., 1., 0., 4.,
          1., 0., 3., 1., 0., 1., 2., 2., 0., 0., 1., 1., 1., 2., 0., 0.,
          2., 0., 1., 0., 2., 1., 3., 2., 0., 1., 3., 1., 0., 0., 1., 1.,
          1., 0., 2., 0., 2., 0., 2., 2., 0., 0., 0., 2., 1., 0., 1., 0.,
          1., 0., 0., 2., 1., 1. ]
      - [ 1., 1., 0., 0., 0., 0., 0., 2., 0., 0., 1., 1., 0., 1., 1., 0.,
          0., 1., 1., 0., 0., 2., 0., 1., 1., 0., 2., 2., 0., 1., 1., 2.,
          0., 2., 1., 1., 0., 1., 2., 0., 1., 1., 2., 0., 2., 0., 1., 0.,
          0., 0., 1., 1., 1., 2., 3., 0., 2., 1., 0., 1., 0., 1., 1., 0.,
          2., 2., 2., 0., 3., 0., 2., 2., 0., 0., 2., 2., 3., 2., 0., 1.,
          4., 0., 0., 2., 1., 1., 1., 1., 1., 1., 1., 0., 0., 1., 1., 2.,
          0., 0., 1., 1., 0., 1., 0., 1., 1., 0., 1., 0., 0., 0., 1., 1.,
          0., 2., 2., 1., 1., 2., 1., 0., 0., 2., 1., 0., 0., 2., 2., 0.,
          1., 0., 0., 0., 0., 1., 1., 1., 1., 2., 1., 2., 0., 1., 0., 1.,
          3., 4., 1., 2., 1., 1. ]
      - [ 1., 1., 1., 0., 0., 2., 0., 1., 3., 0., 1., 1., 1., 0., 3., 0.,
          0., 2., 0., 0., 3., 0., 0., 2., 2., 2., 2., 1., 0., 1., 0., 4.,
          0., 2., 2., 1., 0., 2., 0., 1., 1., 0., 1., 1., 0., 1., 1., 1.,
          1., 0., 2., 1., 3., 1., 0., 0., 2., 2., 1., 0., 0., 1., 3., 0.,
          2., 1., 0., 0., 0., 2., 1., 1., 2., 2., 0., 1., 0., 0., 1., 3.,
          2., 1., 0., 1., 0., 1., 0., 0., 0., 2., 1., 0., 1., 1., 1., 2.,
          1., 1., 0., 2., 1., 1., 3., 3., 1., 0., 1., 5., 1., 0., 0., 0.,
          1., 1., 2., 2., 0., 0., 1., 0., 1., 1., 1., 0., 2., 0., 1., 1.,
          3., 3., 3., 1., 2., 0., 1., 2., 1., 0., 0., 2., 1., 2., 2., 0.,
          1., 1., 2., 0., 1., 1. ]
      - [ 0., 0., 0., 0., 1., 1., 1., 0., 0., 1., 0., 0., 1., 1., 2., 0.,
          1., 1., 1., 1., 1., 0., 2., 1., 1., 0., 0., 0., 1., 0., 0., 0.,
          0., 1., 0., 0., 0., 0., 0., 1., 0., 0., 0., 0., 0., 2., 0., 0.,
          1., 0., 2., 2., 0., 0., 1., 2., 0., 0., 1., 1., 0., 1., 1., 1.,
          1., 2., 0., 0., 2., 0., 0., 2., 0., 1., 1., 0., 0., 0., 0., 0.,
          0., 0., 0., 0., 0., 0., 1., 0., 0., 0., 2., 0., 0., 0., 1., 1.,
          0., 0., 0., 0., 1., 1., 0., 1., 0., 1., 0., 0., 1., 0., 0., 0.,
          0., 2., 3., 2., 0., 0., 1., 1., 0., 0., 2., 2., 1., 0., 1., 0.,
          2., 1., 0., 1., 0., 1., 1., 0., 1., 0., 0., 0., 1., 1., 0., 1.,
          0., 0., 0., 0., 0., 0. ]
      - [ 1., 0., 0., 0., 1., 1., 0., 0., 1., 0., 2., 2., 0., 2., 2., 1.,
          0., 0., 0., 1., 0., 2., 0., 0., 0., 1., 0., 2., 2., 0., 0., 0.,
          0., 2., 0., 0., 1., 2., 1., 0., 1., 0., 0., 0., 0., 0., 0., 0.,
          1., 0., 0., 2., 1., 2., 0., 2., 1., 0., 1., 1., 0., 1., 0., 2.,
          1., 0., 0., 0., 1., 0., 1., 1., 1., 0., 0., 1., 0., 0., 0., 1.,
          0., 0., 0., 0., 2., 2., 2., 0., 2., 1., 0., 1., 0., 0., 2., 1.,
          0., 1., 0., 3., 2., 0., 0., 0., 1., 2., 2., 3., 2., 1., 1., 0.,
          2., 0., 1., 0., 2., 1., 0., 0., 1., 1., 2., 0., 2., 0., 1., 0.,
          4., 0., 0., 0., 2., 0., 1., 0., 1., 1., 1., 2., 0., 1., 1., 1.,
          3., 1., 0., 1., 2., 3. ]
      - [ 0., 2., 2., 1., 0., 1., 1., 1., 0., 1., 1., 0., 0., 3., 0., 1.,
          0., 0., 1., 0., 2., 2., 1., 2., 0., 0., 0., 1., 0., 0., 0., 1.,
          1., 1., 1., 2., 0., 3., 0., 2., 0., 1., 1., 0., 2., 2., 0., 0.,
          3., 1., 4., 0., 1., 1., 2., 1., 0., 1., 2., 2., 2., 1., 1., 1.,
          1., 0., 1., 2., 2., 1., 0., 0., 2., 3., 0., 4., 1., 1., 0., 2.,
          0., 2., 0., 2., 0., 0., 2., 2., 0., 2., 1., 2., 1., 0., 3., 2.,
          0., 0., 0., 0., 3., 2., 0., 1., 2., 1., 1., 0., 1., 2., 0., 0.,
          0., 1., 1., 2., 1., 2., 0., 0., 0., 0., 2., 2., 0., 0., 3., 0.,
          1., 2., 1., 3., 0., 1., 2., 0., 0., 0., 0., 3., 3., 1., 6., 3.,
          0., 1., 2., 1., 0., 2. ]
      - [ 2., 0., 4., 4., 0., 2., 1., 3., 2., 1., 2., 1., 1., 1., 4., 0.,
          1., 3., 3., 4., 0., 2., 2., 2., 2., 1., 1., 0., 1., 3., 0., 1.,
          0., 0., 0., 0., 3., 2., 2., 0., 1., 0., 0., 0., 0., 0., 0., 1.,
          4., 1., 2., 0., 2., 1., 1., 1., 2., 1., 3., 0., 0., 4., 0., 0.,
          6., 0., 2., 1., 1., 2., 1., 0., 1., 0., 0., 2., 2., 0., 4., 0.,
          4., 2., 2., 1., 4., 1., 2., 0., 1., 1., 2., 0., 4., 1., 4., 3.,
          0., 1., 2., 1., 1., 1., 1., 0., 1., 2., 1., 1., 1., 2., 2., 1.,
          2., 2., 1., 1., 0., 1., 1., 2., 2., 1., 3., 0., 0., 3., 2., 1.,
          2., 3., 2., 1., 2., 4., 0., 1., 0., 0., 2., 0., 0., 1., 3., 0.,
          4., 0., 1., 0., 0., 1. ]
      - [ 1., 1., 0., 2., 1., 1., 1., 1., 2., 1., 1., 3., 0., 1., 2., 1.,
          0., 3., 2., 1., 0., 0., 0., 2., 2., 1., 1., 2., 1., 2., 6., 1.,
          0., 0., 0., 5., 1., 2., 1., 1., 0., 3., 2., 1., 1., 0., 2., 1.,
          1., 2., 1., 0., 0., 3., 2., 2., 0., 0., 2., 3., 0., 0., 1., 3.,
          0., 4., 0., 2., 1., 1., 1., 3., 1., 1., 1., 1., 3., 1., 1., 4.,
          0., 0., 3., 0., 1., 5., 1., 1., 0., 1., 0., 0., 1., 2., 2., 1.,
          0., 2., 0., 0., 2., 0., 1., 1., 0., 2., 3., 1., 5., 0., 3., 3.,
          1., 0., 1., 1., 0., 0., 0., 1., 1., 0., 1., 5., 0., 0., 2., 0.,
          0., 2., 1., 0., 0., 0., 2., 1., 2., 2., 1., 0., 0., 1., 3., 0.,
          0., 0., 0., 0., 3., 2. ]
      - [ 1., 3., 1., 0., 0., 0., 0., 2., 1., 1., 0., 0., 0., 1., 1., 0.,
          0., 1., 1., 0., 0., 3., 1., 0., 0., 0., 4., 1., 0., 1., 1., 0.,
          0., 0., 1., 1., 0., 0., 0., 2., 4., 0., 0., 1., 0., 1., 2., 0.,
          1., 0., 0., 2., 3., 1., 0., 2., 0., 0., 0., 0., 0., 1., 0., 1.,
          1., 0., 0., 1., 1., 1., 2., 0., 2., 0., 1., 2., 0., 2., 1., 2.,
          0., 0., 0., 1., 3., 1., 2., 1., 0., 1., 1., 2., 0., 2., 4., 2.,
          2., 1., 0., 1., 2., 1., 3., 0., 0., 0., 0., 1., 0., 2., 2., 0.,
          0., 0., 1., 0., 0., 0., 3., 3., 0., 2., 0., 0., 0., 0., 2., 0.,
          0., 0., 0., 2., 1., 1., 0., 1., 1., 0., 0., 3., 2., 0., 0., 0.,
          1., 0., 0., 1., 1., 1. ]
      - [ 2., 0., 2., 0., 1., 1., 2., 1., 0., 0., 1., 0., 2., 0., 0., 1.,
          1., 2., 2., 2., 1., 1., 0., 3., 2., 1., 0., 2., 2., 1., 0., 0.,
          0., 1., 1., 1., 0., 1., 0., 3., 1., 0., 0., 0., 0., 0., 1., 0.,
          1., 1., 2., 2., 0., 0., 1., 0., 3., 1., 2., 2., 0., 0., 0., 1.,
          1., 1., 2., 1., 1., 0., 1., 2., 2., 1., 1., 1., 1., 1., 2., 1.,
          1., 2., 0., 1., 1., 0., 3., 1., 0., 2., 0., 2., 1., 2., 4., 1.,
          2., 0., 0., 6., 4., 2., 3., 0., 1., 1., 1., 2., 3., 0., 3., 2.,
          0., 0., 0., 2., 1., 1., 1., 2., 1., 1., 4., 1., 0., 2., 0., 6.,
          2., 0., 2., 2., 1., 1., 1., 1., 0., 1., 0., 0., 4., 2., 1., 1.,
          1., 0., 1., 1., 1., 3. ]
      - [ 1., 3., 0., 0., 1., 0., 2., 0., 0., 0., 1., 0., 1., 0., 1., 0.,
          0., 0., 0., 0., 1., 0., 1., 1., 1., 0., 2., 0., 0., 2., 0., 2.,
          0., 1., 0., 0., 2., 0., 1., 2., 0., 2., 1., 1., 1., 1., 0., 0.,
          0., 0., 0., 1., 3., 2., 0., 0., 1., 1., 0., 0., 4., 0., 1., 0.,
          3., 1., 0., 1., 0., 0., 0., 1., 1., 0., 1., 2., 1., 0., 1., 4.,
          0., 0., 2., 0., 0., 0., 1., 2., 2., 1., 1., 2., 1., 2., 3., 1.,
          1., 0., 0., 3., 0., 0., 1., 2., 2., 0., 0., 3., 0., 2., 0., 0.,
          0., 2., 0., 0., 1., 0., 0., 0., 1., 2., 0., 0., 2., 0., 1., 0.,
          0., 3., 0., 5., 1., 1., 0., 2., 0., 0., 1., 0., 1., 2., 1., 0.,
          0., 1., 1., 2., 1., 3. ]
      - [ 1., 1., 0., 0., 1., 1., 3., 1., 2., 1., 1., 1., 0., 1., 1., 2.,
          1., 1., 1., 0., 1., 4., 0., 0., 3., 2., 0., 1., 2., 2., 1., 1.,
          0., 2., 6., 2., 1., 3., 0., 0., 2., 1., 2., 1., 0., 2., 1., 0.,
          0., 0., 2., 3., 0., 0., 2., 1., 3., 2., 1., 0., 1., 3., 1., 2.,
          3., 0., 1., 2., 0., 3., 1., 3., 0., 1., 2., 3., 2., 3., 2., 0.,
          1., 1., 0., 2., 0., 1., 5., 2., 0., 1., 0., 2., 2., 0., 1., 2.,
          2., 2., 0., 1., 2., 2., 1., 2., 2., 0., 1., 2., 2., 1., 3., 0.,
          0., 2., 1., 1., 1., 1., 3., 0., 1., 2., 0., 2., 3., 0., 1., 1.,
          1., 2., 1., 0., 1., 0., 2., 2., 1., 5., 0., 0., 0., 0., 1., 1.,
          1., 2., 3., 1., 0., 0. ]
      - [ 3., 2., 2., 1., 2., 3., 1., 1., 1., 3., 2., 1., 0., 2., 1., 1.,
          2., 0., 0., 2., 3., 2., 2., 3., 0., 1., 4., 1., 1., 2., 1., 2.,
          0., 2., 0., 0., 4., 5., 0., 1., 2., 1., 1., 0., 0., 2., 2., 3.,
          3., 0., 3., 0., 2., 1., 7., 0., 1., 2., 1., 1., 2., 0., 1., 1.,
          2., 2., 2., 2., 3., 2., 4., 1., 1., 2., 0., 0., 1., 1., 0., 2.,
          0., 4., 0., 3., 1., 1., 1., 2., 4., 3., 2., 2., 1., 1., 2., 3.,
          0., 1., 1., 3., 1., 1., 1., 2., 1., 1., 1., 4., 2., 0., 1., 4.,
          0., 3., 2., 2., 4., 1., 1., 2., 0., 1., 0., 1., 0., 1., 1., 0.,
          1., 2., 1., 0., 3., 1., 0., 2., 3., 0., 0., 0., 1., 3., 3., 1.,
          1., 1., 0., 2., 0., 1. ]
      - [ 2., 2., 1., 1., 2., 1., 0., 0., 0., 0., 1., 1., 2., 0., 3., 1.,
          1., 0., 1., 0., 0., 1., 0., 0., 6., 0., 1., 1., 1., 0., 0., 2.,
          0., 3., 0., 1., 0., 0., 1., 0., 1., 0., 1., 0., 2., 1., 1., 1.,
          0., 1., 2., 1., 0., 0., 3., 0., 0., 0., 0., 0., 1., 1., 1., 1.,
          3., 0., 0., 3., 0., 0., 0., 0., 0., 0., 1., 1., 1., 0., 1., 1.,
          0., 2., 1., 0., 1., 0., 0., 2., 3., 2., 1., 0., 1., 0., 3., 3.,
          3., 1., 0., 1., 0., 0., 3., 0., 1., 1., 0., 2., 0., 1., 2., 3.,
          1., 2., 1., 1., 1., 0., 3., 1., 1., 1., 1., 0., 1., 1., 0., 0.,
          2., 2., 3., 0., 0., 0., 0., 0., 0., 1., 0., 0., 2., 0., 0., 1.,
          0., 0., 1., 0., 0., 1. ]
      - [ 0., 0., 3., 1., 1., 1., 0., 1., 3., 4., 0., 0., 2., 0., 0., 1.,
          3., 0., 5., 1., 2., 2., 2., 3., 2., 4., 2., 1., 3., 1., 1., 0.,
          0., 4., 2., 1., 0., 2., 0., 1., 3., 0., 1., 3., 1., 5., 0., 1.,
          0., 2., 2., 0., 2., 1., 2., 1., 0., 2., 0., 0., 2., 0., 0., 0.,
          0., 1., 1., 1., 0., 2., 1., 0., 3., 3., 0., 1., 0., 2., 1., 3.,
          1., 6., 0., 3., 0., 0., 0., 3., 0., 2., 1., 1., 1., 2., 0., 1.,
          0., 0., 1., 1., 2., 1., 2., 2., 1., 1., 1., 3., 2., 0., 2., 0.,
          1., 0., 1., 3., 1., 3., 1., 1., 0., 0., 1., 1., 0., 0., 1., 2.,
          0., 1., 0., 0., 0., 3., 2., 0., 1., 1., 1., 0., 2., 0., 4., 2.,
          2., 0., 1., 3., 1., 0. ]
      - [ 0., 0., 0., 4., 2., 0., 1., 2., 0., 0., 2., 0., 0., 0., 1., 2.,
          0., 1., 4., 0., 1., 0., 0., 2., 3., 2., 0., 2., 0., 3., 0., 1.,
          0., 1., 0., 0., 1., 1., 1., 1., 0., 0., 0., 0., 0., 0., 0., 1.,
          0., 3., 0., 0., 2., 1., 1., 1., 1., 0., 1., 0., 2., 3., 2., 0.,
          1., 3., 1., 2., 1., 0., 1., 1., 1., 2., 0., 3., 0., 0., 0., 0.,
          1., 1., 0., 1., 0., 2., 1., 0., 1., 1., 1., 1., 1., 0., 3., 1.,
          1., 0., 2., 1., 0., 0., 1., 0., 0., 1., 0., 3., 1., 2., 3., 1.,
          0., 1., 1., 0., 1., 0., 1., 1., 1., 0., 2., 1., 0., 2., 1., 1.,
          3., 2., 0., 1., 0., 1., 1., 2., 1., 1., 1., 3., 2., 1., 0., 1.,
          1., 3., 1., 0., 0., 0. ]
      - [ 0., 2., 1., 1., 2., 0., 1., 1., 0., 2., 0., 0., 0., 0., 1., 1.,
          1., 0., 0., 1., 0., 0., 1., 1., 0., 2., 0., 0., 2., 2., 1., 0.,
          0., 0., 1., 2., 0., 1., 0., 3., 1., 1., 0., 0., 2., 0., 0., 0.,
          1., 0., 0., 1., 0., 1., 2., 0., 0., 0., 0., 3., 1., 2., 1., 1.,
          1., 1., 0., 2., 0., 0., 1., 0., 2., 0., 1., 0., 0., 1., 0., 0.,
          1., 4., 1., 0., 1., 0., 1., 1., 1., 1., 1., 0., 3., 1., 4., 0.,
          1., 0., 0., 0., 1., 1., 0., 0., 1., 2., 2., 0., 0., 1., 1., 0.,
          2., 1., 0., 1., 0., 0., 0., 1., 1., 0., 0., 0., 0., 0., 0., 1.,
          2., 0., 0., 0., 2., 2., 1., 1., 1., 0., 4., 0., 0., 0., 1., 0.,
          0., 0., 0., 0., 2., 0. ]
      - [ 1., 0., 1., 0., 1., 0., 2., 4., 1., 2., 1., 0., 1., 0., 0., 0.,
          0., 1., 2., 1., 2., 2., 0., 0., 0., 0., 1., 3., 1., 3., 2., 1.,
          0., 0., 0., 1., 0., 0., 1., 1., 1., 1., 2., 3., 1., 0., 0., 0.,
          0., 1., 0., 0., 0., 2., 2., 0., 4., 3., 0., 2., 3., 2., 2., 1.,
          1., 1., 0., 2., 2., 1., 1., 1., 1., 1., 2., 0., 3., 0., 1., 0.,
          0., 1., 0., 1., 1., 0., 1., 1., 4., 2., 1., 0., 1., 0., 0., 0.,
          5., 2., 0., 1., 0., 0., 5., 1., 2., 0., 1., 3., 1., 1., 2., 0.,
          2., 0., 1., 0., 3., 0., 3., 0., 2., 0., 0., 0., 2., 0., 1., 2.,
          1., 2., 0., 1., 0., 1., 0., 0., 1., 0., 2., 2., 1., 0., 2., 1.,
          1., 0., 0., 1., 0., 1. ]
      - [ 1., 1., 0., 0., 0., 3., 2., 2., 4., 0., 1., 1., 2., 2., 1., 2.,
          2., 1., 1., 1., 2., 1., 2., 1., 0., 0., 0., 1., 1., 1., 1., 0.,
          0., 0., 1., 1., 1., 0., 2., 1., 1., 0., 0., 1., 2., 1., 1., 0.,
          3., 1., 3., 3., 0., 3., 1., 0., 1., 1., 0., 2., 2., 1., 2., 0.,
          1., 1., 0., 3., 2., 2., 2., 0., 2., 0., 1., 1., 3., 0., 1., 2.,
          0., 0., 1., 4., 2., 0., 1., 0., 2., 4., 1., 1., 0., 0., 0., 2.,
          1., 2., 2., 0., 1., 0., 2., 1., 2., 1., 0., 3., 0., 0., 0., 0.,
          2., 3., 1., 1., 1., 0., 1., 0., 3., 2., 2., 1., 3., 1., 3., 1.,
          0., 3., 3., 1., 2., 0., 0., 2., 1., 0., 1., 2., 1., 0., 1., 0.,
          2., 1., 1., 0., 2., 0. ]
      - [ 0., 0., 0., 0., 2., 1., 1., 0., 0., 1., 1., 2., 1., 2., 1., 0.,
          0., 1., 1., 1., 1., 0., 1., 1., 2., 1., 0., 2., 0., 2., 1., 0.,
          0., 1., 0., 1., 1., 2., 1., 0., 0., 2., 2., 3., 0., 0., 1., 0.,
          2., 0., 0., 2., 1., 0., 0., 2., 2., 2., 1., 0., 1., 0., 0., 1.,
          1., 0., 1., 1., 2., 0., 0., 0., 1., 0., 0., 0., 1., 2., 3., 0.,
          2., 0., 0., 1., 1., 0., 0., 2., 0., 1., 2., 1., 1., 1., 0., 4.,
          1., 0., 3., 0., 0., 1., 4., 2., 0., 1., 0., 0., 0., 0., 2., 0.,
          1., 0., 4., 0., 1., 1., 1., 1., 0., 1., 2., 0., 0., 0., 0., 0.,
          2., 2., 1., 1., 0., 2., 1., 1., 0., 0., 0., 2., 0., 0., 0., 0.,
          3., 1., 1., 2., 1., 1. ]
      - [ 3., 0., 1., 1., 3., 0., 2., 1., 6., 1., 2., 3., 1., 0., 2., 0.,
          1., 3., 1., 1., 0., 3., 0., 4., 2., 0., 0., 4., 2., 1., 2., 3.,
          0., 4., 2., 1., 1., 1., 1., 0., 2., 1., 5., 1., 2., 0., 2., 4.,
          4., 3., 4., 0., 3., 0., 4., 1., 0., 1., 2., 2., 3., 1., 0., 0.,
          1., 2., 1., 0., 1., 1., 2., 0., 3., 3., 2., 1., 1., 0., 1., 3.,
          1., 2., 1., 2., 1., 2., 1., 1., 1., 4., 3., 0., 2., 1., 4., 3.,
          1., 1., 4., 3., 1., 1., 0., 1., 7., 2., 2., 1., 0., 1., 1., 0.,
          3., 0., 0., 1., 1., 1., 0., 3., 1., 1., 4., 4., 1., 3., 1., 0.,
          2., 1., 1., 1., 4., 4., 3., 2., 3., 2., 3., 0., 1., 0., 0., 2.,
          0., 1., 2., 1., 1., 3. ]
      - [ 0., 1., 2., 0., 0., 2., 0., 2., 1., 2., 2., 0., 1., 0., 3., 2.,
          1., 0., 3., 1., 3., 1., 0., 1., 4., 1., 0., 1., 0., 1., 1., 1.,
          0., 0., 2., 0., 2., 1., 1., 0., 1., 2., 2., 1., 0., 0., 0., 0.,
          2., 2., 1., 0., 1., 0., 1., 2., 0., 0., 2., 1., 0., 1., 2., 0.,
          0., 0., 0., 0., 0., 1., 3., 1., 0., 1., 0., 1., 0., 2., 2., 1.,
          2., 2., 0., 2., 1., 1., 5., 0., 1., 2., 1., 1., 1., 0., 1., 2.,
          1., 0., 1., 2., 2., 0., 0., 0., 0., 1., 2., 1., 3., 0., 2., 1.,
          2., 0., 2., 1., 0., 1., 1., 4., 2., 1., 1., 0., 1., 0., 2., 0.,
          0., 0., 0., 1., 1., 1., 0., 1., 1., 0., 1., 1., 0., 2., 3., 0.,
          0., 0., 2., 0., 4., 1. ]
      - [ 2., 1., 1., 0., 3., 1., 0., 1., 1., 2., 1., 1., 1., 3., 3., 0.,
          1., 1., 0., 1., 1., 2., 0., 1., 1., 3., 1., 1., 0., 1., 1., 1.,
          0., 0., 1., 4., 0., 3., 0., 1., 0., 1., 2., 2., 0., 3., 3., 2.,
          2., 0., 2., 1., 3., 1., 1., 1., 2., 3., 1., 0., 2., 2., 0., 2.,
          2., 2., 2., 1., 1., 2., 1., 0., 0., 0., 0., 1., 3., 1., 1., 1.,
          1., 1., 1., 1., 4., 1., 0., 2., 1., 3., 1., 0., 0., 0., 0., 1.,
          5., 1., 0., 1., 1., 1., 2., 3., 4., 2., 2., 2., 1., 2., 5., 1.,
          0., 1., 0., 1., 2., 1., 2., 1., 0., 1., 0., 1., 1., 1., 0., 1.,
          6., 3., 1., 1., 0., 1., 3., 3., 1., 1., 2., 2., 0., 1., 1., 1.,
          5., 1., 0., 0., 0., 2. ]
      - [ 2., 0., 1., 2., 1., 3., 1., 2., 0., 1., 2., 1., 0., 0., 1., 1.,
          1., 1., 0., 0., 1., 2., 0., 1., 2., 0., 1., 2., 1., 2., 0., 1.,
          0., 2., 0., 2., 0., 1., 1., 1., 0., 1., 1., 0., 1., 2., 1., 1.,
          0., 0., 0., 0., 2., 0., 0., 2., 0., 0., 2., 0., 0., 2., 1., 1.,
          1., 1., 1., 0., 3., 0., 0., 0., 1., 0., 1., 1., 1., 3., 2., 2.,
          0., 1., 1., 0., 0., 1., 0., 0., 3., 2., 3., 0., 0., 1., 2., 4.,
          1., 1., 2., 0., 1., 2., 0., 0., 0., 2., 1., 1., 2., 0., 1., 0.,
          2., 2., 0., 1., 1., 0., 0., 0., 0., 0., 1., 0., 0., 0., 0., 0.,
          3., 3., 0., 0., 0., 0., 1., 1., 2., 0., 0., 0., 0., 2., 0., 0.,
          1., 3., 2., 0., 0., 1. ]
      - [ 0., 2., 1., 0., 1., 1., 1., 0., 2., 3., 1., 0., 1., 1., 3., 0.,
          1., 0., 0., 0., 1., 0., 3., 2., 0., 0., 0., 1., 2., 1., 0., 0.,
          0., 3., 1., 0., 2., 0., 1., 1., 0., 1., 1., 0., 0., 0., 0., 2.,
          0., 2., 0., 2., 1., 1., 1., 0., 1., 1., 1., 2., 0., 1., 0., 1.,
          0., 1., 0., 1., 0., 0., 1., 1., 2., 0., 0., 1., 4., 1., 2., 0.,
          0., 0., 1., 3., 3., 0., 0., 0., 1., 0., 2., 1., 2., 2., 0., 0.,
          0., 0., 0., 0., 1., 1., 3., 2., 0., 0., 0., 3., 2., 1., 0., 0.,
          2., 1., 1., 2., 2., 0., 1., 0., 0., 0., 0., 0., 0., 1., 2., 0.,
          0., 1., 2., 1., 0., 2., 1., 0., 2., 1., 0., 4., 0., 2., 3., 0.,
          3., 1., 1., 3., 0., 4. ]
      - [ 1., 2., 2., 1., 3., 0., 0., 1., 2., 3., 1., 0., 2., 2., 1., 1.,
          2., 0., 0., 2., 1., 1., 0., 0., 0., 1., 0., 2., 0., 2., 2., 3.,
          1., 1., 0., 1., 2., 2., 3., 1., 1., 2., 1., 3., 2., 1., 1., 0.,
          0., 0., 0., 0., 0., 0., 0., 0., 2., 1., 1., 0., 2., 1., 1., 1.,
          0., 1., 0., 1., 1., 3., 0., 2., 2., 1., 0., 0., 1., 1., 1., 0.,
          1., 2., 0., 0., 0., 1., 1., 3., 1., 2., 0., 2., 0., 0., 1., 3.,
          1., 1., 1., 0., 3., 2., 1., 0., 1., 0., 1., 0., 2., 2., 3., 0.,
          0., 1., 2., 1., 0., 3., 0., 2., 0., 0., 1., 2., 0., 1., 1., 0.,
          3., 1., 1., 1., 1., 1., 1., 0., 1., 0., 4., 4., 0., 2., 1., 1.,
          0., 1., 2., 2., 0., 2. ]
      - [ 3., 0., 0., 2., 2., 0., 3., 1., 0., 4., 2., 0., 1., 1., 2., 0.,
          1., 0., 2., 0., 2., 2., 0., 0., 1., 2., 3., 0., 1., 1., 0., 0.,
          0., 2., 5., 0., 1., 2., 0., 2., 2., 0., 2., 1., 1., 3., 2., 2.,
          3., 3., 4., 5., 0., 5., 1., 1., 3., 3., 0., 0., 2., 0., 1., 1.,
          4., 2., 1., 1., 1., 3., 3., 1., 0., 1., 1., 0., 0., 2., 0., 0.,
          0., 1., 1., 2., 1., 3., 0., 1., 2., 2., 2., 0., 2., 0., 0., 1.,
          1., 0., 2., 0., 2., 1., 1., 1., 0., 0., 1., 0., 1., 1., 2., 1.,
          0., 2., 1., 0., 1., 2., 6., 0., 1., 0., 1., 2., 0., 3., 1., 2.,
          4., 0., 0., 0., 1., 0., 6., 3., 0., 0., 2., 0., 2., 1., 2., 2.,
          1., 3., 2., 1., 1., 0. ]
      - [ 0., 0., 0., 1., 2., 0., 2., 0., 1., 0., 0., 0., 0., 1., 0., 0.,
          0., 0., 0., 1., 4., 0., 4., 0., 2., 0., 1., 0., 0., 2., 1., 0.,
          0., 1., 0., 1., 0., 1., 3., 0., 0., 3., 0., 0., 1., 0., 0., 1.,
          1., 1., 1., 0., 1., 0., 0., 1., 1., 1., 0., 0., 2., 0., 0., 3.,
          0., 1., 2., 0., 1., 0., 2., 0., 0., 0., 0., 1., 0., 3., 2., 0.,
          1., 1., 0., 3., 0., 0., 1., 0., 2., 3., 0., 1., 2., 1., 1., 3.,
          1., 0., 0., 1., 1., 0., 1., 0., 0., 1., 0., 3., 1., 0., 0., 0.,
          0., 0., 1., 1., 1., 0., 1., 4., 0., 1., 0., 0., 0., 0., 0., 0.,
          0., 2., 0., 0., 2., 0., 1., 2., 1., 0., 0., 1., 0., 0., 0., 0.,
          0., 0., 1., 0., 2., 1. ]
      - [ 0., 0., 1., 1., 1., 4., 2., 0., 1., 0., 2., 0., 2., 4., 1., 2.,
          1., 0., 0., 0., 1., 2., 0., 1., 1., 0., 1., 0., 1., 1., 0., 0.,
          1., 0., 1., 5., 2., 1., 2., 2., 2., 1., 2., 2., 0., 0., 1., 0.,
          0., 0., 1., 2., 0., 2., 1., 0., 1., 1., 1., 1., 0., 1., 0., 2.,
          1., 3., 3., 1., 0., 0., 0., 6., 2., 3., 0., 0., 1., 0., 2., 1.,
          1., 2., 2., 2., 3., 0., 1., 0., 0., 2., 0., 0., 0., 1., 1., 0.,
          1., 0., 3., 4., 0., 2., 1., 1., 3., 2., 2., 2., 0., 0., 1., 1.,
          1., 1., 0., 2., 0., 1., 0., 0., 1., 2., 1., 0., 1., 1., 1., 0.,
          0., 0., 0., 1., 0., 0., 1., 1., 1., 1., 0., 4., 3., 2., 1., 3.,
          1., 2., 1., 0., 1., 6. ]
      - [ 3., 0., 0., 1., 2., 0., 1., 1., 1., 0., 0., 1., 0., 4., 0., 0.,
          0., 0., 1., 0., 1., 0., 0., 0., 1., 0., 1., 1., 0., 0., 2., 0.,
          0., 2., 1., 2., 1., 0., 1., 1., 4., 2., 1., 1., 0., 2., 0., 3.,
          1., 2., 0., 2., 1., 0., 0., 0., 4., 0., 1., 0., 0., 0., 1., 0.,
          1., 0., 0., 0., 0., 1., 1., 1., 2., 0., 0., 0., 2., 0., 0., 0.,
          0., 1., 0., 0., 3., 1., 0., 0., 4., 0., 0., 1., 0., 0., 0., 0.,
          1., 1., 0., 1., 0., 1., 0., 1., 0., 1., 1., 1., 0., 0., 2., 0.,
          2., 1., 1., 0., 0., 0., 2., 1., 0., 0., 1., 2., 1., 0., 2., 0.,
          2., 0., 1., 1., 0., 0., 1., 2., 2., 0., 0., 3., 1., 1., 1., 0.,
          0., 0., 0., 1., 0., 0. ]
      - [ 2., 1., 2., 0., 2., 1., 1., 3., 1., 2., 0., 0., 1., 3., 3., 2.,
          2., 3., 0., 1., 0., 1., 3., 1., 2., 2., 2., 1., 0., 3., 1., 1.,
          0., 1., 0., 3., 0., 3., 2., 0., 1., 0., 5., 1., 1., 2., 0., 4.,
          1., 0., 1., 0., 1., 1., 2., 2., 1., 1., 1., 3., 0., 0., 1., 2.,
          3., 1., 2., 1., 3., 0., 4., 1., 1., 1., 1., 2., 0., 3., 3., 3.,
          1., 1., 0., 3., 4., 1., 0., 1., 0., 3., 1., 0., 1., 3., 0., 1.,
          1., 1., 4., 1., 2., 1., 5., 2., 1., 0., 5., 2., 1., 4., 4., 0.,
          0., 4., 0., 3., 4., 1., 1., 2., 2., 0., 3., 1., 0., 2., 1., 1.,
          0., 2., 0., 3., 0., 1., 2., 1., 2., 2., 2., 4., 3., 2., 6., 1.,
          3., 1., 3., 0., 0., 0. ]
      - [ 0., 1., 2., 1., 0., 0., 2., 1., 2., 0., 3., 1., 4., 1., 4., 1.,
          1., 1., 4., 1., 0., 1., 2., 0., 2., 0., 2., 4., 2., 0., 1., 0.,
          0., 1., 1., 0., 1., 2., 0., 1., 0., 0., 2., 0., 0., 3., 2., 2.,
          2., 0., 2., 0., 2., 1., 0., 1., 1., 0., 2., 0., 2., 1., 2., 3.,
          2., 1., 1., 1., 0., 0., 0., 2., 4., 1., 1., 2., 0., 2., 1., 1.,
          2., 3., 0., 0., 1., 2., 2., 3., 1., 1., 3., 0., 4., 2., 0., 1.,
          5., 3., 2., 3., 1., 0., 2., 0., 1., 2., 2., 2., 1., 0., 1., 1.,
          4., 1., 0., 2., 1., 0., 1., 0., 2., 1., 3., 1., 0., 1., 1., 1.,
          1., 4., 4., 0., 1., 1., 1., 1., 1., 0., 1., 0., 3., 2., 1., 0.,
          0., 2., 2., 0., 0., 1. ]
      - [ 1., 2., 2., 2., 3., 3., 2., 1., 4., 1., 0., 2., 2., 0., 1., 0.,
          1., 2., 1., 0., 0., 2., 0., 0., 1., 2., 0., 0., 3., 3., 0., 0.,
          0., 1., 0., 2., 2., 0., 0., 1., 1., 0., 0., 0., 3., 1., 0., 1.,
          1., 1., 0., 1., 1., 0., 1., 0., 3., 0., 0., 1., 2., 0., 3., 3.,
          3., 2., 4., 1., 1., 1., 2., 2., 0., 0., 0., 3., 1., 1., 2., 2.,
          2., 1., 0., 1., 1., 1., 2., 1., 0., 2., 2., 4., 0., 3., 0., 0.,
          1., 0., 2., 2., 2., 1., 0., 3., 1., 1., 1., 0., 1., 2., 2., 0.,
          3., 1., 0., 2., 0., 1., 1., 2., 1., 3., 2., 2., 1., 1., 0., 1.,
          0., 1., 2., 4., 0., 1., 2., 1., 1., 3., 1., 0., 1., 0., 3., 1.,
          1., 3., 1., 1., 2., 0. ]
      - [ 0., 0., 0., 1., 2., 0., 0., 1., 0., 1., 0., 1., 0., 2., 1., 0.,
          0., 2., 2., 0., 1., 1., 0., 2., 1., 1., 1., 3., 2., 1., 1., 0.,
          0., 4., 1., 0., 2., 0., 2., 2., 0., 0., 2., 1., 0., 0., 0., 2.,
          2., 2., 0., 3., 1., 2., 0., 0., 4., 1., 0., 2., 2., 1., 0., 3.,
          2., 0., 1., 3., 0., 2., 4., 2., 2., 0., 0., 1., 1., 0., 1., 1.,
          0., 1., 1., 0., 1., 2., 0., 1., 2., 0., 0., 0., 2., 0., 0., 0.,
          2., 1., 0., 1., 1., 3., 0., 0., 2., 2., 1., 0., 1., 1., 2., 0.,
          0., 3., 2., 1., 0., 0., 2., 0., 1., 1., 0., 0., 0., 0., 2., 1.,
          1., 1., 0., 4., 0., 0., 1., 0., 0., 0., 4., 5., 1., 2., 1., 1.,
          0., 1., 0., 3., 0., 0. ]
      - [ 1., 2., 3., 0., 2., 0., 1., 3., 3., 1., 1., 4., 1., 0., 0., 1.,
          0., 4., 0., 4., 1., 0., 1., 1., 0., 3., 0., 5., 1., 2., 0., 1.,
          0., 1., 0., 2., 2., 3., 3., 1., 2., 0., 2., 2., 1., 1., 3., 1.,
          0., 1., 1., 0., 0., 2., 5., 1., 0., 0., 1., 1., 3., 0., 0., 0.,
          1., 0., 0., 0., 0., 5., 4., 4., 1., 0., 1., 1., 1., 0., 1., 1.,
          1., 1., 0., 1., 1., 2., 1., 1., 1., 2., 0., 4., 2., 3., 0., 3.,
          0., 3., 0., 1., 0., 1., 2., 0., 0., 2., 0., 4., 4., 1., 0., 1.,
          0., 1., 3., 2., 0., 3., 2., 1., 1., 1., 3., 2., 0., 2., 2., 5.,
          0., 3., 2., 1., 3., 2., 2., 0., 3., 1., 2., 2., 1., 2., 3., 3.,
          2., 1., 3., 2., 2., 0. ]
      - [ 1., 0., 0., 1., 0., 1., 1., 1., 0., 0., 0., 0., 1., 1., 0., 0.,
          0., 3., 1., 3., 0., 0., 2., 2., 0., 0., 1., 0., 1., 0., 1., 0.,
          0., 1., 0., 1., 1., 1., 2., 1., 2., 1., 3., 0., 1., 0., 0., 2.,
          3., 1., 1., 1., 1., 2., 1., 1., 0., 1., 2., 1., 0., 2., 1., 1.,
          2., 1., 0., 0., 0., 1., 1., 1., 0., 0., 0., 2., 1., 1., 4., 0.,
          0., 0., 0., 1., 2., 0., 1., 0., 0., 0., 0., 1., 2., 1., 0., 2.,
          0., 2., 0., 0., 0., 0., 1., 1., 0., 4., 1., 1., 2., 0., 2., 3.,
          0., 0., 0., 1., 0., 0., 2., 1., 0., 0., 0., 1., 0., 2., 1., 1.,
          0., 0., 0., 1., 1., 1., 1., 1., 1., 1., 0., 0., 2., 0., 1., 2.,
          0., 2., 1., 1., 1., 1. ]
      - [ 1., 2., 2., 0., 1., 4., 2., 4., 1., 1., 3., 1., 1., 2., 1., 0.,
          2., 1., 2., 2., 0., 3., 1., 1., 3., 0., 1., 4., 1., 1., 1., 3.,
          0., 3., 4., 0., 2., 2., 1., 1., 2., 1., 1., 1., 1., 3., 2., 1.,
          2., 3., 1., 0., 4., 0., 3., 1., 1., 0., 2., 1., 1., 4., 1., 1.,
          2., 2., 1., 4., 0., 3., 0., 0., 2., 0., 1., 1., 4., 2., 0., 1.,
          2., 0., 1., 2., 0., 3., 0., 0., 0., 2., 2., 4., 2., 1., 1., 1.,
          0., 2., 2., 3., 6., 0., 0., 1., 2., 0., 2., 3., 3., 1., 1., 0.,
          3., 1., 3., 2., 0., 1., 0., 0., 2., 3., 1., 2., 1., 3., 1., 4.,
          1., 0., 5., 0., 4., 2., 1., 1., 2., 1., 0., 0., 4., 1., 1., 3.,
          3., 3., 2., 1., 1., 3. ]
      - [ 1., 1., 4., 0., 1., 2., 2., 4., 2., 5., 2., 3., 1., 3., 0., 0.,
          2., 0., 0., 1., 0., 2., 1., 2., 1., 5., 0., 1., 0., 1., 1., 1.,
          0., 2., 5., 1., 1., 1., 2., 7., 1., 0., 3., 2., 1., 3., 3., 0.,
          3., 2., 2., 2., 1., 0., 0., 3., 2., 1., 2., 1., 0., 1., 0., 2.,
          3., 3., 1., 1., 0., 3., 0., 3., 2., 3., 1., 2., 1., 1., 2., 0.,
          1., 0., 2., 1., 1., 0., 2., 1., 2., 1., 1., 1., 1., 2., 3., 0.,
          3., 5., 2., 1., 0., 1., 3., 2., 0., 1., 4., 4., 4., 0., 3., 1.,
          1., 1., 1., 1., 0., 1., 0., 2., 1., 0., 2., 1., 0., 0., 1., 3.,
          1., 2., 0., 1., 1., 2., 1., 4., 3., 0., 2., 3., 2., 4., 3., 2.,
          9., 1., 3., 2., 1., 1. ]
      - [ 2., 0., 1., 1., 0., 0., 0., 0., 0., 0., 0., 2., 2., 1., 1., 0.,
          2., 1., 2., 0., 1., 1., 1., 3., 3., 0., 1., 0., 1., 2., 1., 0.,
          0., 1., 0., 0., 2., 1., 1., 0., 1., 0., 0., 1., 0., 0., 0., 1.,
          0., 1., 1., 0., 2., 2., 1., 1., 0., 0., 1., 0., 0., 0., 0., 3.,
          0., 0., 1., 0., 0., 0., 0., 0., 0., 1., 2., 1., 0., 2., 1., 0.,
          0., 3., 0., 1., 0., 0., 1., 2., 0., 1., 2., 2., 0., 2., 0., 1.,
          0., 0., 0., 0., 1., 1., 2., 0., 1., 1., 1., 1., 1., 2., 0., 1.,
          0., 1., 1., 0., 0., 2., 1., 0., 2., 1., 0., 0., 0., 0., 2., 0.,
          0., 0., 1., 0., 1., 0., 2., 0., 1., 0., 1., 1., 0., 0., 0., 1.,
          0., 1., 1., 2., 2., 2. ]
      - [ 1., 0., 0., 0., 1., 2., 0., 0., 1., 0., 0., 1., 2., 0., 1., 1.,
          0., 1., 1., 0., 0., 3., 1., 3., 6., 1., 0., 2., 0., 0., 1., 1.,
          0., 3., 0., 1., 2., 1., 0., 1., 0., 1., 1., 0., 2., 0., 2., 0.,
          2., 0., 0., 0., 0., 1., 0., 0., 3., 0., 1., 0., 0., 1., 1., 0.,
          0., 0., 1., 2., 1., 0., 0., 1., 3., 0., 1., 1., 0., 2., 1., 0.,
          0., 0., 1., 1., 0., 2., 0., 2., 1., 4., 3., 0., 0., 0., 1., 1.,
          1., 1., 1., 1., 0., 1., 1., 0., 0., 1., 1., 0., 0., 0., 1., 0.,
          2., 0., 0., 0., 1., 1., 1., 2., 2., 1., 1., 1., 0., 0., 0., 0.,
          0., 0., 1., 0., 2., 1., 1., 2., 0., 0., 0., 0., 0., 1., 0., 0.,
          2., 2., 4., 1., 1., 2. ]
      - [ 0., 2., 0., 1., 0., 1., 1., 1., 1., 3., 1., 1., 1., 3., 2., 0.,
          1., 1., 3., 0., 1., 0., 1., 0., 0., 1., 1., 3., 2., 2., 0., 0.,
          0., 2., 1., 2., 1., 3., 3., 2., 0., 2., 1., 2., 1., 0., 0., 0.,
          1., 4., 1., 2., 2., 1., 1., 1., 3., 0., 0., 3., 1., 2., 3., 2.,
          0., 1., 1., 1., 0., 0., 2., 2., 2., 1., 0., 0., 1., 2., 4., 2.,
          1., 0., 0., 0., 0., 0., 0., 1., 0., 2., 1., 0., 3., 0., 3., 2.,
          3., 3., 0., 3., 3., 1., 2., 1., 1., 2., 2., 2., 3., 0., 0., 1.,
          0., 4., 1., 1., 0., 0., 1., 1., 1., 1., 0., 2., 0., 1., 2., 1.,
          0., 1., 1., 0., 0., 0., 1., 1., 1., 1., 0., 4., 1., 0., 4., 2.,
          1., 1., 2., 1., 0., 1. ]
      - [ 0., 1., 1., 3., 3., 1., 0., 1., 3., 2., 1., 1., 2., 1., 1., 1.,
          0., 2., 0., 0., 1., 1., 1., 2., 2., 0., 1., 2., 0., 2., 0., 2.,
          0., 1., 0., 1., 1., 2., 0., 1., 0., 2., 1., 0., 0., 1., 2., 2.,
          0., 0., 0., 1., 0., 0., 3., 1., 1., 1., 1., 2., 0., 1., 0., 1.,
          1., 1., 0., 2., 3., 0., 0., 3., 2., 1., 1., 2., 3., 0., 3., 0.,
          0., 0., 0., 1., 1., 0., 0., 0., 0., 2., 1., 1., 0., 0., 0., 0.,
          1., 1., 0., 2., 2., 2., 0., 1., 0., 2., 1., 2., 1., 0., 3., 0.,
          0., 0., 1., 1., 0., 0., 2., 1., 3., 0., 4., 0., 1., 1., 0., 0.,
          4., 0., 0., 1., 0., 1., 0., 0., 1., 1., 1., 0., 0., 1., 0., 1.,
          1., 1., 3., 3., 2., 1. ]
      - [ 0., 0., 0., 0., 0., 2., 1., 1., 0., 0., 0., 0., 0., 0., 0., 0.,
          0., 0., 0., 0., 1., 1., 1., 1., 3., 0., 1., 1., 0., 1., 0., 2.,
          0., 4., 0., 0., 1., 0., 0., 0., 1., 2., 0., 0., 1., 1., 0., 0.,
          1., 1., 0., 1., 1., 0., 0., 1., 0., 2., 2., 0., 2., 2., 4., 1.,
          1., 1., 0., 0., 2., 1., 1., 0., 0., 0., 1., 1., 0., 0., 2., 0.,
          0., 1., 1., 1., 3., 1., 1., 1., 1., 0., 1., 0., 2., 2., 1., 0.,
          0., 0., 0., 1., 2., 1., 1., 2., 0., 1., 0., 1., 1., 1., 1., 0.,
          0., 3., 1., 0., 1., 0., 1., 1., 0., 1., 1., 0., 1., 1., 0., 1.,
          2., 2., 0., 0., 3., 0., 0., 0., 0., 0., 2., 0., 1., 0., 2., 0.,
          2., 0., 1., 1., 0., 1. ]
      - [ 1., 0., 0., 0., 0., 0., 1., 0., 0., 1., 2., 1., 1., 1., 1., 1.,
          0., 0., 0., 2., 2., 0., 1., 1., 1., 1., 0., 1., 3., 1., 0., 1.,
          0., 2., 0., 1., 0., 1., 1., 0., 0., 0., 1., 0., 3., 1., 1., 1.,
          0., 0., 1., 2., 2., 1., 1., 2., 1., 1., 0., 0., 1., 1., 0., 0.,
          1., 1., 1., 0., 1., 2., 2., 3., 0., 0., 0., 2., 1., 0., 2., 1.,
          0., 0., 1., 0., 1., 0., 0., 0., 6., 1., 1., 0., 0., 0., 0., 2.,
          2., 0., 1., 3., 1., 0., 1., 0., 0., 0., 1., 1., 1., 0., 1., 0.,
          0., 1., 1., 0., 0., 0., 1., 2., 0., 0., 1., 1., 0., 1., 1., 0.,
          2., 2., 1., 1., 0., 0., 0., 1., 0., 1., 0., 0., 0., 0., 1., 2.,
          2., 1., 0., 0., 1., 3. ]
      - [ 2., 3., 2., 1., 1., 1., 4., 2., 1., 3., 2., 1., 0., 2., 1., 1.,
          1., 3., 0., 4., 1., 0., 3., 1., 2., 3., 1., 3., 1., 1., 1., 0.,
          0., 1., 3., 3., 2., 2., 1., 0., 1., 0., 7., 1., 0., 4., 1., 1.,
          1., 0., 0., 1., 1., 2., 0., 3., 1., 2., 2., 1., 0., 1., 1., 0.,
          1., 0., 2., 0., 1., 1., 3., 4., 2., 0., 0., 4., 0., 3., 5., 0.,
          0., 0., 0., 0., 1., 0., 0., 2., 2., 2., 0., 0., 1., 1., 0., 1.,
          0., 2., 0., 0., 5., 2., 5., 3., 0., 0., 1., 2., 0., 1., 2., 1.,
          0., 2., 1., 3., 0., 2., 1., 2., 0., 1., 2., 0., 0., 1., 0., 1.,
          0., 4., 0., 1., 3., 2., 1., 0., 0., 2., 2., 1., 0., 1., 1., 1.,
          4., 1., 1., 3., 1., 1. ]
      - [ 1., 0., 3., 1., 2., 1., 1., 3., 2., 2., 1., 0., 3., 0., 2., 1.,
          1., 0., 1., 1., 0., 2., 1., 4., 2., 0., 1., 1., 1., 4., 0., 2.,
          0., 1., 0., 3., 3., 3., 0., 3., 1., 1., 1., 1., 1., 0., 1., 0.,
          2., 2., 0., 2., 1., 1., 1., 0., 2., 2., 1., 0., 2., 0., 1., 2.,
          1., 0., 3., 1., 0., 2., 3., 2., 1., 2., 0., 0., 2., 2., 1., 2.,
          1., 1., 0., 0., 2., 2., 0., 2., 2., 1., 0., 0., 2., 4., 1., 0.,
          2., 1., 0., 1., 2., 0., 2., 1., 0., 0., 3., 0., 1., 0., 0., 2.,
          2., 0., 0., 2., 0., 3., 1., 1., 1., 1., 1., 1., 1., 1., 3., 2.,
          2., 0., 1., 1., 0., 0., 1., 2., 1., 1., 0., 2., 0., 0., 2., 0.,
          2., 0., 2., 2., 0., 1. ]
      - [ 2., 2., 0., 0., 0., 1., 1., 1., 0., 2., 1., 0., 0., 0., 2., 1.,
          0., 0., 1., 0., 2., 1., 0., 0., 1., 0., 2., 1., 2., 2., 0., 0.,
          0., 3., 0., 2., 1., 0., 1., 0., 1., 0., 2., 0., 0., 1., 0., 1.,
          0., 0., 2., 1., 0., 1., 1., 3., 0., 2., 0., 0., 1., 1., 1., 2.,
          2., 1., 0., 1., 0., 0., 1., 2., 0., 1., 1., 0., 0., 0., 0., 3.,
          0., 0., 0., 0., 2., 0., 0., 0., 0., 0., 1., 0., 0., 1., 1., 0.,
          1., 1., 2., 0., 2., 2., 0., 0., 0., 0., 1., 1., 0., 2., 0., 0.,
          0., 1., 1., 0., 0., 0., 0., 0., 0., 0., 2., 0., 1., 0., 0., 0.,
          0., 0., 1., 0., 1., 2., 0., 1., 1., 3., 0., 1., 0., 3., 0., 1.,
          1., 0., 1., 1., 3., 3. ]
      - [ 2., 0., 0., 0., 0., 1., 0., 2., 2., 1., 0., 2., 1., 1., 1., 1.,
          1., 0., 1., 0., 2., 1., 0., 1., 0., 1., 1., 1., 1., 2., 1., 0.,
          1., 2., 0., 0., 1., 0., 0., 2., 1., 1., 0., 1., 0., 2., 1., 0.,
          1., 0., 1., 2., 1., 0., 1., 1., 2., 1., 1., 2., 0., 0., 5., 0.,
          1., 1., 0., 1., 2., 1., 0., 1., 0., 0., 0., 2., 1., 1., 0., 1.,
          0., 2., 2., 1., 0., 2., 2., 0., 0., 2., 0., 1., 0., 1., 0., 1.,
          0., 0., 1., 1., 0., 1., 2., 0., 1., 1., 1., 1., 2., 0., 2., 1.,
          1., 1., 0., 0., 0., 1., 0., 0., 0., 0., 1., 1., 0., 1., 0., 1.,
          3., 0., 1., 2., 0., 2., 1., 0., 0., 1., 1., 0., 1., 0., 1., 0.,
          3., 1., 1., 0., 1., 0. ]
      - [ 1., 0., 1., 2., 0., 0., 0., 5., 7., 4., 1., 0., 2., 2., 2., 1.,
          0., 2., 1., 1., 0., 1., 2., 0., 1., 2., 0., 2., 4., 2., 1., 3.,
          0., 1., 2., 1., 1., 1., 1., 1., 2., 0., 2., 0., 1., 2., 1., 1.,
          0., 4., 0., 4., 1., 0., 4., 3., 0., 1., 0., 0., 0., 1., 1., 2.,
          0., 1., 0., 0., 1., 3., 3., 3., 0., 3., 0., 1., 0., 4., 1., 0.,
          2., 0., 1., 1., 0., 2., 1., 2., 1., 3., 1., 1., 2., 2., 2., 1.,
          4., 1., 1., 2., 5., 2., 0., 2., 1., 0., 1., 0., 4., 2., 3., 1.,
          1., 1., 0., 0., 2., 1., 0., 0., 5., 1., 2., 0., 1., 0., 0., 1.,
          0., 0., 0., 0., 0., 3., 0., 0., 0., 3., 3., 1., 2., 1., 1., 2.,
          2., 2., 0., 1., 0., 0. ]
      - [ 1., 1., 0., 0., 3., 0., 0., 1., 1., 1., 1., 3., 6., 5., 4., 2.,
          0., 0., 1., 3., 1., 1., 1., 2., 3., 0., 1., 1., 4., 1., 2., 0.,
          0., 1., 3., 1., 3., 1., 1., 2., 3., 1., 2., 1., 2., 2., 1., 3.,
          1., 1., 2., 3., 3., 0., 3., 1., 4., 1., 0., 0., 2., 1., 0., 1.,
          2., 1., 3., 2., 2., 3., 1., 0., 2., 2., 1., 1., 3., 0., 1., 1.,
          1., 1., 1., 2., 0., 4., 2., 1., 0., 1., 2., 4., 0., 2., 2., 2.,
          0., 1., 1., 2., 2., 4., 1., 2., 1., 4., 3., 3., 4., 2., 0., 0.,
          4., 1., 1., 0., 2., 1., 1., 0., 1., 3., 1., 1., 1., 2., 1., 2.,
          0., 0., 0., 3., 1., 3., 0., 0., 2., 0., 1., 1., 4., 0., 2., 2.,
          0., 1., 0., 3., 2., 0. ]
      - [ 1., 0., 5., 2., 3., 2., 0., 1., 2., 1., 3., 2., 2., 1., 1., 0.,
          1., 2., 1., 2., 0., 4., 0., 0., 1., 0., 4., 3., 0., 1., 2., 2.,
          0., 2., 2., 0., 2., 2., 2., 1., 0., 0., 0., 0., 2., 0., 1., 1.,
          1., 1., 1., 1., 0., 2., 1., 0., 1., 2., 1., 2., 0., 0., 1., 4.,
          1., 2., 1., 2., 0., 1., 2., 1., 0., 1., 1., 0., 2., 1., 1., 0.,
          1., 1., 0., 3., 0., 1., 2., 3., 1., 1., 3., 1., 0., 1., 3., 1.,
          1., 4., 0., 2., 1., 2., 2., 0., 1., 0., 3., 2., 2., 2., 3., 0.,
          1., 0., 2., 1., 0., 2., 2., 0., 3., 2., 1., 0., 2., 0., 0., 0.,
          0., 0., 0., 0., 5., 1., 4., 0., 0., 0., 1., 2., 0., 0., 0., 4.,
          3., 1., 0., 3., 1., 2. ]
      - [ 1., 1., 2., 1., 2., 4., 1., 1., 1., 1., 3., 2., 1., 1., 0., 0.,
          1., 4., 2., 0., 0., 0., 5., 1., 0., 0., 2., 1., 2., 3., 0., 1.,
          0., 3., 0., 2., 1., 4., 2., 2., 2., 0., 1., 1., 0., 1., 2., 1.,
          1., 3., 0., 3., 0., 0., 2., 2., 3., 2., 0., 2., 1., 1., 2., 0.,
          0., 3., 2., 0., 3., 1., 0., 0., 1., 1., 1., 0., 1., 0., 1., 2.,
          4., 3., 2., 2., 1., 2., 1., 0., 2., 2., 2., 1., 2., 5., 5., 2.,
          3., 2., 1., 1., 1., 1., 4., 6., 1., 1., 0., 3., 4., 0., 2., 2.,
          3., 4., 1., 0., 3., 2., 2., 1., 1., 1., 4., 2., 2., 0., 1., 2.,
          1., 3., 0., 0., 2., 1., 2., 1., 1., 0., 1., 4., 3., 0., 1., 6.,
          1., 1., 2., 2., 2., 1. ]
      - [ 0., 0., 2., 3., 1., 2., 0., 1., 2., 1., 1., 0., 0., 0., 0., 1.,
          1., 1., 2., 2., 0., 0., 4., 0., 0., 1., 0., 2., 1., 2., 1., 2.,
          0., 0., 0., 2., 4., 1., 0., 0., 1., 2., 0., 2., 0., 2., 0., 1.,
          2., 3., 0., 0., 0., 0., 1., 3., 2., 2., 0., 3., 0., 1., 1., 1.,
          1., 0., 2., 0., 2., 1., 0., 0., 0., 0., 0., 1., 0., 0., 1., 0.,
          1., 1., 0., 1., 0., 1., 1., 2., 1., 2., 3., 0., 0., 0., 0., 2.,
          2., 0., 1., 0., 0., 0., 2., 1., 1., 1., 1., 0., 2., 0., 1., 0.,
          0., 0., 0., 1., 1., 1., 0., 1., 0., 1., 1., 1., 1., 0., 2., 1.,
          1., 1., 1., 0., 0., 0., 1., 1., 0., 1., 0., 0., 0., 0., 1., 0.,
          1., 0., 0., 1., 0., 2. ]
      - [ 1., 0., 0., 0., 0., 1., 1., 1., 2., 1., 4., 1., 1., 1., 0., 0.,
          2., 2., 1., 3., 0., 5., 3., 1., 2., 2., 1., 1., 1., 2., 1., 2.,
          0., 1., 1., 1., 2., 1., 1., 1., 1., 3., 4., 1., 3., 1., 0., 1.,
          1., 1., 2., 1., 1., 1., 1., 4., 1., 0., 3., 0., 0., 1., 3., 0.,
          1., 0., 3., 0., 3., 0., 0., 0., 1., 2., 0., 1., 1., 2., 0., 0.,
          0., 2., 1., 2., 1., 0., 1., 1., 1., 5., 2., 1., 4., 0., 0., 2.,
          2., 2., 0., 2., 0., 0., 2., 1., 1., 1., 2., 1., 3., 0., 1., 0.,
          1., 0., 1., 1., 1., 2., 1., 2., 0., 2., 0., 0., 0., 2., 3., 3.,
          1., 1., 1., 1., 3., 2., 1., 1., 0., 0., 2., 1., 2., 1., 1., 4.,
          1., 0., 0., 0., 0., 0. ]
      - [ 2., 1., 1., 2., 0., 1., 1., 1., 1., 0., 0., 0., 1., 1., 0., 1.,
          3., 2., 0., 1., 2., 2., 1., 1., 2., 2., 3., 1., 1., 0., 1., 0.,
          0., 2., 0., 3., 0., 0., 1., 2., 2., 1., 1., 0., 1., 2., 2., 1.,
          0., 2., 2., 4., 1., 0., 1., 0., 1., 2., 0., 3., 0., 6., 0., 1.,
          1., 1., 1., 1., 0., 1., 1., 0., 0., 2., 1., 1., 2., 0., 1., 1.,
          2., 2., 2., 0., 3., 2., 3., 2., 0., 2., 2., 0., 2., 1., 3., 0.,
          3., 2., 1., 2., 0., 0., 0., 1., 1., 3., 0., 2., 2., 0., 2., 4.,
          1., 0., 0., 1., 0., 1., 0., 1., 1., 1., 2., 1., 0., 1., 1., 2.,
          2., 1., 1., 0., 3., 0., 1., 0., 1., 2., 0., 3., 1., 1., 1., 3.,
          0., 4., 1., 0., 0., 1. ]
      - [ 1., 2., 0., 1., 0., 1., 0., 0., 0., 1., 0., 0., 1., 0., 1., 1.,
          0., 0., 5., 1., 0., 2., 1., 3., 1., 2., 0., 0., 1., 0., 1., 1.,
          0., 0., 0., 1., 1., 5., 0., 0., 0., 0., 0., 0., 1., 0., 0., 0.,
          0., 0., 3., 0., 2., 3., 3., 1., 0., 1., 0., 2., 1., 1., 1., 1.,
          1., 0., 1., 2., 0., 0., 0., 1., 0., 0., 1., 0., 1., 0., 0., 0.,
          0., 0., 0., 2., 0., 1., 0., 2., 0., 2., 0., 1., 0., 1., 1., 2.,
          2., 2., 2., 0., 1., 2., 0., 1., 0., 0., 1., 0., 2., 1., 0., 0.,
          2., 0., 0., 2., 2., 2., 0., 0., 0., 4., 0., 0., 0., 1., 1., 0.,
          2., 0., 0., 0., 1., 3., 2., 1., 0., 0., 0., 1., 0., 0., 1., 1.,
          0., 0., 1., 0., 1., 0. ]
      - [ 0., 1., 1., 2., 1., 4., 1., 0., 1., 2., 2., 0., 1., 1., 0., 0.,
          2., 0., 1., 0., 0., 2., 1., 1., 2., 1., 3., 1., 1., 0., 0., 3.,
          0., 0., 2., 3., 1., 3., 1., 0., 1., 1., 0., 0., 3., 2., 2., 0.,
          0., 1., 0., 1., 2., 0., 2., 2., 1., 0., 1., 1., 2., 2., 0., 0.,
          2., 0., 1., 0., 1., 3., 0., 3., 1., 2., 0., 1., 2., 2., 2., 0.,
          1., 0., 1., 1., 0., 0., 2., 0., 0., 2., 0., 1., 2., 1., 2., 0.,
          1., 2., 0., 2., 2., 1., 2., 0., 0., 1., 1., 1., 2., 0., 1., 1.,
          0., 2., 1., 0., 2., 2., 1., 1., 0., 0., 0., 0., 2., 0., 3., 1.,
          0., 1., 0., 1., 0., 0., 1., 2., 1., 2., 1., 0., 1., 0., 1., 2.,
          2., 1., 1., 2., 0., 0. ]
      - [ 1., 0., 1., 0., 1., 1., 1., 0., 1., 0., 1., 1., 0., 1., 4., 1.,
          1., 0., 2., 0., 1., 3., 0., 2., 3., 4., 1., 0., 0., 0., 0., 2.,
          0., 0., 1., 1., 2., 2., 1., 2., 0., 1., 1., 0., 1., 2., 0., 0.,
          0., 0., 0., 2., 0., 2., 0., 3., 0., 2., 1., 0., 1., 1., 0., 3.,
          2., 0., 2., 2., 0., 0., 2., 4., 1., 0., 1., 1., 2., 1., 1., 1.,
          0., 0., 5., 3., 0., 0., 0., 0., 2., 1., 2., 0., 0., 1., 3., 2.,
          1., 0., 3., 3., 2., 1., 1., 0., 1., 2., 1., 0., 2., 2., 0., 1.,
          1., 1., 3., 1., 1., 1., 2., 1., 2., 0., 2., 1., 1., 0., 1., 1.,
          0., 2., 1., 1., 0., 0., 1., 0., 2., 2., 0., 0., 0., 1., 0., 0.,
          0., 1., 2., 1., 0., 1. ]
      - [ 0., 1., 1., 3., 1., 0., 2., 0., 1., 3., 0., 0., 2., 2., 0., 2.,
          0., 0., 2., 0., 0., 1., 0., 1., 0., 2., 0., 1., 1., 1., 1., 1.,
          0., 3., 4., 0., 1., 2., 0., 0., 1., 6., 1., 3., 1., 0., 0., 1.,
          2., 0., 0., 0., 4., 0., 1., 1., 0., 0., 1., 0., 0., 2., 0., 1.,
          3., 1., 0., 1., 1., 3., 1., 0., 3., 0., 0., 1., 2., 1., 1., 3.,
          0., 0., 1., 1., 2., 1., 0., 1., 0., 2., 1., 2., 1., 1., 2., 1.,
          2., 1., 2., 1., 1., 2., 2., 0., 1., 1., 1., 1., 3., 1., 0., 1.,
          2., 0., 1., 6., 2., 0., 3., 1., 0., 0., 0., 2., 0., 1., 3., 0.,
          1., 3., 4., 2., 2., 4., 1., 1., 0., 1., 0., 1., 1., 1., 0., 2.,
          5., 2., 1., 1., 2., 0. ]
      - [ 0., 0., 1., 1., 0., 0., 1., 2., 2., 4., 2., 4., 3., 3., 0., 1.,
          0., 1., 2., 1., 1., 0., 1., 2., 2., 1., 1., 0., 3., 2., 2., 0.,
          0., 0., 2., 1., 0., 1., 1., 2., 1., 2., 1., 0., 1., 4., 0., 0.,
          0., 2., 0., 3., 2., 3., 0., 0., 0., 2., 0., 0., 2., 1., 1., 1.,
          0., 1., 2., 0., 2., 0., 0., 0., 1., 2., 0., 1., 1., 0., 0., 3.,
          0., 1., 1., 1., 4., 3., 3., 1., 1., 1., 2., 2., 2., 2., 1., 2.,
          2., 0., 0., 1., 1., 1., 3., 2., 2., 1., 0., 0., 1., 2., 0., 1.,
          1., 1., 2., 1., 1., 2., 0., 1., 2., 1., 1., 0., 0., 0., 1., 1.,
          0., 1., 1., 1., 4., 1., 1., 1., 1., 1., 0., 0., 0., 1., 0., 1.,
          2., 2., 3., 2., 3., 3. ]
      - [ 4., 2., 1., 2., 2., 2., 0., 0., 1., 0., 1., 1., 1., 0., 1., 1.,
          1., 0., 1., 0., 2., 2., 2., 5., 1., 1., 3., 3., 0., 0., 0., 1.,
          0., 0., 1., 1., 0., 4., 0., 1., 0., 0., 0., 1., 2., 2., 1., 1.,
          2., 2., 2., 2., 1., 2., 2., 1., 1., 1., 1., 1., 3., 3., 0., 0.,
          1., 3., 2., 1., 0., 0., 0., 0., 2., 0., 2., 0., 4., 0., 2., 1.,
          0., 2., 1., 3., 0., 2., 3., 0., 1., 0., 4., 2., 1., 3., 0., 1.,
          1., 2., 1., 0., 4., 2., 0., 2., 1., 1., 1., 1., 2., 1., 2., 0.,
          2., 1., 0., 1., 0., 2., 1., 2., 1., 2., 0., 3., 1., 1., 2., 2.,
          0., 0., 2., 3., 1., 3., 0., 0., 0., 1., 1., 2., 0., 2., 1., 5.,
          0., 2., 3., 1., 2., 1. ]
      - [ 1., 0., 1., 0., 0., 2., 2., 0., 5., 2., 0., 1., 0., 0., 0., 0.,
          1., 0., 0., 1., 0., 0., 3., 0., 0., 1., 1., 0., 0., 1., 0., 0.,
          0., 1., 0., 0., 0., 1., 2., 3., 1., 0., 2., 1., 0., 1., 0., 2.,
          0., 0., 2., 1., 0., 3., 0., 1., 1., 0., 0., 0., 2., 2., 2., 0.,
          0., 0., 2., 0., 0., 1., 0., 0., 0., 2., 0., 1., 2., 0., 2., 0.,
          2., 1., 0., 4., 1., 1., 3., 1., 0., 2., 2., 2., 0., 1., 1., 1.,
          2., 0., 1., 1., 2., 0., 0., 0., 1., 2., 1., 1., 3., 0., 1., 2.,
          1., 1., 0., 0., 0., 1., 1., 1., 0., 0., 1., 2., 0., 1., 0., 0.,
          0., 1., 0., 2., 0., 1., 0., 1., 0., 1., 1., 1., 1., 0., 4., 1.,
          1., 1., 2., 0., 0., 1. ]
      - [ 1., 0., 0., 1., 0., 0., 0., 0., 3., 0., 2., 0., 1., 2., 1., 1.,
          1., 0., 0., 0., 0., 2., 0., 1., 1., 1., 0., 0., 0., 0., 1., 0.,
          0., 1., 0., 1., 0., 3., 2., 0., 0., 0., 2., 1., 0., 0., 0., 1.,
          0., 0., 0., 0., 1., 1., 0., 0., 0., 1., 0., 2., 0., 0., 0., 1.,
          0., 1., 0., 1., 1., 1., 0., 0., 1., 0., 0., 1., 0., 2., 3., 3.,
          0., 1., 2., 1., 2., 0., 2., 0., 2., 0., 0., 3., 3., 0., 0., 0.,
          1., 1., 0., 1., 1., 0., 1., 1., 0., 1., 0., 1., 0., 1., 2., 1.,
          0., 1., 0., 2., 0., 0., 1., 2., 1., 0., 0., 0., 0., 1., 1., 1.,
          1., 0., 0., 2., 0., 1., 2., 1., 1., 1., 0., 1., 1., 0., 0., 0.,
          0., 1., 1., 1., 0., 2. ]
      - [ 2., 0., 0., 2., 0., 4., 1., 1., 1., 0., 1., 1., 3., 1., 3., 3.,
          0., 1., 0., 0., 1., 1., 1., 1., 2., 1., 0., 1., 0., 2., 0., 1.,
          0., 0., 1., 0., 1., 0., 2., 0., 2., 1., 1., 0., 0., 0., 4., 0.,
          1., 0., 1., 1., 0., 2., 0., 2., 0., 1., 0., 0., 0., 1., 1., 2.,
          1., 0., 1., 0., 1., 1., 1., 0., 0., 0., 0., 1., 0., 0., 1., 0.,
          1., 0., 2., 1., 0., 2., 0., 0., 6., 1., 1., 1., 3., 0., 1., 1.,
          1., 0., 0., 1., 0., 1., 0., 0., 1., 0., 0., 0., 1., 0., 1., 0.,
          1., 0., 1., 0., 2., 0., 1., 0., 2., 0., 3., 1., 1., 0., 0., 1.,
          2., 2., 1., 1., 0., 0., 1., 2., 0., 0., 1., 1., 0., 0., 3., 0.,
          3., 0., 0., 1., 2., 1. ]
      - [ 1., 2., 2., 0., 1., 0., 0., 1., 0., 1., 0., 1., 0., 0., 0., 0.,
          0., 1., 0., 4., 1., 2., 0., 0., 4., 0., 0., 0., 0., 0., 1., 0.,
          1., 0., 0., 0., 0., 1., 1., 4., 0., 1., 1., 1., 1., 0., 0., 0.,
          2., 0., 1., 0., 0., 1., 1., 1., 1., 2., 0., 0., 0., 0., 1., 1.,
          3., 1., 0., 1., 0., 0., 0., 1., 0., 1., 0., 1., 0., 0., 0., 2.,
          0., 0., 0., 1., 1., 0., 0., 3., 0., 1., 0., 3., 0., 0., 1., 1.,
          1., 0., 1., 2., 2., 0., 2., 0., 0., 0., 0., 0., 1., 1., 0., 1.,
          0., 1., 0., 0., 0., 1., 1., 2., 1., 1., 1., 0., 2., 0., 0., 0.,
          0., 0., 0., 2., 0., 1., 1., 2., 1., 2., 0., 1., 2., 1., 0., 1.,
          0., 1., 0., 1., 2., 0. ]
      - [ 0., 0., 1., 1., 2., 1., 0., 1., 0., 2., 3., 2., 2., 1., 1., 0.,
          1., 2., 2., 0., 0., 1., 2., 0., 2., 2., 1., 4., 1., 1., 2., 1.,
          0., 0., 2., 1., 1., 2., 1., 1., 2., 1., 1., 3., 3., 4., 1., 0.,
          1., 1., 2., 1., 1., 2., 0., 0., 2., 2., 3., 1., 0., 2., 0., 2.,
          1., 2., 2., 1., 2., 1., 1., 1., 1., 2., 2., 0., 1., 0., 0., 3.,
          2., 2., 3., 1., 1., 1., 2., 0., 3., 2., 2., 2., 2., 4., 0., 0.,
          1., 3., 3., 1., 1., 1., 0., 2., 1., 0., 4., 2., 0., 2., 1., 0.,
          0., 1., 1., 1., 1., 1., 1., 0., 1., 0., 1., 1., 1., 1., 1., 0.,
          1., 0., 1., 1., 1., 2., 2., 4., 0., 2., 1., 0., 1., 0., 2., 3.,
          2., 2., 0., 3., 3., 2. ]
      - [ 3., 2., 0., 3., 3., 2., 4., 2., 1., 1., 1., 0., 5., 0., 0., 0.,
          1., 0., 1., 0., 4., 4., 1., 1., 0., 1., 0., 2., 1., 3., 0., 0.,
          0., 0., 1., 1., 1., 1., 4., 1., 0., 2., 1., 3., 1., 0., 2., 2.,
          2., 0., 0., 1., 3., 2., 0., 1., 2., 4., 3., 1., 1., 0., 2., 1.,
          2., 0., 0., 2., 1., 0., 4., 1., 1., 1., 1., 2., 0., 2., 2., 0.,
          0., 2., 0., 4., 0., 2., 3., 0., 2., 1., 1., 3., 1., 2., 0., 1.,
          1., 1., 1., 0., 1., 3., 1., 2., 1., 2., 1., 3., 1., 1., 1., 0.,
          2., 3., 3., 0., 1., 1., 1., 2., 1., 1., 1., 1., 1., 0., 0., 1.,
          1., 1., 1., 1., 2., 2., 0., 1., 5., 0., 0., 1., 1., 0., 0., 1.,
          3., 1., 3., 1., 3., 3. ]
      - [ 1., 2., 2., 1., 2., 0., 2., 0., 2., 1., 2., 0., 0., 2., 0., 1.,
          3., 2., 0., 2., 1., 2., 1., 0., 3., 1., 2., 0., 0., 0., 1., 1.,
          0., 0., 0., 1., 4., 1., 2., 1., 2., 1., 3., 1., 4., 1., 1., 0.,
          1., 0., 0., 1., 1., 3., 0., 0., 1., 1., 0., 0., 1., 0., 3., 3.,
          1., 2., 3., 0., 1., 2., 2., 1., 1., 5., 1., 0., 3., 3., 2., 4.,
          0., 1., 2., 2., 2., 0., 1., 0., 0., 2., 0., 1., 1., 0., 0., 1.,
          2., 3., 2., 1., 1., 2., 1., 2., 3., 1., 2., 3., 0., 1., 2., 0.,
          1., 1., 0., 2., 0., 2., 0., 0., 3., 0., 1., 2., 3., 0., 2., 1.,
          2., 2., 1., 0., 0., 1., 2., 0., 1., 2., 1., 2., 0., 2., 2., 5.,
          1., 2., 2., 3., 2., 3. ]
      - [ 1., 2., 5., 1., 1., 3., 0., 1., 0., 1., 1., 2., 3., 3., 2., 0.,
          0., 1., 1., 3., 0., 1., 1., 2., 0., 1., 1., 0., 4., 1., 1., 1.,
          0., 1., 1., 5., 1., 3., 0., 1., 1., 3., 2., 2., 2., 1., 0., 0.,
          2., 2., 1., 0., 0., 0., 1., 0., 2., 3., 1., 1., 2., 2., 0., 2.,
          1., 1., 3., 0., 1., 3., 3., 0., 1., 2., 2., 0., 1., 0., 0., 0.,
          4., 0., 1., 2., 2., 1., 0., 0., 1., 3., 1., 3., 0., 2., 2., 0.,
          2., 2., 6., 1., 0., 2., 1., 1., 0., 1., 0., 1., 1., 3., 2., 0.,
          0., 0., 0., 1., 1., 3., 1., 3., 1., 0., 2., 0., 1., 0., 1., 3.,
          1., 0., 1., 0., 1., 2., 1., 1., 0., 4., 0., 2., 1., 1., 1., 2.,
          0., 0., 1., 2., 0., 1. ]
      - [ 2., 0., 0., 1., 2., 0., 1., 1., 0., 1., 1., 2., 2., 1., 0., 1.,
          0., 1., 1., 2., 0., 0., 1., 0., 0., 0., 3., 1., 1., 1., 0., 0.,
          1., 4., 0., 3., 0., 0., 2., 1., 0., 3., 0., 2., 2., 0., 1., 0.,
          1., 1., 0., 0., 2., 0., 1., 0., 1., 2., 1., 1., 1., 0., 0., 1.,
          0., 1., 0., 1., 2., 1., 0., 1., 0., 1., 0., 1., 3., 0., 0., 0.,
          1., 1., 0., 0., 0., 0., 1., 1., 1., 0., 0., 0., 1., 2., 3., 2.,
          0., 1., 1., 0., 0., 0., 0., 1., 1., 0., 0., 1., 2., 1., 0., 0.,
          0., 2., 0., 0., 2., 0., 1., 0., 1., 0., 0., 0., 1., 1., 0., 0.,
          3., 1., 4., 0., 0., 1., 2., 0., 2., 1., 1., 1., 2., 0., 0., 1.,
          0., 0., 1., 1., 0., 1. ]
      - [ 1., 0., 2., 1., 3., 1., 2., 0., 3., 1., 2., 2., 0., 1., 4., 0.,
          0., 0., 1., 1., 1., 2., 0., 1., 0., 0., 1., 3., 0., 1., 1., 0.,
          0., 0., 1., 1., 2., 0., 1., 2., 2., 2., 5., 3., 0., 1., 1., 0.,
          1., 3., 1., 0., 1., 2., 2., 2., 1., 3., 0., 2., 1., 0., 1., 1.,
          1., 2., 1., 1., 1., 0., 2., 1., 0., 1., 6., 1., 0., 0., 1., 2.,
          1., 2., 3., 0., 0., 1., 0., 3., 1., 2., 1., 1., 1., 1., 2., 1.,
          2., 6., 0., 2., 1., 0., 1., 0., 1., 2., 1., 2., 3., 3., 1., 1.,
          1., 1., 0., 0., 0., 0., 3., 0., 2., 1., 1., 0., 0., 2., 0., 0.,
          1., 1., 0., 0., 1., 1., 0., 2., 0., 0., 0., 2., 0., 1., 1., 0.,
          2., 1., 0., 2., 0., 0. ]
      - [ 3., 2., 1., 1., 1., 3., 1., 0., 1., 0., 5., 2., 1., 0., 2., 1.,
          0., 1., 2., 0., 0., 1., 0., 2., 3., 1., 2., 1., 0., 1., 2., 1.,
          0., 6., 0., 0., 0., 1., 1., 0., 2., 1., 0., 0., 1., 0., 3., 1.,
          1., 0., 1., 1., 2., 1., 0., 1., 1., 0., 0., 0., 2., 1., 1., 0.,
          0., 1., 2., 0., 3., 1., 2., 2., 1., 0., 0., 3., 1., 0., 1., 0.,
          0., 1., 2., 2., 1., 3., 1., 2., 0., 0., 1., 0., 1., 0., 1., 3.,
          1., 1., 3., 1., 1., 1., 0., 0., 0., 1., 1., 1., 0., 0., 0., 1.,
          0., 3., 2., 1., 2., 3., 2., 1., 1., 0., 0., 2., 1., 0., 0., 1.,
          2., 0., 1., 0., 0., 0., 0., 1., 0., 0., 1., 3., 1., 3., 0., 0.,
          2., 1., 1., 1., 2., 2. ]
      - [ 1., 1., 0., 0., 1., 0., 0., 1., 2., 0., 2., 0., 3., 0., 1., 2.,
          1., 0., 1., 0., 1., 1., 1., 1., 1., 3., 0., 0., 0., 1., 0., 0.,
          0., 1., 2., 0., 1., 0., 1., 1., 1., 0., 2., 0., 1., 0., 0., 4.,
          4., 1., 1., 1., 2., 1., 3., 0., 0., 1., 3., 0., 1., 1., 1., 1.,
          1., 3., 0., 2., 1., 1., 3., 1., 0., 1., 1., 1., 1., 2., 1., 1.,
          0., 0., 2., 1., 0., 0., 1., 0., 1., 1., 1., 1., 0., 1., 2., 2.,
          0., 0., 1., 1., 0., 0., 1., 2., 1., 4., 0., 0., 2., 1., 1., 2.,
          1., 0., 1., 0., 0., 1., 1., 1., 1., 2., 2., 1., 0., 3., 1., 2.,
          0., 1., 0., 0., 2., 1., 2., 1., 0., 3., 0., 1., 1., 2., 0., 1.,
          0., 1., 1., 0., 2., 0. ]
      - [ 0., 1., 0., 1., 2., 1., 1., 1., 1., 2., 1., 0., 0., 0., 2., 0.,
          0., 1., 0., 0., 0., 1., 2., 0., 0., 3., 2., 1., 0., 0., 0., 1.,
          0., 1., 1., 1., 0., 1., 0., 1., 1., 1., 2., 0., 1., 2., 1., 0.,
          1., 2., 0., 2., 0., 1., 3., 4., 0., 1., 2., 0., 1., 0., 1., 2.,
          0., 1., 2., 2., 0., 0., 2., 2., 0., 0., 0., 0., 1., 1., 2., 1.,
          1., 2., 1., 2., 3., 1., 0., 0., 0., 0., 0., 0., 0., 1., 1., 1.,
          1., 1., 0., 1., 0., 4., 0., 2., 3., 3., 1., 0., 4., 0., 3., 2.,
          0., 0., 0., 2., 3., 1., 1., 0., 0., 1., 1., 1., 3., 2., 3., 0.,
          0., 0., 1., 1., 1., 2., 0., 0., 0., 1., 1., 2., 0., 3., 0., 1.,
          3., 1., 1., 0., 0., 1. ]
      - [ 1., 3., 0., 1., 0., 0., 1., 2., 1., 4., 0., 1., 1., 1., 0., 1.,
          2., 2., 2., 0., 1., 1., 1., 3., 2., 2., 1., 1., 1., 0., 2., 2.,
          0., 2., 1., 1., 0., 0., 6., 1., 1., 1., 1., 1., 1., 2., 1., 0.,
          1., 0., 0., 0., 1., 0., 0., 2., 0., 1., 1., 1., 1., 0., 0., 3.,
          0., 0., 2., 0., 0., 2., 1., 0., 2., 0., 1., 2., 2., 2., 3., 1.,
          3., 1., 0., 0., 1., 1., 2., 1., 0., 0., 0., 4., 1., 2., 2., 0.,
          2., 0., 4., 5., 4., 2., 0., 2., 1., 0., 4., 2., 0., 2., 0., 0.,
          1., 1., 0., 0., 1., 3., 1., 0., 0., 1., 3., 3., 0., 0., 0., 1.,
          2., 0., 1., 1., 0., 0., 4., 0., 1., 2., 0., 4., 1., 0., 1., 1.,
          0., 0., 1., 1., 1., 1. ]
      - [ 2., 1., 1., 0., 3., 1., 2., 2., 2., 1., 5., 1., 2., 0., 1., 2.,
          1., 4., 0., 1., 0., 0., 1., 3., 6., 1., 2., 2., 0., 0., 0., 0.,
          0., 2., 0., 2., 2., 2., 2., 1., 3., 1., 0., 0., 1., 0., 2., 1.,
          1., 1., 1., 1., 0., 2., 2., 3., 4., 3., 0., 4., 2., 2., 1., 0.,
          0., 3., 2., 2., 0., 2., 1., 2., 0., 0., 1., 0., 1., 1., 2., 2.,
          0., 1., 3., 1., 1., 1., 2., 1., 4., 1., 0., 0., 1., 2., 3., 1.,
          0., 2., 0., 2., 2., 2., 1., 1., 1., 0., 3., 3., 1., 0., 1., 1.,
          2., 1., 1., 1., 3., 1., 1., 1., 2., 0., 2., 1., 0., 1., 0., 3.,
          2., 0., 0., 1., 3., 1., 3., 1., 1., 1., 3., 1., 0., 1., 2., 2.,
          0., 0., 1., 2., 1., 2. ]
      - [ 5., 3., 1., 0., 0., 3., 1., 2., 4., 3., 1., 1., 1., 2., 0., 1.,
          0., 0., 5., 0., 0., 1., 3., 2., 2., 2., 3., 5., 2., 0., 1., 2.,
          0., 1., 1., 2., 1., 0., 2., 1., 1., 0., 3., 1., 4., 2., 2., 3.,
          1., 2., 3., 2., 1., 1., 2., 0., 0., 3., 1., 1., 0., 1., 1., 0.,
          3., 1., 1., 1., 1., 1., 2., 3., 4., 2., 2., 4., 2., 3., 5., 3.,
          1., 0., 2., 1., 0., 1., 6., 0., 5., 3., 2., 0., 1., 2., 2., 1.,
          2., 0., 2., 2., 4., 4., 0., 2., 1., 2., 2., 5., 3., 1., 0., 3.,
          1., 2., 1., 1., 1., 1., 1., 1., 2., 2., 2., 2., 1., 4., 2., 2.,
          0., 1., 2., 1., 1., 1., 2., 4., 1., 2., 4., 1., 2., 2., 4., 2.,
          1., 0., 0., 2., 2., 1. ]
      - [ 2., 2., 0., 2., 2., 2., 0., 3., 1., 1., 1., 3., 0., 3., 2., 1.,
          0., 0., 2., 1., 1., 3., 0., 2., 1., 1., 2., 3., 1., 1., 2., 1.,
          0., 2., 3., 0., 0., 0., 0., 4., 0., 0., 1., 0., 1., 0., 1., 0.,
          2., 0., 5., 3., 0., 0., 0., 0., 2., 0., 0., 1., 0., 1., 1., 2.,
          3., 1., 0., 1., 2., 2., 0., 1., 0., 0., 2., 3., 1., 0., 0., 1.,
          2., 2., 0., 0., 1., 3., 0., 2., 2., 2., 1., 1., 0., 3., 0., 0.,
          0., 1., 0., 1., 2., 2., 0., 3., 0., 0., 3., 1., 3., 0., 0., 1.,
          2., 0., 1., 1., 3., 0., 1., 2., 1., 2., 1., 2., 2., 0., 1., 2.,
          2., 1., 2., 3., 0., 2., 0., 2., 4., 1., 0., 1., 2., 1., 1., 0.,
          1., 2., 0., 3., 0., 1. ]
      - [ 2., 4., 1., 2., 3., 1., 1., 2., 2., 2., 1., 2., 1., 5., 1., 2.,
          2., 2., 2., 2., 2., 2., 0., 2., 0., 3., 1., 3., 1., 2., 1., 0.,
          0., 1., 1., 1., 0., 2., 3., 2., 5., 2., 2., 2., 0., 2., 1., 1.,
          4., 1., 4., 1., 6., 1., 3., 1., 6., 3., 5., 1., 0., 3., 2., 2.,
          0., 2., 2., 0., 0., 2., 3., 0., 1., 0., 0., 1., 0., 2., 1., 3.,
          0., 1., 2., 3., 1., 0., 1., 1., 1., 0., 0., 1., 3., 0., 0., 2.,
          1., 0., 3., 2., 1., 2., 3., 0., 2., 3., 1., 3., 2., 3., 3., 1.,
          1., 2., 1., 6., 0., 1., 0., 1., 0., 0., 2., 3., 0., 2., 3., 1.,
          1., 1., 1., 1., 2., 1., 2., 1., 4., 2., 3., 1., 1., 1., 5., 5.,
          4., 2., 0., 1., 4., 1. ]
      - [ 1., 0., 1., 1., 1., 1., 0., 1., 3., 0., 0., 1., 1., 0., 0., 2.,
          1., 2., 0., 1., 1., 0., 5., 2., 0., 0., 0., 2., 0., 0., 0., 0.,
          2., 1., 2., 0., 0., 4., 0., 0., 1., 0., 2., 0., 2., 0., 0., 0.,
          1., 1., 0., 0., 1., 0., 0., 1., 0., 1., 0., 1., 1., 1., 0., 0.,
          2., 1., 3., 0., 0., 2., 0., 2., 1., 2., 0., 1., 0., 0., 0., 1.,
          0., 0., 0., 0., 2., 2., 0., 0., 1., 1., 1., 0., 0., 0., 3., 0.,
          2., 0., 0., 1., 1., 2., 0., 1., 0., 1., 0., 1., 1., 0., 2., 0.,
          1., 0., 0., 0., 1., 0., 0., 0., 1., 1., 1., 0., 0., 1., 1., 0.,
          0., 2., 0., 1., 1., 1., 1., 1., 0., 1., 0., 2., 1., 0., 1., 0.,
          1., 1., 0., 0., 1., 2. ]
      - [ 1., 2., 0., 1., 3., 1., 0., 3., 1., 0., 3., 3., 0., 0., 0., 0.,
          0., 1., 1., 0., 1., 2., 0., 0., 0., 2., 1., 2., 0., 0., 0., 0.,
          0., 1., 1., 2., 0., 0., 1., 0., 1., 0., 2., 3., 2., 2., 1., 0.,
          1., 0., 1., 1., 1., 4., 0., 2., 1., 4., 1., 0., 1., 0., 1., 3.,
          4., 1., 1., 1., 1., 2., 3., 3., 1., 0., 1., 1., 1., 3., 1., 0.,
          2., 0., 2., 1., 5., 1., 2., 0., 2., 1., 3., 2., 1., 2., 0., 2.,
          2., 2., 4., 1., 1., 2., 4., 2., 0., 0., 1., 1., 1., 0., 3., 0.,
          0., 0., 2., 0., 2., 2., 1., 2., 2., 0., 1., 2., 0., 0., 1., 2.,
          0., 4., 2., 1., 2., 2., 2., 0., 3., 3., 0., 2., 1., 0., 1., 0.,
          0., 0., 1., 1., 2., 0. ]
      - [ 1., 0., 0., 0., 3., 1., 2., 1., 1., 0., 0., 0., 1., 0., 0., 0.,
          0., 3., 2., 1., 0., 0., 0., 1., 3., 0., 0., 1., 0., 1., 1., 1.,
          0., 3., 0., 0., 0., 0., 0., 0., 0., 1., 1., 0., 0., 0., 0., 0.,
          1., 0., 0., 0., 0., 0., 0., 1., 1., 2., 0., 0., 0., 1., 1., 0.,
          2., 1., 1., 1., 0., 0., 1., 0., 0., 0., 0., 6., 0., 0., 0., 0.,
          0., 1., 2., 0., 1., 1., 0., 1., 4., 2., 0., 1., 2., 2., 3., 2.,
          0., 2., 1., 0., 0., 1., 0., 1., 0., 0., 0., 0., 0., 1., 1., 0.,
          0., 1., 1., 0., 1., 0., 1., 1., 2., 0., 0., 0., 0., 0., 1., 0.,
          2., 1., 1., 0., 1., 0., 0., 1., 0., 0., 1., 1., 0., 1., 0., 0.,
          3., 0., 3., 1., 0., 2. ]
      - [ 2., 1., 0., 0., 0., 0., 0., 0., 1., 0., 0., 0., 0., 2., 2., 1.,
          0., 0., 1., 0., 1., 3., 0., 2., 1., 0., 0., 2., 0., 0., 0., 0.,
          0., 3., 0., 0., 0., 0., 0., 1., 1., 0., 1., 0., 1., 1., 2., 3.,
          1., 0., 0., 0., 4., 1., 0., 0., 0., 0., 0., 0., 0., 0., 0., 0.,
          1., 0., 2., 1., 0., 1., 1., 0., 0., 0., 0., 1., 0., 0., 0., 2.,
          1., 1., 0., 1., 5., 0., 0., 0., 1., 0., 2., 0., 0., 0., 0., 0.,
          0., 1., 0., 1., 1., 0., 0., 1., 1., 0., 1., 4., 0., 0., 2., 0.,
          1., 0., 0., 0., 0., 2., 0., 0., 1., 0., 2., 0., 1., 1., 0., 0.,
          1., 2., 0., 2., 1., 2., 0., 0., 1., 0., 0., 0., 0., 0., 0., 0.,
          1., 2., 2., 1., 0., 0. ]
      - [ 1., 1., 2., 0., 0., 1., 0., 1., 0., 0., 0., 2., 1., 0., 1., 1.,
          0., 0., 3., 3., 1., 0., 0., 1., 1., 3., 1., 0., 0., 2., 2., 1.,
          0., 1., 3., 2., 2., 3., 3., 1., 2., 2., 0., 1., 0., 1., 0., 1.,
          1., 0., 2., 1., 1., 2., 0., 1., 1., 0., 0., 1., 2., 1., 0., 4.,
          2., 1., 3., 0., 0., 1., 1., 8., 0., 0., 1., 2., 2., 1., 0., 1.,
          1., 1., 0., 1., 1., 1., 0., 1., 0., 1., 1., 0., 0., 1., 0., 1.,
          1., 2., 0., 1., 1., 1., 1., 1., 1., 0., 1., 1., 2., 0., 3., 0.,
          0., 0., 0., 0., 2., 1., 2., 1., 2., 2., 0., 0., 1., 2., 0., 0.,
          1., 1., 0., 2., 1., 1., 0., 1., 2., 2., 3., 1., 4., 0., 0., 1.,
          1., 2., 1., 1., 0., 2. ]
      - [ 1., 2., 2., 0., 2., 0., 1., 0., 2., 1., 0., 2., 1., 3., 1., 1.,
          0., 3., 2., 3., 1., 4., 2., 2., 1., 3., 2., 1., 1., 0., 0., 1.,
          0., 2., 2., 3., 1., 0., 0., 1., 5., 1., 1., 0., 0., 1., 1., 1.,
          1., 0., 0., 1., 1., 2., 0., 2., 2., 0., 0., 0., 2., 1., 0., 2.,
          2., 0., 0., 1., 1., 0., 2., 2., 1., 0., 0., 4., 2., 1., 1., 2.,
          0., 2., 0., 2., 0., 1., 2., 1., 3., 2., 0., 2., 1., 0., 2., 0.,
          0., 0., 1., 2., 1., 3., 0., 2., 0., 1., 1., 0., 0., 2., 3., 0.,
          1., 1., 1., 0., 3., 2., 2., 0., 2., 3., 2., 3., 3., 0., 1., 1.,
          1., 1., 0., 1., 5., 3., 1., 2., 1., 4., 0., 1., 1., 3., 3., 0.,
          0., 0., 2., 2., 2., 5. ]
      - [ 2., 1., 0., 1., 1., 1., 1., 0., 1., 2., 0., 1., 1., 1., 1., 1.,
          0., 0., 1., 0., 2., 1., 1., 2., 0., 0., 2., 0., 3., 0., 0., 1.,
          0., 0., 0., 1., 3., 2., 0., 0., 1., 0., 0., 0., 1., 0., 2., 0.,
          3., 1., 0., 0., 1., 1., 1., 1., 0., 4., 0., 0., 2., 0., 5., 0.,
          1., 2., 1., 0., 3., 0., 0., 1., 1., 0., 0., 1., 3., 0., 2., 3.,
          2., 2., 0., 2., 0., 0., 2., 3., 1., 2., 0., 3., 0., 0., 2., 0.,
          0., 2., 0., 0., 1., 0., 0., 1., 5., 2., 1., 1., 1., 2., 3., 0.,
          2., 0., 2., 0., 2., 0., 1., 0., 0., 2., 3., 0., 0., 1., 2., 0.,
          0., 4., 1., 1., 0., 1., 1., 2., 1., 1., 1., 1., 0., 3., 1., 1.,
          0., 0., 0., 2., 0., 0. ]
      - [ 1., 1., 5., 0., 1., 4., 1., 0., 3., 0., 0., 2., 2., 1., 3., 1.,
          3., 2., 1., 3., 2., 1., 2., 1., 4., 2., 2., 1., 1., 0., 1., 3.,
          0., 2., 2., 0., 0., 1., 1., 1., 3., 0., 1., 1., 4., 3., 2., 3.,
          2., 0., 0., 0., 0., 1., 3., 1., 2., 0., 1., 2., 0., 1., 1., 0.,
          2., 0., 5., 1., 1., 2., 3., 5., 0., 1., 0., 1., 0., 1., 0., 0.,
          0., 4., 0., 3., 1., 0., 3., 1., 1., 2., 0., 0., 7., 2., 0., 4.,
          2., 2., 1., 0., 3., 2., 0., 3., 0., 1., 0., 1., 1., 0., 2., 1.,
          0., 0., 2., 1., 1., 1., 1., 2., 2., 2., 1., 4., 2., 1., 1., 6.,
          0., 1., 0., 1., 0., 0., 1., 0., 3., 2., 4., 1., 1., 2., 2., 2.,
          2., 0., 1., 0., 3., 2. ]
      - [ 0., 3., 1., 0., 0., 1., 0., 5., 1., 3., 0., 3., 0., 2., 0., 0.,
          0., 1., 1., 1., 1., 2., 0., 3., 2., 1., 2., 0., 1., 1., 1., 1.,
          0., 1., 2., 0., 2., 1., 2., 0., 0., 1., 2., 2., 1., 0., 0., 1.,
          2., 0., 1., 3., 1., 4., 0., 0., 1., 3., 1., 2., 1., 0., 0., 0.,
          2., 0., 3., 1., 2., 2., 3., 2., 0., 1., 1., 1., 1., 3., 1., 1.,
          1., 2., 0., 1., 0., 3., 4., 1., 3., 0., 1., 0., 2., 1., 1., 0.,
          1., 2., 1., 1., 1., 2., 3., 0., 2., 2., 2., 0., 1., 0., 0., 1.,
          1., 0., 2., 1., 1., 1., 1., 1., 0., 2., 2., 2., 0., 1., 0., 1.,
          0., 1., 1., 1., 2., 1., 2., 1., 0., 5., 3., 2., 1., 0., 0., 2.,
          1., 1., 1., 1., 2., 0. ]
      - [ 3., 1., 1., 0., 1., 1., 0., 0., 2., 2., 0., 0., 0., 1., 1., 1.,
          0., 0., 0., 0., 0., 0., 3., 0., 1., 0., 0., 0., 1., 1., 0., 1.,
          0., 1., 1., 1., 1., 0., 0., 2., 0., 1., 0., 0., 0., 0., 0., 0.,
          3., 0., 2., 1., 1., 0., 0., 3., 1., 3., 0., 0., 1., 0., 0., 0.,
          2., 1., 0., 1., 0., 0., 0., 0., 0., 1., 0., 0., 0., 0., 3., 0.,
          0., 0., 0., 0., 0., 0., 1., 1., 0., 1., 0., 0., 1., 0., 1., 2.,
          0., 1., 1., 1., 2., 0., 0., 1., 1., 0., 0., 1., 0., 1., 0., 0.,
          0., 1., 1., 1., 0., 0., 1., 1., 0., 1., 3., 0., 1., 3., 1., 0.,
          0., 1., 0., 0., 0., 0., 0., 0., 0., 0., 1., 0., 1., 0., 1., 1.,
          1., 1., 1., 2., 0., 1. ]
      - [ 1., 0., 0., 1., 3., 2., 1., 3., 6., 1., 1., 2., 2., 2., 0., 0.,
          0., 1., 2., 0., 2., 2., 4., 0., 1., 3., 1., 2., 3., 5., 1., 1.,
          0., 1., 0., 5., 3., 3., 0., 2., 2., 1., 0., 4., 1., 2., 2., 0.,
          1., 2., 2., 5., 1., 1., 2., 1., 1., 4., 2., 1., 0., 2., 0., 1.,
          3., 1., 2., 3., 2., 2., 3., 3., 1., 1., 0., 2., 2., 1., 1., 1.,
          0., 2., 1., 2., 3., 1., 2., 2., 0., 4., 0., 1., 1., 2., 2., 0.,
          0., 2., 2., 0., 1., 1., 0., 2., 0., 0., 0., 0., 2., 1., 0., 0.,
          1., 2., 1., 0., 0., 0., 2., 5., 0., 2., 1., 2., 1., 0., 0., 0.,
          1., 1., 3., 2., 1., 1., 2., 1., 0., 6., 2., 1., 0., 1., 0., 2.,
          0., 3., 1., 1., 0., 1. ]
