%YAML:1.0
---
opencv_ml_svm:
   format: 3
   svmType: C_SVC
   kernel:
      type: RBF
      gamma: 5.0625000000000009e-01
   C: 1.2500000000000000e+01
   term_criteria: { epsilon:1.1920928955078125e-07, iterations:1000 }
   var_count: 324
   class_count: 2
   class_labels: !!opencv-matrix
      rows: 2
      cols: 1
      dt: i
      data: [ -1, 1 ]
   sv_total: 283
   support_vectors:
      - [ 1.59479022e-01, 2.10042357e-01, 2.10042357e-01, 1.83941364e-01,
          1.65569127e-01, 1.19317748e-01, 8.62402245e-02, 7.88826495e-02,
          1.15615353e-01, 1.62601292e-01, 2.10042357e-01, 2.07639426e-01,
          2.10042357e-01, 2.10042357e-01, 2.10042357e-01, 1.37146950e-01,
          1.19585179e-01, 1.27434254e-01, 1.30166084e-01, 1.79321274e-01,
          2.10042357e-01, 2.10042357e-01, 2.04145670e-01, 8.94203112e-02,
          6.36190251e-02, 6.52649254e-02, 9.11491141e-02, 1.69380009e-01,
          2.10042357e-01, 1.85903698e-01, 2.10042357e-01, 2.10042357e-01,
          1.69752002e-01, 1.48754656e-01, 1.47464365e-01, 1.20135114e-01,
          1.27766535e-01, 1.71481624e-01, 1.47825256e-01, 1.99348330e-01,
          2.14739278e-01, 2.08664089e-01, 1.19750656e-01, 1.43749759e-01,
          1.09116994e-01, 1.24893777e-01, 1.62990302e-01, 2.14739278e-01,
          2.14739278e-01, 2.14739278e-01, 1.30277112e-01, 8.02007616e-02,
          1.29923522e-01, 1.12739630e-01, 1.94435075e-01, 2.14739278e-01,
          1.17677487e-01, 1.80568382e-01, 2.14739278e-01, 1.96244076e-01,
          1.40614539e-01, 1.61699012e-01, 1.39826134e-01, 1.31729841e-01,
          1.76255688e-01, 1.48344666e-01, 2.14739278e-01, 2.14739278e-01,
          1.60954863e-01, 1.15375243e-01, 1.52222559e-01, 1.22322761e-01,
          1.39995918e-01, 2.10484043e-01, 2.33047441e-01, 2.33047441e-01,
          2.33047441e-01, 1.21261775e-01, 7.23977461e-02, 8.15462545e-02,
          1.11226752e-01, 2.08893389e-01, 2.33047441e-01, 2.33047441e-01,
          2.02826291e-01, 1.55747503e-01, 8.49922225e-02, 1.02148339e-01,
          1.46063179e-01, 1.78262532e-01, 1.29822925e-01, 1.27790898e-01,
          1.76126555e-01, 2.33047441e-01, 2.33047441e-01, 1.39875501e-01,
          1.29718572e-01, 1.35188758e-01, 1.17225304e-01, 2.05530554e-01,
          1.98861778e-01, 1.37347832e-01, 1.14893638e-01, 1.07378088e-01,
          8.29993784e-02, 1.14637367e-01, 1.62182912e-01, 1.74610794e-01,
          1.61883458e-01, 1.61578491e-01, 1.89020917e-01, 2.07544431e-01,
          2.07544431e-01, 1.29894391e-01, 1.26538113e-01, 1.15389839e-01,
          1.58863410e-01, 1.75560996e-01, 2.07544431e-01, 1.86594531e-01,
          2.07544431e-01, 2.07544431e-01, 1.71155661e-01, 1.79536626e-01,
          1.59822151e-01, 1.24121740e-01, 1.39200792e-01, 8.85810629e-02,
          8.97215381e-02, 1.46483138e-01, 1.55960873e-01, 1.55265406e-01,
          2.07544431e-01, 2.07544431e-01, 2.07544431e-01, 1.29732311e-01,
          1.50924370e-01, 1.88695297e-01, 1.91154644e-01, 1.78282052e-01,
          1.24500342e-01, 1.39292821e-01, 1.52107149e-01, 1.37811318e-01,
          2.07635984e-01, 2.07635984e-01, 1.71955541e-01, 1.62325844e-01,
          2.01435968e-01, 1.40411556e-01, 1.48949355e-01, 1.93303600e-01,
          1.58376992e-01, 1.61221385e-01, 2.04305619e-01, 1.68028891e-01,
          1.50345877e-01, 1.55640185e-01, 1.18916981e-01, 1.45023540e-01,
          2.07635984e-01, 1.43297583e-01, 1.42625451e-01, 1.74849793e-01,
          2.07635984e-01, 1.57926261e-01, 1.33876398e-01, 8.00115019e-02,
          1.50332257e-01, 2.05857754e-01, 1.47525653e-01, 1.43707931e-01,
          1.94871292e-01, 2.07635984e-01, 1.60563767e-01, 1.11012943e-01,
          9.00777504e-02, 1.51253358e-01, 2.07334086e-01, 1.59317866e-01,
          1.31335065e-01, 1.48721486e-01, 1.68985903e-01, 1.50221020e-01,
          1.35196045e-01, 1.18169978e-01, 1.39092594e-01, 1.66128904e-01,
          1.46599859e-01, 2.06090257e-01, 2.11532027e-01, 1.48952752e-01,
          1.21884793e-01, 1.37415588e-01, 1.15249611e-01, 1.26200169e-01,
          1.71244144e-01, 1.87466085e-01, 1.74080342e-01, 2.11532027e-01,
          2.11532027e-01, 1.70922339e-01, 1.35945365e-01, 1.22633629e-01,
          1.08413003e-01, 1.46265283e-01, 2.06153065e-01, 2.11532027e-01,
          2.11532027e-01, 2.11532027e-01, 1.69187784e-01, 1.64253563e-01,
          1.59996733e-01, 1.37628809e-01, 1.80530831e-01, 2.11532027e-01,
          1.07768327e-01, 7.89929852e-02, 7.86693022e-02, 1.28575310e-01,
          1.05363838e-01, 1.32391289e-01, 2.10954264e-01, 2.10954264e-01,
          2.10954264e-01, 1.51804000e-01, 1.35478765e-01, 1.75702974e-01,
          2.10954264e-01, 1.60767168e-01, 1.09722368e-01, 1.39138252e-01,
          1.96122974e-01, 1.78107142e-01, 1.55375078e-01, 1.50659040e-01,
          1.77881807e-01, 2.10954264e-01, 1.29306749e-01, 1.07839212e-01,
          2.10462898e-01, 2.10954264e-01, 1.81018129e-01, 2.10954264e-01,
          2.10954264e-01, 2.06045151e-01, 2.10954264e-01, 1.69201612e-01,
          1.06742874e-01, 1.19732477e-01, 1.50338128e-01, 1.58628404e-01,
          1.55239090e-01, 1.22387789e-01, 1.58827066e-01, 1.58203676e-01,
          1.23841263e-01, 8.09638202e-02, 1.46297395e-01, 2.06987739e-01,
          1.99331045e-01, 1.78875580e-01, 1.88447297e-01, 2.06987739e-01,
          1.32994011e-01, 1.26987502e-01, 1.07167520e-01, 1.77773997e-01,
          2.06987739e-01, 2.06987739e-01, 1.86244667e-01, 1.72826529e-01,
          1.91356406e-01, 2.05059230e-01, 1.45084098e-01, 8.12984854e-02,
          9.76716056e-02, 1.76059112e-01, 1.62494808e-01, 1.81351215e-01,
          2.05846503e-01, 2.06987739e-01, 1.57817498e-01, 1.46451116e-01,
          9.76180211e-02, 1.50412604e-01, 2.06987739e-01, 1.80293798e-01,
          1.91941842e-01, 2.10175112e-01, 2.10175112e-01, 1.50828987e-01,
          1.51693895e-01, 1.24144480e-01, 1.04221448e-01, 1.15616404e-01,
          1.39637232e-01, 2.09235206e-01, 1.95270672e-01, 2.10175112e-01,
          1.69071525e-01, 1.63871855e-01, 1.46991476e-01, 9.20078680e-02,
          9.98278931e-02, 1.80581570e-01, 2.10175112e-01, 2.10175112e-01,
          1.96011141e-01, 1.32500798e-01, 1.39942899e-01, 1.10093944e-01,
          1.26286462e-01, 1.39664218e-01, 1.62221834e-01, 2.10175112e-01,
          1.79645494e-01, 1.85023800e-01, 1.56708166e-01, 1.69689149e-01,
          1.36950240e-01, 1.54476762e-01, 1.58169791e-01, 2.10175112e-01 ]
      - [ 2.09002018e-01, 2.12948114e-01, 2.12948114e-01, 2.12948114e-01,
          1.90459698e-01, 1.04464754e-01, 7.33113512e-02, 7.96853974e-02,
          1.46549061e-01, 1.84498385e-01, 2.12948114e-01, 2.12948114e-01,
          1.92484245e-01, 1.30245283e-01, 1.02835476e-01, 9.87718627e-02,
          1.13184586e-01, 1.74135268e-01, 1.38341904e-01, 1.67421848e-01,
          2.05943093e-01, 2.12948114e-01, 2.12948114e-01, 1.37244061e-01,
          1.19134225e-01, 1.07897714e-01, 1.27181336e-01, 1.90565944e-01,
          2.12948114e-01, 2.12948114e-01, 1.91044703e-01, 1.33096799e-01,
          1.05385751e-01, 1.31923497e-01, 1.26070455e-01, 1.69710398e-01,
          2.00755268e-01, 2.07914591e-01, 2.07914591e-01, 1.66200951e-01,
          1.11758158e-01, 9.63492766e-02, 1.20233223e-01, 1.26807645e-01,
          1.63689271e-01, 1.52853131e-01, 1.76492259e-01, 2.07914591e-01,
          1.33840367e-01, 1.10973127e-01, 1.25708416e-01, 1.35939270e-01,
          1.34078801e-01, 1.49225384e-01, 2.07914591e-01, 2.07914591e-01,
          2.07914591e-01, 1.62633806e-01, 1.36554748e-01, 1.43902734e-01,
          1.44837871e-01, 1.20627560e-01, 1.61681160e-01, 1.71308979e-01,
          1.79066449e-01, 1.72743201e-01, 1.31450549e-01, 1.88146815e-01,
          2.07914591e-01, 2.03889892e-01, 1.84413478e-01, 2.05036670e-01,
          1.55582711e-01, 1.62455350e-01, 1.49790838e-01, 1.00923233e-01,
          1.08968027e-01, 1.22981556e-01, 1.13637134e-01, 1.29674375e-01,
          1.74806848e-01, 2.04737857e-01, 2.07805708e-01, 1.62238345e-01,
          1.14065811e-01, 1.08425051e-01, 9.19254124e-02, 1.02911733e-01,
          1.57565922e-01, 2.07805708e-01, 1.64272860e-01, 2.03897357e-01,
          1.78444996e-01, 9.94159579e-02, 1.36052296e-01, 2.07805708e-01,
          2.07805708e-01, 2.07805708e-01, 2.07805708e-01, 1.89798877e-01,
          2.03765407e-01, 1.68266073e-01, 1.53480664e-01, 1.64725006e-01,
          1.55408099e-01, 1.88632444e-01, 2.07805708e-01, 2.07805708e-01,
          1.19858727e-01, 1.48122549e-01, 1.85236275e-01, 2.26777121e-01,
          2.26777121e-01, 1.73382580e-01, 1.34035885e-01, 9.98447090e-02,
          1.09166197e-01, 1.62634194e-01, 2.26777121e-01, 2.26777121e-01,
          2.18611926e-01, 1.75805315e-01, 1.25599623e-01, 1.06231168e-01,
          7.98432827e-02, 1.08181842e-01, 8.64503384e-02, 1.08120307e-01,
          1.98990270e-01, 2.26777121e-01, 2.26777121e-01, 1.71914607e-01,
          1.25212371e-01, 1.12654001e-01, 9.25513357e-02, 1.42400980e-01,
          1.86888769e-01, 2.26777121e-01, 2.26777121e-01, 2.26777121e-01,
          1.62972823e-01, 1.22155346e-01, 1.01085812e-01, 1.09120086e-01,
          1.71128988e-01, 2.23934293e-01, 2.23934293e-01, 1.67760491e-01,
          1.07758932e-01, 1.04850538e-01, 8.14452395e-02, 7.34516755e-02,
          1.19814046e-01, 2.11818621e-01, 2.23934293e-01, 2.22640425e-01,
          1.55119464e-01, 1.45696685e-01, 1.76134884e-01, 1.50444999e-01,
          1.65453807e-01, 2.23934293e-01, 1.59801900e-01, 2.23934293e-01,
          2.23934293e-01, 1.84713170e-01, 1.33356437e-01, 1.27162471e-01,
          1.23052239e-01, 1.04349397e-01, 1.11835398e-01, 2.01575339e-01,
          2.23934293e-01, 2.23934293e-01, 1.75076604e-01, 1.15617611e-01,
          1.03826076e-01, 9.99273583e-02, 9.51593071e-02, 1.50975332e-01,
          1.58388585e-01, 2.12006330e-01, 2.12006330e-01, 1.18193567e-01,
          1.08121932e-01, 1.45740807e-01, 1.92066655e-01, 2.07247064e-01,
          2.12006330e-01, 1.38849571e-01, 1.54632539e-01, 2.01671228e-01,
          1.56934097e-01, 1.49565309e-01, 1.30081654e-01, 1.65085882e-01,
          2.12006330e-01, 1.90572873e-01, 1.89311907e-01, 2.12006330e-01,
          2.12006330e-01, 1.68109059e-01, 1.26194641e-01, 8.32533315e-02,
          7.52507597e-02, 8.77514631e-02, 1.23422869e-01, 2.12006330e-01,
          2.11527869e-01, 2.12006330e-01, 1.91028133e-01, 1.66035041e-01,
          9.07170549e-02, 7.98602104e-02, 1.25559568e-01, 1.42824620e-01,
          1.22067690e-01, 1.99719667e-01, 2.14902192e-01, 2.14902192e-01,
          2.14902192e-01, 1.44733593e-01, 1.26439884e-01, 1.22811981e-01,
          1.08340308e-01, 1.56142130e-01, 1.61579445e-01, 2.00754091e-01,
          1.93509281e-01, 1.86794132e-01, 1.46315768e-01, 1.69298053e-01,
          1.43184572e-01, 1.26011431e-01, 1.59038424e-01, 2.14902192e-01,
          2.14902192e-01, 1.66456953e-01, 1.69858396e-01, 1.46117941e-01,
          1.11142308e-01, 7.82270879e-02, 9.59852710e-02, 1.55394718e-01,
          2.14902192e-01, 2.14902192e-01, 1.86066076e-01, 1.65737972e-01,
          1.73707381e-01, 1.74178064e-01, 1.34466410e-01, 1.03581414e-01,
          1.40971079e-01, 1.92438290e-01, 1.88712850e-01, 1.72953367e-01,
          1.48479834e-01, 1.36135876e-01, 1.71176359e-01, 1.53078184e-01,
          1.02879770e-01, 1.69468373e-01, 2.14314654e-01, 2.14314654e-01,
          2.02006742e-01, 1.46763369e-01, 1.18746750e-01, 9.96990949e-02,
          8.15521926e-02, 7.72569552e-02, 1.39479816e-01, 2.14314654e-01,
          2.04717800e-01, 2.14314654e-01, 1.85055837e-01, 1.73054755e-01,
          1.59217149e-01, 1.58840150e-01, 9.64712724e-02, 1.83854148e-01,
          2.14314654e-01, 2.14314654e-01, 2.14314654e-01, 1.58672601e-01,
          1.59256935e-01, 1.11747891e-01, 1.61688432e-01, 1.17774211e-01,
          1.95844054e-01, 2.31671020e-01, 2.31671020e-01, 1.81929097e-01,
          1.20328106e-01, 7.68333822e-02, 6.30815104e-02, 7.23077729e-02,
          9.53408629e-02, 2.17032477e-01, 2.07913890e-01, 1.99948922e-01,
          1.80210099e-01, 1.59896329e-01, 9.58000124e-02, 8.75802264e-02,
          1.09342374e-01, 1.53422877e-01, 2.31671020e-01, 2.31671020e-01,
          2.31671020e-01, 1.59747124e-01, 7.94373527e-02, 6.88593015e-02,
          7.22939745e-02, 1.30950779e-01, 1.53378084e-01, 2.31671020e-01,
          2.31671020e-01, 2.31671020e-01, 1.85699016e-01, 1.32283971e-01,
          1.02275074e-01, 9.92007330e-02, 1.18761770e-01, 2.20511839e-01 ]
      - [ 2.04501539e-01, 1.60413712e-01, 1.46937117e-01, 1.70628801e-01,
          1.51339799e-01, 1.29647300e-01, 1.40567467e-01, 1.33269802e-01,
          1.87354833e-01, 1.64497152e-01, 1.32796183e-01, 1.36246696e-01,
          1.48243189e-01, 2.04501539e-01, 1.89119697e-01, 1.80375099e-01,
          1.55278385e-01, 1.69895351e-01, 1.90585181e-01, 1.48515314e-01,
          1.43827289e-01, 1.21159829e-01, 1.48277253e-01, 1.58401191e-01,
          2.01325178e-01, 1.78097367e-01, 2.04501539e-01, 1.68281749e-01,
          1.60204232e-01, 1.67554244e-01, 1.39442101e-01, 1.52184457e-01,
          1.64876401e-01, 1.84467956e-01, 1.90898106e-01, 2.04501539e-01,
          1.01887733e-01, 9.98688638e-02, 1.47315815e-01, 1.78051919e-01,
          2.11336657e-01, 2.11336657e-01, 1.67161703e-01, 1.32005841e-01,
          1.11128576e-01, 1.08389646e-01, 2.11336657e-01, 1.91824734e-01,
          1.57753542e-01, 2.11336657e-01, 2.10614711e-01, 1.60025820e-01,
          1.56897053e-01, 9.53697711e-02, 1.38355270e-01, 1.32081062e-01,
          1.92547768e-01, 1.73870742e-01, 1.66233942e-01, 1.69443741e-01,
          1.60909519e-01, 1.49337634e-01, 1.57179728e-01, 1.08993135e-01,
          1.38363585e-01, 1.71811163e-01, 1.93082049e-01, 2.06260502e-01,
          1.99825823e-01, 2.07629502e-01, 1.96489751e-01, 1.24476455e-01,
          1.38300344e-01, 2.17905477e-01, 2.17905477e-01, 1.36459321e-01,
          1.40028775e-01, 1.51141405e-01, 1.56748250e-01, 2.17905477e-01,
          1.72819674e-01, 1.33107290e-01, 1.36284858e-01, 1.40079513e-01,
          9.26445499e-02, 7.30054080e-02, 7.02171698e-02, 1.26445249e-01,
          2.17905477e-01, 2.14198917e-01, 9.64479223e-02, 1.61491796e-01,
          1.55690581e-01, 1.75610036e-01, 2.17905477e-01, 2.07327634e-01,
          2.17905477e-01, 2.17905477e-01, 1.44355446e-01, 1.29495054e-01,
          2.17905477e-01, 1.85414910e-01, 1.14699453e-01, 1.30282506e-01,
          9.77996439e-02, 1.75345421e-01, 2.17905477e-01, 1.52783185e-01,
          1.43706754e-01, 1.34389579e-01, 1.69741869e-01, 1.38803944e-01,
          1.53707817e-01, 1.50054961e-01, 1.81830004e-01, 2.10825324e-01,
          2.00425804e-01, 1.63610250e-01, 1.57314345e-01, 1.65505335e-01,
          1.35136247e-01, 1.31545350e-01, 1.32520080e-01, 1.69777110e-01,
          2.18186527e-01, 1.98288903e-01, 1.10618338e-01, 8.46959352e-02,
          1.06681079e-01, 1.11491866e-01, 1.71352476e-01, 2.18186527e-01,
          2.18186527e-01, 2.18186527e-01, 1.83431253e-01, 1.25938788e-01,
          1.01016194e-01, 1.06341779e-01, 1.08469449e-01, 1.59690350e-01,
          2.18186527e-01, 2.18186527e-01, 2.18186527e-01, 1.81438625e-01,
          1.35058984e-01, 1.50933117e-01, 1.80773005e-01, 1.45283401e-01,
          1.24846376e-01, 1.52126193e-01, 2.00466961e-01, 1.93119302e-01,
          1.64838105e-01, 1.22187413e-01, 2.06772193e-01, 1.75206229e-01,
          1.41424552e-01, 1.41701877e-01, 1.60615802e-01, 2.06772193e-01,
          1.96572557e-01, 1.56324208e-01, 1.34000927e-01, 1.46317601e-01,
          1.33636877e-01, 1.16303749e-01, 1.53149277e-01, 2.06772193e-01,
          2.06772193e-01, 2.06772193e-01, 1.64977595e-01, 1.63392842e-01,
          2.06772193e-01, 1.73149839e-01, 9.12642777e-02, 1.14356749e-01,
          1.66947842e-01, 2.06772193e-01, 1.81410879e-01, 1.59962311e-01,
          1.22339435e-01, 2.04763949e-01, 1.65662587e-01, 1.25024036e-01,
          1.53146371e-01, 1.24059938e-01, 2.07551822e-01, 1.89970002e-01,
          1.21903010e-01, 2.04129562e-01, 2.07551822e-01, 1.73657835e-01,
          1.27486452e-01, 1.55100405e-01, 1.18460760e-01, 1.76707521e-01,
          1.71641633e-01, 1.51081070e-01, 1.76766559e-01, 2.07551822e-01,
          2.03937396e-01, 9.81313512e-02, 9.63984355e-02, 1.23481855e-01,
          1.42126277e-01, 1.09606028e-01, 1.25670627e-01, 2.07551822e-01,
          2.07551822e-01, 1.98736966e-01, 1.55571923e-01, 1.77567884e-01,
          2.07551822e-01, 2.07551822e-01, 1.35782853e-01, 1.68100074e-01,
          8.24121982e-02, 6.47512749e-02, 6.60387650e-02, 9.30695832e-02,
          1.77205846e-01, 2.33029395e-01, 2.33029395e-01, 2.21228987e-01,
          1.16380937e-01, 9.29234847e-02, 8.77276734e-02, 1.21869810e-01,
          1.02667958e-01, 1.35416314e-01, 2.33029395e-01, 2.33029395e-01,
          2.20266610e-01, 1.21234998e-01, 1.56558782e-01, 1.16383389e-01,
          1.03328839e-01, 8.88654888e-02, 1.28986776e-01, 2.33029395e-01,
          2.33029395e-01, 2.32033551e-01, 1.99558198e-01, 1.51711732e-01,
          1.14735082e-01, 1.05500884e-01, 7.64616132e-02, 1.09894104e-01,
          2.33029395e-01, 2.33029395e-01, 2.33029395e-01, 1.88704625e-01,
          1.30098239e-01, 1.58680037e-01, 1.73185840e-01, 1.35705128e-01,
          1.48944423e-01, 2.07226068e-01, 2.07226068e-01, 1.83280468e-01,
          1.29768774e-01, 2.07226068e-01, 2.07226068e-01, 1.81347370e-01,
          1.11209802e-01, 1.45232141e-01, 1.96770772e-01, 1.81572869e-01,
          1.70955241e-01, 1.57760262e-01, 1.26147956e-01, 1.32219300e-01,
          1.32379666e-01, 1.19695209e-01, 1.66733950e-01, 1.95820495e-01,
          2.07226068e-01, 1.88933477e-01, 1.26251072e-01, 1.64887115e-01,
          1.83552712e-01, 1.36010274e-01, 1.36623859e-01, 2.07226068e-01,
          2.07226068e-01, 1.79485187e-01, 1.33481652e-01, 1.04630619e-01,
          2.09984332e-01, 2.09984332e-01, 1.96987137e-01, 9.47430059e-02,
          1.05055146e-01, 1.66130364e-01, 1.72279790e-01, 1.00563303e-01,
          1.37488171e-01, 2.09984332e-01, 2.09984332e-01, 2.09984332e-01,
          1.55431360e-01, 1.70986742e-01, 2.09984332e-01, 2.09984332e-01,
          1.35184377e-01, 1.62851527e-01, 1.74822062e-01, 1.76425949e-01,
          1.26879692e-01, 9.86583456e-02, 1.53512537e-01, 1.98499858e-01,
          1.88531354e-01, 1.14413925e-01, 1.14948779e-01, 1.49693713e-01,
          1.70244306e-01, 1.78035378e-01, 1.58582613e-01, 1.57801881e-01,
          1.53216168e-01, 1.80562630e-01, 1.43562526e-01, 1.54211819e-01 ]
      - [ 1.62258416e-01, 2.52068907e-01, 2.52068907e-01, 2.52068907e-01,
          1.45099685e-01, 1.12596683e-01, 1.39591217e-01, 1.18727498e-01,
          1.12254143e-01, 1.41633451e-01, 2.52068907e-01, 2.52068907e-01,
          2.52068907e-01, 1.49042651e-01, 7.19539300e-02, 6.01042658e-02,
          8.16087723e-02, 9.49845314e-02, 1.13870561e-01, 1.40511543e-01,
          2.52068907e-01, 2.52068907e-01, 1.52262464e-01, 1.01147771e-01,
          8.67611989e-02, 7.70154297e-02, 9.38716233e-02, 1.38780400e-01,
          1.74412727e-01, 2.52068907e-01, 2.52068907e-01, 1.51534423e-01,
          7.11264461e-02, 5.01956195e-02, 6.43929392e-02, 1.27836168e-01,
          1.08778015e-01, 1.75763875e-01, 2.29966998e-01, 2.29966998e-01,
          2.29966998e-01, 1.23721950e-01, 4.73678410e-02, 5.66721745e-02,
          7.33726323e-02, 1.32011682e-01, 1.92512617e-01, 2.09062487e-01,
          1.80430979e-01, 2.29966998e-01, 2.27808669e-01, 1.46963686e-01,
          9.00708586e-02, 7.30198771e-02, 1.59086868e-01, 1.35621518e-01,
          2.29966998e-01, 2.29966998e-01, 2.29966998e-01, 1.33962899e-01,
          4.98102270e-02, 5.77979609e-02, 1.30046725e-01, 1.67936832e-01,
          1.28305778e-01, 2.05502853e-01, 2.08744943e-01, 2.29966998e-01,
          1.93488479e-01, 1.05321303e-01, 9.49495211e-02, 1.25149682e-01,
          1.36398479e-01, 2.11490199e-01, 2.11490199e-01, 1.51865989e-01,
          1.80163458e-01, 1.74513668e-01, 2.07412854e-01, 1.28245339e-01,
          8.58868659e-02, 1.36485726e-01, 2.11490199e-01, 2.11490199e-01,
          2.03431487e-01, 1.35042518e-01, 1.29060984e-01, 1.79213092e-01,
          1.56409144e-01, 1.15806818e-01, 1.26159906e-01, 1.62204221e-01,
          2.11490199e-01, 1.86100692e-01, 1.70382649e-01, 1.44726187e-01,
          1.46020755e-01, 1.48164079e-01, 1.23788111e-01, 1.59364626e-01,
          2.11490199e-01, 2.11490199e-01, 1.88264996e-01, 1.10439710e-01,
          1.11433387e-01, 1.39112353e-01, 1.86268583e-01, 1.53389633e-01,
          1.75889507e-01, 1.34006158e-01, 2.28544265e-01, 2.28544265e-01,
          1.76631570e-01, 9.82795879e-02, 8.80046859e-02, 1.20840751e-01,
          1.32259727e-01, 2.28544265e-01, 1.56013370e-01, 1.84178904e-01,
          2.12384090e-01, 1.10196315e-01, 6.39685318e-02, 6.67419955e-02,
          1.31967753e-01, 2.28544265e-01, 1.34752139e-01, 1.31378442e-01,
          1.93743289e-01, 1.98665038e-01, 1.60525307e-01, 1.36727944e-01,
          2.28544265e-01, 2.28544265e-01, 1.91655621e-01, 2.28544265e-01,
          1.22890376e-01, 1.07233897e-01, 9.42368880e-02, 5.78710586e-02,
          6.53251484e-02, 1.40859380e-01, 2.28544265e-01, 2.28544265e-01,
          2.26785734e-01, 1.71853364e-01, 1.95946604e-01, 1.58325717e-01,
          1.34859279e-01, 8.12352300e-02, 5.93123399e-02, 1.11411452e-01,
          2.26785734e-01, 2.26785734e-01, 2.14407265e-01, 2.26785734e-01,
          1.95045024e-01, 1.57711789e-01, 1.01362526e-01, 6.47832304e-02,
          1.23934790e-01, 2.02752933e-01, 2.19860032e-01, 1.99653462e-01,
          2.26785734e-01, 1.11347720e-01, 5.08114286e-02, 5.75820357e-02,
          9.08476263e-02, 1.81704730e-01, 2.26785734e-01, 1.76882789e-01,
          2.26785734e-01, 2.26785734e-01, 1.60877094e-01, 1.04883559e-01,
          1.08244523e-01, 8.49307775e-02, 1.28835171e-01, 1.45867154e-01,
          1.77454144e-01, 1.90234631e-01, 2.05885604e-01, 1.43480554e-01,
          1.13310680e-01, 1.07692495e-01, 1.11560188e-01, 1.74248949e-01,
          1.68205813e-01, 1.82360798e-01, 1.77760631e-01, 2.05885604e-01,
          1.37358978e-01, 1.37282118e-01, 1.56974882e-01, 2.03365028e-01,
          2.05885604e-01, 2.05885604e-01, 1.45515010e-01, 1.71390042e-01,
          1.80393860e-01, 1.07719131e-01, 1.26882792e-01, 1.65895820e-01,
          1.57428741e-01, 1.31854966e-01, 1.16996899e-01, 1.62698507e-01,
          1.90995723e-01, 2.05885604e-01, 1.83205456e-01, 1.60287350e-01,
          1.73132315e-01, 1.89164445e-01, 1.58842131e-01, 1.62044227e-01,
          1.06200010e-01, 9.60293710e-02, 1.23653121e-01, 9.16866884e-02,
          9.30277631e-02, 1.55697271e-01, 2.51403332e-01, 2.52948344e-01,
          2.49643102e-01, 1.13529034e-01, 6.33117184e-02, 6.67106137e-02,
          6.89837635e-02, 7.53256828e-02, 1.25458509e-01, 2.49721214e-01,
          2.52948344e-01, 2.52948344e-01, 1.59427941e-01, 1.08141735e-01,
          9.76937041e-02, 8.51892829e-02, 5.31526767e-02, 1.00127980e-01,
          2.50950813e-01, 2.52948344e-01, 2.52948344e-01, 7.85015300e-02,
          4.22043987e-02, 4.67691384e-02, 8.34506899e-02, 1.02567501e-01,
          1.25520512e-01, 2.52948344e-01, 2.52948344e-01, 2.52948344e-01,
          1.30842090e-01, 1.40457958e-01, 1.64945856e-01, 1.27153769e-01,
          9.21884701e-02, 1.28391549e-01, 2.26456851e-01, 2.28125840e-01,
          2.28125840e-01, 1.74535334e-01, 1.76020488e-01, 1.91454768e-01,
          1.25836536e-01, 9.48773697e-02, 1.02815352e-01, 1.33308753e-01,
          1.89025387e-01, 1.97528094e-01, 8.05966333e-02, 6.63330331e-02,
          8.63137767e-02, 1.71035454e-01, 1.45878285e-01, 1.79009527e-01,
          2.28125840e-01, 2.28125840e-01, 2.11326316e-01, 2.17569426e-01,
          1.18770391e-01, 9.67958793e-02, 1.14134200e-01, 8.96575674e-02,
          1.20108612e-01, 2.28125840e-01, 2.28125840e-01, 2.25984186e-01,
          1.84152037e-01, 1.30752102e-01, 1.14235803e-01, 8.62047747e-02,
          1.09224617e-01, 1.52838930e-01, 1.83631018e-01, 1.45561203e-01,
          1.61602899e-01, 1.44493490e-01, 1.45220980e-01, 1.91080809e-01,
          2.04344973e-01, 1.93532541e-01, 2.04163074e-01, 2.05843776e-01,
          1.56412154e-01, 1.64281443e-01, 2.09412962e-01, 1.47427246e-01,
          1.01306185e-01, 7.65322000e-02, 8.58525783e-02, 1.12398401e-01,
          2.09412962e-01, 2.03398108e-01, 2.09412962e-01, 1.30152091e-01,
          1.09122515e-01, 1.58802941e-01, 1.98854968e-01, 2.09412962e-01,
          2.09412962e-01, 2.09412962e-01, 1.88443378e-01, 1.59477875e-01 ]
      - [ 1.69344604e-01, 2.15152055e-01, 2.15152055e-01, 1.51741356e-01,
          1.26178622e-01, 1.58166751e-01, 1.43538356e-01, 1.36322826e-01,
          1.18613571e-01, 1.58291087e-01, 2.15152055e-01, 2.15152055e-01,
          1.44476265e-01, 1.27946779e-01, 1.12863131e-01, 1.54312149e-01,
          1.62549660e-01, 1.39116898e-01, 1.85200080e-01, 2.15152055e-01,
          2.15152055e-01, 1.82128727e-01, 1.46424413e-01, 1.46224856e-01,
          1.62932664e-01, 1.57473639e-01, 1.46661907e-01, 1.75803274e-01,
          1.78671479e-01, 1.83970794e-01, 1.37185976e-01, 1.18638746e-01,
          1.12397179e-01, 1.67614266e-01, 1.96465582e-01, 1.93753526e-01,
          1.65821970e-01, 2.00254992e-01, 2.11041391e-01, 1.37485981e-01,
          1.22911349e-01, 1.04670472e-01, 1.57137036e-01, 2.09400162e-01,
          1.98039219e-01, 1.74219832e-01, 1.83013976e-01, 1.83296189e-01,
          1.44014910e-01, 1.33507177e-01, 1.23578764e-01, 1.59753203e-01,
          1.96449131e-01, 1.90490201e-01, 2.16586277e-01, 1.46189198e-01,
          1.17087357e-01, 9.68775898e-02, 1.07095212e-01, 1.14818111e-01,
          1.79061890e-01, 2.16586277e-01, 2.16586277e-01, 1.71941876e-01,
          1.11673772e-01, 9.42400098e-02, 9.14945975e-02, 1.32300049e-01,
          1.47857964e-01, 2.16586277e-01, 2.16586277e-01, 2.16586277e-01,
          1.27393663e-01, 1.43497527e-01, 1.37177229e-01, 1.45807594e-01,
          1.95359454e-01, 1.65223867e-01, 1.90023944e-01, 1.59626946e-01,
          1.37602031e-01, 1.40724450e-01, 1.61722317e-01, 2.07156822e-01,
          2.09065557e-01, 1.95789620e-01, 1.40670434e-01, 1.60113007e-01,
          1.43938065e-01, 1.24946699e-01, 1.09178647e-01, 1.17214188e-01,
          1.21379294e-01, 1.40719533e-01, 1.75228864e-01, 1.86326504e-01,
          2.09065557e-01, 2.09065557e-01, 1.69551671e-01, 1.80418909e-01,
          2.09065557e-01, 2.09065557e-01, 2.09065557e-01, 1.75567210e-01,
          1.49871841e-01, 1.72964156e-01, 1.22034676e-01, 1.37128770e-01,
          1.22281618e-01, 1.40381694e-01, 1.56904161e-01, 1.46474600e-01,
          1.58638909e-01, 1.44299537e-01, 1.99752212e-01, 1.88654959e-01,
          1.30240560e-01, 1.58009216e-01, 1.21954754e-01, 1.29762426e-01,
          1.73706412e-01, 2.03631774e-01, 1.83659837e-01, 1.77033991e-01,
          1.84068933e-01, 1.80869073e-01, 1.33007199e-01, 1.28258213e-01,
          1.67181551e-01, 1.54545680e-01, 1.62459984e-01, 1.72575235e-01,
          2.08306000e-01, 2.08306000e-01, 1.52528375e-01, 9.94707271e-02,
          1.13723204e-01, 1.64518490e-01, 2.08306000e-01, 2.08306000e-01,
          2.08306000e-01, 2.02918455e-01, 1.67444274e-01, 1.31441906e-01,
          2.15719104e-01, 1.12937719e-01, 9.01646763e-02, 1.13400191e-01,
          1.57268092e-01, 1.80796981e-01, 1.63441375e-01, 2.04907298e-01,
          2.15719104e-01, 1.39799222e-01, 7.54878819e-02, 6.90274164e-02,
          9.20200646e-02, 1.52206391e-01, 1.92815751e-01, 2.01586932e-01,
          2.15449810e-01, 2.15719104e-01, 1.29988283e-01, 9.97926369e-02,
          1.17769353e-01, 1.69034362e-01, 2.15719104e-01, 2.15719104e-01,
          2.15719104e-01, 2.15719104e-01, 2.14678854e-01, 9.04468596e-02,
          5.65064214e-02, 5.92117980e-02, 8.60741511e-02, 1.41383097e-01,
          2.15719104e-01, 2.15719104e-01, 2.15719104e-01, 1.70569494e-01,
          8.76078755e-02, 1.05043136e-01, 1.05248302e-01, 1.48849398e-01,
          1.78009719e-01, 2.19263688e-01, 2.19398901e-01, 2.13019118e-01,
          1.47749245e-01, 1.56402692e-01, 2.11191222e-01, 2.19398901e-01,
          1.72101185e-01, 1.58855259e-01, 1.80459678e-01, 2.19398901e-01,
          1.75161242e-01, 1.64079696e-01, 5.44783287e-02, 5.99730983e-02,
          7.08528012e-02, 1.08467974e-01, 1.84239119e-01, 2.19398901e-01,
          2.19398901e-01, 1.70594215e-01, 9.23519507e-02, 8.45714957e-02,
          9.31963101e-02, 1.14410363e-01, 1.32628456e-01, 1.91668659e-01,
          2.19398901e-01, 2.19398901e-01, 2.15196356e-01, 1.52859658e-01,
          1.85534269e-01, 1.79645747e-01, 1.80519849e-01, 1.21021643e-01,
          1.17143631e-01, 1.42561659e-01, 1.78536326e-01, 1.73137516e-01,
          1.92739621e-01, 1.21049829e-01, 1.86845362e-01, 2.13672161e-01,
          1.73222929e-01, 1.87162846e-01, 1.73905954e-01, 1.64021388e-01,
          1.37039617e-01, 1.26706913e-01, 1.84505284e-01, 2.13672161e-01,
          2.13672161e-01, 1.58893123e-01, 1.07438244e-01, 1.25822842e-01,
          1.42250359e-01, 1.60256997e-01, 1.85315996e-01, 1.63853303e-01,
          2.13672161e-01, 2.13672161e-01, 1.80829629e-01, 1.36661634e-01,
          1.10508718e-01, 1.18513517e-01, 1.42582849e-01, 1.55865550e-01,
          1.24912336e-01, 1.84827745e-01, 2.15206891e-01, 1.72376528e-01,
          1.78287506e-01, 1.69117987e-01, 1.86165079e-01, 1.71400845e-01,
          1.39956802e-01, 1.29837126e-01, 1.06039695e-01, 1.13596164e-01,
          1.09216787e-01, 1.20352402e-01, 2.11836234e-01, 2.15206891e-01,
          2.15206891e-01, 1.84986994e-01, 1.74257681e-01, 2.15206891e-01,
          2.15206891e-01, 1.44590273e-01, 1.22902319e-01, 1.00856543e-01,
          1.26554251e-01, 1.43102646e-01, 1.64370179e-01, 2.03938887e-01,
          2.09864900e-01, 1.83309928e-01, 1.08095750e-01, 9.93031412e-02,
          1.10744357e-01, 1.70191318e-01, 1.73480615e-01, 2.10018009e-01,
          9.18289647e-02, 8.81056041e-02, 1.09781049e-01, 1.02074750e-01,
          1.50809079e-01, 2.11539343e-01, 2.11539343e-01, 1.94020629e-01,
          1.24145396e-01, 9.80419591e-02, 1.02602437e-01, 1.37217239e-01,
          1.31259143e-01, 1.97916374e-01, 2.11539343e-01, 2.11539343e-01,
          2.11539343e-01, 1.80625424e-01, 1.68395489e-01, 2.01744080e-01,
          2.11539343e-01, 1.36616990e-01, 1.14075638e-01, 1.42757803e-01,
          1.71492651e-01, 1.60846636e-01, 1.47598788e-01, 1.20812200e-01,
          1.44242018e-01, 1.94457114e-01, 1.54866189e-01, 1.86814681e-01,
          1.94136336e-01, 2.11539343e-01, 2.11539343e-01, 1.71658471e-01 ]
      - [ 1.24537334e-01, 1.83041409e-01, 1.98558554e-01, 1.50786310e-01,
          1.35345891e-01, 1.42782792e-01, 1.82358637e-01, 1.47120953e-01,
          1.22373536e-01, 1.37978926e-01, 2.08728507e-01, 2.08728507e-01,
          1.91372454e-01, 1.42760307e-01, 1.19227998e-01, 1.34066477e-01,
          1.26563638e-01, 1.23719744e-01, 1.65355369e-01, 1.84304222e-01,
          1.96910113e-01, 1.64762020e-01, 1.43826410e-01, 2.06517398e-01,
          2.08728507e-01, 1.87010571e-01, 1.46471694e-01, 1.61883146e-01,
          2.00644344e-01, 2.08728507e-01, 1.91035688e-01, 1.38540164e-01,
          1.57921270e-01, 1.75768867e-01, 1.31769925e-01, 1.48287997e-01,
          1.29038066e-01, 2.02843770e-01, 2.22655967e-01, 2.22655967e-01,
          1.76022425e-01, 9.96126086e-02, 1.18353613e-01, 1.05030216e-01,
          1.05357721e-01, 1.87518269e-01, 2.19959065e-01, 2.22655967e-01,
          2.22655967e-01, 1.44938201e-01, 1.11171335e-01, 1.61671370e-01,
          1.29962429e-01, 1.24463968e-01, 1.24196731e-01, 1.88677311e-01,
          2.22655967e-01, 2.22655967e-01, 1.36274025e-01, 1.04090951e-01,
          1.48717642e-01, 9.88775194e-02, 1.10994212e-01, 1.51208103e-01,
          1.70689955e-01, 2.22655967e-01, 1.97707787e-01, 1.36718661e-01,
          1.32722348e-01, 2.00053096e-01, 1.62004620e-01, 1.48890227e-01,
          1.88090235e-01, 2.04772443e-01, 2.04818249e-01, 1.67143404e-01,
          1.23697646e-01, 1.14318430e-01, 1.72303066e-01, 1.42284065e-01,
          1.28808662e-01, 1.52288079e-01, 1.79177076e-01, 2.04818249e-01,
          2.04818249e-01, 1.61410958e-01, 1.39206484e-01, 1.63959295e-01,
          1.51755720e-01, 1.37118220e-01, 1.58243164e-01, 1.68188170e-01,
          1.49733007e-01, 1.32072583e-01, 1.20795690e-01, 1.55106470e-01,
          2.04818249e-01, 2.04818249e-01, 1.77291110e-01, 1.26129359e-01,
          1.56820014e-01, 1.60960421e-01, 1.72927573e-01, 1.54083967e-01,
          1.80136994e-01, 2.04818249e-01, 2.04818249e-01, 1.37617946e-01,
          1.71524003e-01, 1.74586058e-01, 1.88230500e-01, 1.67427465e-01,
          1.39563620e-01, 2.00007007e-01, 2.04254061e-01, 1.64668962e-01,
          1.38053194e-01, 1.60487935e-01, 2.11379319e-01, 2.12851271e-01,
          1.79130226e-01, 1.34901971e-01, 1.47099435e-01, 1.69929102e-01,
          1.14357390e-01, 1.17302403e-01, 2.12851271e-01, 2.12851271e-01,
          2.12851271e-01, 1.27644315e-01, 9.95844305e-02, 1.15778394e-01,
          1.35263622e-01, 1.63156435e-01, 1.78647384e-01, 1.69312015e-01,
          2.12851271e-01, 2.12851271e-01, 1.54294565e-01, 1.21433623e-01,
          1.44612074e-01, 1.53328776e-01, 1.19937457e-01, 1.21458158e-01,
          1.76547393e-01, 2.27631673e-01, 2.27631673e-01, 2.00011104e-01,
          1.37245938e-01, 1.23064622e-01, 1.64294437e-01, 1.04374453e-01,
          1.33942842e-01, 1.70515865e-01, 2.27631673e-01, 2.27631673e-01,
          1.79165557e-01, 1.43841162e-01, 1.32713363e-01, 1.47174820e-01,
          1.36368379e-01, 1.50241405e-01, 2.27631673e-01, 2.27631673e-01,
          2.15092719e-01, 1.36277646e-01, 1.15112424e-01, 1.29217386e-01,
          1.43585324e-01, 1.14857271e-01, 1.52333125e-01, 2.27631673e-01,
          2.27631673e-01, 2.27631673e-01, 1.10905558e-01, 8.66317302e-02,
          5.98518290e-02, 6.72320053e-02, 7.61112943e-02, 1.50298938e-01,
          1.40864134e-01, 1.82966381e-01, 1.80243075e-01, 1.34192795e-01,
          1.11154452e-01, 1.28843933e-01, 1.70531452e-01, 1.88815281e-01,
          1.49928004e-01, 1.42222807e-01, 1.67186171e-01, 1.75611794e-01,
          1.45060271e-01, 1.48526713e-01, 1.86335608e-01, 2.20411524e-01,
          2.23005041e-01, 1.65964097e-01, 2.15776592e-01, 2.23005041e-01,
          2.23005041e-01, 1.33996144e-01, 8.39812011e-02, 6.71915486e-02,
          7.44067058e-02, 8.73756483e-02, 1.08596928e-01, 1.80573896e-01,
          2.23005041e-01, 2.23005041e-01, 1.78148985e-01, 1.67025402e-01,
          1.49335325e-01, 1.42976046e-01, 1.84519529e-01, 1.61518544e-01,
          2.04536989e-01, 2.04536989e-01, 2.04536989e-01, 1.38276190e-01,
          1.00657240e-01, 9.13349837e-02, 1.10898308e-01, 1.44025132e-01,
          1.66000441e-01, 1.74761578e-01, 2.04536989e-01, 1.98473081e-01,
          1.71906009e-01, 1.33919343e-01, 1.46184593e-01, 1.54711664e-01,
          1.55907094e-01, 1.74671456e-01, 1.86491311e-01, 1.79514140e-01,
          2.04536989e-01, 1.89079508e-01, 1.41301900e-01, 1.18532501e-01,
          1.18875742e-01, 1.39780700e-01, 1.66199729e-01, 1.69895440e-01,
          1.96301267e-01, 2.04536989e-01, 2.04536989e-01, 1.69282719e-01,
          1.47100672e-01, 1.39779583e-01, 1.60903499e-01, 1.67891786e-01,
          2.06424266e-01, 2.08728358e-01, 1.34283781e-01, 1.14023983e-01,
          1.20781913e-01, 1.35281026e-01, 1.55455515e-01, 1.48511723e-01,
          1.69448882e-01, 2.08728358e-01, 2.08728358e-01, 1.90416157e-01,
          1.05704568e-01, 1.12908192e-01, 1.11310735e-01, 1.26370251e-01,
          1.20924175e-01, 1.48709401e-01, 1.79653645e-01, 1.78767830e-01,
          1.87694848e-01, 1.72237337e-01, 1.52144000e-01, 1.60989329e-01,
          1.75907075e-01, 1.76884189e-01, 1.64264873e-01, 1.61061317e-01,
          1.59740269e-01, 1.73079014e-01, 1.67289108e-01, 1.75475180e-01,
          2.08728358e-01, 2.08728358e-01, 2.08728358e-01, 1.48875266e-01,
          1.86281711e-01, 2.14728221e-01, 2.14728221e-01, 1.47256881e-01,
          1.19201101e-01, 9.52099562e-02, 1.05832480e-01, 9.74627659e-02,
          9.81248394e-02, 1.46003366e-01, 2.14728221e-01, 2.14728221e-01,
          2.03478649e-01, 1.70153961e-01, 1.34631544e-01, 1.07320480e-01,
          1.09357804e-01, 1.13164134e-01, 1.40538961e-01, 1.51512012e-01,
          1.49084181e-01, 1.51030943e-01, 1.86696425e-01, 2.01227650e-01,
          2.14728221e-01, 2.14455143e-01, 1.55828297e-01, 1.61652371e-01,
          1.72839284e-01, 1.56994432e-01, 1.65877387e-01, 1.70245722e-01,
          1.81485116e-01, 2.01178536e-01, 1.85625508e-01, 1.81277633e-01 ]
      - [ 2.25844413e-01, 2.25844413e-01, 1.32447809e-01, 1.04829736e-01,
          1.07212193e-01, 8.55436549e-02, 7.93845505e-02, 1.33182362e-01,
          1.33578345e-01, 2.25844413e-01, 2.25844413e-01, 1.22990184e-01,
          9.39992741e-02, 8.64663422e-02, 9.94354188e-02, 1.76771611e-01,
          2.25844413e-01, 2.21060738e-01, 2.25844413e-01, 2.25844413e-01,
          1.79893792e-01, 1.48450196e-01, 1.65425375e-01, 1.37447163e-01,
          9.36027467e-02, 1.20051086e-01, 1.32813245e-01, 2.25844413e-01,
          2.25844413e-01, 1.85384542e-01, 1.00493930e-01, 9.51719433e-02,
          1.42068163e-01, 1.88481078e-01, 1.95524216e-01, 1.97714016e-01,
          1.69186696e-01, 1.68224543e-01, 1.70241088e-01, 1.30535647e-01,
          1.06456101e-01, 1.16318017e-01, 2.11753398e-01, 2.11753398e-01,
          1.72516197e-01, 1.34363398e-01, 1.86376303e-01, 2.11753398e-01,
          2.11753398e-01, 1.18841037e-01, 8.46991166e-02, 1.29319385e-01,
          1.75162703e-01, 1.33121088e-01, 2.11753398e-01, 2.11753398e-01,
          1.86828658e-01, 9.47877541e-02, 8.06050897e-02, 1.13791950e-01,
          2.01450124e-01, 2.11753398e-01, 2.09206060e-01, 1.81574687e-01,
          1.88168988e-01, 2.11753398e-01, 1.47190362e-01, 1.09762609e-01,
          8.05404037e-02, 1.39383182e-01, 1.91132843e-01, 1.73676550e-01,
          1.62087947e-01, 2.07212538e-01, 2.13134244e-01, 2.13134244e-01,
          1.40357852e-01, 9.06296149e-02, 1.14494033e-01, 1.63301587e-01,
          1.50191441e-01, 1.69899464e-01, 1.62132904e-01, 1.50924772e-01,
          1.76585585e-01, 1.60567299e-01, 1.37385741e-01, 1.82869181e-01,
          1.60479993e-01, 1.42280951e-01, 1.47294894e-01, 1.48053095e-01,
          2.13134244e-01, 2.13134244e-01, 1.65039092e-01, 1.02058478e-01,
          1.71874076e-01, 1.67477041e-01, 1.39276728e-01, 1.37009457e-01,
          1.09141745e-01, 1.19225711e-01, 1.98740005e-01, 1.75931737e-01,
          1.90188169e-01, 2.13134244e-01, 2.13134244e-01, 1.51227936e-01,
          1.95802182e-01, 2.19819710e-01, 2.18574166e-01, 1.74059838e-01,
          1.63315862e-01, 1.35198891e-01, 1.01496175e-01, 1.03094667e-01,
          1.16831660e-01, 2.19819710e-01, 2.19819710e-01, 2.19819710e-01,
          1.34099171e-01, 1.10394880e-01, 1.59730107e-01, 1.83342755e-01,
          1.35271087e-01, 1.34836778e-01, 1.96945980e-01, 2.08428368e-01,
          1.75216675e-01, 1.74880117e-01, 1.66073784e-01, 1.05349965e-01,
          1.15830511e-01, 1.10267282e-01, 1.25770688e-01, 1.82768866e-01,
          2.19819710e-01, 2.19819710e-01, 1.66375741e-01, 1.31777436e-01,
          1.49517804e-01, 1.80896565e-01, 1.29726991e-01, 1.10522836e-01,
          2.03540757e-01, 2.28740320e-01, 2.28740320e-01, 1.50774270e-01,
          1.30423561e-01, 1.51657045e-01, 1.80129036e-01, 1.34904698e-01,
          1.41630605e-01, 1.29295275e-01, 2.23943800e-01, 2.28740320e-01,
          2.02944890e-01, 1.77354693e-01, 1.19264476e-01, 1.12226978e-01,
          9.84223261e-02, 1.04253359e-01, 1.37030020e-01, 2.28740320e-01,
          2.28740320e-01, 1.96671650e-01, 1.60430521e-01, 1.73865125e-01,
          1.73365250e-01, 1.03168279e-01, 8.32612440e-02, 1.10433444e-01,
          2.07356215e-01, 2.28740320e-01, 2.06380799e-01, 1.56973273e-01,
          1.23616740e-01, 9.71250311e-02, 9.03040692e-02, 7.52981305e-02,
          1.03144921e-01, 1.25706479e-01, 2.04110593e-01, 2.10927293e-01,
          1.71370834e-01, 1.28664538e-01, 1.33996636e-01, 1.09127894e-01,
          9.82856303e-02, 1.59435362e-01, 1.07124008e-01, 1.17206246e-01,
          1.40363157e-01, 1.63374305e-01, 1.91481739e-01, 2.10927293e-01,
          2.10927293e-01, 2.10927293e-01, 1.17342189e-01, 1.63059250e-01,
          2.10927293e-01, 1.94170997e-01, 1.42937034e-01, 1.44019857e-01,
          1.31308243e-01, 1.30364373e-01, 1.20628528e-01, 1.79315150e-01,
          1.86026484e-01, 2.10927293e-01, 1.84921592e-01, 1.69753596e-01,
          1.66350141e-01, 1.71069354e-01, 2.10927293e-01, 2.10927293e-01,
          2.03138664e-01, 1.54298156e-01, 9.33810771e-02, 1.27994820e-01,
          1.77790657e-01, 1.35171741e-01, 1.76556528e-01, 1.58893093e-01,
          1.95644766e-01, 1.43681630e-01, 1.63248077e-01, 1.78598121e-01,
          1.68331251e-01, 1.65128872e-01, 1.61338657e-01, 1.92125529e-01,
          1.51356876e-01, 1.34648278e-01, 2.03138664e-01, 1.47608668e-01,
          1.28691778e-01, 1.60284594e-01, 1.57179385e-01, 1.49283245e-01,
          1.60871536e-01, 1.57909438e-01, 2.03138664e-01, 1.88837856e-01,
          1.86407208e-01, 2.03138664e-01, 1.80641979e-01, 1.62157819e-01,
          1.49294466e-01, 1.58605859e-01, 1.74682617e-01, 1.77496642e-01,
          1.39641866e-01, 2.10709736e-01, 2.10709736e-01, 1.80785626e-01,
          1.67935207e-01, 1.56496242e-01, 1.47791743e-01, 1.18725374e-01,
          1.22655451e-01, 1.40713751e-01, 2.10709736e-01, 2.08420649e-01,
          1.62713289e-01, 1.17315352e-01, 9.13288966e-02, 8.72050971e-02,
          1.07626207e-01, 1.19634099e-01, 2.10709736e-01, 2.10709736e-01,
          1.95977092e-01, 1.63216904e-01, 1.67065397e-01, 1.40284017e-01,
          1.44171506e-01, 1.91056758e-01, 2.10709736e-01, 2.10709736e-01,
          2.10709736e-01, 1.69263020e-01, 1.57468900e-01, 1.47571385e-01,
          1.01834975e-01, 1.17904730e-01, 1.66454390e-01, 2.10709736e-01,
          1.24496251e-01, 2.09915385e-01, 2.09915385e-01, 1.74210817e-01,
          1.18975952e-01, 1.00172944e-01, 1.06882297e-01, 1.06716871e-01,
          1.10716462e-01, 1.58217311e-01, 2.09915385e-01, 2.09915385e-01,
          1.97544098e-01, 1.42860383e-01, 1.32016137e-01, 1.34233579e-01,
          1.48743480e-01, 1.60321951e-01, 1.88184142e-01, 2.09915385e-01,
          1.98746786e-01, 1.75754070e-01, 1.82020351e-01, 1.33438125e-01,
          1.15222946e-01, 1.18146382e-01, 1.47415325e-01, 1.66531488e-01,
          2.09915385e-01, 2.02301145e-01, 1.49786428e-01, 1.84226260e-01,
          1.85504809e-01, 1.88115478e-01, 1.84048295e-01, 1.62026480e-01 ]
      - [ 2.14318544e-01, 1.43902391e-01, 1.35573804e-01, 1.51456177e-01,
          1.62452206e-01, 1.63555369e-01, 1.64351478e-01, 1.56923115e-01,
          2.01528296e-01, 2.14318544e-01, 2.14318544e-01, 2.14318544e-01,
          1.85492128e-01, 1.25995830e-01, 8.78300816e-02, 1.01207592e-01,
          1.13346107e-01, 1.75239727e-01, 1.32235751e-01, 1.13250762e-01,
          1.95925474e-01, 2.11154297e-01, 1.89209774e-01, 1.21940576e-01,
          8.91909227e-02, 1.21433198e-01, 1.52962536e-01, 1.91448361e-01,
          2.14318544e-01, 2.14318544e-01, 2.14318544e-01, 1.87925622e-01,
          1.08132772e-01, 9.41517800e-02, 1.37197122e-01, 1.88983768e-01,
          1.63321868e-01, 2.19591215e-01, 2.19591215e-01, 2.19591215e-01,
          9.92697105e-02, 5.35459667e-02, 6.49715737e-02, 9.07690898e-02,
          1.24546848e-01, 1.49081990e-01, 1.56051531e-01, 1.90004423e-01,
          2.14993373e-01, 2.19591215e-01, 1.60829499e-01, 1.17796570e-01,
          1.29190996e-01, 1.84093818e-01, 1.87688842e-01, 2.19591215e-01,
          2.19591215e-01, 1.96422592e-01, 1.00507371e-01, 8.06326717e-02,
          8.82134661e-02, 1.17192328e-01, 1.74137384e-01, 1.83285818e-01,
          2.19591215e-01, 2.16167614e-01, 1.63796261e-01, 1.61272675e-01,
          1.42508447e-01, 1.56225011e-01, 1.35343999e-01, 1.87685803e-01,
          1.98985368e-01, 1.61216795e-01, 1.57598495e-01, 2.09828183e-01,
          2.09828183e-01, 1.73591137e-01, 9.79862884e-02, 1.05605088e-01,
          2.04743147e-01, 2.03314051e-01, 2.09828183e-01, 1.83242992e-01,
          2.09828183e-01, 2.09828183e-01, 1.41557574e-01, 1.13093898e-01,
          1.25790760e-01, 1.76896006e-01, 2.09828183e-01, 2.09828183e-01,
          1.37475818e-01, 1.06474251e-01, 1.50072858e-01, 1.17670417e-01,
          9.74508300e-02, 1.19569726e-01, 2.09828183e-01, 2.09828183e-01,
          2.09828183e-01, 1.53615192e-01, 9.71755534e-02, 1.32230252e-01,
          1.03175819e-01, 1.02045633e-01, 1.33455545e-01, 1.99353576e-01,
          7.16733336e-02, 1.34917229e-01, 2.07313225e-01, 2.07313225e-01,
          2.07313225e-01, 1.33098915e-01, 8.51490349e-02, 7.94286951e-02,
          5.98512329e-02, 1.50020480e-01, 1.85393989e-01, 2.07313225e-01,
          2.07313225e-01, 1.97523788e-01, 1.64663061e-01, 1.62798986e-01,
          1.58284962e-01, 1.32861897e-01, 1.12244129e-01, 1.88973665e-01,
          2.07313225e-01, 2.05391899e-01, 1.88977957e-01, 1.68666989e-01,
          1.50129110e-01, 1.19270593e-01, 1.04410946e-01, 1.70117378e-01,
          1.82609275e-01, 1.48905993e-01, 1.50643975e-01, 1.53342202e-01,
          2.07313225e-01, 2.07313225e-01, 1.91030547e-01, 1.84940115e-01,
          2.01993138e-01, 1.92922160e-01, 1.79538876e-01, 1.33168727e-01,
          1.22677445e-01, 1.48166761e-01, 1.56267583e-01, 1.89167395e-01,
          2.01993138e-01, 1.84364498e-01, 1.93626940e-01, 1.72115996e-01,
          1.27893120e-01, 1.60511523e-01, 1.44325063e-01, 1.70193151e-01,
          1.54012933e-01, 1.77625686e-01, 2.01993138e-01, 1.93983778e-01,
          1.30154058e-01, 1.41902432e-01, 1.41819581e-01, 1.89991206e-01,
          1.61263928e-01, 1.78611144e-01, 2.01993138e-01, 1.68658808e-01,
          1.75766766e-01, 1.94295943e-01, 1.55763492e-01, 1.43739149e-01,
          1.25279561e-01, 1.25451878e-01, 1.17588647e-01, 1.61220104e-01,
          2.09828451e-01, 2.42188409e-01, 2.31050208e-01, 1.19386584e-01,
          1.74667358e-01, 1.39439434e-01, 1.32843271e-01, 1.09989345e-01,
          1.45277485e-01, 2.14729622e-01, 2.42188409e-01, 2.42188409e-01,
          1.15682855e-01, 1.63587913e-01, 1.47364497e-01, 1.35846570e-01,
          1.20324507e-01, 1.60855904e-01, 1.07875787e-01, 2.42188409e-01,
          2.42188409e-01, 1.73926026e-01, 1.60037458e-01, 1.23342909e-01,
          1.15707278e-01, 8.36339667e-02, 9.54570398e-02, 1.06244080e-01,
          2.42188409e-01, 2.42188409e-01, 2.05462754e-01, 1.20059572e-01,
          1.04884185e-01, 9.39292088e-02, 5.48122041e-02, 6.92610294e-02,
          1.25168562e-01, 1.34859219e-01, 1.72932312e-01, 1.80327117e-01,
          1.69385448e-01, 1.39243245e-01, 1.27568156e-01, 1.18384436e-01,
          1.28597915e-01, 2.03726187e-01, 1.62468746e-01, 1.55280724e-01,
          1.29986167e-01, 1.09407194e-01, 1.06035329e-01, 1.23761363e-01,
          1.65014505e-01, 2.23701075e-01, 1.74562618e-01, 2.23701075e-01,
          2.23701075e-01, 2.23701075e-01, 1.73296660e-01, 1.08331904e-01,
          1.08293891e-01, 1.65989459e-01, 1.40588254e-01, 2.23701075e-01,
          2.23701075e-01, 2.23701075e-01, 2.14478791e-01, 1.54443249e-01,
          1.04330063e-01, 9.61059481e-02, 1.39779150e-01, 2.02035666e-01,
          1.72781050e-01, 2.16185331e-01, 1.91876918e-01, 1.49236947e-01,
          1.03681363e-01, 8.63023996e-02, 9.18438733e-02, 1.20150223e-01,
          1.68230608e-01, 1.16343163e-01, 2.02096209e-01, 2.16320276e-01,
          1.96036577e-01, 1.46502703e-01, 9.50842649e-02, 9.39687863e-02,
          8.73005241e-02, 1.11304767e-01, 2.16320276e-01, 2.16320276e-01,
          2.16320276e-01, 1.48423836e-01, 1.33843422e-01, 1.06912650e-01,
          1.09129652e-01, 2.16320276e-01, 2.16320276e-01, 1.74527958e-01,
          2.16320276e-01, 1.95932373e-01, 1.67509362e-01, 1.74493238e-01,
          1.20427489e-01, 1.19762301e-01, 2.16320276e-01, 2.16320276e-01,
          8.68321732e-02, 2.11581767e-01, 2.27509648e-01, 2.25731835e-01,
          1.54895350e-01, 9.12423432e-02, 7.82502592e-02, 7.46755674e-02,
          1.02170900e-01, 9.50865820e-02, 2.19409943e-01, 2.27509648e-01,
          2.27509648e-01, 8.46868753e-02, 5.48729300e-02, 6.29229471e-02,
          6.37786016e-02, 1.22824341e-01, 1.55923784e-01, 2.16447681e-01,
          2.27509648e-01, 2.27509648e-01, 2.27509648e-01, 1.40006661e-01,
          1.03978865e-01, 1.26008034e-01, 1.64342836e-01, 2.14807421e-01,
          2.02362180e-01, 2.27509648e-01, 2.27509648e-01, 1.60494208e-01,
          9.48221758e-02, 8.85023251e-02, 1.16671093e-01, 2.18395188e-01 ]
      - [ 1.68733612e-01, 1.59406096e-01, 1.39581040e-01, 9.72977057e-02,
          1.14103206e-01, 1.58036932e-01, 2.12601051e-01, 2.12958813e-01,
          2.12958813e-01, 1.39370278e-01, 1.82355374e-01, 1.25561923e-01,
          1.14214234e-01, 1.37972683e-01, 2.12958813e-01, 2.12958813e-01,
          2.12958813e-01, 1.59017012e-01, 1.27446294e-01, 1.05620019e-01,
          1.39899865e-01, 1.37160510e-01, 1.35735571e-01, 1.73948497e-01,
          2.12958813e-01, 2.12958813e-01, 1.52597606e-01, 1.09662034e-01,
          1.21234134e-01, 1.49819851e-01, 1.35554090e-01, 1.68476075e-01,
          2.10935965e-01, 2.12958813e-01, 2.12958813e-01, 1.40348971e-01,
          9.14025530e-02, 1.19751327e-01, 1.09021276e-01, 1.18229032e-01,
          1.13406755e-01, 1.52609035e-01, 2.14983225e-01, 2.14983225e-01,
          8.69650915e-02, 6.47983253e-02, 8.42305571e-02, 1.28613442e-01,
          1.86644733e-01, 1.70386001e-01, 2.14983225e-01, 2.14983225e-01,
          2.13241726e-01, 8.86911899e-02, 1.26955733e-01, 1.63639843e-01,
          2.02934548e-01, 1.88115060e-01, 1.55954599e-01, 1.39825374e-01,
          2.14983225e-01, 2.14983225e-01, 1.26495853e-01, 1.48199961e-01,
          2.07322776e-01, 2.14983225e-01, 2.14983225e-01, 1.90421298e-01,
          1.90383047e-01, 2.06734598e-01, 1.36793002e-01, 1.12040430e-01,
          6.59916550e-02, 7.41485059e-02, 9.77849290e-02, 1.51645780e-01,
          1.82596430e-01, 2.10712701e-01, 2.10712701e-01, 1.97663039e-01,
          1.12808697e-01, 1.70964956e-01, 1.50029197e-01, 1.28756806e-01,
          1.52050868e-01, 1.61556244e-01, 1.75072744e-01, 2.01534435e-01,
          1.80291653e-01, 1.82010442e-01, 1.24966756e-01, 1.25051618e-01,
          1.24046832e-01, 1.78663492e-01, 1.99152961e-01, 2.10712701e-01,
          2.10712701e-01, 1.52170718e-01, 1.37248799e-01, 1.81104451e-01,
          1.27847478e-01, 1.41159952e-01, 1.42761320e-01, 1.65259585e-01,
          1.99084401e-01, 2.00871021e-01, 1.92216232e-01, 2.10712701e-01,
          9.32815298e-02, 8.79046768e-02, 1.38269633e-01, 2.08509699e-01,
          2.21427634e-01, 2.21427634e-01, 2.21427634e-01, 1.34236917e-01,
          8.38832483e-02, 1.35465309e-01, 1.83574945e-01, 2.21427634e-01,
          2.18590155e-01, 1.92441031e-01, 2.13303491e-01, 1.91943750e-01,
          1.43041685e-01, 1.26278430e-01, 7.00466037e-02, 7.27707818e-02,
          8.93327147e-02, 1.89554781e-01, 2.21427634e-01, 2.21427634e-01,
          1.68513894e-01, 1.36901677e-01, 8.78392234e-02, 9.66180786e-02,
          1.33258134e-01, 1.67515099e-01, 2.21427634e-01, 2.21427634e-01,
          2.17917308e-01, 1.13781609e-01, 1.08939305e-01, 9.70979184e-02,
          1.59238547e-01, 2.17907295e-01, 2.17907295e-01, 2.17907295e-01,
          1.34979919e-01, 1.02181412e-01, 1.42170578e-01, 1.51076004e-01,
          1.25070751e-01, 1.81185797e-01, 2.17907295e-01, 2.17907295e-01,
          2.17907295e-01, 1.31593585e-01, 1.21008947e-01, 1.43183842e-01,
          1.07237294e-01, 1.15567848e-01, 1.51962534e-01, 2.03746170e-01,
          2.17907295e-01, 2.12429687e-01, 1.76616386e-01, 1.24499731e-01,
          8.95722359e-02, 1.19162299e-01, 1.24714479e-01, 2.11705923e-01,
          2.17907295e-01, 2.17907295e-01, 1.62436336e-01, 1.15137286e-01,
          1.22128181e-01, 1.05495393e-01, 1.03605084e-01, 1.79404110e-01,
          1.53990209e-01, 2.03249022e-01, 2.03249022e-01, 2.03249022e-01,
          1.55920714e-01, 1.68424025e-01, 1.74345911e-01, 1.21905915e-01,
          1.12924851e-01, 1.49990171e-01, 1.42458484e-01, 1.74915358e-01,
          1.81078389e-01, 1.83741212e-01, 1.89417318e-01, 1.62362382e-01,
          1.51496753e-01, 1.46037713e-01, 1.81076095e-01, 2.03249022e-01,
          2.03249022e-01, 1.76356956e-01, 1.35861978e-01, 1.48356691e-01,
          1.36070818e-01, 1.14446580e-01, 1.67877242e-01, 1.62070885e-01,
          1.91635385e-01, 1.77941591e-01, 1.65363982e-01, 1.50194198e-01,
          1.43500745e-01, 1.45931169e-01, 1.83145210e-01, 1.62537619e-01,
          9.33196247e-02, 7.89855197e-02, 7.53262416e-02, 1.21299803e-01,
          2.02391803e-01, 1.87791631e-01, 2.07586527e-01, 2.07586527e-01,
          1.45973518e-01, 1.25108734e-01, 1.13362961e-01, 1.10356912e-01,
          1.99225292e-01, 2.07586527e-01, 1.76743716e-01, 1.16668366e-01,
          1.44945979e-01, 1.21534817e-01, 1.49991333e-01, 1.34989947e-01,
          1.72138169e-01, 1.96356267e-01, 1.70788243e-01, 1.57084376e-01,
          2.07586527e-01, 2.07586527e-01, 1.90319255e-01, 1.61154866e-01,
          1.68612748e-01, 1.73333094e-01, 1.82682455e-01, 2.01491073e-01,
          1.54834464e-01, 2.06020534e-01, 1.98113829e-01, 1.59792319e-01,
          1.88440546e-01, 2.19331890e-01, 2.22392246e-01, 2.07608789e-01,
          2.22392246e-01, 1.27063632e-01, 9.37952474e-02, 1.40326157e-01,
          1.30296886e-01, 1.92209020e-01, 2.22392246e-01, 2.22392246e-01,
          1.83719382e-01, 1.17582239e-01, 9.35712829e-02, 1.00107327e-01,
          1.03994891e-01, 1.55915499e-01, 1.66685775e-01, 2.22392246e-01,
          2.22392246e-01, 1.63024440e-01, 1.84827730e-01, 1.23914488e-01,
          1.50186583e-01, 1.51752666e-01, 1.10229693e-01, 1.59860969e-01,
          2.22392246e-01, 2.22392246e-01, 1.72664031e-01, 1.27209574e-01,
          7.72081688e-02, 1.06787436e-01, 1.17170148e-01, 1.05358854e-01,
          1.73588336e-01, 1.92192346e-01, 2.01140657e-01, 1.72579587e-01,
          1.16691492e-01, 1.25418395e-01, 1.53210104e-01, 1.43101200e-01,
          1.79289341e-01, 1.85745969e-01, 2.09579259e-01, 1.52429283e-01,
          1.28070861e-01, 1.00890703e-01, 1.18446052e-01, 1.61601350e-01,
          2.09579259e-01, 1.89938217e-01, 1.89965367e-01, 2.09579259e-01,
          2.09579259e-01, 2.09579259e-01, 1.12891182e-01, 8.02124664e-02,
          1.29298702e-01, 1.45083979e-01, 1.43835992e-01, 1.85544774e-01,
          2.09579259e-01, 2.09579259e-01, 2.00973779e-01, 1.15442656e-01,
          1.17469035e-01, 1.46606177e-01, 1.64896265e-01, 1.50993511e-01 ]
      - [ 1.81891337e-01, 2.02307209e-01, 2.02307209e-01, 1.83965832e-01,
          1.72327727e-01, 1.70894772e-01, 1.38120055e-01, 2.02307209e-01,
          2.02171832e-01, 1.50191545e-01, 1.97777495e-01, 2.02307209e-01,
          1.65680543e-01, 1.40569359e-01, 1.59655049e-01, 1.25558957e-01,
          1.58135369e-01, 1.36026040e-01, 2.02307209e-01, 2.02307209e-01,
          2.02307209e-01, 1.56407505e-01, 1.36140436e-01, 1.56529024e-01,
          1.49724275e-01, 1.79903090e-01, 1.94263801e-01, 1.67065591e-01,
          1.83429673e-01, 1.84231728e-01, 1.17343783e-01, 1.06775768e-01,
          1.27456263e-01, 9.37414691e-02, 1.09535359e-01, 1.19718790e-01,
          2.07569554e-01, 2.09250972e-01, 2.09250972e-01, 1.42924845e-01,
          1.27371296e-01, 1.46527916e-01, 1.30024523e-01, 1.66353673e-01,
          1.65567115e-01, 2.03915998e-01, 1.63661301e-01, 1.26133382e-01,
          1.19429559e-01, 2.06759110e-01, 2.09250972e-01, 2.03516483e-01,
          2.09250972e-01, 2.09250972e-01, 2.09250972e-01, 2.09250972e-01,
          1.69127390e-01, 9.22746584e-02, 7.95596093e-02, 9.25005376e-02,
          5.97693883e-02, 6.30758554e-02, 1.00220494e-01, 1.97304770e-01,
          2.09250972e-01, 1.89509436e-01, 1.83955759e-01, 1.89476162e-01,
          1.69097543e-01, 1.31303966e-01, 1.15584023e-01, 1.35409281e-01,
          1.26294613e-01, 1.06434919e-01, 1.23626538e-01, 1.42528564e-01,
          2.08482265e-01, 2.08482265e-01, 2.07553864e-01, 1.80042967e-01,
          1.80189297e-01, 1.35127261e-01, 1.21523142e-01, 1.34779721e-01,
          1.43185034e-01, 2.01185822e-01, 1.84467033e-01, 1.60562456e-01,
          1.68555230e-01, 1.57039553e-01, 1.21197894e-01, 1.29793674e-01,
          1.64303333e-01, 2.05358639e-01, 2.08482265e-01, 2.08482265e-01,
          1.71206415e-01, 1.36273742e-01, 1.27551749e-01, 1.41936228e-01,
          1.45274580e-01, 1.66497320e-01, 1.94728374e-01, 2.08482265e-01,
          2.04024926e-01, 1.47762164e-01, 1.54013872e-01, 1.60548866e-01,
          1.90718532e-01, 2.08212525e-01, 2.18443319e-01, 2.18443319e-01,
          1.63769886e-01, 1.44735500e-01, 1.39954001e-01, 1.38359293e-01,
          1.39817327e-01, 1.26988277e-01, 1.57514215e-01, 2.15137541e-01,
          2.18443319e-01, 1.98173344e-01, 1.90345690e-01, 1.07508585e-01,
          7.60451779e-02, 8.68843272e-02, 1.14559799e-01, 1.53007284e-01,
          2.18443319e-01, 2.18443319e-01, 2.18443319e-01, 1.35569900e-01,
          1.16031125e-01, 1.28343821e-01, 1.16022415e-01, 8.66043344e-02,
          1.66776091e-01, 2.18443319e-01, 2.18443319e-01, 2.18443319e-01,
          1.76025316e-01, 1.16037689e-01, 9.54805389e-02, 8.81952792e-02,
          2.03351840e-01, 1.94009185e-01, 1.39059454e-01, 1.45253465e-01,
          1.49145439e-01, 1.68512449e-01, 9.75810215e-02, 6.55110106e-02,
          1.11109361e-01, 2.03351840e-01, 2.03351840e-01, 1.87435076e-01,
          1.88181624e-01, 1.51555270e-01, 1.22668259e-01, 1.05550312e-01,
          9.62432325e-02, 1.32642671e-01, 1.36744484e-01, 1.73114315e-01,
          2.03351840e-01, 1.89341232e-01, 2.03351840e-01, 2.03351840e-01,
          1.94864944e-01, 1.61695495e-01, 1.21122688e-01, 1.86819226e-01,
          1.83139130e-01, 1.87911049e-01, 1.60481796e-01, 1.50661856e-01,
          1.78089991e-01, 1.78288326e-01, 2.03351840e-01, 1.67497978e-01,
          1.40587553e-01, 1.59478366e-01, 1.89552516e-01, 1.97687000e-01,
          1.83492169e-01, 1.70816943e-01, 1.34471431e-01, 1.21559180e-01,
          1.21017724e-01, 1.52508140e-01, 1.66173518e-01, 1.70544684e-01,
          1.59970790e-01, 1.70998171e-01, 1.84063554e-01, 1.54130399e-01,
          1.63363829e-01, 1.62574887e-01, 1.53388679e-01, 1.58039674e-01,
          1.97052360e-01, 1.63412720e-01, 1.71690911e-01, 2.00547650e-01,
          1.41373172e-01, 1.56539798e-01, 1.48841292e-01, 1.54352993e-01,
          1.55697301e-01, 1.89893812e-01, 1.64892912e-01, 1.80620790e-01,
          2.00547650e-01, 1.70214728e-01, 1.79830953e-01, 1.61371395e-01,
          1.16509803e-01, 1.53823957e-01, 1.91701293e-01, 1.98119685e-01,
          1.87984318e-01, 1.33836985e-01, 1.40954927e-01, 1.45877734e-01,
          1.34198785e-01, 1.30425408e-01, 1.96648642e-01, 2.05222920e-01,
          2.05222920e-01, 1.75688520e-01, 1.31864786e-01, 1.75970897e-01,
          1.39200345e-01, 1.29682213e-01, 1.73163816e-01, 2.05222920e-01,
          2.05222920e-01, 1.91451699e-01, 1.61414564e-01, 1.16558984e-01,
          1.33341476e-01, 1.27079174e-01, 1.58017844e-01, 1.59344956e-01,
          1.71705768e-01, 1.68512210e-01, 1.88756734e-01, 1.68640494e-01,
          1.57158434e-01, 2.05222920e-01, 1.69740587e-01, 1.56833082e-01,
          1.35035247e-01, 1.71268165e-01, 2.03968570e-01, 1.60970211e-01,
          1.49243504e-01, 1.43386349e-01, 2.03968570e-01, 1.79324463e-01,
          1.26193807e-01, 1.64475173e-01, 1.48763627e-01, 1.50699660e-01,
          1.34823993e-01, 1.31092638e-01, 1.53706923e-01, 1.60428911e-01,
          1.93730071e-01, 1.66128233e-01, 1.65817603e-01, 1.54828638e-01,
          1.45568088e-01, 1.60225540e-01, 1.52990714e-01, 1.46296337e-01,
          2.03968570e-01, 2.03968570e-01, 1.74282923e-01, 1.95498601e-01,
          1.78686023e-01, 1.39177620e-01, 1.51617810e-01, 1.42345861e-01,
          1.34359509e-01, 2.03968570e-01, 2.03968570e-01, 1.94588304e-01,
          1.79411188e-01, 1.59583300e-01, 1.48653820e-01, 1.31026536e-01,
          1.40499398e-01, 1.64769873e-01, 1.26191065e-01, 1.55709818e-01,
          1.73486605e-01, 2.00569198e-01, 1.55354440e-01, 1.47904232e-01,
          1.35952339e-01, 1.64591283e-01, 1.57935306e-01, 1.36223629e-01,
          1.49157807e-01, 1.72597855e-01, 2.00569198e-01, 1.88665062e-01,
          1.47487059e-01, 1.72169194e-01, 1.56605467e-01, 1.37032002e-01,
          1.88315094e-01, 1.92254081e-01, 1.85870841e-01, 2.00569198e-01,
          1.62478700e-01, 1.42278999e-01, 1.62630633e-01, 1.92652509e-01,
          1.83405280e-01, 1.84209406e-01, 1.69305205e-01, 1.80015415e-01 ]
      - [ 2.07387343e-01, 2.24765971e-01, 2.20072731e-01, 1.28171280e-01,
          1.20152406e-01, 1.33544281e-01, 1.10532053e-01, 1.25569955e-01,
          1.67724475e-01, 1.58322200e-01, 1.61322713e-01, 1.58016652e-01,
          1.35312080e-01, 1.31183639e-01, 1.51933461e-01, 1.30704626e-01,
          1.20691344e-01, 1.48936942e-01, 2.24765971e-01, 2.24765971e-01,
          2.24765971e-01, 1.88583940e-01, 1.39823124e-01, 1.02779619e-01,
          1.39155224e-01, 1.74923807e-01, 2.24765971e-01, 2.24765971e-01,
          2.09332824e-01, 1.44021422e-01, 1.07168041e-01, 1.22356176e-01,
          1.28344625e-01, 1.31942704e-01, 1.37199417e-01, 2.24765971e-01,
          1.86587393e-01, 1.59032971e-01, 1.88112840e-01, 1.81484401e-01,
          1.36455625e-01, 1.35614097e-01, 1.07526116e-01, 1.11571640e-01,
          1.38861597e-01, 2.11442068e-01, 2.11442068e-01, 2.11442068e-01,
          1.92539677e-01, 1.33969098e-01, 1.05240189e-01, 8.57161209e-02,
          1.00154623e-01, 1.36307254e-01, 2.11442068e-01, 1.76460296e-01,
          1.29877582e-01, 1.23102933e-01, 1.57572344e-01, 1.73463479e-01,
          1.48395851e-01, 1.39417529e-01, 2.11442068e-01, 2.11442068e-01,
          2.11442068e-01, 2.11442068e-01, 1.91447064e-01, 1.51842639e-01,
          1.45657778e-01, 1.54751435e-01, 1.71625301e-01, 1.88608423e-01,
          1.91110656e-01, 1.93418637e-01, 2.23950416e-01, 1.90290794e-01,
          1.20824344e-01, 9.36986059e-02, 8.23609978e-02, 9.38172862e-02,
          1.48743600e-01, 2.23950416e-01, 2.23950416e-01, 2.23950416e-01,
          2.11632311e-01, 9.68806222e-02, 8.24738368e-02, 8.99454877e-02,
          8.60903710e-02, 1.70711145e-01, 2.23950416e-01, 2.23238453e-01,
          2.23950416e-01, 1.64015874e-01, 9.45231244e-02, 9.16995853e-02,
          1.24834634e-01, 1.57601535e-01, 1.93765372e-01, 2.23950416e-01,
          2.23950416e-01, 2.23950416e-01, 1.49263486e-01, 7.08243549e-02,
          6.87568709e-02, 8.35957378e-02, 1.20772399e-01, 2.09477648e-01,
          1.70684680e-01, 1.81573272e-01, 2.23110601e-01, 2.23110601e-01,
          1.99536607e-01, 1.33114934e-01, 1.34825706e-01, 1.44483238e-01,
          1.35578409e-01, 2.23110601e-01, 1.76642418e-01, 1.84439659e-01,
          2.11128846e-01, 1.90841898e-01, 1.23044401e-01, 9.85670611e-02,
          9.89308432e-02, 1.88711196e-01, 1.18829347e-01, 1.45520031e-01,
          2.23110601e-01, 2.23110601e-01, 1.91849127e-01, 1.42203987e-01,
          1.19674258e-01, 1.10480398e-01, 1.21494174e-01, 8.62921998e-02,
          1.46438986e-01, 2.23110601e-01, 2.23110601e-01, 2.20060423e-01,
          1.27516970e-01, 9.69729573e-02, 9.62038562e-02, 9.96444523e-02,
          1.90606743e-01, 1.63585022e-01, 1.88895449e-01, 1.95183069e-01,
          2.11426169e-01, 1.79454416e-01, 1.42253712e-01, 1.02560751e-01,
          1.57269627e-01, 1.42779127e-01, 1.57949224e-01, 2.11426169e-01,
          2.11426169e-01, 1.95167542e-01, 1.78411096e-01, 1.82181016e-01,
          1.59315959e-01, 1.39160022e-01, 8.85028243e-02, 1.73347726e-01,
          2.11426169e-01, 2.11426169e-01, 1.97711989e-01, 1.26178414e-01,
          1.16778247e-01, 9.74346176e-02, 9.15220529e-02, 9.52934846e-02,
          1.29981264e-01, 2.11426169e-01, 2.11426169e-01, 1.67711839e-01,
          1.37681872e-01, 1.73482329e-01, 1.64859682e-01, 1.11768104e-01,
          1.61103323e-01, 1.65882781e-01, 2.09916040e-01, 1.35666743e-01,
          9.72975120e-02, 1.26358017e-01, 1.66717812e-01, 1.83553174e-01,
          1.67165548e-01, 2.07577690e-01, 2.25730062e-01, 2.25730062e-01,
          1.42513394e-01, 8.87167901e-02, 8.90548006e-02, 1.00048922e-01,
          1.49959043e-01, 1.69189528e-01, 1.71927258e-01, 1.12287998e-01,
          1.17409527e-01, 1.24188431e-01, 1.00368157e-01, 1.03826113e-01,
          2.25730062e-01, 2.25730062e-01, 1.92950934e-01, 2.25730062e-01,
          2.25730062e-01, 1.85945928e-01, 1.07883945e-01, 8.78136531e-02,
          8.22492838e-02, 1.69803634e-01, 2.25730062e-01, 2.25730062e-01,
          2.08491609e-01, 1.78046241e-01, 2.08491609e-01, 2.08491609e-01,
          1.39496177e-01, 1.19276218e-01, 1.23484477e-01, 1.74399897e-01,
          2.08491609e-01, 1.21648125e-01, 1.68056414e-01, 2.08491609e-01,
          2.08491609e-01, 1.45728558e-01, 9.80103239e-02, 7.59183764e-02,
          9.37853605e-02, 9.75469276e-02, 1.88314438e-01, 1.50117576e-01,
          2.01696888e-01, 2.01804444e-01, 1.61211237e-01, 1.54634520e-01,
          1.58108696e-01, 2.08491609e-01, 1.94381431e-01, 2.08491609e-01,
          1.84963971e-01, 1.84831738e-01, 1.76909447e-01, 1.35146007e-01,
          1.20779864e-01, 8.71729404e-02, 1.38745412e-01, 1.72326803e-01,
          1.63725331e-01, 1.97467014e-01, 2.39182949e-01, 2.27719530e-01,
          1.44977450e-01, 7.56293982e-02, 8.44025463e-02, 9.25074220e-02,
          1.00153908e-01, 2.39182949e-01, 1.90640062e-01, 1.76442310e-01,
          1.55971080e-01, 1.13903731e-01, 8.48221928e-02, 1.82114378e-01,
          2.03840047e-01, 2.00313836e-01, 2.39182949e-01, 2.39182949e-01,
          1.89722508e-01, 1.46684200e-01, 1.07721142e-01, 6.80572391e-02,
          8.05765688e-02, 1.07685305e-01, 1.93254381e-01, 2.39182949e-01,
          2.39182949e-01, 1.71293795e-01, 9.04850289e-02, 7.05908090e-02,
          4.80162166e-02, 1.09913811e-01, 1.29034147e-01, 2.33898267e-01,
          2.50965834e-01, 1.64111421e-01, 8.13078210e-02, 7.87221119e-02,
          7.03041032e-02, 5.47327064e-02, 1.84745550e-01, 2.50965834e-01,
          2.25079313e-01, 2.50965834e-01, 2.50965834e-01, 1.52918756e-01,
          7.91144595e-02, 6.65413812e-02, 5.70941940e-02, 1.29019439e-01,
          2.16387540e-01, 2.37325996e-01, 2.50965834e-01, 2.50965834e-01,
          1.54002011e-01, 1.00951768e-01, 8.08513090e-02, 5.47056422e-02,
          1.01675063e-01, 9.21485797e-02, 1.67761147e-01, 2.50965834e-01,
          2.50965834e-01, 1.60032094e-01, 1.31161839e-01, 1.17979273e-01,
          1.12063065e-01, 1.34991035e-01, 8.60856846e-02, 1.36718199e-01 ]
      - [ 1.11463167e-01, 1.21946327e-01, 1.85550928e-01, 1.22934274e-01,
          1.40401468e-01, 1.42997757e-01, 2.05985799e-01, 1.91332966e-01,
          1.26045108e-01, 1.12187415e-01, 7.45013505e-02, 9.87126753e-02,
          1.11800738e-01, 2.18297631e-01, 2.23792747e-01, 2.23792747e-01,
          2.23792747e-01, 1.39078155e-01, 1.24631405e-01, 1.50881261e-01,
          2.23792747e-01, 1.35764956e-01, 1.43339798e-01, 1.53344020e-01,
          2.23792747e-01, 2.23792747e-01, 1.46568701e-01, 8.23956802e-02,
          7.93766901e-02, 1.24501944e-01, 1.06521763e-01, 2.12974265e-01,
          2.23792747e-01, 2.23792747e-01, 2.23792747e-01, 1.41935199e-01,
          1.91321790e-01, 1.05748251e-01, 1.12412177e-01, 1.35818213e-01,
          2.21258357e-01, 2.21258357e-01, 2.04855606e-01, 2.12135658e-01,
          1.48941487e-01, 1.64025143e-01, 1.32779151e-01, 1.28157914e-01,
          1.42424151e-01, 1.94056615e-01, 1.83701143e-01, 1.60773247e-01,
          1.66812122e-01, 1.17660157e-01, 8.07885006e-02, 6.86671138e-02,
          1.23049498e-01, 1.36092067e-01, 2.21258357e-01, 2.21258357e-01,
          2.21258357e-01, 2.21258357e-01, 1.17489636e-01, 1.26143470e-01,
          1.17153630e-01, 1.59849241e-01, 1.68067694e-01, 2.21258357e-01,
          2.21258357e-01, 1.69979826e-01, 1.35730609e-01, 9.21973735e-02,
          1.83435321e-01, 1.53464496e-01, 1.17500924e-01, 1.00433886e-01,
          1.73353031e-01, 1.80751711e-01, 1.47653282e-01, 1.95355907e-01,
          1.64974645e-01, 2.13768274e-01, 2.13768274e-01, 1.37107521e-01,
          8.57577920e-02, 1.20653681e-01, 1.45513758e-01, 1.38276219e-01,
          2.13768274e-01, 2.13768274e-01, 2.13768274e-01, 1.64704084e-01,
          1.64468423e-01, 1.44922316e-01, 2.13768274e-01, 2.13768274e-01,
          1.38125449e-01, 1.23589702e-01, 1.33895949e-01, 2.13768274e-01,
          1.61259279e-01, 1.34922475e-01, 1.10631548e-01, 1.55860946e-01,
          2.02313796e-01, 1.31275520e-01, 1.25139773e-01, 1.95602164e-01,
          1.24107495e-01, 1.15418412e-01, 1.45105392e-01, 1.36649877e-01,
          1.49555713e-01, 1.62750915e-01, 2.29654789e-01, 2.29654789e-01,
          1.59997031e-01, 7.61198550e-02, 8.22454393e-02, 1.20915398e-01,
          1.70196071e-01, 2.01398835e-01, 2.29654789e-01, 2.29654789e-01,
          2.29654789e-01, 1.08676523e-01, 1.80955246e-01, 1.12472966e-01,
          1.45747900e-01, 1.94436714e-01, 1.70986757e-01, 1.17625266e-01,
          1.24935731e-01, 1.27384722e-01, 2.29654789e-01, 9.27434713e-02,
          8.52555484e-02, 1.05904281e-01, 1.96498170e-01, 2.05436438e-01,
          1.92678884e-01, 2.29654789e-01, 1.85208872e-01, 1.35688081e-01,
          8.51315856e-02, 9.28463116e-02, 1.56800777e-01, 1.83398113e-01,
          1.98152289e-01, 2.16316983e-01, 2.16316983e-01, 2.13960886e-01,
          1.00015797e-01, 1.77864701e-01, 1.32712603e-01, 1.75682276e-01,
          1.69406801e-01, 1.77814364e-01, 2.10742742e-01, 2.16316983e-01,
          2.16316983e-01, 1.52392790e-01, 9.76372063e-02, 7.50383139e-02,
          7.06433505e-02, 1.31583452e-01, 1.57792777e-01, 1.86242700e-01,
          2.16316983e-01, 2.11809874e-01, 1.50175467e-01, 1.55098930e-01,
          8.57352540e-02, 8.97717327e-02, 1.53934762e-01, 1.86509132e-01,
          1.90561637e-01, 1.83606699e-01, 1.92676097e-01, 1.30790010e-01,
          2.20826581e-01, 1.68279022e-01, 1.59745321e-01, 1.42690167e-01,
          1.46709606e-01, 1.40763402e-01, 1.38072431e-01, 2.02160880e-01,
          2.09386885e-01, 2.20826581e-01, 1.58719331e-01, 1.07545674e-01,
          1.01275004e-01, 1.25005588e-01, 1.70666844e-01, 1.28526434e-01,
          1.53932318e-01, 2.17911214e-01, 1.69293135e-01, 9.04261023e-02,
          1.05443500e-01, 1.61108851e-01, 1.84994325e-01, 1.86759815e-01,
          1.62098914e-01, 1.78330392e-01, 1.46653578e-01, 1.94709867e-01,
          1.13202475e-01, 9.29514840e-02, 1.15800709e-01, 1.62466690e-01,
          2.20826581e-01, 2.20826581e-01, 2.20826581e-01, 1.82816893e-01,
          1.81754753e-01, 1.30163804e-01, 1.55949116e-01, 2.00094491e-01,
          1.44294173e-01, 1.08198360e-01, 1.31926253e-01, 1.19912818e-01,
          2.13282153e-01, 1.10354796e-01, 7.48562589e-02, 8.60267654e-02,
          1.11897238e-01, 1.14238970e-01, 1.16485424e-01, 2.01592341e-01,
          2.04295591e-01, 2.08123848e-01, 2.13282153e-01, 2.13282153e-01,
          2.13282153e-01, 2.13282153e-01, 2.04486892e-01, 1.49628654e-01,
          1.44949973e-01, 9.83084366e-02, 1.40599430e-01, 1.76859915e-01,
          1.18677139e-01, 1.77892759e-01, 1.64341554e-01, 1.42755434e-01,
          1.62016973e-01, 2.13282153e-01, 2.13282153e-01, 2.13282153e-01,
          1.18916966e-01, 5.24709485e-02, 3.54907773e-02, 5.23778014e-02,
          7.99378529e-02, 1.12727299e-01, 2.11189643e-01, 2.40647897e-01,
          2.40647897e-01, 1.13608420e-01, 6.93805888e-02, 5.47064617e-02,
          1.11627176e-01, 2.12463394e-01, 2.31350213e-01, 1.81087032e-01,
          1.97422966e-01, 1.74284771e-01, 2.29011804e-01, 7.77062997e-02,
          6.59311712e-02, 6.22823313e-02, 8.08553472e-02, 1.13584489e-01,
          2.04049662e-01, 2.40647897e-01, 2.40647897e-01, 2.34220237e-01,
          7.65621513e-02, 4.14027646e-02, 6.82233050e-02, 1.94629535e-01,
          2.40647897e-01, 2.07654268e-01, 2.35951290e-01, 2.40647897e-01,
          8.27889144e-02, 7.25826845e-02, 8.31450596e-02, 1.49820790e-01,
          2.34077260e-01, 2.34077260e-01, 1.72976255e-01, 9.95147303e-02,
          6.29870072e-02, 1.19750232e-01, 1.14640176e-01, 1.30019978e-01,
          1.59491032e-01, 2.03212783e-01, 2.34077260e-01, 2.34077260e-01,
          1.87178180e-01, 1.20409139e-01, 1.54778808e-01, 7.94923529e-02,
          7.32819363e-02, 1.17226571e-01, 2.34077260e-01, 2.34077260e-01,
          2.25090221e-01, 1.19358249e-01, 1.19261451e-01, 1.00390777e-01,
          1.25263065e-01, 2.17621475e-01, 2.34077260e-01, 2.34077260e-01,
          2.34077260e-01, 1.95245370e-01, 1.07965037e-01, 8.47059041e-02 ]
      - [ 1.56646609e-01, 2.32074976e-01, 2.32074976e-01, 1.44643798e-01,
          1.55806541e-01, 1.63458914e-01, 1.52974397e-01, 1.14384927e-01,
          1.20384425e-01, 2.32074976e-01, 2.32074976e-01, 2.15397716e-01,
          9.28516015e-02, 6.16757832e-02, 5.48698828e-02, 5.71409129e-02,
          9.75951552e-02, 1.77201733e-01, 1.65056065e-01, 1.69040143e-01,
          1.10865600e-01, 1.10859945e-01, 1.24106966e-01, 2.32074976e-01,
          2.32074976e-01, 2.02948853e-01, 1.50536418e-01, 2.32074976e-01,
          2.19016209e-01, 1.13887154e-01, 8.09164420e-02, 7.45761693e-02,
          1.63051799e-01, 2.23694995e-01, 1.59202218e-01, 1.80402726e-01,
          2.22809240e-01, 2.22809240e-01, 1.68611899e-01, 1.55764773e-01,
          8.68656412e-02, 4.76992950e-02, 6.04733154e-02, 1.47336230e-01,
          2.22809240e-01, 2.21225768e-01, 2.22809240e-01, 2.22809240e-01,
          2.10584521e-01, 1.07338667e-01, 6.33489639e-02, 7.87710845e-02,
          1.30455777e-01, 1.69591486e-01, 2.22809240e-01, 2.22809240e-01,
          1.52813002e-01, 1.31312966e-01, 1.10980898e-01, 4.97395657e-02,
          8.58499184e-02, 1.16753578e-01, 2.21344858e-01, 1.91821903e-01,
          1.80984572e-01, 1.34900987e-01, 1.79410264e-01, 1.74242109e-01,
          8.39169994e-02, 1.39900029e-01, 2.22809240e-01, 2.22809240e-01,
          2.11125374e-01, 2.11125374e-01, 2.11125374e-01, 1.65923685e-01,
          1.23445697e-01, 8.56913030e-02, 7.50051960e-02, 1.01345554e-01,
          1.54726818e-01, 2.06791043e-01, 1.90028653e-01, 2.11125374e-01,
          2.11125374e-01, 1.56086877e-01, 9.92191732e-02, 8.05821344e-02,
          9.64779630e-02, 1.43339694e-01, 1.75084680e-01, 1.63419023e-01,
          1.10778324e-01, 1.90387949e-01, 2.07421184e-01, 1.28572196e-01,
          1.51669681e-01, 1.90209866e-01, 1.66183114e-01, 1.77502856e-01,
          1.92045048e-01, 1.93763196e-01, 2.11125374e-01, 2.11125374e-01,
          1.63536951e-01, 1.69348598e-01, 1.35234937e-01, 1.20892130e-01,
          9.09784660e-02, 7.95320645e-02, 9.88854691e-02, 1.03361465e-01,
          1.12589747e-01, 2.21184090e-01, 2.21184090e-01, 2.21184090e-01,
          1.23431616e-01, 1.93125322e-01, 1.60953313e-01, 1.10260263e-01,
          8.99736434e-02, 9.09589380e-02, 1.72939345e-01, 2.21184090e-01,
          2.21184090e-01, 1.99624807e-01, 1.15672715e-01, 1.38762087e-01,
          2.16168284e-01, 1.46912515e-01, 9.82453004e-02, 1.59599110e-01,
          2.21184090e-01, 2.21184090e-01, 1.50380865e-01, 2.10360736e-01,
          1.95706531e-01, 1.52484238e-01, 1.49477273e-01, 1.00604244e-01,
          1.39741883e-01, 1.78832948e-01, 2.00144634e-01, 2.05785125e-01,
          2.33673289e-01, 2.33673289e-01, 1.51188180e-01, 7.47201145e-02,
          7.73973614e-02, 5.00105508e-02, 1.23818107e-01, 1.28840432e-01,
          1.91286042e-01, 2.33673289e-01, 2.13667214e-01, 8.39572772e-02,
          7.99893513e-02, 1.07085645e-01, 6.46494776e-02, 2.03241974e-01,
          2.33673289e-01, 2.33673289e-01, 2.33673289e-01, 2.33673289e-01,
          1.56546220e-01, 1.36929512e-01, 9.97983515e-02, 8.78076255e-02,
          8.94361511e-02, 1.21090584e-01, 1.98465094e-01, 2.33673289e-01,
          2.33673289e-01, 1.28656745e-01, 1.06657647e-01, 1.15038171e-01,
          9.89057571e-02, 1.74212351e-01, 1.60789281e-01, 2.33673289e-01,
          2.15831310e-01, 1.58733755e-01, 9.80193540e-02, 1.56169355e-01,
          1.40571743e-01, 9.74375829e-02, 1.69797167e-01, 2.00554267e-01,
          2.15548158e-01, 1.40066057e-01, 1.67403281e-01, 1.94692031e-01,
          2.15831310e-01, 2.02235818e-01, 1.29384622e-01, 1.48072600e-01,
          1.17756866e-01, 1.15962386e-01, 2.15831310e-01, 1.63888261e-01,
          1.67538390e-01, 2.00882033e-01, 1.48977950e-01, 1.11583382e-01,
          2.15831310e-01, 1.67913496e-01, 1.92101702e-01, 8.94099474e-02,
          1.52127102e-01, 2.15831310e-01, 2.15831310e-01, 1.83601305e-01,
          1.23626485e-01, 1.72865674e-01, 1.04513273e-01, 7.74277747e-02,
          1.44597933e-01, 1.93767220e-01, 2.07120165e-01, 1.53004572e-01,
          1.02596141e-01, 1.35078862e-01, 1.79766998e-01, 2.07120165e-01,
          1.50388107e-01, 1.51595831e-01, 1.65228248e-01, 1.69687256e-01,
          1.69400841e-01, 1.13989361e-01, 1.34899870e-01, 1.52174279e-01,
          1.77149266e-01, 1.32091224e-01, 1.46078095e-01, 2.07120165e-01,
          2.07120165e-01, 2.07120165e-01, 1.34229988e-01, 1.38176695e-01,
          1.58117235e-01, 1.56367585e-01, 1.20366566e-01, 1.67684168e-01,
          1.99277848e-01, 1.90295711e-01, 2.06000298e-01, 1.56549081e-01,
          1.33992568e-01, 1.65321052e-01, 2.07120165e-01, 1.59238175e-01,
          1.58743307e-01, 2.15898633e-01, 2.00762182e-01, 2.11573854e-01,
          1.45716488e-01, 1.17534205e-01, 9.34952945e-02, 1.19099766e-01,
          1.13139547e-01, 1.86239481e-01, 2.15898633e-01, 2.15898633e-01,
          2.15898633e-01, 1.81762934e-01, 1.03891425e-01, 1.03710324e-01,
          9.69876498e-02, 1.26678944e-01, 1.38198033e-01, 1.89550757e-01,
          1.77717194e-01, 1.75432593e-01, 1.52592868e-01, 1.40689254e-01,
          1.58606067e-01, 1.98355258e-01, 1.42262489e-01, 1.60907552e-01,
          2.13693634e-01, 2.15898633e-01, 2.15898633e-01, 1.76407918e-01,
          1.39629140e-01, 1.30926222e-01, 1.30917788e-01, 1.44017160e-01,
          1.59897029e-01, 1.92627385e-01, 2.13376284e-01, 2.13376284e-01,
          1.53269187e-01, 9.24883038e-02, 1.45671368e-01, 1.22743189e-01,
          1.37634307e-01, 9.02133137e-02, 1.53860793e-01, 2.13376284e-01,
          2.13376284e-01, 1.61201790e-01, 1.43585220e-01, 1.60422802e-01,
          1.33840904e-01, 9.86918956e-02, 1.66343629e-01, 1.69354543e-01,
          2.13376284e-01, 2.13376284e-01, 1.35893181e-01, 1.28395259e-01,
          1.33770615e-01, 1.46135300e-01, 1.89668924e-01, 1.27504483e-01,
          1.71761766e-01, 2.13376284e-01, 2.10355341e-01, 1.39557987e-01,
          1.44955784e-01, 1.67003214e-01, 2.01126263e-01, 1.79007486e-01 ]
      - [ 1.73932895e-01, 2.11288050e-01, 2.11288050e-01, 1.87680602e-01,
          1.57301247e-01, 2.01795608e-01, 1.79213315e-01, 1.67653397e-01,
          1.52556613e-01, 1.80787444e-01, 1.68879226e-01, 1.25985265e-01,
          1.36762038e-01, 1.29848152e-01, 1.49088055e-01, 1.79675430e-01,
          1.73773333e-01, 1.41212329e-01, 1.39256477e-01, 1.90943792e-01,
          2.11288050e-01, 2.11288050e-01, 2.11288050e-01, 1.96273655e-01,
          1.46253511e-01, 1.11528054e-01, 1.10554203e-01, 1.04585916e-01,
          1.43472120e-01, 1.54305637e-01, 2.11288050e-01, 1.94571733e-01,
          1.17464237e-01, 1.37006193e-01, 1.47837520e-01, 1.01296172e-01,
          2.13857889e-01, 1.74067453e-01, 1.44037500e-01, 1.53712124e-01,
          1.33694917e-01, 1.45755306e-01, 2.01122150e-01, 2.13857889e-01,
          2.09386975e-01, 2.13857889e-01, 2.13857889e-01, 2.01332450e-01,
          1.60738364e-01, 1.26769096e-01, 1.66539654e-01, 2.13857889e-01,
          2.13857889e-01, 2.13857889e-01, 1.10663287e-01, 1.23034753e-01,
          1.32549077e-01, 1.41662166e-01, 1.00024022e-01, 1.02829166e-01,
          1.59904033e-01, 2.11048037e-01, 1.29749641e-01, 1.59962296e-01,
          1.81550920e-01, 1.64456412e-01, 1.03604160e-01, 6.56665787e-02,
          8.99640471e-02, 1.54937640e-01, 1.98829338e-01, 1.56954780e-01,
          1.84379861e-01, 2.18509600e-01, 2.18509600e-01, 1.75889581e-01,
          1.13027908e-01, 1.26194701e-01, 1.91009864e-01, 1.87339529e-01,
          1.73354924e-01, 1.66205823e-01, 2.18509600e-01, 2.18509600e-01,
          2.18509600e-01, 1.51247293e-01, 1.14450581e-01, 1.30969137e-01,
          1.18761331e-01, 1.33969784e-01, 1.61686331e-01, 1.95123568e-01,
          1.69666082e-01, 1.09262720e-01, 7.80133083e-02, 8.11062083e-02,
          1.48978800e-01, 1.71028838e-01, 1.46539181e-01, 1.65106207e-01,
          1.98421448e-01, 2.18509600e-01, 1.87073648e-01, 1.30888611e-01,
          1.26123220e-01, 1.55908987e-01, 1.74259618e-01, 1.52977735e-01,
          1.45118088e-01, 1.56798869e-01, 2.03416169e-01, 2.29218632e-01,
          2.29218632e-01, 2.15840816e-01, 1.24260269e-01, 9.86372381e-02,
          1.34592578e-01, 1.18734442e-01, 1.17021300e-01, 1.75287470e-01,
          2.29218632e-01, 2.29218632e-01, 1.42873958e-01, 1.16469704e-01,
          1.26153573e-01, 1.31598026e-01, 1.43312737e-01, 1.32833764e-01,
          1.28665984e-01, 2.01004446e-01, 2.29218632e-01, 2.29218632e-01,
          2.04482898e-01, 1.72666594e-01, 1.49854735e-01, 1.45095706e-01,
          9.01358500e-02, 1.06152065e-01, 1.23345770e-01, 1.66875571e-01,
          1.08855858e-01, 1.37941003e-01, 2.05008417e-01, 1.84933811e-01,
          1.26954734e-01, 1.94191486e-01, 2.17807680e-01, 2.17807680e-01,
          1.97149619e-01, 1.65018573e-01, 1.79844975e-01, 1.78246602e-01,
          1.36521965e-01, 1.74498469e-01, 2.11878270e-01, 2.17807680e-01,
          1.47591725e-01, 9.04667899e-02, 1.07090421e-01, 1.59630090e-01,
          1.74737886e-01, 1.77470282e-01, 1.62685618e-01, 1.30022168e-01,
          1.63385525e-01, 1.58715189e-01, 1.60977498e-01, 1.09941274e-01,
          1.76689103e-01, 2.17807680e-01, 2.17807680e-01, 1.47881359e-01,
          1.07357241e-01, 1.04196101e-01, 1.06561311e-01, 9.79603454e-02,
          8.45279098e-02, 1.48143500e-01, 2.17807680e-01, 2.17807680e-01,
          1.62626937e-01, 1.57638431e-01, 1.46751195e-01, 9.12920088e-02,
          7.43983090e-02, 1.00993752e-01, 1.95101336e-01, 2.20248178e-01,
          1.86922997e-01, 1.82272613e-01, 1.77573785e-01, 2.20248178e-01,
          1.98082328e-01, 1.50274321e-01, 2.20248178e-01, 2.20248178e-01,
          2.20248178e-01, 2.20248178e-01, 1.21212550e-01, 8.98555964e-02,
          6.19937517e-02, 6.39726743e-02, 5.71079068e-02, 6.61087707e-02,
          1.25223801e-01, 1.96092963e-01, 1.98825270e-01, 1.48618191e-01,
          1.32570252e-01, 1.41090825e-01, 1.75989017e-01, 1.48958176e-01,
          1.91205502e-01, 2.20248178e-01, 2.20248178e-01, 1.78759441e-01,
          1.35567948e-01, 1.01290829e-01, 9.20668319e-02, 9.63141024e-02,
          1.30496442e-01, 1.80821955e-01, 2.15811536e-01, 2.15811536e-01,
          1.68200538e-01, 1.29009560e-01, 8.23604092e-02, 7.20149428e-02,
          6.25538826e-02, 7.71972612e-02, 9.44367275e-02, 1.55403584e-01,
          2.15811536e-01, 2.15811536e-01, 2.15811536e-01, 1.97378248e-01,
          1.72810361e-01, 1.77334443e-01, 1.60071343e-01, 1.53227419e-01,
          1.77912936e-01, 2.15811536e-01, 2.15811536e-01, 2.15811536e-01,
          2.15811536e-01, 2.15811536e-01, 1.71902001e-01, 1.12950414e-01,
          1.15082540e-01, 1.32841617e-01, 1.87982112e-01, 2.15811536e-01,
          1.29922673e-01, 6.74949065e-02, 6.52442724e-02, 7.53437057e-02,
          8.01706389e-02, 6.97833151e-02, 1.27971470e-01, 2.30903029e-01,
          2.30903029e-01, 1.60961315e-01, 6.67555854e-02, 3.99627388e-02,
          5.23752086e-02, 5.90804704e-02, 6.47258461e-02, 1.24473259e-01,
          2.30903029e-01, 2.30903029e-01, 1.95950881e-01, 1.78769574e-01,
          2.30903029e-01, 2.27481008e-01, 1.61314011e-01, 1.27636313e-01,
          1.64701834e-01, 2.30903029e-01, 2.30903029e-01, 2.30903029e-01,
          1.53427705e-01, 1.38084427e-01, 1.19815893e-01, 1.40575126e-01,
          1.61323473e-01, 2.30903029e-01, 2.30903029e-01, 2.30903029e-01,
          2.21951082e-01, 1.22693144e-01, 4.33945321e-02, 4.76286933e-02,
          5.07871620e-02, 6.21880107e-02, 1.12368122e-01, 1.81319818e-01,
          2.21951082e-01, 2.21951082e-01, 1.94420353e-01, 1.79243743e-01,
          1.73927099e-01, 1.29566863e-01, 1.08169325e-01, 1.27219915e-01,
          1.53068617e-01, 1.62356332e-01, 2.21951082e-01, 2.21951082e-01,
          1.02024764e-01, 6.98334724e-02, 1.00034557e-01, 1.50648326e-01,
          2.21951082e-01, 2.21951082e-01, 2.13199407e-01, 2.21951082e-01,
          2.21951082e-01, 1.96806714e-01, 1.47134572e-01, 1.46282256e-01,
          1.41777217e-01, 1.57707080e-01, 1.76275298e-01, 1.93282649e-01 ]
      - [ 1.96152523e-01, 2.08446667e-01, 1.61189601e-01, 1.43567085e-01,
          1.60009593e-01, 1.06312640e-01, 9.69958156e-02, 1.37032166e-01,
          1.85086578e-01, 2.08446667e-01, 2.08446667e-01, 2.07552075e-01,
          2.08446667e-01, 1.48751527e-01, 9.77164432e-02, 9.14562717e-02,
          1.56814814e-01, 2.08446667e-01, 1.57337099e-01, 2.01250762e-01,
          2.08446667e-01, 2.06415892e-01, 1.66695744e-01, 1.27568632e-01,
          1.17127180e-01, 1.21663399e-01, 1.34597003e-01, 1.88383162e-01,
          2.08446667e-01, 2.08446667e-01, 2.08446667e-01, 1.76597774e-01,
          1.15310490e-01, 8.87452960e-02, 1.02271378e-01, 1.33681983e-01,
          1.66847244e-01, 1.78491086e-01, 2.09862709e-01, 2.09862709e-01,
          1.66986451e-01, 1.14514634e-01, 1.12543724e-01, 1.50846317e-01,
          1.88336596e-01, 1.39498338e-01, 1.86834678e-01, 2.09862709e-01,
          2.09862709e-01, 1.77866086e-01, 1.32183850e-01, 1.36457339e-01,
          1.64005205e-01, 1.56049430e-01, 1.95088848e-01, 2.09862709e-01,
          2.02344775e-01, 1.78289413e-01, 1.82158336e-01, 1.38542444e-01,
          1.14973217e-01, 1.26737118e-01, 1.51869237e-01, 1.25773683e-01,
          1.37369022e-01, 1.64164633e-01, 1.50979176e-01, 1.75452515e-01,
          1.73987761e-01, 1.64428711e-01, 1.62799388e-01, 1.34972140e-01,
          1.38389140e-01, 2.05950931e-01, 2.14438319e-01, 1.80992633e-01,
          1.46857455e-01, 1.19205661e-01, 1.31114736e-01, 1.39469311e-01,
          1.24486029e-01, 1.37675107e-01, 2.14438319e-01, 2.14438319e-01,
          1.95381358e-01, 2.14438319e-01, 2.14438319e-01, 1.45782143e-01,
          8.71879533e-02, 9.03668851e-02, 1.05785333e-01, 1.49288103e-01,
          2.06590369e-01, 1.71556264e-01, 1.45876512e-01, 1.33661538e-01,
          1.39465734e-01, 1.43151149e-01, 9.45039466e-02, 1.48018822e-01,
          1.91694230e-01, 2.14438319e-01, 2.14438319e-01, 2.14438319e-01,
          2.14438319e-01, 1.52604029e-01, 1.42948866e-01, 1.07819498e-01,
          9.69187543e-02, 2.41191700e-01, 2.41191700e-01, 2.41191700e-01,
          1.42203227e-01, 9.09082144e-02, 7.78739452e-02, 6.24638982e-02,
          7.38700256e-02, 1.45760670e-01, 2.33912945e-01, 2.41191700e-01,
          2.39205450e-01, 1.85671076e-01, 1.12233408e-01, 8.45178440e-02,
          8.61972868e-02, 9.32634175e-02, 1.63725570e-01, 2.41191700e-01,
          2.41191700e-01, 2.41191700e-01, 1.03384279e-01, 6.07741028e-02,
          5.55763282e-02, 4.55264635e-02, 8.58789682e-02, 1.92621708e-01,
          2.41191700e-01, 2.41191700e-01, 2.01247364e-01, 1.43096775e-01,
          9.87332091e-02, 1.11443959e-01, 1.42498791e-01, 1.51412532e-01,
          1.69848293e-01, 2.04181552e-01, 2.04181552e-01, 1.90847635e-01,
          1.81450233e-01, 1.52523249e-01, 1.25278786e-01, 1.40313819e-01,
          1.17464706e-01, 9.67072695e-02, 1.22817501e-01, 1.34906471e-01,
          1.69683278e-01, 1.91753119e-01, 1.98381826e-01, 1.61085472e-01,
          1.36097029e-01, 9.36678350e-02, 1.79297581e-01, 2.04181552e-01,
          2.04181552e-01, 1.79211318e-01, 1.51994228e-01, 1.42918482e-01,
          1.50082216e-01, 2.04181552e-01, 1.90932736e-01, 1.43814936e-01,
          1.89197391e-01, 1.77702293e-01, 2.04181552e-01, 1.85178727e-01,
          1.73816800e-01, 1.45633817e-01, 1.39602005e-01, 1.27871260e-01,
          9.87341478e-02, 1.36845678e-01, 1.54510140e-01, 1.61467001e-01,
          1.75464466e-01, 1.60717979e-01, 1.45108685e-01, 1.32512793e-01,
          9.33390036e-02, 1.44677699e-01, 1.89076751e-01, 2.05340192e-01,
          1.97183520e-01, 2.05340192e-01, 1.88251391e-01, 1.61189064e-01,
          1.53182611e-01, 1.28864363e-01, 1.53635412e-01, 1.83610007e-01,
          1.61072403e-01, 2.05340192e-01, 1.91197947e-01, 1.45487159e-01,
          1.26716226e-01, 1.28952742e-01, 1.57082483e-01, 1.60845429e-01,
          1.81434676e-01, 1.38051346e-01, 1.64125592e-01, 2.05340192e-01,
          2.05340192e-01, 2.05340192e-01, 1.78173035e-01, 1.75110340e-01,
          1.72830641e-01, 2.20360637e-01, 2.20360637e-01, 2.20360637e-01,
          1.28897369e-01, 8.82545710e-02, 9.92394090e-02, 7.66685531e-02,
          1.02563038e-01, 2.00643867e-01, 2.20360637e-01, 2.20088437e-01,
          1.92764089e-01, 1.57539010e-01, 1.31310150e-01, 1.67581946e-01,
          1.45550430e-01, 1.51440725e-01, 8.86625946e-02, 1.69107541e-01,
          2.20360637e-01, 2.20360637e-01, 1.49949625e-01, 1.66040555e-01,
          2.20360637e-01, 1.55984119e-01, 1.04559392e-01, 1.38642147e-01,
          1.68094441e-01, 1.64421335e-01, 1.49417222e-01, 1.37306839e-01,
          1.46974057e-01, 2.06820756e-01, 1.45299956e-01, 1.19551264e-01,
          2.14933395e-01, 2.18150020e-01, 1.84063718e-01, 1.42266050e-01,
          1.34204134e-01, 1.25950754e-01, 1.39093086e-01, 1.65599197e-01,
          1.63828745e-01, 2.12798029e-01, 2.18150020e-01, 2.18150020e-01,
          2.03317255e-01, 1.09774843e-01, 1.00990362e-01, 1.04775660e-01,
          1.25327721e-01, 1.61341190e-01, 2.18150020e-01, 2.18150020e-01,
          2.05709636e-01, 1.33892596e-01, 1.24434069e-01, 9.95077193e-02,
          1.43300876e-01, 1.33556798e-01, 1.37676418e-01, 2.18150020e-01,
          2.18150020e-01, 2.18150020e-01, 1.56308204e-01, 9.13896486e-02,
          6.90005273e-02, 1.21932790e-01, 1.34662122e-01, 1.84971720e-01,
          2.10221514e-01, 1.97986990e-01, 1.90833226e-01, 2.10078701e-01,
          1.01340935e-01, 6.99782372e-02, 9.10371095e-02, 1.49691045e-01,
          2.15295583e-01, 2.06495970e-01, 1.53116912e-01, 9.69390497e-02,
          1.10825449e-01, 1.10495411e-01, 1.34974703e-01, 1.99872613e-01,
          2.15295583e-01, 2.15295583e-01, 2.15295583e-01, 2.15295583e-01,
          1.78981364e-01, 1.24868006e-01, 5.29029332e-02, 6.69071823e-02,
          1.26577139e-01, 1.76843315e-01, 2.15295583e-01, 2.15295583e-01,
          2.15295583e-01, 1.36836812e-01, 1.08787514e-01, 6.86263666e-02,
          8.83051604e-02, 1.45317525e-01, 2.15295583e-01, 2.15295583e-01 ]
      - [ 1.82425529e-01, 2.21862867e-01, 1.97298110e-01, 1.36003986e-01,
          8.90455097e-02, 1.01942308e-01, 1.75895959e-01, 1.67251214e-01,
          1.69572800e-01, 2.21862867e-01, 2.21862867e-01, 1.64404184e-01,
          9.23726931e-02, 7.91819990e-02, 1.24489978e-01, 2.21862867e-01,
          1.82732582e-01, 1.44880772e-01, 2.21862867e-01, 2.21862867e-01,
          1.68157235e-01, 1.21973880e-01, 8.73647407e-02, 9.96735692e-02,
          1.35043770e-01, 1.43033385e-01, 2.05842838e-01, 2.21862867e-01,
          2.21862867e-01, 1.83724850e-01, 9.26711708e-02, 5.40730692e-02,
          7.35936984e-02, 1.48697913e-01, 1.78297803e-01, 2.21862867e-01,
          2.17677072e-01, 2.17677072e-01, 1.79396614e-01, 1.30478397e-01,
          1.24127038e-01, 1.56991616e-01, 2.17677072e-01, 2.17677072e-01,
          1.87518671e-01, 1.55780122e-01, 1.76049471e-01, 1.32635519e-01,
          1.36706293e-01, 1.22653961e-01, 9.52769518e-02, 8.25329721e-02,
          8.17126930e-02, 1.19327508e-01, 2.17677072e-01, 2.17677072e-01,
          2.17677072e-01, 1.59379676e-01, 1.39494821e-01, 1.48300573e-01,
          2.17677072e-01, 2.17677072e-01, 2.17677072e-01, 1.22929059e-01,
          1.20277114e-01, 1.18444197e-01, 1.30870894e-01, 1.52577922e-01,
          1.49304286e-01, 1.69578314e-01, 1.80787951e-01, 1.46881774e-01,
          2.00790167e-01, 2.15086445e-01, 1.67300656e-01, 1.30106673e-01,
          1.12786509e-01, 9.72136110e-02, 8.15492347e-02, 1.00945100e-01,
          1.31461561e-01, 2.15086445e-01, 2.15086445e-01, 2.15086445e-01,
          1.29568964e-01, 1.19172014e-01, 1.23493060e-01, 1.74724564e-01,
          2.15086445e-01, 2.15086445e-01, 1.76310658e-01, 1.78527653e-01,
          1.34089932e-01, 9.74031612e-02, 1.02804087e-01, 1.25721097e-01,
          1.38682812e-01, 1.66204825e-01, 1.67803079e-01, 2.15086445e-01,
          2.15086445e-01, 2.15086445e-01, 1.35828808e-01, 1.13232158e-01,
          1.34328827e-01, 1.71871692e-01, 2.15086445e-01, 2.15086445e-01,
          2.21267462e-01, 1.83379933e-01, 1.16552211e-01, 1.14435405e-01,
          9.50892717e-02, 1.11193918e-01, 1.31723106e-01, 1.38513580e-01,
          2.21267462e-01, 2.21267462e-01, 2.01515287e-01, 1.45260796e-01,
          1.10259302e-01, 6.13309108e-02, 1.02593303e-01, 1.59588337e-01,
          2.16756463e-01, 2.21267462e-01, 2.09222659e-01, 1.35788187e-01,
          1.23012334e-01, 1.33834526e-01, 1.13867156e-01, 1.53066859e-01,
          1.61648363e-01, 1.54450402e-01, 2.06067666e-01, 2.21267462e-01,
          1.66909844e-01, 1.48563638e-01, 1.49583727e-01, 1.16969183e-01,
          1.73106834e-01, 1.92292526e-01, 2.19423801e-01, 2.21267462e-01,
          1.89803585e-01, 1.72771797e-01, 1.61580041e-01, 1.14501461e-01,
          8.32764208e-02, 1.38037041e-01, 2.11527154e-01, 2.11527154e-01,
          2.11527154e-01, 1.08959325e-01, 9.63944569e-02, 1.02514029e-01,
          1.20736122e-01, 1.05096728e-01, 1.21137060e-01, 2.11527154e-01,
          2.11527154e-01, 1.62459731e-01, 1.83137655e-01, 1.59331456e-01,
          1.46383718e-01, 1.37499273e-01, 9.18535218e-02, 1.81790322e-01,
          2.11527154e-01, 2.11527154e-01, 2.11527154e-01, 1.60769537e-01,
          1.27014220e-01, 1.63433760e-01, 2.11527154e-01, 1.36529565e-01,
          1.47681594e-01, 1.95780948e-01, 2.05764309e-01, 1.87593624e-01,
          1.71145499e-01, 1.47380650e-01, 1.19133629e-01, 1.18103735e-01,
          9.49994251e-02, 1.12593636e-01, 1.62874907e-01, 1.66262567e-01,
          1.61669657e-01, 1.87863320e-01, 1.84850305e-01, 1.62657484e-01,
          1.32642165e-01, 1.14271015e-01, 1.23693287e-01, 1.40793234e-01,
          1.26504242e-01, 1.47569343e-01, 1.85042888e-01, 1.60602584e-01,
          1.59752056e-01, 2.03208834e-01, 1.63961083e-01, 1.90633073e-01,
          2.03208834e-01, 1.92697108e-01, 1.76008165e-01, 2.03208834e-01,
          1.79614708e-01, 1.58473507e-01, 1.60659999e-01, 1.93413511e-01,
          2.03208834e-01, 2.03208834e-01, 1.80762947e-01, 2.01743692e-01,
          1.85716256e-01, 1.42509788e-01, 1.45923153e-01, 1.12930305e-01,
          1.21892475e-01, 1.48430526e-01, 1.73689440e-01, 1.58449724e-01,
          1.79954723e-01, 1.81484997e-01, 1.70796901e-01, 1.80646166e-01,
          1.48179919e-01, 1.42853931e-01, 1.61667675e-01, 2.04410225e-01,
          1.93283409e-01, 1.64305598e-01, 1.85067341e-01, 1.22915536e-01,
          1.20267026e-01, 1.00495294e-01, 1.15414754e-01, 1.72775984e-01,
          2.04410225e-01, 2.04410225e-01, 2.04410225e-01, 2.04410225e-01,
          1.76597923e-01, 1.85702369e-01, 1.48108467e-01, 1.23450674e-01,
          1.33937404e-01, 2.04410225e-01, 1.93029314e-01, 1.76417083e-01,
          1.62263572e-01, 1.67119205e-01, 1.77048847e-01, 1.62308842e-01,
          1.25171736e-01, 1.38655543e-01, 1.90497160e-01, 1.82412341e-01,
          1.62039995e-01, 1.71390206e-01, 1.86085194e-01, 1.98048234e-01,
          2.08338693e-01, 1.57899097e-01, 1.42267928e-01, 1.51425347e-01,
          1.45438626e-01, 1.51531577e-01, 1.96363628e-01, 1.90862641e-01,
          2.08338693e-01, 1.86235771e-01, 1.48351327e-01, 9.91974398e-02,
          1.42118573e-01, 1.41281679e-01, 1.50536314e-01, 1.69071659e-01,
          2.08338693e-01, 2.08338693e-01, 2.08338693e-01, 1.98827967e-01,
          1.22958943e-01, 1.06668822e-01, 1.05000168e-01, 1.13181643e-01,
          1.57931104e-01, 1.80869877e-01, 1.64808542e-01, 1.79212838e-01,
          1.48488209e-01, 1.66470408e-01, 1.89304918e-01, 1.39217272e-01,
          1.30616367e-01, 1.86375797e-01, 1.83667019e-01, 1.47346929e-01,
          1.34412304e-01, 1.84054971e-01, 2.07937703e-01, 2.03294471e-01,
          1.67244568e-01, 1.77285522e-01, 1.74082041e-01, 2.07937703e-01,
          2.07937703e-01, 1.82350412e-01, 1.48500264e-01, 1.08615443e-01,
          1.09091081e-01, 1.07719094e-01, 1.15251705e-01, 1.90474287e-01,
          2.07937703e-01, 2.07937703e-01, 1.50860175e-01, 1.61936000e-01,
          1.51999146e-01, 1.43089607e-01, 1.38162553e-01, 1.33343682e-01 ]
      - [ 1.58450380e-01, 1.92599058e-01, 1.83239520e-01, 1.37303412e-01,
          1.15969881e-01, 1.43121704e-01, 1.92145869e-01, 1.70829520e-01,
          1.64947674e-01, 1.83879867e-01, 1.97302192e-01, 1.87413782e-01,
          1.77126780e-01, 1.58198372e-01, 1.66920885e-01, 2.03575850e-01,
          2.01576963e-01, 1.65002987e-01, 1.40509427e-01, 1.71608731e-01,
          1.57405868e-01, 1.26893312e-01, 1.11857802e-01, 1.33312225e-01,
          1.60948977e-01, 1.81201398e-01, 1.44812435e-01, 1.49451613e-01,
          2.03575850e-01, 2.03575850e-01, 1.48869649e-01, 1.22840978e-01,
          1.40021801e-01, 1.94338813e-01, 1.89145952e-01, 1.37746438e-01,
          1.54323310e-01, 1.52875319e-01, 1.80725440e-01, 1.69562921e-01,
          1.71388820e-01, 2.18290716e-01, 2.18290716e-01, 1.91087559e-01,
          1.23799495e-01, 1.03565693e-01, 1.10890262e-01, 1.34026870e-01,
          1.34464577e-01, 1.96457088e-01, 2.18290716e-01, 2.18290716e-01,
          1.78054646e-01, 8.99677500e-02, 1.26314104e-01, 1.59494132e-01,
          2.00097591e-01, 1.37627646e-01, 1.25768825e-01, 1.59022972e-01,
          2.18290716e-01, 1.88983396e-01, 1.52556300e-01, 8.70749503e-02,
          9.50645059e-02, 1.36734009e-01, 1.18560754e-01, 1.35620296e-01,
          2.14761332e-01, 2.18290716e-01, 2.18290716e-01, 1.50441110e-01,
          1.06816716e-01, 1.54219896e-01, 1.96027800e-01, 1.76059067e-01,
          1.99961722e-01, 2.11144134e-01, 1.99046269e-01, 1.40661135e-01,
          1.06137700e-01, 1.73281923e-01, 2.13581130e-01, 2.13581130e-01,
          1.61327109e-01, 1.22398362e-01, 1.06133878e-01, 9.55216363e-02,
          1.27569005e-01, 1.35001481e-01, 1.09393895e-01, 1.80321977e-01,
          2.13581130e-01, 1.95193127e-01, 1.66760489e-01, 1.98331028e-01,
          2.11834177e-01, 1.74182042e-01, 1.20551795e-01, 1.67405307e-01,
          2.13581130e-01, 2.13581130e-01, 1.84339210e-01, 1.43910363e-01,
          1.30282864e-01, 1.22819677e-01, 1.20185487e-01, 1.23743676e-01,
          1.85091034e-01, 1.90039322e-01, 1.75634742e-01, 1.21200509e-01,
          1.16669506e-01, 1.49266124e-01, 2.14824498e-01, 2.19940305e-01,
          2.19940305e-01, 1.56767368e-01, 2.19940305e-01, 2.19940305e-01,
          1.52906969e-01, 1.04485385e-01, 1.14726447e-01, 1.47867113e-01,
          1.65753856e-01, 1.34206533e-01, 1.82667479e-01, 1.47376537e-01,
          1.13815412e-01, 1.13127463e-01, 1.24968506e-01, 1.51489213e-01,
          2.04082742e-01, 2.19940305e-01, 2.19940305e-01, 1.47417948e-01,
          1.49787247e-01, 1.44146547e-01, 1.09099202e-01, 1.04241878e-01,
          1.26361683e-01, 1.73009023e-01, 2.16204509e-01, 1.69724807e-01,
          1.66732356e-01, 2.16033652e-01, 2.16033652e-01, 1.54744670e-01,
          1.30175143e-01, 1.28155887e-01, 1.67463064e-01, 1.91698134e-01,
          1.75096288e-01, 1.21165760e-01, 1.07053801e-01, 1.44015357e-01,
          1.49962708e-01, 1.80710763e-01, 2.16033652e-01, 2.16033652e-01,
          2.16033652e-01, 2.15849504e-01, 1.99390143e-01, 1.78088829e-01,
          1.60498992e-01, 1.04596168e-01, 1.05633356e-01, 1.13011956e-01,
          1.45457983e-01, 1.90496117e-01, 1.91512182e-01, 2.16033652e-01,
          1.29899397e-01, 1.24194846e-01, 9.82249677e-02, 1.31867617e-01,
          1.51912883e-01, 1.47396177e-01, 1.37088701e-01, 1.98683858e-01,
          1.20585255e-01, 1.70086861e-01, 1.90548420e-01, 1.53403491e-01,
          1.53978392e-01, 1.90042660e-01, 2.08097443e-01, 1.66865051e-01,
          1.22609757e-01, 1.88400716e-01, 2.08097443e-01, 2.08097443e-01,
          1.89954132e-01, 1.85128316e-01, 1.62003815e-01, 1.70106202e-01,
