%YAML:1.0
---
opencv_ml_svm:
   format: 3
   svmType: C_SVC
   kernel:
      type: RBF
      gamma: 5.0625000000000009e-01
   C: 1.2500000000000000e+01
   term_criteria: { epsilon:1.1920928955078125e-07, iterations:1000 }
   var_count: 324
   class_count: 2
   class_labels: !!opencv-matrix
      rows: 2
      cols: 1
      dt: i
      data: [ -1, 1 ]
   sv_total: 135
   support_vectors:
      - [ 2.06026703e-01, 2.06026703e-01, 2.06026703e-01, 1.37897193e-01,
          1.26564473e-01, 1.31032765e-01, 1.32790193e-01, 1.24851234e-01,
          1.24831580e-01, 1.61743850e-01, 2.06026703e-01, 2.06026703e-01,
          1.73227549e-01, 1.81891203e-01, 1.84562892e-01, 1.60860807e-01,
          1.63764194e-01, 1.47604376e-01, 1.98560625e-01, 2.06026703e-01,
          1.43308818e-01, 1.43339917e-01, 1.60799563e-01, 1.70980379e-01,
          1.27346754e-01, 1.35645628e-01, 1.60392657e-01, 1.84626982e-01,
          1.92343548e-01, 1.58605531e-01, 1.53888851e-01, 1.96350336e-01,
          1.55344993e-01, 1.25445783e-01, 1.43789962e-01, 1.71727583e-01,
          1.19226746e-01, 1.22522615e-01, 1.59653783e-01, 2.08601996e-01,
          2.08601996e-01, 2.08601996e-01, 1.63120836e-01, 1.43969014e-01,
          1.41842574e-01, 1.55468762e-01, 1.66923568e-01, 1.44787416e-01,
          2.08601996e-01, 2.08601996e-01, 1.55010849e-01, 1.22766383e-01,
          1.40689522e-01, 1.55608207e-01, 1.35206446e-01, 1.29709750e-01,
          1.93454772e-01, 2.08601996e-01, 2.08601996e-01, 1.90718591e-01,
          1.30647629e-01, 1.18137039e-01, 1.31199703e-01, 1.47073179e-01,
          1.77142113e-01, 2.08601996e-01, 2.08601996e-01, 2.08601996e-01,
          1.67837784e-01, 1.12377845e-01, 1.21019021e-01, 1.37459964e-01,
          2.15558916e-01, 2.15558916e-01, 1.59444585e-01, 1.44568384e-01,
          1.25491753e-01, 8.74529630e-02, 1.03757203e-01, 1.52535260e-01,
          1.93414822e-01, 2.15558916e-01, 2.15558916e-01, 1.96374938e-01,
          1.79326802e-01, 1.20999523e-01, 1.06503643e-01, 1.25013918e-01,
          1.44169673e-01, 2.15558916e-01, 1.53386891e-01, 2.15558916e-01,
          2.01085210e-01, 2.15558916e-01, 1.69967160e-01, 1.18113950e-01,
          9.10760537e-02, 9.63435769e-02, 1.10011771e-01, 1.99060097e-01,
          2.15558916e-01, 1.86895549e-01, 1.92840248e-01, 1.61382347e-01,
          1.69425517e-01, 1.43992990e-01, 1.05879620e-01, 1.30089581e-01,
          1.56243742e-01, 1.00737423e-01, 9.00919586e-02, 1.18925363e-01,
          1.52912676e-01, 1.74816772e-01, 1.47494927e-01, 1.84004590e-01,
          2.19121605e-01, 2.19121605e-01, 1.65754214e-01, 1.22903049e-01,
          1.16849050e-01, 1.50216535e-01, 1.43835321e-01, 1.44211799e-01,
          1.88637778e-01, 2.19121605e-01, 1.90173745e-01, 1.87123731e-01,
          1.29635602e-01, 9.99755561e-02, 9.53157321e-02, 1.22746132e-01,
          1.36972010e-01, 2.06602156e-01, 2.19121605e-01, 2.19121605e-01,
          2.19121605e-01, 1.53429702e-01, 1.11698993e-01, 1.24906875e-01,
          1.54033631e-01, 1.80353403e-01, 2.19121605e-01, 2.19121605e-01,
          1.98823437e-01, 1.70364052e-01, 1.74379140e-01, 1.63349584e-01,
          1.60043508e-01, 1.23626284e-01, 1.19603075e-01, 1.35415912e-01,
          1.80604726e-01, 1.36835322e-01, 1.66440040e-01, 2.01366931e-01,
          2.05198005e-01, 1.81230977e-01, 1.57183632e-01, 1.29688099e-01,
          1.22367673e-01, 1.22784138e-01, 2.05198005e-01, 1.71591267e-01,
          1.05012231e-01, 1.10322930e-01, 1.38944238e-01, 1.43730164e-01,
          2.02893734e-01, 2.05198005e-01, 2.05198005e-01, 1.41048223e-01,
          1.80664971e-01, 1.66867450e-01, 1.63680375e-01, 1.79206893e-01,
          1.96326554e-01, 2.05198005e-01, 1.78027809e-01, 1.44650802e-01,
          1.12735331e-01, 1.86726794e-01, 1.86376393e-01, 2.21546963e-01,
          1.72881469e-01, 1.28376245e-01, 1.23908967e-01, 1.17598169e-01,
          9.64796469e-02, 2.21546963e-01, 2.21546963e-01, 2.05000237e-01,
          1.57530040e-01, 1.25689656e-01, 1.05360903e-01, 1.12806849e-01,
          1.14938490e-01, 1.37653500e-01, 1.42695785e-01, 2.21546963e-01,
          2.21546963e-01, 2.21546963e-01, 1.67870715e-01, 1.37089774e-01,
          1.60147950e-01, 1.46120653e-01, 1.13624930e-01, 2.21546963e-01,
          2.21546963e-01, 2.21546963e-01, 1.88562647e-01, 1.17921978e-01,
          8.70032907e-02, 1.20818898e-01, 1.51034206e-01, 1.68987647e-01,
          2.11989015e-01, 2.15143561e-01, 1.53877378e-01, 1.16323031e-01,
          1.04412578e-01, 1.20197468e-01, 1.14372000e-01, 1.81844205e-01,
          2.15143561e-01, 2.15143561e-01, 2.15143561e-01, 1.48662463e-01,
          9.64489728e-02, 8.87300968e-02, 1.31813392e-01, 1.52206227e-01,
          1.90848336e-01, 2.15143561e-01, 2.03311920e-01, 2.02307314e-01,
          1.55707970e-01, 1.44449815e-01, 1.12816125e-01, 1.28159612e-01,
          1.20809369e-01, 1.52031034e-01, 1.85941726e-01, 2.15143561e-01,
          2.15143561e-01, 2.03240305e-01, 1.42189652e-01, 1.11634478e-01,
          1.35457575e-01, 1.43709227e-01, 1.71762541e-01, 1.80708528e-01,
          1.66769698e-01, 1.36977062e-01, 7.73635283e-02, 7.45432079e-02,
          1.06038108e-01, 1.61987439e-01, 2.10979924e-01, 2.10979924e-01,
          2.09429577e-01, 1.33711711e-01, 1.23073779e-01, 1.23962276e-01,
          1.17294110e-01, 1.59190595e-01, 1.92393109e-01, 2.10979924e-01,
          2.10979924e-01, 1.56876668e-01, 1.72872618e-01, 1.90097496e-01,
          1.30833834e-01, 1.17989987e-01, 1.44120201e-01, 1.79341018e-01,
          2.10979924e-01, 1.97820738e-01, 1.45550728e-01, 1.89902574e-01,
          1.39579892e-01, 1.23861291e-01, 1.56933412e-01, 1.85105994e-01,
          1.89768001e-01, 2.10979924e-01, 2.00486720e-01, 1.61051899e-01,
          1.58221155e-01, 2.07692146e-01, 2.14337692e-01, 1.71527103e-01,
          1.25973761e-01, 1.05326273e-01, 1.43868998e-01, 1.37912109e-01,
          1.22447185e-01, 2.01819614e-01, 2.14337692e-01, 2.14337692e-01,
          2.14337692e-01, 1.78672940e-01, 1.08428217e-01, 8.81916136e-02,
          8.79967287e-02, 1.16738692e-01, 2.06782550e-01, 1.70651481e-01,
          1.68349415e-01, 1.79303959e-01, 1.74128622e-01, 1.45744532e-01,
          1.72404930e-01, 1.29341736e-01, 1.47981659e-01, 1.55656919e-01,
          2.05400854e-01, 2.14337692e-01, 2.14337692e-01, 2.14337692e-01,
          1.67164356e-01, 1.50996894e-01, 8.07744786e-02, 8.64494592e-02 ]
      - [ 1.42391488e-01, 1.12660080e-01, 1.29338667e-01, 1.28112093e-01,
          1.64931729e-01, 2.01915383e-01, 2.12903604e-01, 2.12903604e-01,
          1.27859205e-01, 1.50006920e-01, 1.38018623e-01, 1.46042749e-01,
          1.40933499e-01, 1.55814633e-01, 1.69523746e-01, 2.12903604e-01,
          2.12903604e-01, 1.47972584e-01, 1.27615392e-01, 1.27140239e-01,
          1.39022201e-01, 1.54743984e-01, 1.73937678e-01, 1.96444064e-01,
          2.12903604e-01, 1.96277484e-01, 1.13720112e-01, 1.65481970e-01,
          1.87648684e-01, 1.61603183e-01, 1.34148911e-01, 1.51032403e-01,
          1.78292319e-01, 2.12903604e-01, 1.97444946e-01, 1.46645114e-01,
          1.67358741e-01, 1.80009380e-01, 1.70965791e-01, 1.53942093e-01,
          1.80048063e-01, 1.43278956e-01, 1.87031269e-01, 1.56852961e-01,
          1.57004923e-01, 1.47503644e-01, 1.81076854e-01, 1.85912937e-01,
          1.93766296e-01, 1.91500574e-01, 1.36499852e-01, 1.46321654e-01,
          1.25835210e-01, 1.29124776e-01, 2.03522325e-01, 2.03522325e-01,
          1.92431659e-01, 1.55134574e-01, 1.60228461e-01, 1.58546895e-01,
          2.03522325e-01, 1.73485830e-01, 1.71930760e-01, 1.89837918e-01,
          2.03522325e-01, 1.84769079e-01, 1.60236657e-01, 1.40677497e-01,
          1.22130863e-01, 1.26694828e-01, 1.00202784e-01, 1.32914439e-01,
          1.09388880e-01, 1.44455001e-01, 1.56284600e-01, 2.02747390e-01,
          2.34242246e-01, 2.34242246e-01, 1.72022104e-01, 1.23481877e-01,
          1.19348735e-01, 7.83381388e-02, 1.15301013e-01, 1.43018991e-01,
          1.65804580e-01, 2.34242246e-01, 2.34242246e-01, 2.34242246e-01,
          9.85069498e-02, 9.24425200e-02, 1.87386245e-01, 2.34242246e-01,
          1.96119189e-01, 1.39144212e-01, 1.81872800e-01, 1.59454867e-01,
          1.10163771e-01, 9.40857008e-02, 1.39227316e-01, 9.15427953e-02,
          1.40604496e-01, 1.30651206e-01, 1.27335280e-01, 2.34242246e-01,
          2.34242246e-01, 2.20845997e-01, 8.52456018e-02, 7.96401724e-02,
          1.26654282e-01, 1.41934007e-01, 1.42831966e-01, 1.49182409e-01,
          1.61008328e-01, 1.94489911e-01, 1.99613795e-01, 1.74626976e-01,
          1.41456485e-01, 1.69889435e-01, 1.84442148e-01, 1.39253333e-01,
          1.24375403e-01, 1.28614932e-01, 1.84778005e-01, 2.07058698e-01,
          1.86266869e-01, 1.47713244e-01, 1.90383241e-01, 1.43668041e-01,
          1.43125266e-01, 1.22842632e-01, 1.24852389e-01, 1.58270746e-01,
          1.80302083e-01, 2.07058698e-01, 2.07058698e-01, 2.07058698e-01,
          1.78805128e-01, 1.25059456e-01, 1.05387419e-01, 1.05394825e-01,
          1.72825918e-01, 2.07058698e-01, 1.93658650e-01, 2.07058698e-01,
          1.93166226e-01, 2.03223065e-01, 1.53683811e-01, 1.26079172e-01,
          1.15571693e-01, 1.41023323e-01, 1.87923238e-01, 1.59471169e-01,
          1.48076788e-01, 1.95432723e-01, 2.03223065e-01, 1.62919208e-01,
          1.38258472e-01, 1.23452067e-01, 1.25203535e-01, 1.29511476e-01,
          1.21244602e-01, 1.39641464e-01, 2.03223065e-01, 1.89320669e-01,
          1.50931060e-01, 1.46182254e-01, 1.16900131e-01, 1.85203388e-01,
          2.03223065e-01, 1.86277613e-01, 1.94739491e-01, 1.80633500e-01,
          1.91088349e-01, 1.68399990e-01, 1.69701293e-01, 1.34493560e-01,
          1.68322086e-01, 1.99263602e-01, 1.82984874e-01, 1.66710705e-01,
          2.11399063e-01, 2.11399063e-01, 1.78867936e-01, 1.16607293e-01,
          1.19610593e-01, 1.25452936e-01, 1.17622517e-01, 1.30319610e-01,
          1.87301025e-01, 1.33644029e-01, 1.43811643e-01, 1.20176107e-01,
          1.06450178e-01, 1.82552904e-01, 2.11399063e-01, 2.01594770e-01,
          1.31782874e-01, 1.32038280e-01, 2.11399063e-01, 2.11399063e-01,
          1.78852126e-01, 1.15870200e-01, 1.07327841e-01, 1.37590840e-01,
          1.63889512e-01, 1.91326708e-01, 2.11399063e-01, 2.00779930e-01,
          1.77907825e-01, 1.34089917e-01, 1.04651913e-01, 1.24143004e-01,
          1.80392221e-01, 2.11399063e-01, 1.93835646e-01, 2.11399063e-01,
          1.99402601e-01, 1.50239542e-01, 1.63093582e-01, 1.44139051e-01,
          1.28535315e-01, 1.29678160e-01, 1.43793836e-01, 1.64626643e-01,
          1.87878594e-01, 2.10135251e-01, 2.10135251e-01, 1.91256672e-01,
          1.34452805e-01, 1.05052188e-01, 1.02146752e-01, 1.16110414e-01,
          1.30146712e-01, 2.10135251e-01, 1.33859947e-01, 1.41818777e-01,
          1.79332569e-01, 1.78820461e-01, 1.77189678e-01, 1.46698043e-01,
          2.10135251e-01, 2.05692083e-01, 1.28478363e-01, 2.10135251e-01,
          2.10135251e-01, 2.10135251e-01, 1.53102353e-01, 1.28409833e-01,
          9.43286121e-02, 1.32012635e-01, 1.87831402e-01, 2.01733395e-01,
          1.89138889e-01, 1.59574285e-01, 1.49480700e-01, 1.62136421e-01,
          1.23855554e-01, 1.44994676e-01, 1.70027837e-01, 1.50498718e-01,
          1.87138855e-01, 1.36093751e-01, 1.48511931e-01, 1.60466477e-01,
          2.00712606e-01, 1.62215844e-01, 1.81084663e-01, 1.93923160e-01,
          1.50582626e-01, 1.43988311e-01, 1.86530009e-01, 1.76340938e-01,
          1.78385675e-01, 1.53308734e-01, 1.33250043e-01, 1.19328417e-01,
          1.33938998e-01, 1.75068408e-01, 2.01115251e-01, 1.92014217e-01,
          1.47602096e-01, 1.62275612e-01, 1.75485760e-01, 1.65954724e-01,
          1.74533322e-01, 1.76702350e-01, 1.75328329e-01, 2.01115251e-01,
          2.09414452e-01, 2.10438713e-01, 1.87135577e-01, 1.45524889e-01,
          1.20365292e-01, 1.27888098e-01, 1.37314752e-01, 1.47916496e-01,
          1.99275672e-01, 1.87137410e-01, 1.84291467e-01, 1.37694016e-01,
          1.14540495e-01, 9.40168500e-02, 9.33476314e-02, 1.37555152e-01,
          1.99609935e-01, 2.10438713e-01, 2.07225814e-01, 2.10438713e-01,
          1.65137708e-01, 1.60691738e-01, 1.51179507e-01, 1.58137247e-01,
          1.47049084e-01, 1.76661670e-01, 2.10438713e-01, 1.69706881e-01,
          1.91049799e-01, 1.29364967e-01, 1.24082461e-01, 9.76855755e-02,
          1.10135645e-01, 1.66233346e-01, 2.10438713e-01, 2.10438713e-01 ]
      - [ 2.11878851e-01, 2.11878851e-01, 2.11878851e-01, 1.35055378e-01,
          1.23884290e-01, 1.58561081e-01, 1.76108167e-01, 1.92921996e-01,
          2.11878851e-01, 1.91008091e-01, 1.97153121e-01, 2.09220111e-01,
          1.18325382e-01, 1.37881443e-01, 1.77140355e-01, 2.11251110e-01,
          2.10149825e-01, 1.94817081e-01, 1.84470475e-01, 2.11878851e-01,
          2.11878851e-01, 2.11878851e-01, 1.48390174e-01, 1.05995402e-01,
          1.06499486e-01, 8.66089389e-02, 1.43354073e-01, 1.41349480e-01,
          1.56372771e-01, 1.46841720e-01, 1.27662197e-01, 1.10643655e-01,
          9.85175148e-02, 9.69579145e-02, 1.09276623e-01, 1.18957691e-01,
          1.65368527e-01, 1.59824550e-01, 2.00392962e-01, 1.73077196e-01,
          1.82029411e-01, 1.92465961e-01, 1.87704295e-01, 2.05060989e-01,
          2.05060989e-01, 1.44108742e-01, 1.26731604e-01, 1.84583575e-01,
          1.94622874e-01, 1.61711559e-01, 1.44362077e-01, 1.61526933e-01,
          2.05060989e-01, 1.80864781e-01, 1.25039056e-01, 9.91781577e-02,
          7.43970647e-02, 8.99176970e-02, 1.04730852e-01, 1.27392650e-01,
          1.46269664e-01, 2.05060989e-01, 1.78625688e-01, 1.46305397e-01,
          1.21042073e-01, 1.17873400e-01, 1.21758141e-01, 2.05060989e-01,
          2.05060989e-01, 2.03606457e-01, 2.05060989e-01, 1.86527923e-01,
          1.45425335e-01, 1.47473410e-01, 1.55193761e-01, 1.26765400e-01,
          1.30968109e-01, 1.17374226e-01, 1.07671522e-01, 1.48073256e-01,
          1.27500817e-01, 1.53200701e-01, 2.07378775e-01, 2.07378775e-01,
          1.83408275e-01, 1.83602020e-01, 1.33165017e-01, 1.36665151e-01,
          1.53070226e-01, 1.19911432e-01, 1.56220585e-01, 1.48980826e-01,
          1.38187408e-01, 1.33417800e-01, 2.07378775e-01, 2.07378775e-01,
          1.73724920e-01, 2.06128925e-01, 1.75323278e-01, 1.47205815e-01,
          2.06353292e-01, 1.67193472e-01, 1.51686728e-01, 2.00540096e-01,
          2.07378775e-01, 1.93423301e-01, 2.04417706e-01, 1.80471286e-01,
          1.77120164e-01, 2.44046047e-01, 2.44046047e-01, 2.44046047e-01,
          2.44046047e-01, 1.75432399e-01, 1.33909166e-01, 1.11112252e-01,
          1.86948329e-01, 1.10177770e-01, 1.29224375e-01, 1.60635740e-01,
          1.79549083e-01, 1.59590110e-01, 1.23813726e-01, 1.18836835e-01,
          1.02463096e-01, 8.68135914e-02, 1.18249059e-01, 1.38080120e-01,
          1.91073850e-01, 2.44046047e-01, 2.44046047e-01, 2.44046047e-01,
          1.75956011e-01, 1.10424548e-01, 1.13678254e-01, 1.42327070e-01,
          1.33973733e-01, 1.23746000e-01, 1.35843605e-01, 1.46949500e-01,
          1.48054138e-01, 1.34315521e-01, 1.34820506e-01, 1.26890898e-01,
          1.18406355e-01, 1.02078512e-01, 8.82685557e-02, 1.17346808e-01,
          1.34102717e-01, 1.66764513e-01, 2.10373402e-01, 2.21762806e-01,
          1.44384205e-01, 1.42307639e-01, 1.34912238e-01, 1.53745621e-01,
          1.75721124e-01, 2.22757414e-01, 2.22757414e-01, 2.22757414e-01,
          2.22757414e-01, 1.87297389e-01, 1.28749177e-01, 1.17132731e-01,
          1.14369854e-01, 1.49877101e-01, 1.50749907e-01, 1.51066437e-01,
          1.81404859e-01, 1.69284239e-01, 1.19634815e-01, 1.06092080e-01,
          1.45590305e-01, 1.97346836e-01, 1.89769775e-01, 1.76456109e-01,
          1.43201917e-01, 2.22757414e-01, 2.22757414e-01, 1.40012816e-01,
          1.02562070e-01, 1.05761841e-01, 1.25654876e-01, 1.42289013e-01,
          2.20060855e-01, 2.20060855e-01, 2.20060855e-01, 2.20060855e-01,
          1.55930489e-01, 1.86628997e-01, 1.32909134e-01, 1.17628314e-01,
          1.10123023e-01, 1.84667736e-01, 2.00765669e-01, 2.20060855e-01,
          2.20060855e-01, 2.20060855e-01, 9.12018195e-02, 1.03030317e-01,
          1.19472899e-01, 1.08019516e-01, 1.31639853e-01, 1.11227356e-01,
          2.00027898e-01, 2.20060855e-01, 1.76367164e-01, 1.76916942e-01,
          1.38935626e-01, 1.12220518e-01, 8.26483890e-02, 1.02472521e-01,
          1.06605060e-01, 2.02550292e-01, 2.20060855e-01, 2.20060855e-01,
          1.23379059e-01, 9.62275341e-02, 9.04033110e-02, 1.33118808e-01,
          2.18279824e-01, 2.18279824e-01, 1.51599258e-01, 1.06205307e-01,
          1.17135651e-01, 1.54460236e-01, 1.24145582e-01, 1.10187083e-01,
          1.09137706e-01, 1.24683857e-01, 1.36286631e-01, 1.15925394e-01,
          1.32967949e-01, 1.42744914e-01, 2.18279824e-01, 2.18279824e-01,
          2.18279824e-01, 2.18279824e-01, 2.18279824e-01, 1.77829340e-01,
          1.57908276e-01, 1.79391727e-01, 2.12608427e-01, 2.18279824e-01,
          2.18279824e-01, 2.18279824e-01, 1.84154168e-01, 1.29178375e-01,
          1.17875166e-01, 1.21722862e-01, 1.51881024e-01, 1.94270402e-01,
          1.32634848e-01, 1.03745915e-01, 1.03416890e-01, 1.30230963e-01,
          1.18353739e-01, 1.02831759e-01, 9.30748731e-02, 1.10099785e-01,
          1.25131875e-01, 1.55353889e-01, 1.71246573e-01, 1.80236176e-01,
          1.65293023e-01, 1.38698637e-01, 8.94947723e-02, 1.06344163e-01,
          1.00002699e-01, 1.45173848e-01, 2.28844151e-01, 2.27597296e-01,
          2.13952467e-01, 1.96676984e-01, 1.86941594e-01, 1.28338963e-01,
          1.08783402e-01, 1.59442022e-01, 2.28844151e-01, 2.28844151e-01,
          2.28844151e-01, 2.09358379e-01, 2.02590615e-01, 2.12651014e-01,
          1.55002788e-01, 1.35817423e-01, 1.96041867e-01, 2.28844151e-01,
          1.42637417e-01, 1.81925863e-01, 1.43654659e-01, 1.13981776e-01,
          1.03980772e-01, 1.05282992e-01, 1.51854485e-01, 1.43817410e-01,
          1.46369711e-01, 1.71415299e-01, 1.90679252e-01, 1.13067389e-01,
          8.34108368e-02, 8.46193135e-02, 1.20392434e-01, 1.78705633e-01,
          2.21530065e-01, 1.82165444e-01, 2.21530065e-01, 2.21530065e-01,
          2.01441407e-01, 1.50209978e-01, 1.29507467e-01, 1.49876773e-01,
          1.57756612e-01, 1.50748104e-01, 2.21530065e-01, 2.21530065e-01,
          2.21530065e-01, 1.78159475e-01, 1.23001501e-01, 1.12894081e-01,
          1.40969932e-01, 1.82461083e-01, 2.12356135e-01, 2.21530065e-01 ]
      - [ 1.63493112e-01, 1.26282766e-01, 1.70785129e-01, 1.40972078e-01,
          1.81705043e-01, 2.03754947e-01, 2.02902943e-01, 1.69370472e-01,
          1.85127944e-01, 1.92460507e-01, 1.79719433e-01, 1.99155957e-01,
          1.36114880e-01, 1.32491022e-01, 1.45843416e-01, 1.90786079e-01,
          2.03754947e-01, 2.03754947e-01, 1.76653117e-01, 1.53173655e-01,
          1.79985613e-01, 1.69728816e-01, 1.72995389e-01, 1.90805927e-01,
          1.28719032e-01, 1.09867439e-01, 1.75572500e-01, 1.70536354e-01,
          1.00710332e-01, 1.22883238e-01, 1.21373430e-01, 1.21120818e-01,
          1.19727865e-01, 1.37961224e-01, 2.03754947e-01, 2.03754947e-01,
          1.53417483e-01, 1.62543729e-01, 1.95160121e-01, 1.91127732e-01,
          1.79852083e-01, 1.63333327e-01, 1.64704472e-01, 2.12293655e-01,
          1.57566711e-01, 1.65711358e-01, 1.23405889e-01, 1.38798937e-01,
          1.80487484e-01, 2.12293655e-01, 2.12293655e-01, 1.71272933e-01,
          1.80289850e-01, 1.46219969e-01, 1.59590319e-01, 8.17711279e-02,
          8.08646306e-02, 9.99158919e-02, 1.22889042e-01, 1.34381443e-01,
          1.61005184e-01, 2.12293655e-01, 2.12293655e-01, 1.93333462e-01,
          1.11333773e-01, 8.64191726e-02, 1.11724623e-01, 1.80767268e-01,
          1.90948248e-01, 1.49907783e-01, 2.12293655e-01, 2.12293655e-01,
          1.56485960e-01, 1.43524349e-01, 1.34207711e-01, 1.40664026e-01,
          1.69823706e-01, 1.98936090e-01, 1.64163217e-01, 2.01682016e-01,
          1.63011312e-01, 2.08952740e-01, 2.06164658e-01, 1.36964321e-01,
          1.48631573e-01, 1.36107504e-01, 1.43567920e-01, 1.26555324e-01,
          1.82346836e-01, 1.86112463e-01, 1.70679957e-01, 1.62995860e-01,
          1.19556338e-01, 1.24719322e-01, 1.71648338e-01, 1.70794591e-01,
          1.44546926e-01, 1.77407235e-01, 1.88700557e-01, 2.08952740e-01,
          2.08952740e-01, 1.22581489e-01, 1.21759661e-01, 1.26130208e-01,
          1.49413869e-01, 1.65737122e-01, 2.08952740e-01, 2.08952740e-01,
          1.83058545e-01, 2.11415991e-01, 2.07685053e-01, 2.11415991e-01,
          2.11415991e-01, 1.91831112e-01, 1.25314862e-01, 1.31212354e-01,
          1.79230258e-01, 1.46708444e-01, 9.58050862e-02, 1.10997796e-01,
          1.41458809e-01, 1.65519282e-01, 1.26490325e-01, 8.50697979e-02,
          1.47827163e-01, 1.67741477e-01, 2.11415991e-01, 2.11415991e-01,
          1.85949534e-01, 1.67163447e-01, 1.95856079e-01, 1.44627839e-01,
          1.51783794e-01, 1.87536463e-01, 2.11415991e-01, 2.11415991e-01,
          1.27485737e-01, 8.59248415e-02, 8.24572742e-02, 1.02800809e-01,
          1.03457108e-01, 1.47516131e-01, 2.11415991e-01, 2.11415991e-01,
          1.56427875e-01, 1.00358658e-01, 1.28953382e-01, 1.33415222e-01,
          1.11298628e-01, 9.24492404e-02, 1.08670965e-01, 2.36225754e-01,
          2.36225754e-01, 2.13753536e-01, 1.27600476e-01, 1.29296944e-01,
          1.35247186e-01, 1.29121810e-01, 1.13876402e-01, 1.42268091e-01,
          2.36225754e-01, 2.36225754e-01, 2.36225754e-01, 1.34472236e-01,
          9.88349468e-02, 8.53875503e-02, 9.24760029e-02, 1.09391436e-01,
          1.79213136e-01, 2.36225754e-01, 2.36225754e-01, 2.28154168e-01,
          1.41617104e-01, 1.34945542e-01, 1.21640511e-01, 1.17592037e-01,
          1.23813398e-01, 1.57440960e-01, 2.36225754e-01, 2.36225754e-01,
          1.48783252e-01, 1.33410498e-01, 1.10264592e-01, 1.09985724e-01,
          1.26251698e-01, 1.05461314e-01, 1.17649287e-01, 1.85283333e-01,
          1.87906697e-01, 2.10297614e-01, 2.00305566e-01, 1.28903449e-01,
          1.18364006e-01, 1.40601158e-01, 1.71980634e-01, 2.10297614e-01,
          2.10297614e-01, 2.10297614e-01, 1.10078849e-01, 1.25357792e-01,
          1.94382355e-01, 1.69184968e-01, 1.52968124e-01, 1.46064430e-01,
          1.17254995e-01, 1.55381545e-01, 1.64865613e-01, 1.37569472e-01,
          1.69566631e-01, 2.10297614e-01, 1.81955278e-01, 1.89661637e-01,
          2.10297614e-01, 2.10297614e-01, 2.10297614e-01, 1.68721125e-01,
          2.13305071e-01, 1.74370915e-01, 1.38479009e-01, 1.00611493e-01,
          1.05046757e-01, 1.10953137e-01, 1.18005946e-01, 1.69767171e-01,
          2.09930748e-01, 2.13305071e-01, 1.68644845e-01, 1.14679247e-01,
          7.65793547e-02, 6.72835708e-02, 9.65510234e-02, 1.51423916e-01,
          2.13305071e-01, 2.13305071e-01, 2.13305071e-01, 2.13305071e-01,
          2.02345788e-01, 1.71682060e-01, 1.13341980e-01, 9.77849737e-02,
          1.08374521e-01, 1.93606183e-01, 1.90360114e-01, 2.13305071e-01,
          2.13305071e-01, 2.13305071e-01, 1.51924253e-01, 1.11720011e-01,
          1.28653169e-01, 1.48184001e-01, 1.90816224e-01, 2.13305071e-01,
          2.26013646e-01, 1.36745289e-01, 7.22800270e-02, 5.58185503e-02,
          5.15331253e-02, 7.38868192e-02, 1.45369902e-01, 2.26013646e-01,
          2.26013646e-01, 2.26013646e-01, 1.43151194e-01, 9.80792791e-02,
          8.01760256e-02, 6.69639185e-02, 6.18047155e-02, 1.36283800e-01,
          2.26013646e-01, 2.26013646e-01, 2.16558367e-01, 1.85265288e-01,
          1.77343011e-01, 1.41324669e-01, 1.22860447e-01, 1.33067742e-01,
          1.78820580e-01, 1.93130001e-01, 2.26013646e-01, 1.65592536e-01,
          1.68664590e-01, 1.79704443e-01, 1.96261168e-01, 1.51643828e-01,
          1.10879362e-01, 1.60490140e-01, 2.16633737e-01, 2.26013646e-01,
          1.35016963e-01, 1.45562291e-01, 1.98234648e-01, 1.27133667e-01,
          1.03107631e-01, 1.12689331e-01, 1.35744214e-01, 1.91360027e-01,
          2.03079328e-01, 1.36783451e-01, 1.72505274e-01, 2.03079328e-01,
          1.43333122e-01, 1.49281159e-01, 1.75151944e-01, 2.00195506e-01,
          2.02845246e-01, 1.59649312e-01, 1.41888842e-01, 1.96678728e-01,
          2.03079328e-01, 1.60682827e-01, 1.28424779e-01, 1.31396756e-01,
          1.43519744e-01, 1.69305444e-01, 1.59836397e-01, 1.79817989e-01,
          2.03079328e-01, 1.97860897e-01, 1.55498594e-01, 1.57277495e-01,
          1.52439862e-01, 1.66349769e-01, 1.98085263e-01, 1.65273726e-01 ]
      - [ 1.59505948e-01, 1.63026452e-01, 2.01009884e-01, 1.59366354e-01,
          1.50237381e-01, 1.78246200e-01, 2.05300972e-01, 1.60990715e-01,
          1.42899692e-01, 1.95151955e-01, 1.83060929e-01, 1.27323851e-01,
          1.28952280e-01, 1.39946520e-01, 1.85030818e-01, 2.02409506e-01,
          1.72092766e-01, 1.65172786e-01, 1.05475120e-01, 1.95453778e-01,
          2.05300972e-01, 1.61096856e-01, 1.26293778e-01, 1.73605263e-01,
          1.52503312e-01, 8.69967714e-02, 6.81244880e-02, 1.52746722e-01,
          2.05300972e-01, 2.01037005e-01, 1.93053037e-01, 1.69449255e-01,
          2.05300972e-01, 2.05300972e-01, 1.27248675e-01, 9.90962684e-02,
          1.87434047e-01, 2.07967281e-01, 1.85336471e-01, 2.05960408e-01,
          1.42847806e-01, 1.39221638e-01, 1.62147731e-01, 1.50532499e-01,
          1.49406761e-01, 1.14031166e-01, 1.25433862e-01, 1.92013279e-01,
          2.17724755e-01, 2.17724755e-01, 1.90289035e-01, 1.50121301e-01,
          1.35311425e-01, 1.28308728e-01, 1.58510730e-01, 2.17724755e-01,
          2.13602960e-01, 2.17724755e-01, 1.58907533e-01, 1.37014121e-01,
          1.35484517e-01, 1.19780555e-01, 1.00268669e-01, 9.07471180e-02,
          1.22689880e-01, 1.80241048e-01, 2.17724755e-01, 2.17724755e-01,
          1.66039422e-01, 1.32824078e-01, 1.36924565e-01, 1.03891000e-01,
          8.89728367e-02, 9.00199860e-02, 1.66711837e-01, 2.22358540e-01,
          2.22358540e-01, 2.22358540e-01, 1.78739101e-01, 1.58899829e-01,
          1.28513843e-01, 1.72390282e-01, 1.57458499e-01, 1.58977553e-01,
          1.94608361e-01, 1.86999336e-01, 1.75883681e-01, 1.54908776e-01,
          1.82507098e-01, 1.82287887e-01, 1.35493502e-01, 1.12016790e-01,
          1.97874457e-01, 2.14583442e-01, 2.07446501e-01, 1.35472596e-01,
          1.05280720e-01, 1.50523379e-01, 1.62108734e-01, 2.22358540e-01,
          2.22358540e-01, 1.53813526e-01, 9.31590050e-02, 7.74488077e-02,
          7.75949061e-02, 7.26858824e-02, 1.49474829e-01, 2.22358540e-01,
          2.06757858e-01, 2.22157881e-01, 2.22157881e-01, 2.04076305e-01,
          1.02907322e-01, 1.27246127e-01, 1.22857884e-01, 1.09525248e-01,
          1.24445662e-01, 1.95718408e-01, 2.22157881e-01, 2.22157881e-01,
          1.75766110e-01, 1.28454924e-01, 1.55689016e-01, 1.41440541e-01,
          1.14675894e-01, 1.20159380e-01, 1.68885633e-01, 2.02675939e-01,
          2.22157881e-01, 2.08997428e-01, 1.94981501e-01, 2.22157881e-01,
          2.22157881e-01, 1.29861057e-01, 1.15503557e-01, 1.71891406e-01,
          1.98174790e-01, 1.78953335e-01, 1.14905700e-01, 8.94067138e-02,
          1.03936329e-01, 1.02680236e-01, 8.31943899e-02, 9.59291309e-02,
          2.10946724e-01, 2.10946724e-01, 2.10946724e-01, 2.10946724e-01,
          1.33882612e-01, 1.18726440e-01, 1.32469252e-01, 1.55402854e-01,
          1.72150850e-01, 2.08504096e-01, 1.77819908e-01, 1.71146005e-01,
          1.77528501e-01, 1.49364635e-01, 1.65375143e-01, 1.81366950e-01,
          2.10946724e-01, 2.10946724e-01, 2.10946724e-01, 2.10946724e-01,
          1.86320737e-01, 1.34564683e-01, 1.08241744e-01, 1.04955234e-01,
          1.02848761e-01, 1.16720013e-01, 1.41173512e-01, 1.65406689e-01,
          1.13585159e-01, 8.90912861e-02, 9.63562801e-02, 1.33153766e-01,
          1.83802873e-01, 2.01710597e-01, 1.72559708e-01, 1.44735813e-01,
          1.77318856e-01, 1.08705290e-01, 1.17348149e-01, 1.00302279e-01,
          1.17008388e-01, 1.63052022e-01, 1.81955829e-01, 2.13300765e-01,
          2.06115961e-01, 2.28382900e-01, 2.28382900e-01, 2.12469086e-01,
          1.02479830e-01, 9.53556150e-02, 1.31218418e-01, 1.47941366e-01,
          1.70424283e-01, 2.28382900e-01, 6.75237924e-02, 4.10724133e-02,
          3.88807021e-02, 6.24463819e-02, 1.66741893e-01, 2.28382900e-01,
          2.19570696e-01, 1.52138993e-01, 8.66366401e-02, 1.61574870e-01,
          1.99045002e-01, 2.04812273e-01, 1.50149152e-01, 2.28382900e-01,
          2.28382900e-01, 2.00997412e-01, 1.37783691e-01, 1.24480411e-01,
          1.20578177e-01, 1.32930905e-01, 1.39510125e-01, 1.75637841e-01,
          2.33343795e-01, 2.33343795e-01, 2.33343795e-01, 2.09186658e-01,
          1.40581682e-01, 1.18189387e-01, 1.16692998e-01, 1.05172262e-01,
          1.06011949e-01, 1.61545426e-01, 2.04520628e-01, 1.68836460e-01,
          1.14125535e-01, 9.36955065e-02, 1.05445012e-01, 8.55927393e-02,
          9.74682048e-02, 1.32045254e-01, 1.70083091e-01, 2.33343795e-01,
          2.33343795e-01, 2.33343795e-01, 1.97748557e-01, 1.01671502e-01,
          8.59635025e-02, 1.08356178e-01, 1.10236622e-01, 1.64773524e-01,
          2.16456354e-01, 2.33343795e-01, 2.21345052e-01, 1.55973211e-01,
          1.52903721e-01, 1.32188126e-01, 1.33049682e-01, 1.37717292e-01,
          1.77954331e-01, 1.75282612e-01, 1.57609999e-01, 1.42315909e-01,
          1.37074679e-01, 1.14444792e-01, 8.87376815e-02, 9.95780602e-02,
          1.30105540e-01, 2.01123044e-01, 2.02049255e-01, 2.02049255e-01,
          1.59108132e-01, 1.13341615e-01, 1.73532203e-01, 1.27550632e-01,
          1.52249202e-01, 1.52542084e-01, 1.88030869e-01, 1.89961866e-01,
          2.02049255e-01, 1.99329510e-01, 2.02049255e-01, 2.02049255e-01,
          1.81562662e-01, 1.70057416e-01, 1.73834428e-01, 2.02049255e-01,
          1.64264768e-01, 1.71549410e-01, 1.71663657e-01, 2.02049255e-01,
          5.49620688e-02, 5.43406308e-02, 8.52038935e-02, 1.42116949e-01,
          2.29519203e-01, 1.96639076e-01, 1.57170027e-01, 8.40203390e-02,
          4.64485511e-02, 1.16720684e-01, 1.25835180e-01, 1.77509412e-01,
          2.29519203e-01, 2.29519203e-01, 2.29519203e-01, 2.13931128e-01,
          9.63719487e-02, 9.05023590e-02, 1.42337725e-01, 1.91935733e-01,
          2.29519203e-01, 1.89305067e-01, 1.67251602e-01, 1.17217526e-01,
          1.14255264e-01, 8.05156007e-02, 9.15505886e-02, 1.33617193e-01,
          1.72030538e-01, 2.29519203e-01, 2.29519203e-01, 2.29519203e-01,
          2.29519203e-01, 2.29519203e-01, 1.43672109e-01, 1.00144178e-01 ]
      - [ 1.36962235e-01, 1.84355646e-01, 1.88271418e-01, 1.54820561e-01,
          1.73321068e-01, 1.69877827e-01, 2.14643002e-01, 1.34225622e-01,
          1.00001611e-01, 1.34745628e-01, 1.55463696e-01, 1.83678731e-01,
          1.60929665e-01, 1.57021701e-01, 1.79601043e-01, 1.99673861e-01,
          1.50708392e-01, 1.31754592e-01, 1.25169396e-01, 8.54859203e-02,
          5.81588522e-02, 9.14109424e-02, 2.14643002e-01, 2.14643002e-01,
          2.14643002e-01, 2.14643002e-01, 1.67312741e-01, 1.45147413e-01,
          1.40600905e-01, 1.46822467e-01, 1.20583095e-01, 1.53869778e-01,
          2.03868464e-01, 2.14643002e-01, 2.14643002e-01, 1.80504575e-01,
          2.14469731e-01, 2.23137245e-01, 2.23137245e-01, 1.82461113e-01,
          1.21590376e-01, 1.09380096e-01, 1.04237810e-01, 1.02938399e-01,
          1.38225064e-01, 2.23137245e-01, 2.23137245e-01, 2.23137245e-01,
          2.03319743e-01, 1.16297431e-01, 6.49776310e-02, 7.28160888e-02,
          1.00763388e-01, 1.41035378e-01, 2.23137245e-01, 2.23137245e-01,
          2.23137245e-01, 1.63466185e-01, 1.06159143e-01, 1.11843280e-01,
          1.32842556e-01, 1.41888753e-01, 1.54938728e-01, 2.23137245e-01,
          2.23137245e-01, 2.18517110e-01, 1.41981825e-01, 1.02730751e-01,
          7.74631351e-02, 9.36177447e-02, 1.54086381e-01, 1.71971992e-01,
          1.96914196e-01, 1.83750138e-01, 1.80386931e-01, 1.35523662e-01,
          1.47091553e-01, 1.49962306e-01, 1.21562161e-01, 1.43247798e-01,
          1.71269238e-01, 1.29512429e-01, 8.95973742e-02, 8.47157761e-02,
          1.09163187e-01, 2.05727205e-01, 2.05727205e-01, 1.89805508e-01,
          2.05727205e-01, 2.02396348e-01, 1.70010805e-01, 1.25569060e-01,
          1.41323343e-01, 1.61054492e-01, 2.01366320e-01, 1.55083627e-01,
          1.25758439e-01, 1.51675820e-01, 1.85726732e-01, 1.73877954e-01,
          1.49900183e-01, 1.87276900e-01, 2.05727205e-01, 2.05727205e-01,
          2.04270273e-01, 1.48452640e-01, 1.51165470e-01, 1.74216956e-01,
          1.41828001e-01, 9.30485129e-02, 8.80531520e-02, 1.16779841e-01,
          1.50899023e-01, 1.76626861e-01, 2.15332672e-01, 2.15332672e-01,
          2.15332672e-01, 1.53682023e-01, 1.39020666e-01, 1.29466370e-01,
          1.52492195e-01, 1.22813180e-01, 1.55127615e-01, 2.15332672e-01,
          2.15332672e-01, 2.15332672e-01, 1.03413463e-01, 1.33567452e-01,
          1.94878682e-01, 2.15332672e-01, 1.48777649e-01, 1.06181547e-01,
          1.09964281e-01, 1.17848054e-01, 1.19297132e-01, 1.16591096e-01,
          1.46728233e-01, 2.10147321e-01, 2.15332672e-01, 2.07156792e-01,
          1.52717128e-01, 2.06384301e-01, 2.12194413e-01, 1.65490612e-01,
          2.08821535e-01, 2.01383129e-01, 1.37439996e-01, 1.05961785e-01,
          6.61430582e-02, 1.08116582e-01, 2.03079134e-01, 1.89256489e-01,
          2.07855552e-01, 2.08821535e-01, 1.85541004e-01, 1.27866015e-01,
          1.10848360e-01, 1.05906472e-01, 1.08003214e-01, 1.27888039e-01,
          1.60628557e-01, 2.08821535e-01, 1.55939907e-01, 1.37392342e-01,
          8.94389004e-02, 1.27012119e-01, 1.21165000e-01, 1.51836529e-01,
          2.08821535e-01, 2.08821535e-01, 2.08821535e-01, 1.95212752e-01,
          1.63462356e-01, 1.40608847e-01, 1.47893324e-01, 1.37490377e-01,
          1.99797943e-01, 2.08821535e-01, 2.08821535e-01, 2.08821535e-01,
          1.54824063e-01, 1.23854786e-01, 1.99628890e-01, 2.19133571e-01,
          2.07709476e-01, 1.33604109e-01, 9.41191912e-02, 1.25690237e-01,
          1.85013801e-01, 1.70045093e-01, 1.57356486e-01, 2.38738164e-01,
          2.38738164e-01, 2.20987186e-01, 1.25492975e-01, 9.07964781e-02,
          1.13830581e-01, 1.57695636e-01, 1.27311632e-01, 1.48868829e-01,
          2.38738164e-01, 2.38738164e-01, 1.86314896e-01, 1.57248393e-01,
          1.13771923e-01, 1.32797644e-01, 1.31176159e-01, 9.26300883e-02,
          1.72193989e-01, 2.38738164e-01, 2.38738164e-01, 2.00433731e-01,
          8.51729587e-02, 4.72548902e-02, 6.52472228e-02, 8.06287527e-02,
          1.10538505e-01, 1.70949772e-01, 2.14417323e-01, 2.14417323e-01,
          1.85864240e-01, 1.38698146e-01, 1.12343773e-01, 1.00686476e-01,
          8.56774226e-02, 1.04728080e-01, 1.60550132e-01, 2.14417323e-01,
          2.14417323e-01, 2.14417323e-01, 1.72894180e-01, 1.48420110e-01,
          1.51361749e-01, 1.19808286e-01, 1.80487961e-01, 1.69408232e-01,
          2.14417323e-01, 2.14417323e-01, 2.14417323e-01, 1.97688848e-01,
          1.35417596e-01, 1.07929714e-01, 1.45812526e-01, 1.15292124e-01,
          1.18419021e-01, 1.79390699e-01, 2.10128799e-01, 2.14417323e-01,
          1.68310314e-01, 1.40294150e-01, 1.20723598e-01, 1.22433536e-01,
          1.44573495e-01, 1.43575773e-01, 1.14597671e-01, 1.45836666e-01,
          1.81057289e-01, 1.86153129e-01, 1.94886088e-01, 2.11249471e-01,
          1.66487575e-01, 1.99364752e-01, 1.80664793e-01, 2.11249471e-01,
          2.11249471e-01, 1.77954987e-01, 2.05119461e-01, 1.87546968e-01,
          2.11249471e-01, 1.92361027e-01, 9.87655520e-02, 9.24304947e-02,
          9.25943181e-02, 1.10248953e-01, 1.54411346e-01, 1.66251227e-01,
          1.39934003e-01, 1.26887158e-01, 9.95671302e-02, 1.12452507e-01,
          1.05313651e-01, 2.11249471e-01, 2.11249471e-01, 2.11249471e-01,
          2.02408835e-01, 1.51947498e-01, 1.47746712e-01, 1.11454770e-01,
          1.09765731e-01, 1.27747551e-01, 2.40814373e-01, 2.40814373e-01,
          1.35706916e-01, 1.14640303e-01, 9.60553065e-02, 1.29255027e-01,
          9.91282091e-02, 6.17853664e-02, 1.36944532e-01, 2.40814373e-01,
          2.40814373e-01, 2.13567287e-01, 1.64502293e-01, 9.27537680e-02,
          1.11652695e-01, 7.21902400e-02, 9.64143947e-02, 8.84740055e-02,
          2.40814373e-01, 2.37968922e-01, 1.86460227e-01, 1.54486418e-01,
          1.31599411e-01, 1.43519476e-01, 1.08650550e-01, 7.60620907e-02,
          1.04535259e-01, 2.21103251e-01, 2.40814373e-01, 2.40814373e-01,
          2.40814373e-01, 1.73783615e-01, 1.66011304e-01, 1.04797468e-01 ]
      - [ 1.60540909e-01, 1.27148017e-01, 1.14459194e-01, 1.50816500e-01,
          2.17696473e-01, 2.17696473e-01, 2.17696473e-01, 2.17696473e-01,
          1.88072160e-01, 1.50714621e-01, 1.86690390e-01, 1.98654473e-01,
          1.53912857e-01, 1.71135366e-01, 1.81378275e-01, 2.17696473e-01,
          2.12777629e-01, 1.48666188e-01, 7.09618479e-02, 8.63973498e-02,
          1.05679445e-01, 1.59740284e-01, 2.17696473e-01, 2.17696473e-01,
          2.17696473e-01, 1.43302813e-01, 7.75661767e-02, 1.04015134e-01,
          1.47015989e-01, 1.69842318e-01, 1.70781985e-01, 1.47073388e-01,
          1.48158044e-01, 1.47905037e-01, 1.21337064e-01, 9.42714214e-02,
          1.46491736e-01, 1.46686688e-01, 1.60825282e-01, 1.54155344e-01,
          1.66491374e-01, 1.91321254e-01, 2.34759569e-01, 2.34759569e-01,
          1.50958523e-01, 1.38280615e-01, 1.14648409e-01, 1.26846313e-01,
          2.13846996e-01, 2.34759569e-01, 2.34759569e-01, 2.34759569e-01,
          2.34759569e-01, 1.67558104e-01, 9.23464894e-02, 1.09301671e-01,
          1.17384054e-01, 1.22708559e-01, 1.04604289e-01, 1.10623315e-01,
          1.91592008e-01, 1.83999777e-01, 8.69437233e-02, 1.17995933e-01,
          8.78939554e-02, 6.58028573e-02, 9.13685858e-02, 1.27198115e-01,
          1.77697748e-01, 2.34759569e-01, 2.34759569e-01, 1.48937166e-01,
          7.95770958e-02, 8.58879238e-02, 7.95042217e-02, 1.30755991e-01,
          2.16886327e-01, 2.16886327e-01, 2.16886327e-01, 2.02958897e-01,
          1.08890027e-01, 1.44562215e-01, 1.28941268e-01, 8.92685950e-02,
          1.33432090e-01, 1.42038479e-01, 1.71806321e-01, 2.16886327e-01,
          1.84987232e-01, 1.94805294e-01, 1.42604351e-01, 1.24662183e-01,
          7.89694041e-02, 1.11165598e-01, 1.38627276e-01, 2.16886327e-01,
          2.16886327e-01, 2.16886327e-01, 1.46983653e-01, 1.92271248e-01,
          1.73978239e-01, 1.14394546e-01, 1.77818283e-01, 1.51563734e-01,
          2.10673183e-01, 2.16886327e-01, 1.98217064e-01, 1.79722548e-01,
          7.92348981e-02, 8.48125964e-02, 1.01878889e-01, 1.66431919e-01,
          2.25828692e-01, 2.25828692e-01, 2.25828692e-01, 2.00135514e-01,
          1.08602569e-01, 7.03279525e-02, 8.04763883e-02, 1.09922729e-01,
          1.52264819e-01, 1.72272608e-01, 1.88747883e-01, 1.32613957e-01,
          9.57193524e-02, 7.06332624e-02, 1.48268342e-01, 1.37852430e-01,
          1.85875073e-01, 2.25828692e-01, 2.25828692e-01, 2.25828692e-01,
          2.25828692e-01, 2.25828692e-01, 1.93993151e-01, 7.36236125e-02,
          8.71913508e-02, 1.18288457e-01, 1.66478261e-01, 2.12074906e-01,
          2.25828692e-01, 2.25828692e-01, 1.47512704e-01, 7.74034560e-02,
          1.21807419e-01, 1.41259223e-01, 1.88692644e-01, 2.08456427e-01,
          1.64912686e-01, 1.62604615e-01, 1.63188532e-01, 1.47187725e-01,
          1.03873506e-01, 1.60786062e-01, 1.29513875e-01, 1.18759148e-01,
          1.22481868e-01, 1.56822681e-01, 2.18321398e-01, 2.18321398e-01,
          2.18321398e-01, 2.16629505e-01, 1.23017713e-01, 1.31089002e-01,
          1.66503951e-01, 1.45722419e-01, 1.39250413e-01, 2.05002606e-01,
          2.18321398e-01, 1.62769079e-01, 1.29581526e-01, 1.44453153e-01,
          1.34593055e-01, 1.41133204e-01, 9.49077085e-02, 1.15263678e-01,
          1.91647589e-01, 2.18321398e-01, 2.18321398e-01, 1.95211515e-01,
          1.16383314e-01, 1.00967497e-01, 7.96781853e-02, 1.01964049e-01,
          1.52962819e-01, 2.16214776e-01, 2.16214776e-01, 2.16214776e-01,
          1.52191520e-01, 1.58876404e-01, 1.51542976e-01, 1.21695742e-01,
          1.63195416e-01, 1.89066306e-01, 2.16214776e-01, 2.16214776e-01,
          1.84959009e-01, 1.56553358e-01, 7.59252310e-02, 7.99002871e-02,
          8.97123963e-02, 7.89790526e-02, 1.56354293e-01, 2.16214776e-01,
          2.16214776e-01, 1.69821233e-01, 1.20820694e-01, 1.72639489e-01,
          1.72969669e-01, 1.25115618e-01, 1.33314803e-01, 2.11180910e-01,
          2.16214776e-01, 2.16214776e-01, 2.15102032e-01, 1.66151464e-01,
          1.33990750e-01, 1.50982767e-01, 2.11875126e-01, 2.11875126e-01,
          2.11875126e-01, 2.08751917e-01, 2.11875126e-01, 1.94433630e-01,
          1.25874639e-01, 8.83256197e-02, 9.63285938e-02, 1.16969250e-01,
          1.49762169e-01, 1.44615158e-01, 1.99957892e-01, 2.11875126e-01,
          1.68255731e-01, 9.48698297e-02, 1.05432339e-01, 1.61263570e-01,
          2.11477086e-01, 2.11875126e-01, 1.80083171e-01, 2.11875126e-01,
          2.11875126e-01, 1.53683901e-01, 8.52013975e-02, 9.17497724e-02,
          8.32391232e-02, 1.19195983e-01, 1.37218907e-01, 1.47492260e-01,
          1.73847035e-01, 2.11875126e-01, 2.06797674e-01, 1.27322942e-01,
          1.24883406e-01, 9.28611010e-02, 7.91361555e-02, 7.06613213e-02,
          8.64984542e-02, 1.58031836e-01, 2.03659669e-01, 1.84335232e-01,
          1.44743741e-01, 1.73490092e-01, 2.26113960e-01, 1.52874693e-01,
          7.42317662e-02, 5.85440695e-02, 8.34319890e-02, 1.08344398e-01,
          1.25509828e-01, 1.38438538e-01, 2.29378566e-01, 1.41377300e-01,
          1.29369497e-01, 1.21381521e-01, 1.74266487e-01, 2.06671521e-01,
          2.29378566e-01, 2.29378566e-01, 2.29378566e-01, 2.29378566e-01,
          2.29378566e-01, 2.29378566e-01, 1.41017064e-01, 9.15426910e-02,
          1.32474229e-01, 1.85309663e-01, 2.01511174e-01, 2.29378566e-01,
          1.11656144e-01, 1.76961333e-01, 1.58441290e-01, 1.06794298e-01,
          1.03329837e-01, 1.22102700e-01, 1.26462862e-01, 1.11328661e-01,
          8.07491764e-02, 1.18782908e-01, 1.31597728e-01, 1.35034725e-01,
          1.56895965e-01, 1.88113704e-01, 2.16085896e-01, 2.16085896e-01,
          2.04461247e-01, 1.28856748e-01, 1.79547265e-01, 2.16085896e-01,
          2.16085896e-01, 1.80624440e-01, 1.14466496e-01, 1.28203049e-01,
          1.45261019e-01, 1.42574564e-01, 1.11148156e-01, 1.91078007e-01,
          2.16085896e-01, 2.16085896e-01, 2.03638077e-01, 1.99814081e-01,
          2.16085896e-01, 2.16085896e-01, 1.76465318e-01, 1.34941608e-01 ]
      - [ 1.80388182e-01, 1.93846479e-01, 2.12038636e-01, 1.92090586e-01,
          1.73678786e-01, 2.07968757e-01, 2.12038636e-01, 2.12038636e-01,
          1.97503954e-01, 1.54292107e-01, 1.79596886e-01, 1.58427373e-01,
          1.18264742e-01, 1.26243666e-01, 1.64085686e-01, 1.85511589e-01,
          1.83544964e-01, 1.67176008e-01, 1.16507322e-01, 1.11177675e-01,
          1.27449602e-01, 1.94867164e-01, 2.12038636e-01, 2.12038636e-01,
          2.12038636e-01, 2.12038636e-01, 1.43439710e-01, 6.83630109e-02,
          6.89437762e-02, 6.15065843e-02, 7.67870843e-02, 1.19010545e-01,
          1.71677127e-01, 1.79686517e-01, 1.58543363e-01, 9.36394259e-02,
          9.83134359e-02, 8.10464844e-02, 6.82993233e-02, 9.40295905e-02,
          1.29209191e-01, 1.86099663e-01, 2.65046984e-01, 2.65046984e-01,
          1.58491567e-01, 7.73425177e-02, 7.23120719e-02, 1.06709942e-01,
          1.75584346e-01, 1.99457109e-01, 2.07252026e-01, 2.65046984e-01,
          2.65046984e-01, 1.42691895e-01, 4.88060713e-02, 4.62525561e-02,
          5.31498753e-02, 7.68564269e-02, 1.20048538e-01, 1.86807692e-01,
          2.65046984e-01, 2.58433104e-01, 9.07334015e-02, 5.74165620e-02,
          5.72018176e-02, 1.02971338e-01, 1.14521645e-01, 1.46102712e-01,
          1.91837803e-01, 2.65046984e-01, 2.65046984e-01, 1.29890889e-01,
          1.15633681e-01, 1.45497695e-01, 1.99108124e-01, 1.93518922e-01,
          1.71999916e-01, 1.43319935e-01, 2.18000919e-01, 2.18000919e-01,
          1.32529259e-01, 1.73411310e-01, 2.16563180e-01, 2.13130996e-01,
          1.62646070e-01, 1.21370226e-01, 1.11729667e-01, 1.80401489e-01,
          1.90308422e-01, 1.83126435e-01, 8.16146135e-02, 8.63148123e-02,
          1.50350720e-01, 1.20188549e-01, 1.20256908e-01, 1.63623437e-01,
          2.18000919e-01, 2.18000919e-01, 1.21621110e-01, 1.51835531e-01,
          1.52069300e-01, 1.67094663e-01, 1.34316817e-01, 1.05614275e-01,
          1.52480572e-01, 2.18000919e-01, 2.18000919e-01, 1.45799145e-01,
          1.12679712e-01, 1.16521515e-01, 1.13864690e-01, 1.70403242e-01,
          2.19634324e-01, 2.19634324e-01, 2.19634324e-01, 2.19634324e-01,
          1.59025759e-01, 6.86491579e-02, 6.25936463e-02, 5.13126254e-02,
          6.74772188e-02, 1.20086960e-01, 1.83773905e-01, 1.78913608e-01,
          1.72836691e-01, 1.05696827e-01, 1.46912485e-01, 1.60881504e-01,
          1.79909945e-01, 2.19634324e-01, 2.19634324e-01, 2.19634324e-01,
          2.19634324e-01, 2.03654841e-01, 1.96737140e-01, 8.27394798e-02,
          9.30861756e-02, 8.68721679e-02, 1.16241641e-01, 1.57932788e-01,
          2.19634324e-01, 2.19634324e-01, 2.19634324e-01, 1.22537948e-01,
          7.67739937e-02, 8.08585137e-02, 9.30519626e-02, 1.13217324e-01,
          1.40754059e-01, 2.06156462e-01, 2.18743071e-01, 1.94491327e-01,
          1.06775843e-01, 1.08867958e-01, 1.08379357e-01, 1.50688380e-01,
          1.68568686e-01, 2.08763838e-01, 2.18743071e-01, 2.18743071e-01,
          2.18743071e-01, 1.29337326e-01, 1.09064430e-01, 8.75858217e-02,
          9.00402069e-02, 1.17023677e-01, 1.57472566e-01, 1.96264446e-01,
          2.18743071e-01, 2.18743071e-01, 2.13800043e-01, 1.20034531e-01,
          9.86893550e-02, 1.52266964e-01, 2.18743071e-01, 2.18743071e-01,
          2.18743071e-01, 1.78550735e-01, 1.58178270e-01, 1.79071635e-01,
          1.19771212e-01, 9.56625044e-02, 1.18937403e-01, 1.17176414e-01,
          1.56526119e-01, 2.25651219e-01, 2.25651219e-01, 2.25651219e-01,
          1.38902903e-01, 1.77285179e-01, 1.36930734e-01, 1.35830760e-01,
          1.31925315e-01, 1.41428515e-01, 2.25651219e-01, 2.25651219e-01,
          2.25651219e-01, 2.13270381e-01, 8.45675319e-02, 6.72532618e-02,
          9.18135121e-02, 1.37704387e-01, 1.91413254e-01, 2.25651219e-01,
          2.15339109e-01, 1.07742786e-01, 8.69130716e-02, 1.06255285e-01,
          8.28016847e-02, 1.09643631e-01, 1.31041542e-01, 1.85776204e-01,
          2.25651219e-01, 2.25651219e-01, 2.12149322e-01, 1.57134637e-01,
          1.44271255e-01, 1.37316301e-01, 1.96199074e-01, 2.12309524e-01,
          1.97308511e-01, 1.92316875e-01, 1.94089279e-01, 1.23904429e-01,
          1.35500222e-01, 1.03597514e-01, 9.77554470e-02, 1.24708429e-01,
          1.38799995e-01, 1.53383493e-01, 2.09433138e-01, 2.12309524e-01,
          1.83284521e-01, 1.16131298e-01, 2.12309524e-01, 1.99892700e-01,
          1.65862605e-01, 1.55161127e-01, 1.27678290e-01, 1.12657085e-01,
          1.49851710e-01, 1.35110021e-01, 1.74886331e-01, 2.08772495e-01,
          1.41115159e-01, 1.18096530e-01, 9.92676988e-02, 1.31987751e-01,
          1.89301938e-01, 2.12309524e-01, 2.12309524e-01, 2.12309524e-01,
          1.16467625e-01, 7.85068721e-02, 7.89394677e-02, 9.47998762e-02,
          1.41757622e-01, 1.81080669e-01, 2.22427234e-01, 2.27643922e-01,
          2.23059535e-01, 1.29539296e-01, 9.30069536e-02, 1.07795402e-01,
          1.76212966e-01, 1.79546624e-01, 1.51284143e-01, 1.24109335e-01,
          1.54460490e-01, 2.05996931e-01, 2.27643922e-01, 1.36315823e-01,
          9.26608667e-02, 8.56008679e-02, 1.25171989e-01, 1.96147040e-01,
          2.27643922e-01, 2.27643922e-01, 2.27643922e-01, 2.27643922e-01,
          2.27643922e-01, 1.36420414e-01, 1.15714476e-01, 1.01582907e-01,
          9.04587805e-02, 1.19294405e-01, 1.95281342e-01, 2.26901785e-01,
          1.24860346e-01, 1.44263864e-01, 1.62851319e-01, 1.61829799e-01,
          1.87155381e-01, 1.92586198e-01, 1.29310697e-01, 8.00059736e-02,
          1.05841272e-01, 1.07361309e-01, 1.46373540e-01, 2.13368699e-01,
          2.11852252e-01, 1.98692903e-01, 2.08057046e-01, 1.36046886e-01,
          1.13830581e-01, 1.16224684e-01, 2.44559050e-01, 2.44559050e-01,
          2.44559050e-01, 1.98556781e-01, 1.22346535e-01, 8.97644684e-02,
          8.82370770e-02, 9.54984650e-02, 1.69194311e-01, 1.62145779e-01,
          2.44559050e-01, 2.44559050e-01, 2.44559050e-01, 1.57290116e-01,
          1.13637149e-01, 7.36916736e-02, 6.63119555e-02, 1.01449631e-01 ]
      - [ 2.16841131e-01, 2.34335825e-01, 2.34335825e-01, 2.26885810e-01,
          1.00374170e-01, 7.33697414e-02, 5.35495505e-02, 6.54510036e-02,
          1.09197922e-01, 1.87804714e-01, 2.34335825e-01, 2.34335825e-01,
          2.34335825e-01, 1.13128148e-01, 9.65656042e-02, 9.45680663e-02,
          7.82867745e-02, 1.08116455e-01, 1.54508129e-01, 2.34335825e-01,
          2.34335825e-01, 2.34335825e-01, 1.70248762e-01, 1.11843571e-01,
          9.20211524e-02, 1.10688783e-01, 1.28899410e-01, 1.43808454e-01,
          2.34335825e-01, 2.34335825e-01, 2.34335825e-01, 1.57188803e-01,
          8.14558640e-02, 7.35445917e-02, 9.57216173e-02, 8.44351128e-02,
          1.58900991e-01, 2.12208644e-01, 2.15236530e-01, 2.15236530e-01,
          1.39649555e-01, 1.37579650e-01, 1.40284359e-01, 1.18688799e-01,
          1.63545460e-01, 1.41477630e-01, 1.89854890e-01, 2.15236530e-01,
          2.15236530e-01, 1.65160477e-01, 1.25880077e-01, 1.17668137e-01,
          1.40287340e-01, 1.50329202e-01, 1.63806289e-01, 2.00515121e-01,
          2.15236530e-01, 2.15236530e-01, 1.36362925e-01, 9.99735370e-02,
          1.10587820e-01, 1.19305030e-01, 1.03565760e-01, 1.80943236e-01,
          1.89984009e-01, 1.85811326e-01, 1.53249085e-01, 1.49479553e-01,
          1.41971797e-01, 1.77496448e-01, 1.97223112e-01, 1.50954187e-01,
          1.44614249e-01, 2.14989454e-01, 2.24370986e-01, 2.24370986e-01,
          1.60769507e-01, 1.09266795e-01, 8.82847980e-02, 1.10766076e-01,
          1.15884624e-01, 1.80789769e-01, 2.24370986e-01, 2.24370986e-01,
          2.24370986e-01, 1.69594690e-01, 1.32455170e-01, 1.03618033e-01,
          1.12160645e-01, 1.22024715e-01, 1.52039453e-01, 2.24370986e-01,
          2.24370986e-01, 1.59791350e-01, 1.46426111e-01, 1.31293520e-01,
          1.21160574e-01, 1.32378533e-01, 1.17942043e-01, 2.21287638e-01,
          2.24370986e-01, 2.24370986e-01, 1.75170213e-01, 1.30682454e-01,
          1.44843653e-01, 9.53613147e-02, 1.07632436e-01, 1.31280437e-01,
          9.88006219e-02, 1.25115722e-01, 2.07186893e-01, 2.11467057e-01,
          2.11467057e-01, 2.11467057e-01, 1.45437807e-01, 1.29152641e-01,
          1.30559281e-01, 1.54093251e-01, 1.81913957e-01, 2.11467057e-01,
          2.11467057e-01, 2.11467057e-01, 1.53964609e-01, 8.40606391e-02,
          9.10666063e-02, 9.36663970e-02, 1.30364910e-01, 1.17615886e-01,
          1.65015921e-01, 1.95317000e-01, 1.96403503e-01, 2.03432560e-01,
          1.49537012e-01, 1.72182724e-01, 2.11467057e-01, 1.28000513e-01,
          1.34527177e-01, 1.46202803e-01, 2.06034467e-01, 2.11467057e-01,
          2.09074959e-01, 1.09493680e-01, 1.05322264e-01, 1.37726665e-01,
          2.33602479e-01, 2.33602479e-01, 1.96898416e-01, 1.80571571e-01,
          1.38726279e-01, 9.59653482e-02, 8.07086602e-02, 9.36510563e-02,
          1.13261126e-01, 2.33602479e-01, 2.33602479e-01, 1.54755116e-01,
          1.02855816e-01, 8.78123939e-02, 9.47168693e-02, 1.25760317e-01,
          1.39580846e-01, 1.69222713e-01, 2.33602479e-01, 2.33602479e-01,
          2.25984693e-01, 2.15609789e-01, 1.49869546e-01, 1.19547501e-01,
          7.04966038e-02, 8.81236941e-02, 1.23179138e-01, 2.33602479e-01,
          2.33602479e-01, 2.33602479e-01, 1.70639366e-01, 9.09594148e-02,
          7.17701390e-02, 8.24602395e-02, 1.19165115e-01, 1.94130510e-01,
          1.82913333e-01, 1.79334715e-01, 1.57971263e-01, 1.20314695e-01,
          9.18376818e-02, 1.02309354e-01, 1.03987090e-01, 1.03430010e-01,
          1.26626387e-01, 2.21997529e-01, 2.24193022e-01, 2.24193022e-01,
          1.73235744e-01, 1.38910368e-01, 1.48049727e-01, 1.35158047e-01,
          1.51686341e-01, 1.84567899e-01, 2.24193022e-01, 2.24193022e-01,
          2.03187570e-01, 1.37028456e-01, 7.78026581e-02, 8.47694501e-02,
          9.84978527e-02, 1.12288378e-01, 1.80081144e-01, 2.24193022e-01,
          2.24193022e-01, 2.24193022e-01, 1.66340455e-01, 1.43457532e-01,
          1.31888032e-01, 1.25918388e-01, 1.69627964e-01, 2.24193022e-01,
          1.61363691e-01, 1.51211202e-01, 1.94321796e-01, 1.76933363e-01,
          1.48918986e-01, 1.05944417e-01, 1.20942406e-01, 2.10546464e-01,
          2.11810872e-01, 1.41927600e-01, 1.52413368e-01, 2.09520161e-01,
          1.99193791e-01, 1.48984313e-01, 1.20313011e-01, 1.07957080e-01,
          1.28514916e-01, 1.60822734e-01, 1.23466261e-01, 1.55710965e-01,
          2.11810872e-01, 2.04637259e-01, 1.87188432e-01, 1.57221049e-01,
          2.11810872e-01, 2.11810872e-01, 1.43316418e-01, 1.61737636e-01,
          2.11810872e-01, 2.11810872e-01, 2.11810872e-01, 1.63097933e-01,
          9.25553218e-02, 9.63683650e-02, 1.02369659e-01, 1.14435390e-01,
          1.45777673e-01, 2.09158838e-01, 2.31272325e-01, 2.13045597e-01,
          1.16671257e-01, 7.36870319e-02, 6.15805611e-02, 8.51586834e-02,
          1.12420484e-01, 2.31272325e-01, 2.31272325e-01, 2.31272325e-01,
          1.75606772e-01, 1.20264031e-01, 7.95313567e-02, 6.44823089e-02,
          9.34879184e-02, 1.41892567e-01, 1.58619270e-01, 2.31272325e-01,
          2.31272325e-01, 2.31272325e-01, 1.53094247e-01, 1.02635235e-01,
          1.02701224e-01, 8.72239992e-02, 1.08241305e-01, 1.63785875e-01,
          2.31272325e-01, 2.31272325e-01, 2.31272325e-01, 1.84194565e-01,
          1.55135617e-01, 1.37700930e-01, 1.17300354e-01, 1.36034325e-01,
          2.30732843e-01, 2.30732843e-01, 2.30732843e-01, 1.31781206e-01,
          1.04718052e-01, 7.99292773e-02, 7.39070922e-02, 9.34839845e-02,
          1.76156893e-01, 2.30732843e-01, 2.30732843e-01, 2.30732843e-01,
          1.41958952e-01, 1.16359510e-01, 7.23997056e-02, 6.22694828e-02,
          1.00381583e-01, 2.11346611e-01, 1.59940064e-01, 2.24389270e-01,
          2.30732843e-01, 2.30732843e-01, 1.84684277e-01, 1.26742899e-01,
          1.01006575e-01, 1.02929302e-01, 1.48459911e-01, 1.26386300e-01,
          1.81402132e-01, 2.08605155e-01, 1.84335366e-01, 2.12520704e-01,
          1.29068196e-01, 9.51421335e-02, 9.30472463e-02, 1.39407292e-01 ]
      - [ 1.52813256e-01, 1.25109419e-01, 1.42367899e-01, 1.38845801e-01,
          1.39917299e-01, 1.31682843e-01, 2.11310267e-01, 2.11310267e-01,
          1.59045950e-01, 1.97832793e-01, 1.20079488e-01, 1.41689181e-01,
          1.21994406e-01, 1.22541957e-01, 1.05844162e-01, 1.56827316e-01,
          1.97138652e-01, 1.80109650e-01, 1.89516842e-01, 1.14718258e-01,
          1.14224367e-01, 1.38646990e-01, 2.01546162e-01, 1.75037488e-01,
          2.03342065e-01, 2.11310267e-01, 2.11310267e-01, 2.11310267e-01,
          2.07034588e-01, 1.51412010e-01, 1.06199518e-01, 1.57210842e-01,
          1.45309389e-01, 1.57144442e-01, 1.92440838e-01, 2.11310267e-01,
          2.21851781e-01, 1.74506679e-01, 1.03224322e-01, 7.07643032e-02,
          6.68004975e-02, 1.00290321e-01, 1.62640035e-01, 1.97571710e-01,
          2.05716953e-01, 1.90166757e-01, 1.37565076e-01, 1.21627741e-01,
          1.01408131e-01, 8.27896371e-02, 2.21851781e-01, 2.21851781e-01,
          2.21851781e-01, 1.77004144e-01, 2.21851781e-01, 2.21851781e-01,
          1.31811351e-01, 8.04505721e-02, 6.30316436e-02, 8.30484852e-02,
          1.15034707e-01, 1.66965246e-01, 2.21851781e-01, 2.21851781e-01,
          2.06687838e-01, 1.40940085e-01, 1.29664034e-01, 1.04480721e-01,
          1.71251923e-01, 1.97191000e-01, 2.00632513e-01, 2.06498250e-01,
          1.28493696e-01, 1.25909790e-01, 2.01544121e-01, 1.76182225e-01,
          1.05448365e-01, 1.92418620e-01, 1.96638644e-01, 1.65608853e-01,
          1.41268313e-01, 1.50794581e-01, 1.46551773e-01, 2.01544121e-01,
          1.90169558e-01, 1.32103115e-01, 1.31413162e-01, 1.56602487e-01,
          1.58715963e-01, 2.00135455e-01, 1.49312049e-01, 1.56023607e-01,
          1.92882404e-01, 1.84091985e-01, 1.30509272e-01, 2.01126665e-01,
          1.96417511e-01, 1.55331820e-01, 1.49448097e-01, 1.45332769e-01,
          1.58965662e-01, 1.86789587e-01, 1.84823424e-01, 1.29186019e-01,
          1.81392342e-01, 2.01544121e-01, 1.59364998e-01, 1.51550055e-01,
          1.88006356e-01, 1.58160195e-01, 1.55145362e-01, 1.66954637e-01,
          1.89896673e-01, 2.10254773e-01, 2.10254773e-01, 1.97781265e-01,
          2.10254773e-01, 2.10254773e-01, 1.99081093e-01, 1.46802142e-01,
          1.21794701e-01, 1.54404640e-01, 1.80065095e-01, 1.88693643e-01,
          1.49371147e-01, 1.68621391e-01, 2.10254773e-01, 2.10254773e-01,
          1.74121618e-01, 9.22329426e-02, 7.74908289e-02, 1.32893130e-01,
          1.50095120e-01, 1.41250685e-01, 1.75109059e-01, 1.99430108e-01,
          1.59244254e-01, 1.17923588e-01, 9.36593115e-02, 8.86953399e-02,
          1.20906055e-01, 1.45538703e-01, 1.26541689e-01, 2.08369136e-01,
          2.05398321e-01, 2.05398321e-01, 1.75223753e-01, 1.67871892e-01,
          1.32155851e-01, 1.04338929e-01, 1.10692129e-01, 1.28314510e-01,
          1.66109800e-01, 1.95554301e-01, 1.77831322e-01, 1.41614437e-01,
          1.74539179e-01, 2.05398321e-01, 1.83291808e-01, 1.63513616e-01,
          2.05398321e-01, 2.05398321e-01, 1.86218739e-01, 1.32742479e-01,
          1.61963180e-01, 1.62329748e-01, 1.44164801e-01, 1.40852764e-01,
          1.12892665e-01, 9.66091454e-02, 1.60445139e-01, 2.05398321e-01,
          1.90207109e-01, 1.79157540e-01, 1.78995803e-01, 1.86004743e-01,
          1.71052888e-01, 1.24044389e-01, 1.26658082e-01, 1.77839801e-01,
          1.71014249e-01, 1.70020416e-01, 1.88339651e-01, 1.86445460e-01,
          1.54062763e-01, 1.78986326e-01, 1.49472013e-01, 1.52783185e-01,
          1.67610332e-01, 1.64215460e-01, 2.00767487e-01, 2.06296593e-01,
          2.06296593e-01, 1.06679969e-01, 1.30623251e-01, 1.52821049e-01,
          1.52806103e-01, 1.50031045e-01, 1.95474967e-01, 1.79998443e-01,
          1.83852121e-01, 1.59857094e-01, 1.43175676e-01, 1.53063327e-01,
          1.17029272e-01, 1.28250375e-01, 2.04289496e-01, 2.06296593e-01,
          1.88706741e-01, 2.02873275e-01, 1.81427911e-01, 8.97089466e-02,
          9.14764851e-02, 9.45024565e-02, 1.55037478e-01, 2.06296593e-01,
          2.23581702e-01, 2.23581702e-01, 1.42203644e-01, 7.27269575e-02,
          6.52629137e-02, 7.02084973e-02, 1.23185463e-01, 2.23581702e-01,
          2.23581702e-01, 2.23581702e-01, 1.32288545e-01, 1.07822224e-01,
          7.31585771e-02, 7.56041557e-02, 9.88917127e-02, 1.30180940e-01,
          1.69240177e-01, 2.23581702e-01, 2.14914471e-01, 1.45651326e-01,
          1.26994088e-01, 1.20049633e-01, 1.44415885e-01, 1.17926866e-01,
          1.86276868e-01, 2.23581702e-01, 2.23581702e-01, 2.23581702e-01,
          1.71568319e-01, 1.76805452e-01, 1.15007274e-01, 1.33569673e-01,
          1.15394369e-01, 1.77040607e-01, 2.20486015e-01, 2.23581702e-01,
          2.04352438e-01, 1.18739806e-01, 1.85482353e-01, 1.34518012e-01,
          1.21137872e-01, 1.44828454e-01, 1.25526935e-01, 1.10774688e-01,
          1.92470267e-01, 1.81356609e-01, 1.78183004e-01, 2.04984546e-01,
          1.76606104e-01, 1.60656735e-01, 1.81545883e-01, 1.21931754e-01,
          9.72259566e-02, 1.34050190e-01, 2.03327805e-01, 1.40060440e-01,
          2.04984546e-01, 1.66093096e-01, 1.49942279e-01, 1.37082383e-01,
          1.67301983e-01, 1.77485138e-01, 2.04984546e-01, 1.23264268e-01,
          1.31338149e-01, 1.94262281e-01, 1.71585217e-01, 2.04984546e-01,
          2.04984546e-01, 2.04070523e-01, 1.76425144e-01, 1.42071679e-01,
          1.53045163e-01, 1.51356727e-01, 1.69881508e-01, 1.66399032e-01,
          1.72725663e-01, 1.75010711e-01, 1.22914888e-01, 9.94166508e-02,
          1.50614738e-01, 1.91976249e-01, 1.44754916e-01, 1.52144313e-01,
          1.62316144e-01, 1.20864213e-01, 1.11372329e-01, 8.80412534e-02,
          1.10132799e-01, 2.07099825e-01, 1.36804864e-01, 1.27351403e-01,
          1.50396869e-01, 1.67086825e-01, 2.07099825e-01, 2.07099825e-01,
          2.07099825e-01, 1.62560835e-01, 1.41754180e-01, 2.07099825e-01,
          1.60975337e-01, 2.07099825e-01, 2.07099825e-01, 2.03804016e-01,
          2.07099825e-01, 1.87329024e-01, 1.41745374e-01, 1.86996326e-01 ]
      - [ 2.12608382e-01, 2.00466007e-01, 2.01811463e-01, 1.85252815e-01,
          1.54128388e-01, 1.52978525e-01, 1.72185659e-01, 1.69174910e-01,
          1.56789318e-01, 2.12608382e-01, 1.72566682e-01, 1.69209719e-01,
          1.49914905e-01, 1.65996194e-01, 1.55424520e-01, 1.60704866e-01,
          1.81778491e-01, 2.02957392e-01, 2.12608382e-01, 2.12608382e-01,
          1.71448782e-01, 1.54214501e-01, 1.35981053e-01, 1.40205473e-01,
          1.24546006e-01, 1.02957904e-01, 1.14960283e-01, 2.12608382e-01,
          2.12608382e-01, 1.18817389e-01, 1.10829033e-01, 1.16262980e-01,
          1.21783972e-01, 1.43570468e-01, 1.49381399e-01, 1.42937720e-01,
          2.06525326e-01, 1.47644699e-01, 1.33669212e-01, 1.20685630e-01,
          1.47709936e-01, 1.43838271e-01, 1.66636363e-01, 1.95842028e-01,
          1.97900653e-01, 2.06853911e-01, 1.64315984e-01, 1.45984232e-01,
          1.18489653e-01, 1.40422001e-01, 1.53844014e-01, 1.92462429e-01,
          2.06853911e-01, 1.98120907e-01, 1.75830573e-01, 1.69972792e-01,
          9.14287642e-02, 8.68551433e-02, 1.13765493e-01, 1.34011686e-01,
          1.92162052e-01, 2.06853911e-01, 1.81749269e-01, 1.76367581e-01,
          1.58899859e-01, 1.37002647e-01, 1.01523094e-01, 1.36915386e-01,
          1.83695316e-01, 2.06853911e-01, 2.06853911e-01, 2.06853911e-01,
          2.02154502e-01, 1.90101534e-01, 1.60711899e-01, 1.33232191e-01,
          1.27614990e-01, 1.25311524e-01, 1.63969249e-01, 1.99035376e-01,
          1.72361881e-01, 2.02154502e-01, 2.02154502e-01, 1.51397452e-01,
          1.21727981e-01, 1.10301562e-01, 9.34967995e-02, 1.25611603e-01,
          1.74933463e-01, 1.85881138e-01, 1.54761836e-01, 1.82206452e-01,
          1.68600500e-01, 1.81733787e-01, 1.81417033e-01, 1.87906981e-01,
          1.75367519e-01, 1.76042467e-01, 1.63698480e-01, 1.78107738e-01,
          1.96985796e-01, 1.95822120e-01, 2.02154502e-01, 1.73086002e-01,
          1.52198389e-01, 1.33006155e-01, 1.21125311e-01, 1.31511360e-01,
          2.28466183e-01, 2.28466183e-01, 1.80392131e-01, 1.34197593e-01,
          9.70645025e-02, 9.27948058e-02, 9.65576842e-02, 1.12865038e-01,
          1.66288331e-01, 2.28466183e-01, 2.28466183e-01, 1.15171507e-01,
          9.49383751e-02, 1.06527157e-01, 1.18157290e-01, 1.28421336e-01,
          1.65517941e-01, 1.82073236e-01, 2.28466183e-01, 2.28466183e-01,
          1.79802343e-01, 1.20823637e-01, 7.13784248e-02, 6.44850880e-02,
          8.29165205e-02, 1.33038208e-01, 1.94570750e-01, 2.28466183e-01,
          2.28466183e-01, 2.28466183e-01, 1.69736341e-01, 1.00388974e-01,
          1.08652756e-01, 1.42902449e-01, 2.07603022e-01, 2.28466183e-01,
          1.51154920e-01, 1.46010816e-01, 9.19527933e-02, 7.32796565e-02,
          1.11096546e-01, 1.29484475e-01, 1.60446212e-01, 1.80402815e-01,
          1.95574716e-01, 1.66098922e-01, 1.29657090e-01, 1.27023444e-01,
          1.10488392e-01, 1.38744235e-01, 1.85855493e-01, 2.11933061e-01,
          2.11933061e-01, 2.11933061e-01, 1.79734647e-01, 1.95143670e-01,
          2.11761028e-01, 1.39209166e-01, 1.22235656e-01, 1.25073910e-01,
          1.50780544e-01, 1.84811696e-01, 1.90140679e-01, 1.96971983e-01,
          1.47386551e-01, 1.40660793e-01, 1.32542938e-01, 1.54617742e-01,
          1.95443779e-01, 2.11933061e-01, 2.11933061e-01, 2.11933061e-01,
          1.45419657e-01, 1.43292248e-01, 1.31685570e-01, 1.61900938e-01,
          1.53391629e-01, 1.88688353e-01, 2.02356145e-01, 1.98954940e-01,
          1.67041987e-01, 1.65760919e-01, 1.86875120e-01, 1.51515067e-01,
          1.62656948e-01, 1.43886119e-01, 1.47557169e-01, 1.43872112e-01,
          1.33470714e-01, 1.23768166e-01, 1.90671161e-01, 1.85072094e-01,
          1.61238149e-01, 1.47340596e-01, 1.54153198e-01, 1.90670773e-01,
          2.02356145e-01, 1.91282928e-01, 1.68531641e-01, 1.85098171e-01,
          2.02356145e-01, 2.02356145e-01, 1.94701642e-01, 1.65066823e-01,
          1.47654578e-01, 1.47910669e-01, 1.23779498e-01, 1.11221753e-01,
          2.18035102e-01, 2.18035102e-01, 1.41699702e-01, 1.06057137e-01,
          1.01335816e-01, 8.14715475e-02, 8.66528749e-02, 8.66599232e-02,
          1.20965250e-01, 2.18035102e-01, 2.18035102e-01, 2.18035102e-01,
          1.77716225e-01, 1.14660993e-01, 1.08604185e-01, 1.46041051e-01,
          1.57749429e-01, 1.47820041e-01, 1.28783032e-01, 1.52418375e-01,
          1.50742561e-01, 1.74511701e-01, 2.18035102e-01, 2.18035102e-01,
          2.06467658e-01, 9.54801589e-02, 8.14114287e-02, 1.32188186e-01,
          1.84220299e-01, 2.18035102e-01, 2.13014930e-01, 2.18035102e-01,
          1.95913583e-01, 2.07888082e-01, 1.54999763e-01, 1.17114045e-01,
          1.26528949e-01, 1.60820574e-01, 1.81361467e-01, 1.70728207e-01,
          1.57365739e-01, 1.43492505e-01, 1.76215693e-01, 1.88873753e-01,
          1.34436831e-01, 1.30340189e-01, 1.16948560e-01, 1.15483701e-01,
          1.88603356e-01, 2.05411777e-01, 1.73546866e-01, 1.96404055e-01,
          2.03384146e-01, 1.49827540e-01, 1.14696436e-01, 1.53999716e-01,
          1.84055984e-01, 2.05411777e-01, 2.05411777e-01, 1.91918805e-01,
          1.88565373e-01, 1.74185768e-01, 1.33768365e-01, 1.24216057e-01,
          1.43323377e-01, 1.67030573e-01, 2.05411777e-01, 2.05411777e-01,
          1.52434334e-01, 1.40839577e-01, 1.42992169e-01, 1.48560688e-01,
          1.92681029e-01, 2.00696528e-01, 1.70218557e-01, 1.74306735e-01,
          1.84299618e-01, 1.52424261e-01, 1.66907698e-01, 1.40627459e-01,
          1.52476519e-01, 1.95025295e-01, 2.15594336e-01, 2.15594336e-01,
          2.15594336e-01, 1.62417978e-01, 1.24730170e-01, 1.06663346e-01,
          9.27160457e-02, 1.24975726e-01, 1.39382124e-01, 1.80942297e-01,
          1.98237687e-01, 2.06713721e-01, 2.03559250e-01, 1.03984699e-01,
          9.08752680e-02, 1.20094478e-01, 1.44405812e-01, 1.84565991e-01,
          2.15594336e-01, 2.15594336e-01, 2.15594336e-01, 1.59105182e-01,
          9.94690582e-02, 6.64290786e-02, 1.01495050e-01, 1.56791508e-01 ]
      - [ 1.01137124e-01, 9.35876146e-02, 1.21489786e-01, 1.26718670e-01,
          1.70378357e-01, 2.06090540e-01, 2.28616878e-01, 2.28616878e-01,
          1.76061705e-01, 1.55664414e-01, 1.92175791e-01, 1.79060370e-01,
          1.55410454e-01, 1.80553764e-01, 2.16123790e-01, 2.28616878e-01,
          2.26350412e-01, 1.66016281e-01, 7.86963180e-02, 7.17705265e-02,
          1.00530535e-01, 7.97493160e-02, 7.83969983e-02, 1.62478909e-01,
          2.28616878e-01, 2.28616878e-01, 1.31989509e-01, 1.26624808e-01,
          1.52292058e-01, 1.42206788e-01, 7.93136805e-02, 1.05736464e-01,
          1.81107029e-01, 2.28616878e-01, 2.24144936e-01, 1.36364192e-01,
          1.59611702e-01, 2.04649121e-01, 2.04649121e-01, 1.48608655e-01,
          1.38901353e-01, 1.41921982e-01, 1.70666665e-01, 1.34361282e-01,
          1.32783964e-01, 1.25121668e-01, 1.35316908e-01, 1.91240698e-01,
          1.59100279e-01, 1.97640508e-01, 2.03164756e-01, 1.88488275e-01,
          1.57022685e-01, 1.53708041e-01, 1.40479073e-01, 1.94757283e-01,
          2.04649121e-01, 1.26550794e-01, 1.13790728e-01, 1.42989427e-01,
          1.63428232e-01, 1.27319977e-01, 1.11010760e-01, 1.21979877e-01,
          1.76331639e-01, 2.04649121e-01, 2.03345597e-01, 2.04649121e-01,
          2.04649121e-01, 2.04649121e-01, 1.74244404e-01, 1.13926038e-01,
          1.24339625e-01, 1.10899426e-01, 1.24961898e-01, 1.09235972e-01,
          1.31111756e-01, 1.77959934e-01, 2.06482321e-01, 2.06482321e-01,
          1.36196375e-01, 1.82725728e-01, 1.61851913e-01, 1.74801067e-01,
          1.51124254e-01, 1.43300265e-01, 1.87814206e-01, 2.06482321e-01,
          1.87195018e-01, 1.50676161e-01, 1.66857600e-01, 2.06482321e-01,
          1.71629116e-01, 1.40029356e-01, 1.40770227e-01, 1.53754234e-01,
          2.06482321e-01, 1.79077506e-01, 1.21234618e-01, 2.06482321e-01,
          2.06482321e-01, 2.06482321e-01, 1.73621312e-01, 1.33186847e-01,
          1.33762151e-01, 1.75468758e-01, 1.43494621e-01, 1.52715981e-01,
          1.07885823e-01, 9.20149237e-02, 1.02407254e-01, 9.67524499e-02,
          1.68212175e-01, 1.97895646e-01, 2.25541994e-01, 2.25541994e-01,
          1.25250116e-01, 1.32405803e-01, 1.28685296e-01, 1.29977509e-01,
          1.00071266e-01, 2.15065390e-01, 2.25541994e-01, 2.25541994e-01,
          2.25541994e-01, 1.58324301e-01, 2.11029053e-01, 1.92806065e-01,
          1.34942576e-01, 9.05717164e-02, 1.25523821e-01, 9.89278927e-02,
          8.43521357e-02, 8.82581547e-02, 1.25874743e-01, 2.17248157e-01,
          2.25541994e-01, 2.25541994e-01, 1.65710956e-01, 2.25541994e-01,
          1.90251559e-01, 1.63616449e-01, 1.24739937e-01, 1.33332953e-01,
          1.08518742e-01, 1.37533680e-01, 1.67142600e-01, 1.29739419e-01,
          1.24612466e-01, 1.53165296e-01, 1.70298383e-01, 1.29156485e-01,
          1.11244783e-01, 1.87603086e-01, 2.05358505e-01, 2.05358505e-01,
          2.05358505e-01, 1.83813423e-01, 1.63864419e-01, 1.99029282e-01,
          1.76000953e-01, 1.56247571e-01, 1.19953744e-01, 1.35902122e-01,
          1.90308124e-01, 1.52072772e-01, 1.49623752e-01, 1.43678874e-01,
          1.47089720e-01, 1.04054376e-01, 9.88692194e-02, 2.05358505e-01,
          2.05358505e-01, 1.98226690e-01, 1.93044499e-01, 1.63898543e-01,
          1.31149977e-01, 2.05358505e-01, 2.05358505e-01, 2.03239411e-01,
          2.16370389e-01, 2.16370389e-01, 2.16370389e-01, 1.48356855e-01,
          1.21614620e-01, 9.85245183e-02, 1.27992377e-01, 1.20454364e-01,
          1.59269437e-01, 2.16370389e-01, 2.16370389e-01, 2.16370389e-01,
          1.29324615e-01, 9.37575623e-02, 8.01917017e-02, 1.04343638e-01,
          8.52935612e-02, 1.53315440e-01, 2.05743209e-01, 1.97761595e-01,
          1.71188682e-01, 1.58349112e-01, 1.46499231e-01, 1.09576322e-01,
          1.61000401e-01, 1.85445175e-01, 2.04679430e-01, 2.16370389e-01,
          2.16370389e-01, 1.78385347e-01, 1.23195350e-01, 1.23477682e-01,
          1.21969111e-01, 1.68059900e-01, 1.64486900e-01, 2.07397103e-01,
          2.67530292e-01, 2.67530292e-01, 1.13900818e-01, 5.84028959e-02,
          4.70127836e-02, 4.43382710e-02, 5.32312132e-02, 1.02836065e-01,
          1.71616539e-01, 2.37879962e-01, 2.67530292e-01, 2.67530292e-01,
          1.38403371e-01, 1.15338095e-01, 7.12675154e-02, 5.09732068e-02,
          6.81742057e-02, 1.14096798e-01, 2.67530292e-01, 2.67530292e-01,
          1.67271838e-01, 7.99926519e-02, 7.94110745e-02, 7.79867321e-02,
          9.33040977e-02, 1.33131132e-01, 1.70011550e-01, 2.67530292e-01,
          2.67530292e-01, 2.67530292e-01, 1.17404804e-01, 1.30983025e-01,
          1.10902213e-01, 6.63661584e-02, 9.10562724e-02, 1.31639838e-01,
          1.18374944e-01, 1.95716321e-01, 2.12397441e-01, 1.93636537e-01,
          1.17870770e-01, 8.87456164e-02, 9.16976035e-02, 9.99508649e-02,
          9.29231346e-02, 1.97278216e-01, 2.03611061e-01, 2.12397441e-01,
          2.09091336e-01, 1.35784686e-01, 1.16520412e-01, 1.80941075e-01,
          1.92389265e-01, 1.93173215e-01, 1.76828802e-01, 2.12397441e-01,
          2.12397441e-01, 1.63788080e-01, 1.39776573e-01, 9.50806811e-02,
          6.68197274e-02, 1.12204790e-01, 1.19908683e-01, 1.80284843e-01,
          1.89927891e-01, 2.12397441e-01, 2.12397441e-01, 1.41310140e-01,
          9.04145390e-02, 1.42678797e-01, 2.12397441e-01, 2.12397441e-01,
          1.66142195e-01, 1.63947642e-01, 1.47357672e-01, 1.62077621e-01,
          1.41827911e-01, 1.12075351e-01, 1.67692378e-01, 1.86952963e-01,
          2.07704335e-01, 2.15485767e-01, 1.65581450e-01, 1.39615700e-01,
          1.31872982e-01, 1.35094017e-01, 1.11997530e-01, 1.70826524e-01,
          2.15485767e-01, 2.15485767e-01, 1.28259525e-01, 1.60700783e-01,
          1.51036605e-01, 1.54477522e-01, 1.04450449e-01, 7.27520734e-02,
          1.75192341e-01, 2.15485767e-01, 2.15485767e-01, 1.81476608e-01,
          1.74986824e-01, 1.76290482e-01, 1.63829476e-01, 1.10964835e-01,
          8.50466117e-02, 1.74104705e-01, 2.15485767e-01, 2.15485767e-01 ]
      - [ 1.67253122e-01, 2.13492379e-01, 1.64395064e-01, 8.80374908e-02,
          8.62756670e-02, 1.26517519e-01, 1.56670719e-01, 1.19341195e-01,
          1.09268010e-01, 1.93257302e-01, 1.98386043e-01, 1.99694157e-01,
          1.75540552e-01, 1.57073513e-01, 1.61807865e-01, 1.67026594e-01,
          1.72054276e-01, 1.49587855e-01, 2.13492379e-01, 1.80219591e-01,
          1.03235625e-01, 6.75030649e-02, 7.72320181e-02, 1.37037188e-01,
          1.86661303e-01, 1.76040202e-01, 2.13492379e-01, 2.13492379e-01,
          2.07573116e-01, 1.55341819e-01, 1.18549004e-01, 1.08797342e-01,
          1.82940498e-01, 2.13492379e-01, 2.10927933e-01, 2.13492379e-01,
          2.04204679e-01, 2.04204679e-01, 1.83190495e-01, 1.67268753e-01,
          1.58408001e-01, 1.21986859e-01, 1.30671546e-01, 1.71675667e-01,
          1.60125837e-01, 1.72778323e-01, 1.90260693e-01, 2.04204679e-01,
          2.04204679e-01, 2.04204679e-01, 1.86409876e-01, 1.30115449e-01,
          1.27917916e-01, 1.48684561e-01, 2.01426655e-01, 1.66839406e-01,
          1.34437814e-01, 1.08273089e-01, 1.16590545e-01, 1.23650648e-01,
          1.34044081e-01, 1.47305712e-01, 1.71761870e-01, 2.03933373e-01,
          1.64066359e-01, 1.65635303e-01, 1.48447216e-01, 1.88736230e-01,
          1.51391506e-01, 1.29507586e-01, 1.70758843e-01, 2.02126995e-01,
          1.26983330e-01, 1.76341861e-01, 2.03967005e-01, 1.98229268e-01,
          1.85090333e-01, 1.68382406e-01, 1.10210747e-01, 1.10880658e-01,
          1.19906612e-01, 1.58471674e-01, 1.78051487e-01, 1.94704354e-01,
          1.64561018e-01, 1.65002570e-01, 1.55435249e-01, 1.22220568e-01,
          1.22712605e-01, 1.25919819e-01, 2.03967005e-01, 2.03967005e-01,
          2.03967005e-01, 1.37633890e-01, 1.40148029e-01, 1.39207810e-01,
          1.28064498e-01, 1.54535562e-01, 1.87881514e-01, 2.03967005e-01,
          2.03967005e-01, 1.98075652e-01, 1.79851905e-01, 1.73086554e-01,
          1.61912903e-01, 1.54530928e-01, 1.62165537e-01, 1.72856510e-01,
          2.13825345e-01, 2.04772115e-01, 1.29320189e-01, 8.65423232e-02,
          9.19985250e-02, 9.98708531e-02, 1.40228152e-01, 1.98543966e-01,
          2.13825345e-01, 2.13825345e-01, 1.85326308e-01, 1.23716608e-01,
          1.04580708e-01, 1.00844838e-01, 1.22777224e-01, 1.64841339e-01,
          1.83489457e-01, 2.13825345e-01, 2.13825345e-01, 2.13825345e-01,
          1.84416637e-01, 1.27227560e-01, 1.21619344e-01, 1.42778516e-01,
          1.68202400e-01, 2.13291720e-01, 2.13825345e-01, 1.58029959e-01,
          1.53033331e-01, 1.12559088e-01, 1.04347616e-01, 1.26404807e-01,
          1.67786941e-01, 2.02629551e-01, 2.07017750e-01, 1.68281496e-01,
          1.82761103e-01, 1.31765455e-01, 1.14717036e-01, 1.12353943e-01,
          1.14357412e-01, 1.21456176e-01, 1.41969234e-01, 1.89404383e-01,
          1.96764693e-01, 1.93603680e-01, 1.34814516e-01, 1.14547856e-01,
          1.36696488e-01, 1.70249388e-01, 2.07889155e-01, 2.05524415e-01,
          2.07889155e-01, 2.07889155e-01, 2.04758212e-01, 1.36686817e-01,
          9.80820283e-02, 1.06655538e-01, 1.35602728e-01, 1.75803855e-01,
          2.07833424e-01, 2.07889155e-01, 2.07889155e-01, 1.48966759e-01,
          1.15672141e-01, 1.15114078e-01, 1.40994489e-01, 1.52256548e-01,
          1.91803038e-01, 1.89307168e-01, 2.07889155e-01, 2.05424249e-01,
          1.69116452e-01, 1.42253920e-01, 1.29922166e-01, 1.54994234e-01,
          1.52758285e-01, 1.82101682e-01, 1.64632633e-01, 1.59065515e-01,
          1.58193901e-01, 1.92880601e-01, 1.79577202e-01, 1.81771219e-01,
          2.02249214e-01, 1.73752189e-01, 1.55368641e-01, 1.56791702e-01,
          1.70879781e-01, 1.67177930e-01, 8.71613771e-02, 7.73516297e-02,
          1.06196798e-01, 1.74513206e-01, 1.81168824e-01, 2.00807393e-01,
          1.73638925e-01, 1.43690988e-01, 1.24490842e-01, 1.63112178e-01,
          1.44122362e-01, 1.67946026e-01, 2.02249214e-01, 1.81858212e-01,
          1.83857858e-01, 1.90790281e-01, 2.02249214e-01, 1.98571354e-01,
          1.86774015e-01, 1.79112270e-01, 1.70480639e-01, 1.15709610e-01,
          1.22347653e-01, 1.50134936e-01, 2.05618456e-01, 2.16226220e-01,
          2.16226220e-01, 1.49320275e-01, 1.62677720e-01, 1.38058752e-01,
          9.05237347e-02, 1.07377037e-01, 1.49137959e-01, 1.74207211e-01,
          1.99992746e-01, 1.77592233e-01, 1.96406215e-01, 1.90723211e-01,
          1.44144386e-01, 1.17540076e-01, 1.22603796e-01, 1.43772259e-01,
          2.16226220e-01, 2.16226220e-01, 2.16226220e-01, 2.01876357e-01,
          2.16226220e-01, 1.64170191e-01, 8.89184773e-02, 8.63592401e-02,
          9.73890200e-02, 1.10083930e-01, 1.76048443e-01, 1.88482195e-01,
          2.20782161e-01, 1.98636159e-01, 1.29092529e-01, 8.02553147e-02,
          1.02700636e-01, 1.55871421e-01, 1.59639373e-01, 1.78664565e-01,
          2.13824913e-01, 2.05686465e-01, 1.66259333e-01, 1.46890283e-01,
          1.13507420e-01, 1.09390184e-01, 1.41744509e-01, 1.75718963e-01,
          1.55365512e-01, 2.05309466e-01, 2.20782161e-01, 2.20782161e-01,
          1.93390921e-01, 9.46051851e-02, 8.07201564e-02, 1.00935787e-01,
          8.35936069e-02, 9.05677527e-02, 1.58446327e-01, 2.20782161e-01,
          2.20782161e-01, 2.20782161e-01, 1.77627236e-01, 1.28130674e-01,
          1.50429100e-01, 2.20782161e-01, 1.46021068e-01, 1.64752066e-01,
          8.58145505e-02, 9.63953659e-02, 1.31081074e-01, 1.55035570e-01,
          1.39789984e-01, 1.53267950e-01, 1.84210137e-01, 1.36005759e-01,
          1.14646547e-01, 1.31013274e-01, 1.15752183e-01, 1.49493024e-01,
          1.92860767e-01, 1.48176298e-01, 1.55895337e-01, 2.09484339e-01,
          2.09484339e-01, 1.98422089e-01, 1.63912177e-01, 1.99304253e-01,
          2.09484339e-01, 1.73011377e-01, 1.22419894e-01, 1.40158325e-01,
          2.09484339e-01, 1.58880472e-01, 1.21670477e-01, 2.05763012e-01,
          1.69374779e-01, 2.08469927e-01, 1.71057880e-01, 1.10135928e-01,
          1.46372259e-01, 2.09484339e-01, 2.09484339e-01, 2.09484339e-01 ]
      - [ 7.71873742e-02, 9.73338932e-02, 9.99287963e-02, 1.48203447e-01,
          2.19869971e-01, 2.19869971e-01, 2.19869971e-01, 1.45656928e-01,
          8.20479468e-02, 9.56113860e-02, 1.42344207e-01, 1.32902429e-01,
          1.43178165e-01, 2.15975761e-01, 2.19869971e-01, 2.19869971e-01,
          1.69302478e-01, 7.47796893e-02, 1.28449008e-01, 1.67715192e-01,
          1.14126384e-01, 1.56636804e-01, 2.19869971e-01, 2.19869971e-01,
          2.19869971e-01, 1.25893682e-01, 9.55892354e-02, 1.31252810e-01,
          2.19869971e-01, 2.19869971e-01, 1.75851494e-01, 2.00688660e-01,
          2.02960119e-01, 1.89572155e-01, 1.06456362e-01, 8.07046220e-02,
          1.73783615e-01, 2.26688072e-01, 2.26688072e-01, 2.13928133e-01,
          2.21686304e-01, 2.26688072e-01, 2.26688072e-01, 1.74837857e-01,
          1.24390297e-01, 2.26688072e-01, 2.26688072e-01, 2.26688072e-01,
          1.71122402e-01, 1.19500585e-01, 9.63183343e-02, 1.00598529e-01,
          9.19554010e-02, 1.44369051e-01, 9.37625393e-02, 2.09344983e-01,
          2.26688072e-01, 2.21586898e-01, 1.49141490e-01, 1.46327406e-01,
          1.08402982e-01, 8.34861174e-02, 6.75384477e-02, 7.80382156e-02,
          1.68575093e-01, 2.26688072e-01, 2.26688072e-01, 1.01743914e-01,
          5.33766299e-02, 3.74186635e-02, 3.24641950e-02, 4.03886661e-02,
          1.67184100e-01, 2.21563697e-01, 2.21563697e-01, 2.13214219e-01,
          1.92102313e-01, 9.63644907e-02, 9.20424163e-02, 9.04827565e-02,
          1.36202961e-01, 1.42781347e-01, 1.24186300e-01, 1.70638680e-01,
          2.21563697e-01, 2.21563697e-01, 1.95453703e-01, 2.01704308e-01,
          1.72702029e-01, 1.59304529e-01, 6.68215975e-02, 1.38431817e-01,
          2.21563697e-01, 2.21563697e-01, 2.09345862e-01, 9.82666239e-02,
          6.01282306e-02, 4.90691364e-02, 5.30847497e-02, 1.10891074e-01,
          1.39285043e-01, 1.76232055e-01, 2.21563697e-01, 2.21563697e-01,
          2.21563697e-01, 1.66265488e-01, 1.20180488e-01, 1.06534921e-01,
          1.37116879e-01, 1.77452371e-01, 1.92148834e-01, 2.12682992e-01,
          2.12682992e-01, 2.12682992e-01, 2.12682992e-01, 1.49473011e-01,
          1.06695883e-01, 1.17137045e-01, 2.08240911e-01, 2.12682992e-01,
          2.12682992e-01, 2.12682992e-01, 1.24763809e-01, 1.03968270e-01,
          8.50005969e-02, 7.77188689e-02, 1.11266740e-01, 1.49040088e-01,
          2.12682992e-01, 2.12682992e-01, 2.12682992e-01, 2.12682992e-01,
          1.64064258e-01, 1.51285961e-01, 1.08940035e-01, 7.36755952e-02,
          9.74176526e-02, 1.93740427e-01, 2.12682992e-01, 1.99444562e-01,
          1.32159442e-01, 1.04521401e-01, 1.15805119e-01, 8.42778310e-02,
          9.16666612e-02, 2.01476172e-01, 2.39904046e-01, 2.39904046e-01,
          2.39904046e-01, 1.35161698e-01, 7.14203492e-02, 5.68002500e-02,
          5.95433153e-02, 7.99687430e-02, 1.28672034e-01, 2.39904046e-01,
          2.39904046e-01, 2.39904046e-01, 1.10819124e-01, 6.91302046e-02,
          5.94059117e-02, 5.90511151e-02, 9.46357399e-02, 9.85132381e-02,
          1.76081002e-01, 2.39904046e-01, 2.39904046e-01, 1.80379331e-01,
          1.64222896e-01, 1.89705819e-01, 1.36524841e-01, 1.00993253e-01,
          1.33603722e-01, 1.54027000e-01, 2.39904046e-01, 2.39904046e-01,
          1.72135547e-01, 1.41038015e-01, 1.36255592e-01, 1.10627569e-01,
          5.51481284e-02, 8.18338096e-02, 1.27617538e-01, 2.52059758e-01,
          2.52059758e-01, 1.13684192e-01, 7.36761615e-02, 5.89320883e-02,
          5.13255671e-02, 8.59116688e-02, 1.14895999e-01, 1.45730168e-01,
          2.52059758e-01, 2.52059758e-01, 2.52059758e-01, 2.29274467e-01,
          1.16707414e-01, 7.65383095e-02, 6.32034019e-02, 8.84625241e-02,
          9.16078612e-02, 2.47410968e-01, 2.52059758e-01, 1.18880510e-01,
          7.47135729e-02, 7.47968778e-02, 6.37750179e-02, 9.95712876e-02,
          9.99462232e-02, 1.14443265e-01, 2.52059758e-01, 2.52059758e-01,
          2.52059758e-01, 2.52059758e-01, 2.09673300e-01, 1.00132033e-01,
          1.53521061e-01, 2.16985345e-01, 1.95791602e-01, 2.06382051e-01,
          1.94567084e-01, 1.79045618e-01, 1.56743020e-01, 1.55632153e-01,
          1.47910073e-01, 6.57426417e-02, 8.23702589e-02, 1.40321672e-01,
          1.84225917e-01, 1.70699716e-01, 1.68076083e-01, 1.76842511e-01,
          1.68816879e-01, 1.03368275e-01, 2.16985345e-01, 2.16985345e-01,
          1.66575730e-01, 1.39197066e-01, 1.01070851e-01, 1.11595176e-01,
          1.35924861e-01, 1.35728762e-01, 1.57967389e-01, 2.00579554e-01,
          1.81674868e-01, 1.20432965e-01, 1.34100914e-01, 1.49113342e-01,
          1.85033455e-01, 2.16985345e-01, 2.12907985e-01, 1.80750936e-01,
          8.63403305e-02, 7.06715435e-02, 9.61310565e-02, 1.29058793e-01,
          1.41365811e-01, 1.40948296e-01, 2.16024637e-01, 2.16024637e-01,
          1.63111091e-01, 1.00830398e-01, 1.22048408e-01, 1.01566583e-01,
          1.24988534e-01, 1.42288283e-01, 1.16477586e-01, 1.63830668e-01,
          1.74614772e-01, 1.24675706e-01, 1.96280941e-01, 1.70285985e-01,
          1.24700986e-01, 1.35067344e-01, 1.65497243e-01, 2.16024637e-01,
          2.16024637e-01, 2.16024637e-01, 2.16024637e-01, 2.03299314e-01,
          2.16024637e-01, 1.88435450e-01, 1.58585981e-01, 1.86828539e-01,
          2.16024637e-01, 2.10497379e-01, 1.63801670e-01, 1.58989251e-01,
          7.60625377e-02, 1.13477886e-01, 1.13360621e-01, 1.91888839e-01,
          2.16279268e-01, 1.04548201e-01, 8.68586153e-02, 8.29396322e-02,
          6.26890287e-02, 1.33678421e-01, 1.38539821e-01, 1.37970820e-01,
          2.16279268e-01, 2.16279268e-01, 2.16279268e-01, 1.80872574e-01,
          1.61523134e-01, 1.22307561e-01, 1.33792445e-01, 1.84646130e-01,
          1.62240148e-01, 2.12957203e-01, 2.16279268e-01, 2.07072392e-01,
          1.43514514e-01, 8.81658271e-02, 9.54988673e-02, 1.89498708e-01,
          1.71226740e-01, 1.78103730e-01, 2.16279268e-01, 2.16279268e-01,
          2.16279268e-01, 1.63012221e-01, 1.47676602e-01, 2.16279268e-01 ]
      - [ 1.31827429e-01, 1.30371004e-01, 9.78260711e-02, 1.07946292e-01,
          2.12852389e-01, 2.17317104e-01, 2.17317104e-01, 2.17317104e-01,
          2.04527840e-01, 1.06384099e-01, 7.99727440e-02, 5.77576570e-02,
          7.30447099e-02, 1.63787350e-01, 2.17317104e-01, 1.96079910e-01,
          2.14791656e-01, 1.99936658e-01, 1.64479673e-01, 1.28754735e-01,
          1.20406173e-01, 1.22448198e-01, 1.61917582e-01, 2.17317104e-01,
          2.01947525e-01, 2.11033806e-01, 2.17317104e-01, 1.56517699e-01,
          1.00344688e-01, 9.84131694e-02, 8.94422755e-02, 1.01941660e-01,
          1.66661531e-01, 1.56309232e-01, 2.17317104e-01, 2.17317104e-01,
          1.03470512e-01, 1.01806380e-01, 8.34947973e-02, 8.37952644e-02,
          1.48278669e-01, 2.16322526e-01, 2.16322526e-01, 2.12949768e-01,
          1.59102291e-01, 1.31052345e-01, 1.60979405e-01, 1.24328218e-01,
          1.38712078e-01, 2.16322526e-01, 2.16322526e-01, 2.16322526e-01,
          2.16322526e-01, 2.01823592e-01, 1.50410354e-01, 1.21344395e-01,
          1.01124875e-01, 9.70890075e-02, 1.25565991e-01, 1.30670041e-01,
          1.95569575e-01, 2.16322526e-01, 2.16322526e-01, 1.67167515e-01,
          1.92857444e-01, 1.34332106e-01, 1.15314506e-01, 1.93779081e-01,
          1.50851712e-01, 1.35472968e-01, 1.91945747e-01, 1.92793250e-01,
          1.95227981e-01, 1.49447143e-01, 1.00434907e-01, 1.06808148e-01,
          1.92963481e-01, 2.04445675e-01, 1.83320761e-01, 2.29515359e-01,
          2.29515359e-01, 1.86976030e-01, 9.66391489e-02, 7.32357427e-02,
          8.66838098e-02, 1.23211719e-01, 2.01380700e-01, 1.83586225e-01,
          2.29515359e-01, 2.29515359e-01, 1.51465848e-01, 1.41411006e-01,
          9.95178819e-02, 8.19825605e-02, 1.21663906e-01, 1.47641331e-01,
          1.26687229e-01, 1.64436191e-01, 1.68209225e-01, 1.65722862e-01,
          1.11867264e-01, 9.59511548e-02, 9.39301252e-02, 1.04167141e-01,
          2.26627976e-01, 2.29515359e-01, 2.29515359e-01, 2.29515359e-01,
          1.30124718e-01, 8.21057260e-02, 1.21549755e-01, 1.27206177e-01,
          1.11547634e-01, 1.46225721e-01, 2.18193561e-01, 2.28989169e-01,
          2.30019435e-01, 1.44756362e-01, 7.31469542e-02, 7.80598894e-02,
          7.51893669e-02, 6.69771507e-02, 9.85540822e-02, 1.91650063e-01,
          2.30019435e-01, 2.30019435e-01, 1.89695731e-01, 1.55056149e-01,
          2.12216809e-01, 1.79352432e-01, 1.10133134e-01, 1.55824795e-01,
          2.00195268e-01, 1.89567983e-01, 2.30019435e-01, 2.21275374e-01,
          1.12486556e-01, 6.81028441e-02, 7.81818181e-02, 9.17508230e-02,
          1.39354914e-01, 2.30019435e-01, 2.30019435e-01, 2.30019435e-01,
          1.36312574e-01, 9.61219668e-02, 8.56695995e-02, 1.22864783e-01,
          1.27800837e-01, 1.09714784e-01, 1.78334683e-01, 2.22706199e-01,
          2.22706199e-01, 1.50300995e-01, 1.09151863e-01, 6.93710074e-02,
          8.49814191e-02, 1.14006221e-01, 9.73769650e-02, 1.13002211e-01,
          2.19015941e-01, 2.21982136e-01, 2.22706199e-01, 1.90763324e-01,
          1.05790950e-01, 1.32471964e-01, 1.47919863e-01, 2.05211833e-01,
          2.21326247e-01, 2.22706199e-01, 2.22706199e-01, 2.22706199e-01,
          1.64485782e-01, 1.15777746e-01, 1.16707191e-01, 1.03956513e-01,
          1.77096367e-01, 1.92792937e-01, 2.22706199e-01, 2.22706199e-01,
          1.33558035e-01, 7.49879405e-02, 5.20825274e-02, 4.68936078e-02,
          8.60449076e-02, 1.41528949e-01, 1.75351202e-01, 2.18285203e-01,
          1.96451455e-01, 2.15791151e-01, 1.52344510e-01, 1.30027026e-01,
          1.55428424e-01, 1.59381613e-01, 2.18285203e-01, 2.18285203e-01,
          2.18285203e-01, 1.89727277e-01, 2.01784164e-01, 9.12119225e-02,
          6.84182867e-02, 5.73448502e-02, 7.57610798e-02, 1.66987419e-01,
          2.07165092e-01, 2.18285203e-01, 2.18285203e-01, 2.06247419e-01,
          1.24085255e-01, 9.51197967e-02, 1.12610713e-01, 1.23077460e-01,
          2.07932115e-01, 2.18285203e-01, 2.18285203e-01, 2.18285203e-01,
          2.15356350e-01, 1.85691476e-01, 1.52213246e-01, 1.47633955e-01,
          1.38377383e-01, 2.00473651e-01, 1.89126953e-01, 1.59862548e-01,
          2.15356350e-01, 2.15356350e-01, 1.66628510e-01, 9.26310718e-02,
          7.27397576e-02, 8.08913782e-02, 1.14846036e-01, 1.58740476e-01,
          2.15356350e-01, 2.15356350e-01, 2.03113809e-01, 1.56817257e-01,
          1.11926705e-01, 1.01051129e-01, 1.26144618e-01, 1.51243016e-01,
          1.82811573e-01, 1.93390071e-01, 2.15356350e-01, 2.15356350e-01,
          1.70365259e-01, 1.20760247e-01, 8.16535428e-02, 8.31257850e-02,
          1.05855145e-01, 1.64872393e-01, 2.15356350e-01, 2.15356350e-01,
          2.08671957e-01, 2.08671957e-01, 1.43940642e-01, 1.12656422e-01,
          1.06674790e-01, 1.65931538e-01, 1.47612154e-01, 1.68893307e-01,
          2.08671957e-01, 2.08671957e-01, 1.60456404e-01, 1.41871110e-01,
          1.31496325e-01, 1.11810356e-01, 1.81536674e-01, 1.65752351e-01,
          1.47812471e-01, 1.90578178e-01, 1.98601723e-01, 1.73123807e-01,
          1.79557800e-01, 1.48803934e-01, 1.29255161e-01, 1.43016756e-01,
          1.73274085e-01, 1.86183721e-01, 1.85527608e-01, 2.02379003e-01,
          1.71715125e-01, 1.55273110e-01, 1.55458868e-01, 1.38332307e-01,
          1.52217656e-01, 1.53969556e-01, 1.62659883e-01, 1.88620284e-01,
          2.01948434e-01, 1.05810523e-01, 1.06099539e-01, 9.13611352e-02,
          7.88536742e-02, 1.42395198e-01, 1.58732146e-01, 1.63827717e-01,
          1.97698861e-01, 1.68720350e-01, 9.68916267e-02, 1.00279883e-01,
          8.08131471e-02, 8.09244588e-02, 1.47613898e-01, 2.09208593e-01,
          2.09208593e-01, 2.09208593e-01, 2.02735543e-01, 2.09208593e-01,
          1.52562290e-01, 1.32822528e-01, 1.08066782e-01, 1.68068856e-01,
          1.76443964e-01, 2.07884997e-01, 2.03804076e-01, 1.64265484e-01,
          1.64358139e-01, 1.68585867e-01, 1.57685533e-01, 1.89960197e-01,
          2.09208593e-01, 2.09208593e-01, 2.09208593e-01, 1.95849881e-01 ]
      - [ 1.73540100e-01, 1.26609266e-01, 1.18732251e-01, 1.32361308e-01,
          1.76422685e-01, 1.70903519e-01, 2.05836564e-01, 2.05836564e-01,
          1.69191703e-01, 1.75108805e-01, 2.04659954e-01, 2.05836564e-01,
          2.05836564e-01, 1.59691930e-01, 1.20997660e-01, 1.14148438e-01,
          1.20292895e-01, 1.13669850e-01, 1.09499708e-01, 9.99601483e-02,
          1.38347462e-01, 1.94837525e-01, 1.93381861e-01, 1.79573849e-01,
          2.05836564e-01, 2.05836564e-01, 1.66336268e-01, 1.19244620e-01,
          1.30662695e-01, 1.50019363e-01, 2.05836564e-01, 2.05836564e-01,
          2.05836564e-01, 1.75283253e-01, 1.49466068e-01, 1.16334386e-01,
          1.73768386e-01, 2.13894442e-01, 2.13894442e-01, 1.73479393e-01,
          1.05444752e-01, 1.04112625e-01, 1.53457627e-01, 1.32578224e-01,
          1.28096893e-01, 1.45498410e-01, 1.86556131e-01, 2.07095355e-01,
          1.41379714e-01, 1.23445883e-01, 1.98900759e-01, 2.13894442e-01,
          2.13894442e-01, 1.73838645e-01, 1.26651973e-01, 1.16905548e-01,
          1.18574835e-01, 1.21445447e-01, 1.76205635e-01, 2.13894442e-01,
          1.90255418e-01, 1.34008229e-01, 1.26457423e-01, 1.46919668e-01,
          1.41864941e-01, 1.44906789e-01, 1.38527766e-01, 1.76212519e-01,
          2.13894442e-01, 2.13894442e-01, 1.71850666e-01, 1.78208724e-01,
          1.11474536e-01, 1.53972074e-01, 1.44149870e-01, 1.42732844e-01,
          1.53936103e-01, 1.93978325e-01, 2.07321316e-01, 1.62568659e-01,
          1.36869743e-01, 1.37441903e-01, 1.77191138e-01, 1.57939166e-01,
          1.39921606e-01, 2.07321316e-01, 2.07321316e-01, 1.93383202e-01,
          1.18333951e-01, 1.15329310e-01, 1.38140932e-01, 1.67779759e-01,
          1.46006763e-01, 1.50316611e-01, 1.65782481e-01, 1.63915142e-01,
          1.89638972e-01, 1.62575766e-01, 1.71827510e-01, 1.46451846e-01,
          1.62288249e-01, 1.35665953e-01, 1.71468854e-01, 2.07321316e-01,
          2.07321316e-01, 2.03406155e-01, 1.82196170e-01, 1.79322243e-01,
          1.32899985e-01, 1.03371754e-01, 1.13588087e-01, 1.65411964e-01,
          1.67323858e-01, 2.15870097e-01, 2.27945402e-01, 2.27945402e-01,
          1.95811212e-01, 8.84180143e-02, 8.28075260e-02, 1.10010251e-01,
          1.80522919e-01, 2.27945402e-01, 2.27945402e-01, 2.27945402e-01,
          1.56677172e-01, 1.06006652e-01, 9.00364667e-02, 5.83806820e-02,
          5.40376827e-02, 7.83481896e-02, 1.40065908e-01, 2.27945402e-01,
          2.27945402e-01, 2.22034454e-01, 1.65688694e-01, 6.70795813e-02,
          6.41676113e-02, 7.41202086e-02, 1.19932413e-01, 1.96681708e-01,
          2.27945402e-01, 2.27945402e-01, 2.27945402e-01, 1.31556123e-01,
          1.10657692e-01, 9.42880139e-02, 1.03094198e-01, 1.53760508e-01,
          2.22439051e-01, 2.22439051e-01, 2.22439051e-01, 1.35526761e-01,
          1.15240976e-01, 1.78969279e-01, 1.73030600e-01, 1.62505150e-01,
          1.52273804e-01, 1.90968290e-01, 2.04249591e-01, 2.22439051e-01,
          2.22439051e-01, 2.21101478e-01, 5.86463474e-02, 6.42790124e-02,
          8.19343626e-02, 1.47231296e-01, 2.10670516e-01, 2.22439051e-01,
          2.22439051e-01, 2.22439051e-01, 1.09071106e-01, 8.57308507e-02,
          1.06836796e-01, 1.86804026e-01, 1.84528768e-01, 1.37367412e-01,
          1.19188555e-01, 1.69277072e-01, 1.57585576e-01, 9.86809731e-02,
          1.03312187e-01, 1.48244202e-01, 1.40608802e-01, 1.12546213e-01,
          1.24262795e-01, 1.30221769e-01, 1.95126712e-01, 1.91079721e-01,
          1.44541174e-01, 1.42210558e-01, 2.10836515e-01, 2.10836515e-01,
          1.91290379e-01, 2.10836515e-01, 1.98614031e-01, 2.10836515e-01,
          1.95739195e-01, 1.58924177e-01, 7.63458163e-02, 1.29871055e-01,
          2.10836515e-01, 1.38403058e-01, 1.13230608e-01, 1.26664311e-01,
          1.81846052e-01, 1.40436828e-01, 7.98534453e-02, 1.10460825e-01,
          2.10836515e-01, 2.10836515e-01, 1.93005368e-01, 1.68127850e-01,
          2.10836515e-01, 2.10836515e-01, 1.63584411e-01, 1.03265770e-01,
          7.56392032e-02, 8.15377831e-02, 1.02224313e-01, 1.14217415e-01,
          1.83103383e-01, 2.06661329e-01, 1.45919338e-01, 1.21959031e-01,
          1.14945233e-01, 1.16132312e-01, 1.07239567e-01, 1.14279173e-01,
          1.60621420e-01, 2.24443540e-01, 2.24443540e-01, 2.24443540e-01,
          2.24443540e-01, 1.78361982e-01, 6.73201680e-02, 1.12717122e-01,
          2.24443540e-01, 2.24443540e-01, 1.86142102e-01, 1.27913252e-01,
          8.16461667e-02, 5.93808927e-02, 6.53186664e-02, 1.52835652e-01,
          1.30342260e-01, 1.95534214e-01, 2.24443540e-01, 2.24443540e-01,
          2.24443540e-01, 2.24443540e-01, 2.06105828e-01, 1.81937888e-01,
          8.01585764e-02, 6.28133416e-02, 6.24302886e-02, 9.77890790e-02,
          1.20452069e-01, 1.34464785e-01, 2.23252773e-01, 2.23252773e-01,
          1.78273499e-01, 9.24463123e-02, 1.02255583e-01, 1.85668096e-01,
          1.64254859e-01, 9.65398028e-02, 7.62866959e-02, 1.49665147e-01,
          2.23252773e-01, 1.74515992e-01, 1.27114281e-01, 9.85050872e-02,
          9.81844738e-02, 1.45423129e-01, 2.12956116e-01, 2.15576336e-01,
          2.23252773e-01, 2.23252773e-01, 2.20091030e-01, 1.26584783e-01,
          1.11691445e-01, 1.60505623e-01, 1.92575380e-01, 2.00342298e-01,
          1.84354156e-01, 2.23252773e-01, 2.23252773e-01, 2.23252773e-01,
          1.11847661e-01, 1.60447702e-01, 2.19075516e-01, 1.94571227e-01,
          8.71692821e-02, 1.02987289e-01, 1.76875591e-01, 1.54487073e-01,
          1.33526474e-01, 9.28419232e-02, 2.01068461e-01, 2.19075516e-01,
          1.87959462e-01, 1.15783192e-01, 1.68701619e-01, 2.19075516e-01,
          1.77136451e-01, 1.14999324e-01, 1.34533405e-01, 1.02348395e-01,
          1.71212867e-01, 1.73062682e-01, 1.26543716e-01, 1.30714118e-01,
          2.02857837e-01, 2.19075516e-01, 1.89523354e-01, 1.27000466e-01,
          1.38735816e-01, 1.88336730e-01, 1.58492342e-01, 1.45318016e-01,
          1.58912241e-01, 2.19075516e-01, 2.19075516e-01, 1.77080855e-01 ]
      - [ 1.29975826e-01, 1.26462266e-01, 1.36016726e-01, 1.29190460e-01,
          1.62966281e-01, 1.79051548e-01, 1.92055628e-01, 1.76480561e-01,
          1.52527392e-01, 1.58168659e-01, 1.83036104e-01, 1.98376372e-01,
          1.72409743e-01, 1.28663868e-01, 1.17549598e-01, 2.04899013e-01,
          2.10804388e-01, 1.85637742e-01, 1.28150821e-01, 1.15779795e-01,
          9.54243988e-02, 1.08483613e-01, 1.23995155e-01, 1.78181410e-01,
          2.10804388e-01, 2.10804388e-01, 1.50490686e-01, 2.04271242e-01,
          1.72530234e-01, 1.40219897e-01, 1.53402939e-01, 1.19529054e-01,
          1.79675043e-01, 2.10804388e-01, 2.10804388e-01, 2.03874543e-01,
          1.37036189e-01, 1.69620112e-01, 2.03283176e-01, 2.03742385e-01,
          1.96741447e-01, 1.38311610e-01, 1.34710833e-01, 1.50369599e-01,
          1.21106118e-01, 1.47476912e-01, 1.86394736e-01, 2.03742385e-01,
          1.97509229e-01, 1.65872321e-01, 1.31478503e-01, 1.17323771e-01,
          1.11151263e-01, 1.18567161e-01, 1.76116452e-01, 1.54877245e-01,
          1.59702167e-01, 2.03742385e-01, 1.95421398e-01, 1.94643572e-01,
          1.93054259e-01, 1.99473292e-01, 1.54514909e-01, 2.03138188e-01,
          1.83171928e-01, 1.62780002e-01, 1.61676213e-01, 1.57927245e-01,
          1.40158743e-01, 1.41348630e-01, 1.26054749e-01, 1.59334451e-01,
          2.04759032e-01, 1.67725533e-01, 2.07026213e-01, 1.32976562e-01,
          8.89277011e-02, 1.09502688e-01, 1.63064927e-01, 1.48247898e-01,
          2.17231750e-01, 2.17231750e-01, 1.76442459e-01, 1.46256968e-01,
          1.33664176e-01, 1.11627541e-01, 1.15588859e-01, 1.45174354e-01,
          1.57331914e-01, 2.17231750e-01, 2.17231750e-01, 2.12373272e-01,
          1.46726713e-01, 1.12190031e-01, 1.00473858e-01, 1.15999714e-01,
          1.78477466e-01, 1.39084637e-01, 2.17231750e-01, 2.17231750e-01,
          2.05843955e-01, 1.50333449e-01, 1.39493033e-01, 1.28821999e-01,
          1.38853997e-01, 1.83019549e-01, 1.63316578e-01, 1.97844848e-01,
          9.69344303e-02, 9.45928767e-02, 9.78112221e-02, 1.11343369e-01,
          1.22847803e-01, 1.79577634e-01, 2.07629681e-01, 2.07629681e-01,
          1.35262355e-01, 1.53220758e-01, 1.52606055e-01, 1.64868131e-01,
          1.76002041e-01, 1.31488085e-01, 1.88931704e-01, 2.07629681e-01,
          2.07629681e-01, 2.07629681e-01, 1.44171372e-01, 1.46098182e-01,
          1.79948658e-01, 1.61493048e-01, 1.28921285e-01, 1.36791587e-01,
          2.07629681e-01, 1.91995516e-01, 1.71763852e-01, 1.45724550e-01,
          1.50800899e-01, 2.07629681e-01, 1.73833400e-01, 1.60395086e-01,
          1.56363368e-01, 1.66776478e-01, 1.87098876e-01, 2.06934780e-01,
          1.27817094e-01, 1.31656244e-01, 1.81989163e-01, 2.05520391e-01,
          2.05520391e-01, 2.05520391e-01, 2.05520391e-01, 1.73909545e-01,
          1.60727337e-01, 1.68261677e-01, 1.26045153e-01, 1.13703951e-01,
          1.16370350e-01, 1.24672137e-01, 1.54831871e-01, 2.05520391e-01,
          1.66235059e-01, 1.58938780e-01, 1.30964011e-01, 1.19684659e-01,
          1.78014293e-01, 1.53841361e-01, 1.73199996e-01, 1.92061692e-01,
          2.05520391e-01, 1.96743086e-01, 1.73148379e-01, 1.32592678e-01,
          1.93107277e-01, 2.05520391e-01, 1.10374711e-01, 9.68489796e-02,
          1.36615857e-01, 2.05520391e-01, 1.99175656e-01, 1.30045772e-01,
          2.09609509e-01, 2.02524647e-01, 1.28406212e-01, 9.00642946e-02,
          1.01435125e-01, 1.05184942e-01, 1.78201705e-01, 1.72459543e-01,
          2.09609509e-01, 2.09609509e-01, 2.09609509e-01, 1.59052774e-01,
          1.25863388e-01, 1.38096660e-01, 1.28784731e-01, 1.67165637e-01,
